{"learner":{"attributes":{"scikit_learn":"{\"_estimator_type\": \"classifier\"}"},"feature_names":["Gender","Age","HasDrivingLicense","RegionID","Switch","VehicleAge","PastAccident","AnnualPremium","SalesChannelID","DaysSinceCreated"],"feature_types":["int","float","float","float","int","int","int","float","int","int"],"gradient_booster":{"model":{"gbtree_model_param":{"num_parallel_tree":"1","num_trees":"50"},"iteration_indptr":[0,1,2,3,4,5,6,7,8,9,10,11,12,13,14,15,16,17,18,19,20,21,22,23,24,25,26,27,28,29,30,31,32,33,34,35,36,37,38,39,40,41,42,43,44,45,46,47,48,49,50],"tree_info":[0,0,0,0,0,0,0,0,0,0,0,0,0,0,0,0,0,0,0,0,0,0,0,0,0,0,0,0,0,0,0,0,0,0,0,0,0,0,0,0,0,0,0,0,0,0,0,0,0,0],"trees":[{"base_weights":[1.8302347E-9,-1.8751717E0,3.1743386E-1,-1.9140438E0,-1.5097505E0,5.1949733E-1,-1.9664185E0,-1.8545264E-1,-1.9916442E-1,-7.0060484E-2,-1.8859552E-1,-5.75041E-2,7.325988E-2,-1.9692956E-1,-9.7657695E-2],"categories":[],"categories_nodes":[],"categories_segments":[],"categories_sizes":[],"default_left":[0,0,0,0,0,0,0,0,0,0,0,0,0,0,0],"id":0,"left_children":[1,3,5,7,9,11,13,-1,-1,-1,-1,-1,-1,-1,-1],"loss_changes":[2.0936482E4,6.944336E1,1.3882821E4,1.7546875E1,1.491571E2,6.446586E3,5.040039E0,0E0,0E0,0E0,0E0,0E0,0E0,0E0,0E0],"parents":[2147483647,0,0,1,1,2,2,3,3,4,4,5,5,6,6],"right_children":[2,4,6,8,10,12,14,-1,-1,-1,-1,-1,-1,-1,-1],"split_conditions":[1E0,1.54E2,1E0,1E0,1.58E2,2.8E1,1.63E2,-1.8545264E-1,-1.9916442E-1,-7.0060484E-2,-1.8859552E-1,-5.75041E-2,7.325988E-2,-1.9692956E-1,-9.7657695E-2],"split_indices":[6,8,4,4,8,1,8,0,0,0,0,0,0,0,0],"split_type":[0,0,0,0,0,0,0,0,0,0,0,0,0,0,0],"sum_hessian":[3.5171E4,5.0911616E3,3.0079838E4,4.597824E3,4.9333713E2,2.7635559E4,2.444279E3,2.6161829E3,1.9816416E3,1.5748302E2,3.358541E2,4.5033945E3,2.3132166E4,2.4362083E3,8.070822E0],"tree_param":{"num_deleted":"0","num_feature":"10","num_nodes":"15","size_leaf_vector":"1"}},{"base_weights":[-1.3284983E-4,-1.7034158E0,2.8620654E-1,-1.7391478E0,-1.3684392E0,4.6816128E-1,-1.7876999E0,-1.6840659E-1,-1.8110682E-1,-6.317844E-2,-1.7135775E-1,-5.1799346E-2,6.6025995E-2,-1.7903195E-1,-8.916429E-2],"categories":[],"categories_nodes":[],"categories_segments":[],"categories_sizes":[],"default_left":[0,0,0,0,0,0,0,0,0,0,0,0,0,0,0],"id":1,"left_children":[1,3,5,7,9,11,13,-1,-1,-1,-1,-1,-1,-1,-1],"loss_changes":[1.7104105E4,5.8029297E1,1.1330087E4,1.500293E1,1.2379761E2,5.2292046E3,4.0878906E0,0E0,0E0,0E0,0E0,0E0,0E0,0E0,0E0],"parents":[2147483647,0,0,1,1,2,2,3,3,4,4,5,5,6,6],"right_children":[2,4,6,8,10,12,14,-1,-1,-1,-1,-1,-1,-1,-1],"split_conditions":[1E0,1.54E2,1E0,1E0,1.58E2,2.8E1,1.63E2,-1.6840659E-1,-1.8110682E-1,-6.317844E-2,-1.7135775E-1,-5.1799346E-2,6.6025995E-2,-1.7903195E-1,-8.916429E-2],"split_indices":[6,8,4,4,8,1,8,0,0,0,0,0,0,0,0],"split_type":[0,0,0,0,0,0,0,0,0,0,0,0,0,0,0],"sum_hessian":[3.506773E4,5.0461113E3,3.0021621E4,4.5559365E3,4.901752E2,2.7600828E4,2.420792E3,2.5938167E3,1.9621196E3,1.5728993E2,3.3288528E2,4.4996733E3,2.3101154E4,2.4127405E3,8.05161E0],"tree_param":{"num_deleted":"0","num_feature":"10","num_nodes":"15","size_leaf_vector":"1"}},{"base_weights":[-4.8472924E-4,-1.5712514E0,2.5879E-1,-1.6053201E0,-1.2542043E0,4.228109E-1,-1.6524673E0,-1.5520178E-1,-1.67518E-1,-5.7091255E-2,-1.5808684E-1,-4.310381E-2,6.055171E-2,-1.6549602E-1,-8.1714E-2],"categories":[],"categories_nodes":[],"categories_segments":[],"categories_sizes":[],"default_left":[0,0,0,0,0,0,0,0,0,0,0,0,0,0,0],"id":2,"left_children":[1,3,5,7,9,11,13,-1,-1,-1,-1,-1,-1,-1,-1],"loss_changes":[1.4173492E4,5.124414E1,9.364973E3,1.3964844E1,1.069046E2,4.29212E3,3.5639648E0,0E0,0E0,0E0,0E0,0E0,0E0,0E0,0E0],"parents":[2147483647,0,0,1,1,2,2,3,3,4,4,5,5,6,6],"right_children":[2,4,6,8,10,12,14,-1,-1,-1,-1,-1,-1,-1,-1],"split_conditions":[1E0,1.54E2,1E0,1E0,1.58E2,2.9E1,1.63E2,-1.5520178E-1,-1.67518E-1,-5.7091255E-2,-1.5808684E-1,-4.310381E-2,6.055171E-2,-1.6549602E-1,-8.1714E-2],"split_indices":[6,8,4,4,8,1,8,0,0,0,0,0,0,0,0],"split_type":[0,0,0,0,0,0,0,0,0,0,0,0,0,0,0],"sum_hessian":[3.4800062E4,4.929651E3,2.9870412E4,4.4476587E3,4.8199207E2,2.7510303E4,2.3601096E3,2.5359648E3,1.9116941E3,1.5678615E2,3.2520593E2,4.8488047E3,2.2661498E4,2.352109E3,8.000807E0],"tree_param":{"num_deleted":"0","num_feature":"10","num_nodes":"15","size_leaf_vector":"1"}},{"base_weights":[-9.3562517E-4,2.204811E-1,-1.5605129E0,-1.3858715E0,3.8241374E-1,-1.5618135E-1,-9.7770745E-1,-1.4461225E-1,-8.9941256E-2,-3.889315E-2,5.479123E-2,9.453069E-3,-1.5027623E-1],"categories":[],"categories_nodes":[],"categories_segments":[],"categories_sizes":[],"default_left":[0,0,0,0,0,0,0,0,0,0,0,0,0],"id":3,"left_children":[1,3,5,7,9,-1,11,-1,-1,-1,-1,-1,-1],"loss_changes":[1.1886831E4,7.8414775E3,1.7177734E0,7.961279E1,3.4959387E3,0E0,7.0117855E0,0E0,0E0,0E0,0E0,0E0,0E0],"parents":[2147483647,0,0,1,1,2,2,3,3,4,4,6,6],"right_children":[2,4,6,8,10,-1,12,-1,-1,-1,-1,-1,-1],"split_conditions":[1E0,1E0,1.63E2,1.54E2,2.9E1,-1.5618135E-1,2.3E1,-1.4461225E-1,-8.9941256E-2,-3.889315E-2,5.479123E-2,9.453069E-3,-1.5027623E-1],"split_indices":[4,6,8,8,1,0,1,0,0,0,0,0,0],"split_type":[0,0,0,0,0,0,0,0,0,0,0,0,0],"sum_hessian":[3.4421008E4,3.0142473E4,4.2785366E3,2.7596375E3,2.7382836E4,4.267334E3,1.1202351E1,2.453752E3,3.058855E2,4.8370894E3,2.2545746E4,3.9519196E0,7.250431E0],"tree_param":{"num_deleted":"0","num_feature":"10","num_nodes":"13","size_leaf_vector":"1"}},{"base_weights":[-1.4130665E-3,2.0001197E-1,-1.4753256E0,-1.2988964E0,3.4624004E-1,-1.4766298E-1,-9.089523E-1,-1.3587676E-1,-8.260687E-2,-3.878907E-2,4.9014576E-2,8.687611E-3,-1.4107661E-1],"categories":[],"categories_nodes":[],"categories_segments":[],"categories_sizes":[],"default_left":[0,0,0,0,0,0,0,0,0,0,0,0,0],"id":4,"left_children":[1,3,5,7,9,-1,11,-1,-1,-1,-1,-1,-1],"loss_changes":[1.0085098E4,6.5508877E3,1.6757812E0,7.408203E1,2.876937E3,0E0,6.111845E0,0E0,0E0,0E0,0E0,0E0,0E0],"parents":[2147483647,0,0,1,1,2,2,3,3,4,4,6,6],"right_children":[2,4,6,8,10,-1,12,-1,-1,-1,-1,-1,-1],"split_conditions":[1E0,1E0,1.63E2,1.54E2,2.8E1,-1.4766298E-1,2.3E1,-1.3587676E-1,-8.260687E-2,-3.878907E-2,4.9014576E-2,8.687611E-3,-1.4107661E-1],"split_indices":[4,6,8,8,1,0,1,0,0,0,0,0,0],"split_type":[0,0,0,0,0,0,0,0,0,0,0,0,0],"sum_hessian":[3.396796E4,2.988477E4,4.0831914E3,2.6556094E3,2.722916E4,4.072206E3,1.0985269E1,2.3554773E3,3.0013217E2,4.462443E3,2.2766717E4,3.9578855E0,7.0273833E0],"tree_param":{"num_deleted":"0","num_feature":"10","num_nodes":"13","size_leaf_vector":"1"}},{"base_weights":[-1.8943105E-3,1.815962E-1,-1.4057149E0,-1.2245673E0,3.13703E-1,-1.4070413E-1,-8.4925747E-1,-1.2849547E-1,-7.601209E-2,-2.7583843E-2,4.713994E-2,7.985001E-3,-1.3341163E-1],"categories":[],"categories_nodes":[],"categories_segments":[],"categories_sizes":[],"default_left":[0,0,0,0,0,0,0,0,0,0,0,0,0],"id":5,"left_children":[1,3,5,7,9,-1,11,-1,-1,-1,-1,-1,-1],"loss_changes":[8.621444E3,5.4991523E3,1.6601562E0,7.032764E1,2.515817E3,0E0,5.387313E0,0E0,0E0,0E0,0E0,0E0,0E0],"parents":[2147483647,0,0,1,1,2,2,3,3,4,4,6,6],"right_children":[2,4,6,8,10,-1,12,-1,-1,-1,-1,-1,-1],"split_conditions":[1E0,1E0,1.63E2,1.54E2,1E0,-1.4070413E-1,2.3E1,-1.2849547E-1,-7.601209E-2,-2.7583843E-2,4.713994E-2,7.985001E-3,-1.3341163E-1],"split_indices":[4,6,8,8,5,0,1,0,0,0,0,0,0],"split_type":[0,0,0,0,0,0,0,0,0,0,0,0,0],"sum_hessian":[3.3467938E4,2.9599871E4,3.8680679E3,2.5413293E3,2.7058541E4,3.8573455E3,1.0722416E1,2.2473606E3,2.9396878E2,5.710252E3,2.134829E4,3.9632251E0,6.7591906E0],"tree_param":{"num_deleted":"0","num_feature":"10","num_nodes":"13","size_leaf_vector":"1"}},{"base_weights":[-2.340242E-3,1.648416E-1,-1.3478475E0,-1.159691E0,2.8411806E-1,-1.3492107E0,-7.965809E-1,-1.221256E-1,-7.002459E-2,-2.4849001E-2,4.274855E-2,-1.3173857E-1,-1.3648373E-1,7.3399157E-3,-1.26906E-1],"categories":[],"categories_nodes":[],"categories_segments":[],"categories_sizes":[],"default_left":[0,0,0,0,0,0,0,0,0,0,0,0,0,0,0],"id":6,"left_children":[1,3,5,7,9,11,13,-1,-1,-1,-1,-1,-1,-1,-1],"loss_changes":[7.415714E3,4.633002E3,1.6630859E0,6.767236E1,2.0542869E3,9.277344E-3,4.791294E0,0E0,0E0,0E0,0E0,0E0,0E0,0E0,0E0],"parents":[2147483647,0,0,1,1,2,2,3,3,4,4,5,5,6,6],"right_children":[2,4,6,8,10,12,14,-1,-1,-1,-1,-1,-1,-1,-1],"split_conditions":[1E0,1E0,1.63E2,1.54E2,1E0,1.52E2,2.3E1,-1.221256E-1,-7.002459E-2,-2.4849001E-2,4.274855E-2,-1.3173857E-1,-1.3648373E-1,7.3399157E-3,-1.26906E-1],"split_indices":[4,6,8,8,5,8,1,0,0,0,0,0,0,0,0],"split_type":[0,0,0,0,0,0,0,0,0,0,0,0,0,0,0],"sum_hessian":[3.2964887E4,2.93224E4,3.6424873E3,2.4216716E3,2.6900729E4,3.6320574E3,1.0429698E1,2.1340527E3,2.8761884E2,5.705213E3,2.1195516E4,1.2241823E3,2.4078752E3,3.9680114E0,6.4616866E0],"tree_param":{"num_deleted":"0","num_feature":"10","num_nodes":"15","size_leaf_vector":"1"}},{"base_weights":[-2.752019E-3,1.4966995E-1,-1.2990434E0,-1.1019925E0,2.5739005E-1,-1.3004569E0,-7.494528E-1,-1.1652347E-1,-6.454733E-2,4.3942716E-2,-1.1812852E-2,-1.2679218E-1,-1.3164632E-1,6.7475336E-3,-1.2129369E-1],"categories":[],"categories_nodes":[],"categories_segments":[],"categories_sizes":[],"default_left":[0,0,0,0,0,0,0,0,0,0,0,0,0,0,0],"id":7,"left_children":[1,3,5,7,9,11,13,-1,-1,-1,-1,-1,-1,-1,-1],"loss_changes":[6.4121665E3,3.915529E3,1.6782227E0,6.568848E1,1.8278365E3,1.03515625E-1,4.292019E0,0E0,0E0,0E0,0E0,0E0,0E0,0E0,0E0],"parents":[2147483647,0,0,1,1,2,2,3,3,4,4,5,5,6,6],"right_children":[2,4,6,8,10,12,14,-1,-1,-1,-1,-1,-1,-1,-1],"split_conditions":[1E0,1E0,1.63E2,1.54E2,1.25E2,1.52E2,2.3E1,-1.1652347E-1,-6.454733E-2,4.3942716E-2,-1.1812852E-2,-1.2679218E-1,-1.3164632E-1,6.7475336E-3,-1.2129369E-1],"split_indices":[4,6,8,8,8,8,1,0,0,0,0,0,0,0,0],"split_type":[0,0,0,0,0,0,0,0,0,0,0,0,0,0,0],"sum_hessian":[3.2450996E4,2.9037555E4,3.4134414E3,2.3002607E3,2.6737295E4,3.403322E3,1.0119405E1,2.0190118E3,2.8124878E2,1.8007686E4,8.729609E3,1.1486805E3,2.2546414E3,3.9723077E0,6.147097E0],"tree_param":{"num_deleted":"0","num_feature":"10","num_nodes":"15","size_leaf_vector":"1"}},{"base_weights":[-3.1030988E-3,1.3583586E-1,-1.2573432E0,-1.0498075E0,2.3307183E-1,-1.2588191E0,-7.067941E-1,-1.1151069E-1,-5.9508022E-2,-3.4794234E-2,3.3811793E-2,-1.22507714E-1,-1.2754641E-1,6.2033995E-3,-1.1638086E-1],"categories":[],"categories_nodes":[],"categories_segments":[],"categories_sizes":[],"default_left":[0,0,0,0,0,0,0,0,0,0,0,0,0,0,0],"id":8,"left_children":[1,3,5,7,9,11,13,-1,-1,-1,-1,-1,-1,-1,-1],"loss_changes":[5.5687964E3,3.3169868E3,1.699707E0,6.4090576E1,1.6229696E3,2.2167969E-1,3.8672795E0,0E0,0E0,0E0,0E0,0E0,0E0,0E0,0E0],"parents":[2147483647,0,0,1,1,2,2,3,3,4,4,5,5,6,6],"right_children":[2,4,6,8,10,12,14,-1,-1,-1,-1,-1,-1,-1,-1],"split_conditions":[1E0,1E0,1.63E2,1.54E2,2.7E1,1.52E2,2.3E1,-1.1151069E-1,-5.9508022E-2,-3.4794234E-2,3.3811793E-2,-1.22507714E-1,-1.2754641E-1,6.2033995E-3,-1.1638086E-1],"split_indices":[4,6,8,8,1,8,1,0,0,0,0,0,0,0,0],"split_type":[0,0,0,0,0,0,0,0,0,0,0,0,0,0,0],"sum_hessian":[3.195433E4,2.876839E4,3.1859385E3,2.1797607E3,2.658863E4,3.1761377E3,9.800954E0,1.9047802E3,2.7498053E2,4.0707634E3,2.2517867E4,1.0738628E3,2.102275E3,3.9761698E0,5.824784E0],"tree_param":{"num_deleted":"0","num_feature":"10","num_nodes":"15","size_leaf_vector":"1"}},{"base_weights":[-3.4319214E-3,1.2335752E-1,-1.2212973E0,-1.0018924E0,2.1123974E-1,-1.2228471E0,-6.677992E-1,-1.069535E-1,-5.485205E-2,3.6977116E-2,-1.1221151E-2,-1.18746005E-1,-1.2403631E-1,5.7035303E-3,-1.12022854E-1],"categories":[],"categories_nodes":[],"categories_segments":[],"categories_sizes":[],"default_left":[0,0,0,0,0,0,0,0,0,0,0,0,0,0,0],"id":9,"left_children":[1,3,5,7,9,11,13,-1,-1,-1,-1,-1,-1,-1,-1],"loss_changes":[4.854935E3,2.816259E3,1.7265625E0,6.2682617E1,1.3545089E3,3.59375E-1,3.5011506E0,0E0,0E0,0E0,0E0,0E0,0E0,0E0,0E0],"parents":[2147483647,0,0,1,1,2,2,3,3,4,4,5,5,6,6],"right_children":[2,4,6,8,10,12,14,-1,-1,-1,-1,-1,-1,-1,-1],"split_conditions":[1E0,1E0,1.63E2,1.54E2,1.25E2,1.52E2,2.3E1,-1.069535E-1,-5.485205E-2,3.6977116E-2,-1.1221151E-2,-1.18746005E-1,-1.2403631E-1,5.7035303E-3,-1.12022854E-1],"split_indices":[4,6,8,8,8,8,1,0,0,0,0,0,0,0,0],"split_type":[0,0,0,0,0,0,0,0,0,0,0,0,0,0,0],"sum_hessian":[3.1439363E4,2.8475715E4,2.963649E3,2.062096E3,2.641362E4,2.9541675E3,9.48148E0,1.7931946E3,2.6890152E2,1.7725682E4,8.687937E3,1.0008885E3,1.9532789E3,3.9796464E0,5.5018334E0],"tree_param":{"num_deleted":"0","num_feature":"10","num_nodes":"15","size_leaf_vector":"1"}},{"base_weights":[-3.6789356E-3,1.1192282E-1,-1.1898018E0,-9.5730346E-1,1.9127339E-1,-1.1914371E0,-6.318601E-1,-1.0274968E-1,-5.0537545E-2,-2.8501531E-2,2.8707972E-2,-1.15400255E-1,-1.2100414E-1,5.2442155E-3,-1.0810967E-1],"categories":[],"categories_nodes":[],"categories_segments":[],"categories_sizes":[],"default_left":[0,0,0,0,0,0,0,0,0,0,0,0,0,0,0],"id":10,"left_children":[1,3,5,7,9,11,13,-1,-1,-1,-1,-1,-1,-1,-1],"loss_changes":[4.2462544E3,2.394285E3,1.7563477E0,6.132715E1,1.1987825E3,5.1293945E-1,3.1819553E0,0E0,0E0,0E0,0E0,0E0,0E0,0E0,0E0],"parents":[2147483647,0,0,1,1,2,2,3,3,4,4,5,5,6,6],"right_children":[2,4,6,8,10,12,14,-1,-1,-1,-1,-1,-1,-1,-1],"split_conditions":[1E0,1E0,1.63E2,1.54E2,2.8E1,1.52E2,2.3E1,-1.0274968E-1,-5.0537545E-2,-2.8501531E-2,2.8707972E-2,-1.15400255E-1,-1.2100414E-1,5.2442155E-3,-1.0810967E-1],"split_indices":[4,6,8,8,1,8,1,0,0,0,0,0,0,0,0],"split_type":[0,0,0,0,0,0,0,0,0,0,0,0,0,0,0],"sum_hessian":[3.0965941E4,2.8216785E4,2.7491553E3,1.9486202E3,2.6268166E4,2.739989E3,9.166307E0,1.6855479E3,2.6307233E2,4.3986875E3,2.1869479E4,9.3057043E2,1.8094185E3,3.9827795E0,5.1835284E0],"tree_param":{"num_deleted":"0","num_feature":"10","num_nodes":"15","size_leaf_vector":"1"}},{"base_weights":[-3.8995775E-3,1.0159108E-1,-1.1619985E0,-9.153162E-1,1.7332146E-1,-1.1637307E0,-5.9851223E-1,-9.8819815E-2,-4.6531778E-2,-2.0679055E-2,2.7796594E-2,-1.1238686E-1,-1.1836337E-1,4.8221624E-3,-1.0455624E-1],"categories":[],"categories_nodes":[],"categories_segments":[],"categories_sizes":[],"default_left":[0,0,0,0,0,0,0,0,0,0,0,0,0,0,0],"id":11,"left_children":[1,3,5,7,9,11,13,-1,-1,-1,-1,-1,-1,-1,-1],"loss_changes":[3.7245576E3,2.0383252E3,1.7880859E0,5.9927124E1,1.0382913E3,6.821289E-1,2.9009728E0,0E0,0E0,0E0,0E0,0E0,0E0,0E0,0E0],"parents":[2147483647,0,0,1,1,2,2,3,3,4,4,5,5,6,6],"right_children":[2,4,6,8,10,12,14,-1,-1,-1,-1,-1,-1,-1,-1],"split_conditions":[1E0,1E0,1.63E2,1.54E2,1E0,1.52E2,2.3E1,-9.8819815E-2,-4.6531778E-2,-2.0679055E-2,2.7796594E-2,-1.1238686E-1,-1.1836337E-1,4.8221624E-3,-1.0455624E-1],"split_indices":[4,6,8,8,5,8,1,0,0,0,0,0,0,0,0],"split_type":[0,0,0,0,0,0,0,0,0,0,0,0,0,0,0],"sum_hessian":[3.048506E4,2.7940854E4,2.5442063E3,1.8402489E3,2.6100605E4,2.535347E3,8.859328E0,1.582716E3,2.5753293E2,5.634132E3,2.0466473E4,8.6345526E2,1.6718916E3,3.9856064E0,4.8737216E0],"tree_param":{"num_deleted":"0","num_feature":"10","num_nodes":"15","size_leaf_vector":"1"}},{"base_weights":[-4.0587974E-3,9.214091E-2,-1.1372079E0,-8.7537247E-1,1.5694703E-1,-1.1390487E0,-5.6739897E-1,-9.510159E-2,-4.2808708E-2,2.1467129E-2,-5.3877104E-2,-1.0963906E-1,-1.1604595E-1,4.1576094E-4,-1.10043906E-1],"categories":[],"categories_nodes":[],"categories_segments":[],"categories_sizes":[],"default_left":[0,0,0,0,0,0,0,0,0,0,0,0,0,0,0],"id":12,"left_children":[1,3,5,7,9,11,13,-1,-1,-1,-1,-1,-1,-1,-1],"loss_changes":[3.2749043E3,1.7364318E3,1.8195801E0,5.841577E1,1.0424305E3,8.6694336E-1,2.9181554E0,0E0,0E0,0E0,0E0,0E0,0E0,0E0,0E0],"parents":[2147483647,0,0,1,1,2,2,3,3,4,4,5,5,6,6],"right_children":[2,4,6,8,10,12,14,-1,-1,-1,-1,-1,-1,-1,-1],"split_conditions":[1E0,1E0,1.63E2,1.54E2,6.3E1,1.52E2,8.3235E2,-9.510159E-2,-4.2808708E-2,2.1467129E-2,-5.3877104E-2,-1.0963906E-1,-1.1604595E-1,4.1576094E-4,-1.10043906E-1],"split_indices":[4,6,8,8,1,8,7,0,0,0,0,0,0,0,0],"split_type":[0,0,0,0,0,0,0,0,0,0,0,0,0,0,0],"sum_hessian":[3.0040656E4,2.7690744E4,2.3499119E3,1.7375623E3,2.5953182E4,2.3413486E3,8.563303E0,1.4852548E3,2.5230748E2,2.3965443E4,1.9877394E3,7.998864E2,1.5414623E3,4.6111546E0,3.9521482E0],"tree_param":{"num_deleted":"0","num_feature":"10","num_nodes":"15","size_leaf_vector":"1"}},{"base_weights":[-4.1578775E-3,8.3308436E-2,-1.1148499E0,-8.370414E-1,1.4167364E-1,-1.1168438E0,-5.351882E-1,-9.1545746E-2,-3.934709E-2,2.7550919E-2,-1.2661951E-2,-1.0710271E-1,-1.13997474E-1,7.0833187E-3,-9.9381655E-2],"categories":[],"categories_nodes":[],"categories_segments":[],"categories_sizes":[],"default_left":[0,0,0,0,0,0,0,0,0,0,0,0,0,0,0],"id":13,"left_children":[1,3,5,7,9,11,13,-1,-1,-1,-1,-1,-1,-1,-1],"loss_changes":[2.8851E3,1.4789321E3,1.9074707E0,5.674951E1,9.2964014E2,1.0681152E0,2.669568E0,0E0,0E0,0E0,0E0,0E0,0E0,0E0,0E0],"parents":[2147483647,0,0,1,1,2,2,3,3,4,4,5,5,6,6],"right_children":[2,4,6,8,10,12,14,-1,-1,-1,-1,-1,-1,-1,-1],"split_conditions":[1E0,1E0,1.63E2,1.54E2,1.25E2,1.52E2,2.3E1,-9.1545746E-2,-3.934709E-2,2.7550919E-2,-1.2661951E-2,-1.0710271E-1,-1.13997474E-1,7.0833187E-3,-9.9381655E-2],"split_indices":[4,6,8,8,8,8,1,0,0,0,0,0,0,0,0],"split_type":[0,0,0,0,0,0,0,0,0,0,0,0,0,0,0],"sum_hessian":[2.9695986E4,2.752902E4,2.1669683E3,1.6408844E3,2.5888135E4,2.1586167E3,8.35161E0,1.3934766E3,2.474079E2,1.7272088E4,8.616047E3,7.400524E2,1.4185642E3,3.9619417E0,4.3896685E0],"tree_param":{"num_deleted":"0","num_feature":"10","num_nodes":"15","size_leaf_vector":"1"}},{"base_weights":[-4.212677E-3,7.548333E-2,-1.0945396E0,-7.9999346E-1,1.2819658E-1,-1.0966684E0,-5.077952E-1,-8.81133E-2,-3.612912E-2,1.9484272E-2,-3.9605837E-2,-1.0473311E-1,-1.1217381E-1,3.2359937E-3,-1.0460937E-1],"categories":[],"categories_nodes":[],"categories_segments":[],"categories_sizes":[],"default_left":[0,0,0,0,0,0,0,0,0,0,0,0,0,0,0],"id":14,"left_children":[1,3,5,7,9,11,13,-1,-1,-1,-1,-1,-1,-1,-1],"loss_changes":[2.5469333E3,1.2606289E3,1.9365234E0,5.4903503E1,9.002528E2,1.284668E0,2.6738203E0,0E0,0E0,0E0,0E0,0E0,0E0,0E0,0E0],"parents":[2147483647,0,0,1,1,2,2,3,3,4,4,5,5,6,6],"right_children":[2,4,6,8,10,12,14,-1,-1,-1,-1,-1,-1,-1,-1],"split_conditions":[1E0,1E0,1.63E2,1.54E2,5.9E1,1.52E2,8.3235E2,-8.81133E-2,-3.612912E-2,1.9484272E-2,-3.9605837E-2,-1.0473311E-1,-1.1217381E-1,3.2359937E-3,-1.0460937E-1],"split_indices":[4,6,8,8,1,8,7,0,0,0,0,0,0,0,0],"split_type":[0,0,0,0,0,0,0,0,0,0,0,0,0,0,0],"sum_hessian":[2.9308621E4,2.7313135E4,1.9954868E3,1.5503473E3,2.5762787E4,1.9874073E3,8.0794E0,1.3075101E3,2.428372E2,2.2857629E4,2.9051577E3,6.8402545E2,1.303382E3,4.5018783E0,3.5775218E0],"tree_param":{"num_deleted":"0","num_feature":"10","num_nodes":"15","size_leaf_vector":"1"}},{"base_weights":[-4.2278506E-3,6.819811E-2,-1.0758415E0,-3.089329E-1,1.8455419E-1,-1.0781507E0,-4.7954178E-1,7.6304995E-2,-5.201748E-2,2.8216083E-2,-3.8148355E-2,-1.0249298E-1,-1.1053871E-1,8.842993E-3,-9.491946E-2],"categories":[],"categories_nodes":[],"categories_segments":[],"categories_sizes":[],"default_left":[0,0,0,0,0,0,0,0,0,0,0,0,0,0,0],"id":15,"left_children":[1,3,5,7,9,11,13,-1,-1,-1,-1,-1,-1,-1,-1],"loss_changes":[2.2516033E3,1.1925032E3,2.011963E0,1.451385E3,1.147499E3,1.5178223E0,2.4542537E0,0E0,0E0,0E0,0E0,0E0,0E0,0E0,0E0],"parents":[2147483647,0,0,1,1,2,2,3,3,4,4,5,5,6,6],"right_children":[2,4,6,8,10,12,14,-1,-1,-1,-1,-1,-1,-1,-1],"split_conditions":[1E0,1E0,1.63E2,1.51E2,5.9E1,1.52E2,2.3E1,7.6304995E-2,-5.201748E-2,2.8216083E-2,-3.8148355E-2,-1.0249298E-1,-1.1053871E-1,8.842993E-3,-9.491946E-2],"split_indices":[4,5,8,8,1,8,1,0,0,0,0,0,0,0,0],"split_type":[0,0,0,0,0,0,0,0,0,0,0,0,0,0,0],"sum_hessian":[2.9008832E4,2.717324E4,1.8355912E3,6.4066094E3,2.076663E4,1.8277052E3,7.885927E0,1.0542133E3,5.3523965E3,1.7712771E4,3.05386E3,6.317912E2,1.1959141E3,3.9367523E0,3.9491751E0],"tree_param":{"num_deleted":"0","num_feature":"10","num_nodes":"15","size_leaf_vector":"1"}},{"base_weights":[-4.096086E-3,6.1792225E-2,-1.0585064E0,-7.565235E-1,1.0818133E-1,-1.060978E0,-4.5526564E-1,-8.413563E-2,-3.1986184E-2,-2.737528E-2,1.7924575E-2,-1.0035074E-1,-1.0906196E-1,5.501158E-3,-9.988784E-2],"categories":[],"categories_nodes":[],"categories_segments":[],"categories_sizes":[],"default_left":[0,0,0,0,0,0,0,0,0,0,0,0,0,0,0],"id":16,"left_children":[1,3,5,7,9,11,13,-1,-1,-1,-1,-1,-1,-1,-1],"loss_changes":[1.9938805E3,1.0254854E3,2.0336914E0,5.341577E1,6.939006E2,1.7679443E0,2.4514327E0,0E0,0E0,0E0,0E0,0E0,0E0,0E0,0E0],"parents":[2147483647,0,0,1,1,2,2,3,3,4,4,5,5,6,6],"right_children":[2,4,6,8,10,12,14,-1,-1,-1,-1,-1,-1,-1,-1],"split_conditions":[1E0,1E0,1.63E2,1.54E2,2.7E1,1.52E2,8.3235E2,-8.413563E-2,-3.1986184E-2,-2.737528E-2,1.7924575E-2,-1.0035074E-1,-1.0906196E-1,5.501158E-3,-9.988784E-2],"split_indices":[4,6,8,8,1,8,7,0,0,0,0,0,0,0,0],"split_type":[0,0,0,0,0,0,0,0,0,0,0,0,0,0,0],"sum_hessian":[2.8698008E4,2.7011072E4,1.6869347E3,1.4482507E3,2.5562822E4,1.6792954E3,7.639302E0,1.2118842E3,2.363666E2,4.009736E3,2.1553086E4,5.832719E2,1.0960234E3,4.404087E0,3.235215E0],"tree_param":{"num_deleted":"0","num_feature":"10","num_nodes":"15","size_leaf_vector":"1"}},{"base_weights":[-4.093378E-3,5.593916E-2,-1.0422019E0,-7.215249E-1,9.787523E-2,-1.0448834E0,-4.30389E-1,-8.0874465E-2,-2.9293114E-2,1.3017735E-2,-6.817246E-2,-9.827941E-2,-1.0771815E-1,2.2511508E-3,-1.01868354E-1],"categories":[],"categories_nodes":[],"categories_segments":[],"categories_sizes":[],"default_left":[0,0,0,0,0,0,0,0,0,0,0,0,0,0,0],"id":17,"left_children":[1,3,5,7,9,11,13,-1,-1,-1,-1,-1,-1,-1,-1],"loss_changes":[1.7673099E3,8.7412213E2,2.093628E0,5.1056213E1,6.4066516E2,2.0352783E0,2.278408E0,0E0,0E0,0E0,0E0,0E0,0E0,0E0,0E0],"parents":[2147483647,0,0,1,1,2,2,3,3,4,4,5,5,6,6],"right_children":[2,4,6,8,10,12,14,-1,-1,-1,-1,-1,-1,-1,-1],"split_conditions":[1E0,1E0,1.63E2,1.54E2,6.9E1,1.52E2,1.97E2,-8.0874465E-2,-2.9293114E-2,1.3017735E-2,-6.817246E-2,-9.827941E-2,-1.0771815E-1,2.2511508E-3,-1.01868354E-1],"split_indices":[4,6,8,8,1,8,9,0,0,0,0,0,0,0,0],"split_type":[0,0,0,0,0,0,0,0,0,0,0,0,0,0,0],"sum_hessian":[2.8356564E4,2.6807277E4,1.5492858E3,1.3711401E3,2.5436139E4,1.5418204E3,7.4652658E0,1.1385548E3,2.3258531E2,2.4424943E4,1.0111955E3,5.3834515E2,1.00347534E3,4.7614117E0,2.7038543E0],"tree_param":{"num_deleted":"0","num_feature":"10","num_nodes":"15","size_leaf_vector":"1"}},{"base_weights":[-4.0392843E-3,5.0503004E-2,-1.0267057E0,-2.717771E-1,1.491078E-1,-1.0296358E0,-4.0601993E-1,6.859012E-2,-4.622651E-2,2.3514532E-2,-3.3937026E-2,-9.625575E-2,-1.06485546E-1,-9.718125E-2,8.597693E-3],"categories":[],"categories_nodes":[],"categories_segments":[],"categories_sizes":[],"default_left":[0,0,0,0,0,0,0,0,0,0,0,0,0,0,0],"id":18,"left_children":[1,3,5,7,9,11,13,-1,-1,-1,-1,-1,-1,-1,-1],"loss_changes":[1.5677917E3,8.480249E2,2.170166E0,1.1408369E3,8.588423E2,2.3198242E0,2.4045484E0,0E0,0E0,0E0,0E0,0E0,0E0,0E0,0E0],"parents":[2147483647,0,0,1,1,2,2,3,3,4,4,5,5,6,6],"right_children":[2,4,6,8,10,12,14,-1,-1,-1,-1,-1,-1,-1,-1],"split_conditions":[1E0,1E0,1.63E2,1.51E2,5.9E1,1.52E2,1.95E2,6.859012E-2,-4.622651E-2,2.3514532E-2,-3.3937026E-2,-9.625575E-2,-1.06485546E-1,-9.718125E-2,8.597693E-3],"split_indices":[4,5,8,8,1,8,9,0,0,0,0,0,0,0,0],"split_type":[0,0,0,0,0,0,0,0,0,0,0,0,0,0,0],"sum_hessian":[2.8105492E4,2.668333E4,1.4221624E3,6.250952E3,2.0432379E4,1.4148245E3,7.337861E0,1.0366407E3,5.2143115E3,1.7372936E4,3.0594429E3,4.9685703E2,9.1796747E2,2.9593687E0,4.3784924E0],"tree_param":{"num_deleted":"0","num_feature":"10","num_nodes":"15","size_leaf_vector":"1"}},{"base_weights":[-3.8674078E-3,4.5747556E-2,-1.0118576E0,-6.805529E-1,8.274805E-2,-9.4259596E-1,-1.0482341E0,-7.710063E-2,-2.5745764E-2,1.8093394E-2,-1.1089127E-2,-4.8715573E-2,-9.677508E-2,-1.053455E-1,-3.841389E-2],"categories":[],"categories_nodes":[],"categories_segments":[],"categories_sizes":[],"default_left":[0,0,0,0,0,0,0,0,0,0,0,0,0,0,0],"id":19,"left_children":[1,3,5,7,9,11,13,-1,-1,-1,-1,-1,-1,-1,-1],"loss_changes":[1.3922377E3,7.130771E2,2.302246E0,4.9026917E1,4.8003735E2,4.7943726E0,2.5332031E0,0E0,0E0,0E0,0E0,0E0,0E0,0E0,0E0],"parents":[2147483647,0,0,1,1,2,2,3,3,4,4,5,5,6,6],"right_children":[2,4,6,8,10,12,14,-1,-1,-1,-1,-1,-1,-1,-1],"split_conditions":[1E0,1E0,1.52E2,1.54E2,1.25E2,2.6E1,1.63E2,-7.710063E-2,-2.5745764E-2,1.8093394E-2,-1.1089127E-2,-4.8715573E-2,-9.677508E-2,-1.053455E-1,-3.841389E-2],"split_indices":[4,6,8,8,8,1,8,0,0,0,0,0,0,0,0],"split_type":[0,0,0,0,0,0,0,0,0,0,0,0,0,0,0],"sum_hessian":[2.783648E4,2.653151E4,1.3049707E3,1.2852537E3,2.5246258E4,4.5863416E2,8.4633655E2,1.0581995E3,2.2705421E2,1.6752084E4,8.494173E3,2.5071285E1,4.3356287E2,8.391531E2,7.183446E0],"tree_param":{"num_deleted":"0","num_feature":"10","num_nodes":"15","size_leaf_vector":"1"}},{"base_weights":[-3.7863487E-3,4.135564E-2,-9.974063E-1,-2.364675E-1,1.2582864E-1,-9.227769E-1,-1.0370157E0,6.116688E-2,-4.0549662E-2,2.0484725E-2,-3.1686734E-2,-4.590049E-2,-9.4949655E-2,-1.042817E-1,-3.5598867E-2],"categories":[],"categories_nodes":[],"categories_segments":[],"categories_sizes":[],"default_left":[0,0,0,0,0,0,0,0,0,0,0,0,0,0,0],"id":20,"left_children":[1,3,5,7,9,11,13,-1,-1,-1,-1,-1,-1,-1,-1],"loss_changes":[1.2367737E3,6.1901624E2,2.585205E0,8.819071E2,7.076008E2,4.8251038E0,2.6895142E0,0E0,0E0,0E0,0E0,0E0,0E0,0E0,0E0],"parents":[2147483647,0,0,1,1,2,2,3,3,4,4,5,5,6,6],"right_children":[2,4,6,8,10,12,14,-1,-1,-1,-1,-1,-1,-1,-1],"split_conditions":[1E0,1E0,1.52E2,1.51E2,5.9E1,2.6E1,1.63E2,6.116688E-2,-4.0549662E-2,2.0484725E-2,-3.1686734E-2,-4.590049E-2,-9.4949655E-2,-1.042817E-1,-3.5598867E-2],"split_indices":[4,5,8,8,1,1,8,0,0,0,0,0,0,0,0],"split_type":[0,0,0,0,0,0,0,0,0,0,0,0,0,0,0],"sum_hessian":[2.7571412E4,2.6374145E4,1.1972677E3,6.1489785E3,2.0225166E4,4.2354645E2,7.7372125E2,1.0213813E3,5.127597E3,1.716233E4,3.0628367E3,2.406314E1,3.994833E2,7.666593E2,7.0619593E0],"tree_param":{"num_deleted":"0","num_feature":"10","num_nodes":"15","size_leaf_vector":"1"}},{"base_weights":[-3.6043548E-3,3.7449963E-2,-9.8324454E-1,-6.4134157E-1,7.025983E-2,-9.029229E-1,-1.0263629E0,-2.5027731E-2,-7.439124E-2,9.7009055E-3,-5.4916758E-2,-4.3162495E-2,-9.3129754E-2,-1.0327975E-1,-3.29687E-2],"categories":[],"categories_nodes":[],"categories_segments":[],"categories_sizes":[],"default_left":[0,0,0,0,0,0,0,0,0,0,0,0,0,0,0],"id":21,"left_children":[1,3,5,7,9,11,13,-1,-1,-1,-1,-1,-1,-1,-1],"loss_changes":[1.09929E3,5.8429675E2,2.8807373E0,4.8335236E1,4.1469778E2,4.844696E0,2.8335571E0,0E0,0E0,0E0,0E0,0E0,0E0,0E0,0E0],"parents":[2147483647,0,0,1,1,2,2,3,3,4,4,5,5,6,6],"right_children":[2,4,6,8,10,12,14,-1,-1,-1,-1,-1,-1,-1,-1],"split_conditions":[1E0,1E0,1.52E2,1.0004E3,6.9E1,2.6E1,1.63E2,-2.5027731E-2,-7.439124E-2,9.7009055E-3,-5.4916758E-2,-4.3162495E-2,-9.3129754E-2,-1.0327975E-1,-3.29687E-2],"split_indices":[4,6,8,7,1,1,8,0,0,0,0,0,0,0,0],"split_type":[0,0,0,0,0,0,0,0,0,0,0,0,0,0,0],"sum_hessian":[2.7331057E4,2.6232672E4,1.0983851E3,1.208657E3,2.5024014E4,3.9133652E2,7.0704865E2,2.5185764E2,9.567994E2,2.3988926E4,1.0350895E3,2.3143219E1,3.681933E2,7.001E2,6.9486985E0],"tree_param":{"num_deleted":"0","num_feature":"10","num_nodes":"15","size_leaf_vector":"1"}},{"base_weights":[-3.5066318E-3,3.377068E-2,-9.692276E-1,-2.181869E-1,1.09962985E-1,-8.829016E-1,-1.0161433E0,5.509252E-2,-3.7132785E-2,2.116987E-2,-1.5214113E-2,-4.0507715E-2,-9.130108E-2,-1.02326825E-1,-3.0513013E-2],"categories":[],"categories_nodes":[],"categories_segments":[],"categories_sizes":[],"default_left":[0,0,0,0,0,0,0,0,0,0,0,0,0,0,0],"id":22,"left_children":[1,3,5,7,9,11,13,-1,-1,-1,-1,-1,-1,-1,-1],"loss_changes":[9.7708673E2,5.0170587E2,3.1882324E0,7.149209E2,5.3509735E2,4.849945E0,2.965088E0,0E0,0E0,0E0,0E0,0E0,0E0,0E0,0E0],"parents":[2147483647,0,0,1,1,2,2,3,3,4,4,5,5,6,6],"right_children":[2,4,6,8,10,12,14,-1,-1,-1,-1,-1,-1,-1,-1],"split_conditions":[1E0,1E0,1.52E2,1.51E2,5.2E1,2.6E1,1.63E2,5.509252E-2,-3.7132785E-2,2.116987E-2,-1.5214113E-2,-4.0507715E-2,-9.130108E-2,-1.02326825E-1,-3.0513013E-2],"split_indices":[4,5,8,8,1,1,8,0,0,0,0,0,0,0,0],"split_type":[0,0,0,0,0,0,0,0,0,0,0,0,0,0,0],"sum_hessian":[2.7139781E4,2.6132035E4,1.0077446E3,6.0670996E3,2.0064936E4,3.6181506E2,6.4592957E2,1.00701605E3,5.0600835E3,1.4454582E4,5.610354E3,2.2304415E1,3.3951065E2,6.3908624E2,6.843308E0],"tree_param":{"num_deleted":"0","num_feature":"10","num_nodes":"15","size_leaf_vector":"1"}},{"base_weights":[-3.3182693E-3,3.0566467E-2,-9.552243E-1,-6.0293585E-1,5.9678398E-2,-8.6259955E-1,-1.0062374E0,-7.020902E-2,-1.7246084E-2,9.212798E-3,-3.3644415E-2,-3.794195E-2,-8.94511E-2,-1.01411365E-1,-2.8222043E-2],"categories":[],"categories_nodes":[],"categories_segments":[],"categories_sizes":[],"default_left":[0,0,0,0,0,0,0,0,0,0,0,0,0,0,0],"id":23,"left_children":[1,3,5,7,9,11,13,-1,-1,-1,-1,-1,-1,-1,-1],"loss_changes":[8.687287E2,4.7967676E2,3.5063477E0,4.8654358E1,3.1965472E2,4.8382263E0,3.0838623E0,0E0,0E0,0E0,0E0,0E0,0E0,0E0,0E0],"parents":[2147483647,0,0,1,1,2,2,3,3,4,4,5,5,6,6],"right_children":[2,4,6,8,10,12,14,-1,-1,-1,-1,-1,-1,-1,-1],"split_conditions":[1E0,1E0,1.52E2,1.54E2,6.4E1,2.6E1,1.63E2,-7.020902E-2,-1.7246084E-2,9.212798E-3,-3.3644415E-2,-3.794195E-2,-8.94511E-2,-1.01411365E-1,-2.8222043E-2],"split_indices":[4,6,8,8,1,1,8,0,0,0,0,0,0,0,0],"split_type":[0,0,0,0,0,0,0,0,0,0,0,0,0,0,0],"sum_hessian":[2.6931174E4,2.6006398E4,9.247747E2,1.141724E3,2.4864674E4,3.347951E2,5.899796E2,9.274638E2,2.1426016E2,2.298274E4,1.8819341E3,2.1540064E1,3.1325504E2,5.832342E2,6.7454066E0],"tree_param":{"num_deleted":"0","num_feature":"10","num_nodes":"15","size_leaf_vector":"1"}},{"base_weights":[-3.2112934E-3,2.754827E-2,-9.411149E-1,-2.3087841E-1,9.089026E-2,-8.4192187E-1,-9.965354E-1,2.7802616E-2,-2.990152E-2,1.4749858E-2,-2.3272604E-2,-3.5470393E-2,-8.7568864E-2,-1.00522816E-1,-2.6086587E-2],"categories":[],"categories_nodes":[],"categories_segments":[],"categories_sizes":[],"default_left":[0,0,0,0,0,0,0,0,0,0,0,0,0,0,0],"id":24,"left_children":[1,3,5,7,9,11,13,-1,-1,-1,-1,-1,-1,-1,-1],"loss_changes":[7.7216296E2,4.2423666E2,3.833313E0,1.7699121E2,3.813432E2,4.8074646E0,3.1899414E0,0E0,0E0,0E0,0E0,0E0,0E0,0E0,0E0],"parents":[2147483647,0,0,1,1,2,2,3,3,4,4,5,5,6,6],"right_children":[2,4,6,8,10,12,14,-1,-1,-1,-1,-1,-1,-1,-1],"split_conditions":[1E0,2.9E1,1.52E2,1.37E2,5.9E1,2.6E1,1.63E2,2.7802616E-2,-2.990152E-2,1.4749858E-2,-2.3272604E-2,-3.5470393E-2,-8.7568864E-2,-1.00522816E-1,-2.6086587E-2],"split_indices":[4,1,8,8,1,1,8,0,0,0,0,0,0,0,0],"split_type":[0,0,0,0,0,0,0,0,0,0,0,0,0,0,0],"sum_hessian":[2.6763307E4,2.5914387E4,8.4891974E2,5.1008735E3,2.0813514E4,3.1009506E2,5.388247E2,6.019451E2,4.498928E3,1.7715234E4,3.0982793E3,2.084395E1,2.892511E2,5.321701E2,6.6545987E0],"tree_param":{"num_deleted":"0","num_feature":"10","num_nodes":"15","size_leaf_vector":"1"}},{"base_weights":[-3.0382639E-3,-6.7777544E-1,3.579229E-2,-5.6718785E-1,-1.004537E0,5.0845668E-2,-8.566177E-1,-6.680606E-2,-1.4921217E-2,-1.04259185E-1,-8.806623E-2,1.9686192E-3,4.2077385E-2,-6.1816234E-2,-9.135202E-2],"categories":[],"categories_nodes":[],"categories_segments":[],"categories_sizes":[],"default_left":[0,0,0,0,0,0,0,0,0,0,0,0,0,0,0],"id":25,"left_children":[1,3,5,7,9,11,13,-1,-1,-1,-1,-1,-1,-1,-1],"loss_changes":[6.966022E2,5.171222E1,3.3777826E2,4.5573853E1,8.003235E-1,2.8498636E2,5.0947876E0,0E0,0E0,0E0,0E0,0E0,0E0,0E0,0E0],"parents":[2147483647,0,0,1,1,2,2,3,3,4,4,5,5,6,6],"right_children":[2,4,6,8,10,12,14,-1,-1,-1,-1,-1,-1,-1,-1],"split_conditions":[1E0,1E0,1E0,1.54E2,4.2E1,2E0,1.09815E3,-6.680606E-2,-1.4921217E-2,-1.04259185E-1,-8.806623E-2,1.9686192E-3,4.2077385E-2,-6.1816234E-2,-9.135202E-2],"split_indices":[6,4,4,8,1,5,7,0,0,0,0,0,0,0,0],"split_type":[0,0,0,0,0,0,0,0,0,0,0,0,0,0,0],"sum_hessian":[2.6585518E4,1.4458213E3,2.5139697E4,1.0822766E3,3.6354474E2,2.4723596E4,4.1610028E2,8.71382E2,2.1089453E2,2.724349E2,9.110983E1,2.2803855E4,1.9197417E3,8.244991E1,3.3365036E2],"tree_param":{"num_deleted":"0","num_feature":"10","num_nodes":"15","size_leaf_vector":"1"}},{"base_weights":[-2.916077E-3,2.244653E-2,-9.1193193E-1,-1.8806013E-1,8.551577E-2,-7.971305E-1,-9.7748834E-1,4.802656E-2,-3.2151297E-2,1.7092792E-2,-1.308355E-2,-6.9422625E-2,-1.03336565E-1,-9.883365E-2,-1.8101325E-2],"categories":[],"categories_nodes":[],"categories_segments":[],"categories_sizes":[],"default_left":[0,0,0,0,0,0,0,0,0,0,0,0,0,0,0],"id":26,"left_children":[1,3,5,7,9,11,13,-1,-1,-1,-1,-1,-1,-1,-1],"loss_changes":[6.095839E2,3.4152505E2,4.6221313E0,5.2908325E2,3.6578625E2,5.755951E0,3.7300415E0,0E0,0E0,0E0,0E0,0E0,0E0,0E0,0E0],"parents":[2147483647,0,0,1,1,2,2,3,3,4,4,5,5,6,6],"right_children":[2,4,6,8,10,12,14,-1,-1,-1,-1,-1,-1,-1,-1],"split_conditions":[1E0,1E0,1.52E2,1.51E2,5.2E1,1.93295E3,1.63E2,4.802656E-2,-3.2151297E-2,1.7092792E-2,-1.308355E-2,-6.9422625E-2,-1.03336565E-1,-9.883365E-2,-1.8101325E-2],"split_indices":[4,5,8,8,1,7,8,0,0,0,0,0,0,0,0],"split_type":[0,0,0,0,0,0,0,0,0,0,0,0,0,0,0],"sum_hessian":[2.643852E4,2.5721826E4,7.166938E2,5.9293633E3,1.9792463E4,2.65287E2,4.5140683E2,9.8648615E2,4.9428774E3,1.4190487E4,5.6019756E3,1.8753514E2,7.775182E1,4.4510352E2,6.303304E0],"tree_param":{"num_deleted":"0","num_feature":"10","num_nodes":"15","size_leaf_vector":"1"}},{"base_weights":[-2.7385056E-3,-6.367913E-1,3.1137334E-2,-5.315284E-1,-9.883379E-1,-1.6442996E-1,8.4577076E-2,-1.4456244E-2,-6.421827E-2,-1.0337424E-1,-8.450594E-2,-2.414303E-2,1.3577998E-2,1.3383761E-2,-2.2012053E-2],"categories":[],"categories_nodes":[],"categories_segments":[],"categories_sizes":[],"default_left":[0,0,0,0,0,0,0,0,0,0,0,0,0,0,0],"id":27,"left_children":[1,3,5,7,9,11,13,-1,-1,-1,-1,-1,-1,-1,-1],"loss_changes":[5.643131E2,4.8783264E1,2.6066644E2,4.3908783E1,1.116333E0,1.23769714E2,2.94044E2,0E0,0E0,0E0,0E0,0E0,0E0,0E0,0E0],"parents":[2147483647,0,0,1,1,2,2,3,3,4,4,5,5,6,6],"right_children":[2,4,6,8,10,12,14,-1,-1,-1,-1,-1,-1,-1,-1],"split_conditions":[1E0,1E0,1.8E1,1.0004E3,4.2E1,1.54E2,4.2E1,-1.4456244E-2,-6.421827E-2,-1.0337424E-1,-8.450594E-2,-2.414303E-2,1.3577998E-2,1.3383761E-2,-2.2012053E-2],"split_indices":[6,4,3,7,1,8,3,0,0,0,0,0,0,0,0],"split_type":[0,0,0,0,0,0,0,0,0,0,0,0,0,0,0],"sum_hessian":[2.6270775E4,1.3314922E3,2.4939283E4,1.0266089E3,3.0488333E2,5.351808E3,1.9587477E4,2.2879666E2,7.978122E2,2.26797E2,7.808635E1,4.2594937E3,1.0923143E3,1.6861959E4,2.7255164E3],"tree_param":{"num_deleted":"0","num_feature":"10","num_nodes":"15","size_leaf_vector":"1"}},{"base_weights":[-2.5590635E-3,1.9418426E-2,-8.892251E-1,-5.002857E-1,4.0270433E-2,-7.632699E-1,-9.630976E-1,-6.0633916E-2,-9.041396E-3,1.2252819E-3,3.7681494E-2,-6.521304E-2,-1.0256153E-1,-1.0091256E-1,-6.9772534E-2],"categories":[],"categories_nodes":[],"categories_segments":[],"categories_sizes":[],"default_left":[0,0,0,0,0,0,0,0,0,0,0,0,0,0,0],"id":28,"left_children":[1,3,5,7,9,11,13,-1,-1,-1,-1,-1,-1,-1,-1],"loss_changes":[5.1007208E2,2.7682004E2,5.155731E0,4.277777E1,2.3155737E2,6.295822E0,4.1235657E0,0E0,0E0,0E0,0E0,0E0,0E0,0E0,0E0],"parents":[2147483647,0,0,1,1,2,2,3,3,4,4,5,5,6,6],"right_children":[2,4,6,8,10,12,14,-1,-1,-1,-1,-1,-1,-1,-1],"split_conditions":[1E0,1E0,1.52E2,1.54E2,2E0,1.93295E3,1.54E2,-6.0633916E-2,-9.041396E-3,1.2252819E-3,3.7681494E-2,-6.521304E-2,-1.0256153E-1,-1.0091256E-1,-6.9772534E-2],"split_indices":[4,6,8,8,5,7,8,0,0,0,0,0,0,0,0],"split_type":[0,0,0,0,0,0,0,0,0,0,0,0,0,0,0],"sum_hessian":[2.617352E4,2.5541412E4,6.3210815E2,9.843756E2,2.4557035E4,2.3786757E2,3.9424057E2,7.816467E2,2.0272888E2,2.2670717E4,1.8863198E3,1.6953276E2,6.833481E1,3.335795E2,6.066108E1],"tree_param":{"num_deleted":"0","num_feature":"10","num_nodes":"15","size_leaf_vector":"1"}},{"base_weights":[-2.4448277E-3,1.7495004E-2,-8.7322634E-1,-2.0964257E-1,6.2646136E-2,-7.401462E-1,-9.528346E-1,-4.2927455E-2,-1.7077327E-3,6.175093E-4,3.774416E-2,-6.2544264E-2,-1.02024905E-1,-1.0034168E-1,-6.709154E-2],"categories":[],"categories_nodes":[],"categories_segments":[],"categories_sizes":[],"default_left":[0,0,0,0,0,0,0,0,0,0,0,0,0,0,0],"id":29,"left_children":[1,3,5,7,9,11,13,-1,-1,-1,-1,-1,-1,-1,-1],"loss_changes":[4.5240427E2,2.6124313E2,5.4742126E0,1.7864204E2,3.7773926E2,6.5201263E0,4.481476E0,0E0,0E0,0E0,0E0,0E0,0E0,0E0,0E0],"parents":[2147483647,0,0,1,1,2,2,3,3,4,4,5,5,6,6],"right_children":[2,4,6,8,10,12,14,-1,-1,-1,-1,-1,-1,-1,-1],"split_conditions":[1E0,2.7E1,1.52E2,1E0,1.54E2,1.93295E3,1.54E2,-4.2927455E-2,-1.7077327E-3,6.175093E-4,3.774416E-2,-6.2544264E-2,-1.02024905E-1,-1.0034168E-1,-6.709154E-2],"split_indices":[4,1,8,0,8,7,8,0,0,0,0,0,0,0,0],"split_type":[0,0,0,0,0,0,0,0,0,0,0,0,0,0,0],"sum_hessian":[2.6053418E4,2.5471139E4,5.82278E2,4.22304E3,2.12481E4,2.2179822E2,3.604798E2,1.972294E3,2.2507463E3,1.8017047E4,3.2310518E3,1.5965254E2,6.214567E1,3.0347153E2,5.7008297E1],"tree_param":{"num_deleted":"0","num_feature":"10","num_nodes":"15","size_leaf_vector":"1"}},{"base_weights":[-2.3010108E-3,1.5782544E-2,-8.5664165E-1,8.577162E-2,-1.1458522E-1,-7.164656E-1,-9.4227934E-1,1.51976785E-2,-2.4664216E-2,-3.897816E-2,2.0400578E-2,-5.6078783E-3,-7.664981E-2,-9.97794E-2,-6.437855E-2],"categories":[],"categories_nodes":[],"categories_segments":[],"categories_sizes":[],"default_left":[0,0,0,0,0,0,0,0,0,0,0,0,0,0,0],"id":30,"left_children":[1,3,5,7,9,11,13,-1,-1,-1,-1,-1,-1,-1,-1],"loss_changes":[4.0094656E2,2.3189745E2,5.7824097E0,3.6397687E2,7.78475E2,6.8354034E0,4.838501E0,0E0,0E0,0E0,0E0,0E0,0E0,0E0,0E0],"parents":[2147483647,0,0,1,1,2,2,3,3,4,4,5,5,6,6],"right_children":[2,4,6,8,10,12,14,-1,-1,-1,-1,-1,-1,-1,-1],"split_conditions":[1E0,1.25E2,1.52E2,5.9E1,1.54E2,2.6E1,1.54E2,1.51976785E-2,-2.4664216E-2,-3.897816E-2,2.0400578E-2,-5.6078783E-3,-7.664981E-2,-9.97794E-2,-6.437855E-2],"split_indices":[4,8,8,1,8,1,8,0,0,0,0,0,0,0,0],"split_type":[0,0,0,0,0,0,0,0,0,0,0,0,0,0,0],"sum_hessian":[2.595017E4,2.5413238E4,5.369324E2,1.6536055E4,8.877184E3,2.0717851E2,3.2975385E2,1.3790094E4,2.7459602E3,4.7628486E3,4.1143345E3,1.4740262E1,1.9243825E2,2.7606738E2,5.3686455E1],"tree_param":{"num_deleted":"0","num_feature":"10","num_nodes":"15","size_leaf_vector":"1"}},{"base_weights":[-2.1611713E-3,-5.580197E-1,2.3772566E-2,-4.6412215E-1,-9.56527E-1,4.070379E-2,-4.8857167E-1,-2.8106695E-2,-6.9553964E-2,-1.0203699E-1,-7.680442E-2,1.1218467E-2,-9.27431E-3,-5.6208022E-2,5.5871326E-2],"categories":[],"categories_nodes":[],"categories_segments":[],"categories_sizes":[],"default_left":[0,0,0,0,0,0,0,0,0,0,0,0,0,0,0],"id":31,"left_children":[1,3,5,7,9,11,13,-1,-1,-1,-1,-1,-1,-1,-1],"loss_changes":[3.7191162E2,4.2588684E1,2.1384479E2,3.9314316E1,1.8438568E0,2.2762671E2,6.1023987E1,0E0,0E0,0E0,0E0,0E0,0E0,0E0,0E0],"parents":[2147483647,0,0,1,1,2,2,3,3,4,4,5,5,6,6],"right_children":[2,4,6,8,10,12,14,-1,-1,-1,-1,-1,-1,-1,-1],"split_conditions":[1E0,1E0,7.1E1,1.56625E3,4.2E1,1.25E2,1.55E2,-2.8106695E-2,-6.9553964E-2,-1.0203699E-1,-7.680442E-2,1.1218467E-2,-9.27431E-3,-5.6208022E-2,5.5871326E-2],"split_indices":[6,4,1,7,1,8,8,0,0,0,0,0,0,0,0],"split_type":[0,0,0,0,0,0,0,0,0,0,0,0,0,0,0],"sum_hessian":[2.5797525E4,1.1490255E3,2.46485E4,9.3166766E2,2.1735785E2,2.38609E4,7.876005E2,5.2142554E2,4.102421E2,1.5906558E2,5.829227E1,1.553808E4,8.322819E3,7.3637775E2,5.1222797E1],"tree_param":{"num_deleted":"0","num_feature":"10","num_nodes":"15","size_leaf_vector":"1"}},{"base_weights":[-2.019772E-3,1.3651914E-2,-8.304974E-1,-1.6231935E-1,6.234938E-2,-6.3207334E-1,-9.0323555E-1,-1.2018881E-1,-1.4720665E-2,1.0812641E-2,-2.1617418E-2,-9.311002E-2,-7.989525E-3,-9.188377E-2,1.8159857E-2],"categories":[],"categories_nodes":[],"categories_segments":[],"categories_sizes":[],"default_left":[0,0,0,0,0,0,0,0,0,0,0,0,0,0,0],"id":32,"left_children":[1,3,5,7,9,11,13,-1,-1,-1,-1,-1,-1,-1,-1],"loss_changes":[3.3351392E2,2.1604765E2,6.3119507E0,8.567734E1,2.5179434E2,2.1597675E1,6.0338135E0,0E0,0E0,0E0,0E0,0E0,0E0,0E0,0E0],"parents":[2147483647,0,0,1,1,2,2,3,3,4,4,5,5,6,6],"right_children":[2,4,6,8,10,12,14,-1,-1,-1,-1,-1,-1,-1,-1],"split_conditions":[1E0,1.8E1,1.6E1,2.1E1,4.2E1,2.01E2,1.63E2,-1.2018881E-1,-1.4720665E-2,1.0812641E-2,-2.1617418E-2,-9.311002E-2,-7.989525E-3,-9.188377E-2,1.8159857E-2],"split_indices":[4,3,3,1,3,9,8,0,0,0,0,0,0,0,0],"split_type":[0,0,0,0,0,0,0,0,0,0,0,0,0,0,0],"sum_hessian":[2.5685365E4,2.520948E4,4.758852E2,5.4637075E3,1.9745773E4,1.3025351E2,3.4563168E2,7.716505E1,5.3865425E3,1.695906E4,2.7867124E3,8.4050514E1,4.6202995E1,3.4088214E2,4.749551E0],"tree_param":{"num_deleted":"0","num_feature":"10","num_nodes":"15","size_leaf_vector":"1"}},{"base_weights":[-1.8896739E-3,-5.202113E-1,2.0947345E-2,-7.23124E-1,-3.3593374E-1,-4.165685E-3,3.2959026E-1,-1.1852373E-2,-8.473377E-2,-5.319944E-2,4.3513775E-2,-5.1879524E-3,2.3235755E-2,5.603784E-2,-3.853498E-3],"categories":[],"categories_nodes":[],"categories_segments":[],"categories_sizes":[],"default_left":[0,0,0,0,0,0,0,0,0,0,0,0,0,0,0],"id":33,"left_children":[1,3,5,7,9,11,13,-1,-1,-1,-1,-1,-1,-1,-1],"loss_changes":[3.0333734E2,4.019455E1,1.9024873E2,3.8487762E1,8.619234E1,2.5618167E2,1.569297E2,0E0,0E0,0E0,0E0,0E0,0E0,0E0,0E0],"parents":[2147483647,0,0,1,1,2,2,3,3,4,4,5,5,6,6],"right_children":[2,4,6,8,10,12,14,-1,-1,-1,-1,-1,-1,-1,-1],"split_conditions":[1E0,1E0,2E0,9.423E2,1.54E2,1.54E2,6.1E1,-1.1852373E-2,-8.473377E-2,-5.319944E-2,4.3513775E-2,-5.1879524E-3,2.3235755E-2,5.603784E-2,-3.853498E-3],"split_indices":[6,5,5,7,8,8,8,0,0,0,0,0,0,0,0],"split_type":[0,0,0,0,0,0,0,0,0,0,0,0,0,0,0],"sum_hessian":[2.5624453E4,1.0804386E3,2.4544014E4,5.128272E2,5.676114E2,2.2698145E4,1.8458699E3,8.773549E1,4.2509174E2,4.5279028E2,1.1482113E2,1.888854E4,3.8096045E3,1.1342526E3,7.1161725E2],"tree_param":{"num_deleted":"0","num_feature":"10","num_nodes":"15","size_leaf_vector":"1"}},{"base_weights":[-1.7460949E-3,1.2016878E-2,-8.063433E-1,3.118542E-2,-3.7108684E-1,-6.3918114E-1,-9.1264826E-1,-1.992746E-3,4.0363606E-2,-8.388165E-2,6.823366E-2,-4.956407E-2,-1.00518405E-1,-9.829641E-2,-5.6859322E-2],"categories":[],"categories_nodes":[],"categories_segments":[],"categories_sizes":[],"default_left":[0,0,0,0,0,0,0,0,0,0,0,0,0,0,0],"id":34,"left_children":[1,3,5,7,9,11,13,-1,-1,-1,-1,-1,-1,-1,-1],"loss_changes":[2.830675E2,1.8457294E2,7.0560303E0,4.5567493E2,5.906788E2,8.456703E0,5.7419586E0,0E0,0E0,0E0,0E0,0E0,0E0,0E0,0E0],"parents":[2147483647,0,0,1,1,2,2,3,3,4,4,5,5,6,6],"right_children":[2,4,6,8,10,12,14,-1,-1,-1,-1,-1,-1,-1,-1],"split_conditions":[1E0,1.59E2,1.52E2,1.54E2,1.63E2,1.93295E3,1.54E2,-1.992746E-3,4.0363606E-2,-8.388165E-2,6.823366E-2,-4.956407E-2,-1.00518405E-1,-9.829641E-2,-5.6859322E-2],"split_indices":[4,8,8,8,8,7,8,0,0,0,0,0,0,0,0],"split_type":[0,0,0,0,0,0,0,0,0,0,0,0,0,0,0],"sum_hessian":[2.556038E4,2.5131482E4,4.2889948E2,2.3934824E4,1.1966571E3,1.6945221E2,2.5944727E2,2.104736E4,2.887466E3,8.288457E2,3.6781137E2,1.2340785E2,4.604436E1,2.13879E2,4.5568268E1],"tree_param":{"num_deleted":"0","num_feature":"10","num_nodes":"15","size_leaf_vector":"1"}},{"base_weights":[-1.6375462E-3,1.0838489E-2,-7.8703576E-1,-4.5738703E-1,2.5937062E-2,-5.586445E-1,-8.728847E-1,-3.928554E-2,-1.7382239E-1,9.825747E-3,-1.0360395E-2,-9.061323E-2,3.2539335E-3,-8.914199E-2,2.0647427E-2],"categories":[],"categories_nodes":[],"categories_segments":[],"categories_sizes":[],"default_left":[0,0,0,0,0,0,0,0,0,0,0,0,0,0,0],"id":35,"left_children":[1,3,5,7,9,11,13,-1,-1,-1,-1,-1,-1,-1,-1],"loss_changes":[2.4974648E2,1.7738242E2,7.32666E0,6.410359E1,2.277255E2,2.2967247E1,5.9434967E0,0E0,0E0,0E0,0E0,0E0,0E0,0E0,0E0],"parents":[2147483647,0,0,1,1,2,2,3,3,4,4,5,5,6,6],"right_children":[2,4,6,8,10,12,14,-1,-1,-1,-1,-1,-1,-1,-1],"split_conditions":[1E0,2.3E1,1.6E1,1.7E1,1.25E2,2.01E2,1.63E2,-3.928554E-2,-1.7382239E-1,9.825747E-3,-1.0360395E-2,-9.061323E-2,3.2539335E-3,-8.914199E-2,2.0647427E-2],"split_indices":[4,8,3,8,8,9,8,0,0,0,0,0,0,0,0],"split_type":[0,0,0,0,0,0,0,0,0,0,0,0,0,0,0],"sum_hessian":[2.5485959E4,2.5088418E4,3.9754282E2,7.828226E2,2.4305594E4,1.1065777E2,2.8688504E2,7.4651794E2,3.630464E1,1.5597842E4,8.707753E3,6.9357735E1,4.1300034E1,2.822129E2,4.6721454E0],"tree_param":{"num_deleted":"0","num_feature":"10","num_nodes":"15","size_leaf_vector":"1"}},{"base_weights":[-1.522347E-3,-4.7382087E-1,1.7831277E-2,-5.689919E-1,-1.1027253E-1,3.6388326E-2,-3.8843963E-1,-4.6794206E-2,-9.6758686E-2,6.0078382E-2,-8.03081E-2,1.0075582E-2,-8.268971E-3,-4.341874E-2,3.041595E-2],"categories":[],"categories_nodes":[],"categories_segments":[],"categories_sizes":[],"default_left":[0,0,0,0,0,0,0,0,0,0,0,0,0,0,0],"id":36,"left_children":[1,3,5,7,9,11,13,-1,-1,-1,-1,-1,-1,-1,-1],"loss_changes":[2.3230733E2,3.455153E1,1.8407803E2,3.147284E1,1.03343506E2,1.7897078E2,3.392505E1,0E0,0E0,0E0,0E0,0E0,0E0,0E0,0E0],"parents":[2147483647,0,0,1,1,2,2,3,3,4,4,5,5,6,6],"right_children":[2,4,6,8,10,12,14,-1,-1,-1,-1,-1,-1,-1,-1],"split_conditions":[1E0,1.54E2,6.9E1,2.41E2,1.58E2,1.25E2,1.55E2,-4.6794206E-2,-9.6758686E-2,6.0078382E-2,-8.03081E-2,1.0075582E-2,-8.268971E-3,-4.341874E-2,3.041595E-2],"split_indices":[6,8,1,9,8,8,8,0,0,0,0,0,0,0,0],"split_type":[0,0,0,0,0,0,0,0,0,0,0,0,0,0,0],"sum_hessian":[2.541272E4,9.9943384E2,2.4413287E4,7.916323E2,2.0780153E2,2.3347752E4,1.065534E3,6.332642E2,1.5836807E2,1.02615776E2,1.05185745E2,1.5155577E4,8.192176E3,9.9986383E2,6.567017E1],"tree_param":{"num_deleted":"0","num_feature":"10","num_nodes":"15","size_leaf_vector":"1"}},{"base_weights":[-1.4299894E-3,9.563601E-3,-7.6065546E-1,-1.4471263E-1,5.232497E-2,-5.6965995E-1,-8.86029E-1,-1.6002772E-2,7.3070206E-2,7.3361336E-3,-4.2036433E-2,-4.106685E-2,-9.96036E-2,-9.707518E-2,-4.9790073E-2],"categories":[],"categories_nodes":[],"categories_segments":[],"categories_sizes":[],"default_left":[0,0,0,0,0,0,0,0,0,0,0,0,0,0,0],"id":37,"left_children":[1,3,5,7,9,11,13,-1,-1,-1,-1,-1,-1,-1,-1],"loss_changes":[2.1132684E2,1.6465451E2,8.1489105E0,7.273762E1,1.9435011E2,9.48922E0,6.631653E0,0E0,0E0,0E0,0E0,0E0,0E0,0E0,0E0],"parents":[2147483647,0,0,1,1,2,2,3,3,4,4,5,5,6,6],"right_children":[2,4,6,8,10,12,14,-1,-1,-1,-1,-1,-1,-1,-1],"split_conditions":[1E0,1.8E1,1.52E2,1.63E2,4.8E1,1.93295E3,1.54E2,-1.6002772E-2,7.3070206E-2,7.3361336E-3,-4.2036433E-2,-4.106685E-2,-9.96036E-2,-9.707518E-2,-4.9790073E-2],"split_indices":[4,3,8,8,3,7,8,0,0,0,0,0,0,0,0],"split_type":[0,0,0,0,0,0,0,0,0,0,0,0,0,0,0],"sum_hessian":[2.5316998E4,2.4956615E4,3.6038455E2,5.415601E3,1.9541014E4,1.4501328E2,2.1537126E2,5.323289E3,9.231199E1,1.870923E4,8.317831E2,1.0705624E2,3.7957047E1,1.7555014E2,3.982113E1],"tree_param":{"num_deleted":"0","num_feature":"10","num_nodes":"15","size_leaf_vector":"1"}},{"base_weights":[-1.327204E-3,-4.4012946E-1,1.5769435E-2,-6.440792E-1,-2.6962927E-1,3.6604732E-2,-2.8912753E-1,8.388343E-4,-7.894739E-2,-4.5053884E-2,3.376524E-2,-8.026562E-2,4.4422816E-3,-3.7026204E-2,6.284335E-3],"categories":[],"categories_nodes":[],"categories_segments":[],"categories_sizes":[],"default_left":[0,0,0,0,0,0,0,0,0,0,0,0,0,0,0],"id":38,"left_children":[1,3,5,7,9,11,13,-1,-1,-1,-1,-1,-1,-1,-1],"loss_changes":[1.896264E2,3.278804E1,1.5456224E2,4.0883224E1,5.7061913E1,1.4946205E2,4.4466278E1,0E0,0E0,0E0,0E0,0E0,0E0,0E0,0E0],"parents":[2147483647,0,0,1,1,2,2,3,3,4,4,5,5,6,6],"right_children":[2,4,6,8,10,12,14,-1,-1,-1,-1,-1,-1,-1,-1],"split_conditions":[1E0,1E0,6.6E1,9.423E2,1.54E2,2.1E1,2E0,8.388343E-4,-7.894739E-2,-4.5053884E-2,3.376524E-2,-8.026562E-2,4.4422816E-3,-3.7026204E-2,6.284335E-3],"split_indices":[6,5,1,7,8,1,5,0,0,0,0,0,0,0,0],"split_type":[0,0,0,0,0,0,0,0,0,0,0,0,0,0,0],"sum_hessian":[2.5274707E4,9.4689746E2,2.432781E4,4.2989093E2,5.1700653E2,2.2772518E4,1.5552924E3,7.851085E1,3.5138007E2,3.9853952E2,1.1846704E2,2.0923972E2,2.2563277E4,1.263894E3,2.9139832E2],"tree_param":{"num_deleted":"0","num_feature":"10","num_nodes":"15","size_leaf_vector":"1"}},{"base_weights":[-1.2609264E-3,8.450273E-3,-7.33872E-1,-1.3162037E-2,2.840943E-1,-4.6949142E-1,-8.360906E-1,-5.7460857E-3,2.039191E-2,5.027051E-2,-5.7006753E-3,-8.766184E-2,1.6950432E-2,-8.5846625E-2,2.5704503E-2],"categories":[],"categories_nodes":[],"categories_segments":[],"categories_sizes":[],"default_left":[0,0,0,0,0,0,0,0,0,0,0,0,0,0,0],"id":39,"left_children":[1,3,5,7,9,11,13,-1,-1,-1,-1,-1,-1,-1,-1],"loss_changes":[1.7937978E2,1.4824194E2,8.521347E0,2.2191309E2,1.3493915E2,2.4668123E1,6.0076294E0,0E0,0E0,0E0,0E0,0E0,0E0,0E0,0E0],"parents":[2147483647,0,0,1,1,2,2,3,3,4,4,5,5,6,6],"right_children":[2,4,6,8,10,12,14,-1,-1,-1,-1,-1,-1,-1,-1],"split_conditions":[1E0,2E0,1.6E1,1.54E2,6.1E1,2.01E2,1.63E2,-5.7460857E-3,2.039191E-2,5.027051E-2,-5.7006753E-3,-8.766184E-2,1.6950432E-2,-8.5846625E-2,2.5704503E-2],"split_indices":[4,5,3,8,8,9,8,0,0,0,0,0,0,0,0],"split_type":[0,0,0,0,0,0,0,0,0,0,0,0,0,0,0],"sum_hessian":[2.521128E4,2.4882436E4,3.2884317E2,2.3074217E4,1.8082185E3,9.3250656E1,2.3559251E2,1.9164197E4,3.9100203E3,1.1016805E3,7.0653796E2,5.67325E1,3.651816E1,2.3107721E2,4.5152955E0],"tree_param":{"num_deleted":"0","num_feature":"10","num_nodes":"15","size_leaf_vector":"1"}},{"base_weights":[-1.1498185E-3,7.6403324E-3,-7.119798E-1,2.437485E-2,-3.3432212E-1,-4.965476E-1,-8.5793096E-1,-2.168534E-3,3.6032498E-2,-7.5540505E-2,6.0361862E-2,-1.3163201E-2,-7.262247E-2,-9.5825315E-2,-4.3185603E-2],"categories":[],"categories_nodes":[],"categories_segments":[],"categories_sizes":[],"default_left":[0,0,0,0,0,0,0,0,0,0,0,0,0,0,0],"id":40,"left_children":[1,3,5,7,9,11,13,-1,-1,-1,-1,-1,-1,-1,-1],"loss_changes":[1.5733823E2,1.4234865E2,9.24527E0,3.6695642E2,4.5879913E2,1.0514906E1,7.365158E0,0E0,0E0,0E0,0E0,0E0,0E0,0E0,0E0],"parents":[2147483647,0,0,1,1,2,2,3,3,4,4,5,5,6,6],"right_children":[2,4,6,8,10,12,14,-1,-1,-1,-1,-1,-1,-1,-1],"split_conditions":[1E0,1.59E2,1.52E2,1.54E2,1.63E2,4.3E1,1.54E2,-2.168534E-3,3.6032498E-2,-7.5540505E-2,6.0361862E-2,-1.3163201E-2,-7.262247E-2,-9.5825315E-2,-4.3185603E-2],"split_indices":[4,8,8,8,8,1,8,0,0,0,0,0,0,0,0],"split_type":[0,0,0,0,0,0,0,0,0,0,0,0,0,0,0],"sum_hessian":[2.5179084E4,2.4872498E4,3.0658502E2,2.3712992E4,1.1595071E3,1.25597755E2,1.8098727E2,2.0854664E4,2.8583274E3,8.0037714E2,3.591299E2,4.9123093E1,7.647466E1,1.4548325E2,3.5504036E1],"tree_param":{"num_deleted":"0","num_feature":"10","num_nodes":"15","size_leaf_vector":"1"}},{"base_weights":[-1.0772214E-3,5.7452753E-2,-1.1036683E-1,1.6333923E-1,-1.14769354E-1,-3.216366E-1,1.4087293E-1,3.8625725E-2,1.097532E-2,-1.9090649E-2,2.880231E-2,-1.2035163E-2,-5.4856967E-2,3.26478E-2,-3.1192869E-2],"categories":[],"categories_nodes":[],"categories_segments":[],"categories_sizes":[],"default_left":[0,0,0,0,0,0,0,0,0,0,0,0,0,0,0],"id":41,"left_children":[1,3,5,7,9,11,13,-1,-1,-1,-1,-1,-1,-1,-1],"loss_changes":[1.6068974E2,2.9834872E2,4.650873E2,1.2097745E2,1.9108972E2,2.1733975E2,3.365022E2,0E0,0E0,0E0,0E0,0E0,0E0,0E0,0E0],"parents":[2147483647,0,0,1,1,2,2,3,3,4,4,5,5,6,6],"right_children":[2,4,6,8,10,12,14,-1,-1,-1,-1,-1,-1,-1,-1],"split_conditions":[1.25E2,4.9E1,1.54E2,3.6E1,2E0,2.6E1,1.59E2,3.8625725E-2,1.097532E-2,-1.9090649E-2,2.880231E-2,-1.2035163E-2,-5.4856967E-2,3.26478E-2,-3.1192869E-2],"split_indices":[8,1,8,1,5,1,8,0,0,0,0,0,0,0,0],"split_type":[0,0,0,0,0,0,0,0,0,0,0,0,0,0,0],"sum_hessian":[2.5118662E4,1.6358404E4,8.760258E3,1.0130172E4,6.2282324E3,4.758507E3,4.0017515E3,1.9620078E3,8.168164E3,5.238551E3,9.8968164E2,2.5225696E3,2.235937E3,2.8385132E3,1.1632382E3],"tree_param":{"num_deleted":"0","num_feature":"10","num_nodes":"15","size_leaf_vector":"1"}},{"base_weights":[-9.3180645E-4,-3.9555895E-1,1.3436147E-2,-2.9730678E-1,-8.042688E-1,-4.0500087E-1,2.7194787E-2,-3.912383E-3,-4.6097565E-2,3.206967E-2,-9.104756E-2,-1.9806169E-1,-3.3190925E-2,8.266638E-3,-7.6360903E-3],"categories":[],"categories_nodes":[],"categories_segments":[],"categories_sizes":[],"default_left":[0,0,0,0,0,0,0,0,0,0,0,0,0,0,0],"id":42,"left_children":[1,3,5,7,9,11,13,-1,-1,-1,-1,-1,-1,-1,-1],"loss_changes":[1.4190404E2,3.5066757E1,1.3903459E2,3.0000813E1,2.058052E1,8.788098E1,1.3431206E2,0E0,0E0,0E0,0E0,0E0,0E0,0E0,0E0],"parents":[2147483647,0,0,1,1,2,2,3,3,4,4,5,5,6,6],"right_children":[2,4,6,8,10,12,14,-1,-1,-1,-1,-1,-1,-1,-1],"split_conditions":[1E0,2.41E2,2.3E1,1.3196E3,7E0,2E0,1.25E2,-3.912383E-3,-4.6097565E-2,3.206967E-2,-9.104756E-2,-1.9806169E-1,-3.3190925E-2,8.266638E-3,-7.6360903E-3],"split_indices":[6,9,8,7,3,8,8,0,0,0,0,0,0,0,0],"split_type":[0,0,0,0,0,0,0,0,0,0,0,0,0,0,0],"sum_hessian":[2.5025299E4,8.7820404E2,2.4147094E4,7.093956E2,1.688084E2,7.6780023E2,2.3379295E4,2.7571005E2,4.3368558E2,1.4388007E1,1.544204E2,3.2881657E1,7.349186E2,1.5224306E4,8.1549893E3],"tree_param":{"num_deleted":"0","num_feature":"10","num_nodes":"15","size_leaf_vector":"1"}},{"base_weights":[-8.7058207E-4,6.753898E-3,-6.775635E-1,4.4076253E-2,-1.364279E-1,-3.7991613E-1,-7.9661655E-1,1.2369256E-2,-8.016843E-3,-1.9756882E-2,1.8007392E-2,-8.4476344E-2,2.8237967E-2,-8.233279E-2,3.205205E-2],"categories":[],"categories_nodes":[],"categories_segments":[],"categories_sizes":[],"default_left":[0,0,0,0,0,0,0,0,0,0,0,0,0,0,0],"id":43,"left_children":[1,3,5,7,9,11,13,-1,-1,-1,-1,-1,-1,-1,-1],"loss_changes":[1.287914E2,1.3191606E2,9.552887E0,1.9370482E2,9.880708E1,2.5290485E1,6.1648254E0,0E0,0E0,0E0,0E0,0E0,0E0,0E0,0E0],"parents":[2147483647,0,0,1,1,2,2,3,3,4,4,5,5,6,6],"right_children":[2,4,6,8,10,12,14,-1,-1,-1,-1,-1,-1,-1,-1],"split_conditions":[1E0,5.3E1,1.6E1,1.52E2,2E0,2.01E2,1.63E2,1.2369256E-2,-8.016843E-3,-1.9756882E-2,1.8007392E-2,-8.4476344E-2,2.8237967E-2,-8.233279E-2,3.205205E-2],"split_indices":[4,1,3,8,5,9,8,0,0,0,0,0,0,0,0],"split_type":[0,0,0,0,0,0,0,0,0,0,0,0,0,0,0],"sum_hessian":[2.4960436E4,2.4683312E4,2.7712347E2,1.958016E4,5.103153E3,8.0372765E1,1.9675072E2,1.1933286E4,7.646874E3,4.2772603E3,8.25893E2,4.7064186E1,3.3308575E1,1.9241301E2,4.3376966E0],"tree_param":{"num_deleted":"0","num_feature":"10","num_nodes":"15","size_leaf_vector":"1"}},{"base_weights":[-7.993781E-4,-9.530567E-3,5.880029E-1,1.2008455E-2,-6.560168E-1,-5.1187414E-1,6.2910664E-1,-2.8637517E-3,3.1293165E-2,-5.144259E-2,-1.3823657E-1,-1.4638475E-1,3.212841E-2,1.442892E-1,5.630627E-2],"categories":[],"categories_nodes":[],"categories_segments":[],"categories_sizes":[],"default_left":[0,0,0,0,0,0,0,0,0,0,0,0,0,0,0],"id":44,"left_children":[1,3,5,7,9,11,13,-1,-1,-1,-1,-1,-1,-1,-1],"loss_changes":[1.2800262E2,3.4164645E2,1.6769989E1,2.9043747E2,8.064786E1,1.1303043E1,1.806102E1,0E0,0E0,0E0,0E0,0E0,0E0,0E0,0E0],"parents":[2147483647,0,0,1,1,2,2,3,3,4,4,5,5,6,6],"right_children":[2,4,6,8,10,12,14,-1,-1,-1,-1,-1,-1,-1,-1],"split_conditions":[1.63E2,1.59E2,2.2E1,1.54E2,3.4E1,2.02E2,2.4E1,-2.8637517E-3,3.1293165E-2,-5.144259E-2,-1.3823657E-1,-1.4638475E-1,3.212841E-2,1.442892E-1,5.630627E-2],"split_indices":[8,8,1,8,1,9,1,0,0,0,0,0,0,0,0],"split_type":[0,0,0,0,0,0,0,0,0,0,0,0,0,0,0],"sum_hessian":[2.4896572E4,2.4533752E4,3.628205E2,2.3743664E4,7.900877E2,1.2657959E1,3.5016254E2,2.0919018E4,2.824646E3,6.6262665E2,1.2746104E2,5.5544333E0,7.1035256E0,2.4719885E1,3.2544266E2],"tree_param":{"num_deleted":"0","num_feature":"10","num_nodes":"15","size_leaf_vector":"1"}},{"base_weights":[-7.1710756E-4,1.2485558E-2,-3.7924257E-1,-1.12471506E-1,6.2437575E-2,5.667715E-2,-4.22857E-1,-7.01107E-2,-9.723225E-3,8.916947E-3,-1.950269E-2,4.78698E-2,-3.1718496E-2,-1.878121E-2,-5.218596E-2],"categories":[],"categories_nodes":[],"categories_segments":[],"categories_sizes":[],"default_left":[0,0,0,0,0,0,0,0,0,0,0,0,0,0,0],"id":45,"left_children":[1,3,5,7,9,11,13,-1,-1,-1,-1,-1,-1,-1,-1],"loss_changes":[1.2427138E2,1.4998915E2,1.5958069E1,6.149193E1,1.1816835E2,1.2317682E1,1.7633392E1,0E0,0E0,0E0,0E0,0E0,0E0,0E0,0E0],"parents":[2147483647,0,0,1,1,2,2,3,3,4,4,5,5,6,6],"right_children":[2,4,6,8,10,12,14,-1,-1,-1,-1,-1,-1,-1,-1],"split_conditions":[4.8E1,2.8E1,3.4E1,2E0,6.3E1,1.24E2,3.6E1,-7.01107E-2,-9.723225E-3,8.916947E-3,-1.950269E-2,4.78698E-2,-3.1718496E-2,-1.878121E-2,-5.218596E-2],"split_indices":[3,3,9,3,1,8,1,0,0,0,0,0,0,0,0],"split_type":[0,0,0,0,0,0,0,0,0,0,0,0,0,0,0],"sum_hessian":[2.4864535E4,2.4027445E4,8.37091E2,6.861604E3,1.716584E4,7.610756E1,7.6098346E2,1.7202228E2,6.6895815E3,1.5551791E4,1.6140496E3,3.561943E1,4.048813E1,2.263934E2,5.345901E2],"tree_param":{"num_deleted":"0","num_feature":"10","num_nodes":"15","size_leaf_vector":"1"}},{"base_weights":[-6.3096354E-4,-8.8411845E-2,5.0721105E-2,2.390618E-3,-2.2764677E-1,6.267286E-2,-5.020545E-1,1.0293752E-2,-2.4185035E-2,-5.0731104E-2,1.3364081E-2,4.054541E-3,3.2782253E-2,-9.626814E-2,-2.4482666E-2],"categories":[],"categories_nodes":[],"categories_segments":[],"categories_sizes":[],"default_left":[0,0,0,0,0,0,0,0,0,0,0,0,0,0,0],"id":46,"left_children":[1,3,5,7,9,11,13,-1,-1,-1,-1,-1,-1,-1,-1],"loss_changes":[1.1202483E2,1.159664E2,1.0361897E2,1.3638855E2,3.6589395E2,9.003685E1,3.9095055E1,0E0,0E0,0E0,0E0,0E0,0E0,0E0,0E0],"parents":[2147483647,0,0,1,1,2,2,3,3,4,4,5,5,6,6],"right_children":[2,4,6,8,10,12,14,-1,-1,-1,-1,-1,-1,-1,-1],"split_conditions":[1E0,1.52E2,7.3E1,5.1E1,1.54E2,2E0,1.6309E3,1.0293752E-2,-2.4185035E-2,-5.0731104E-2,1.3364081E-2,4.054541E-3,3.2782253E-2,-9.626814E-2,-2.4482666E-2],"split_indices":[0,8,1,1,8,5,7,0,0,0,0,0,0,0,0],"split_type":[0,0,0,0,0,0,0,0,0,0,0,0,0,0,0],"sum_hessian":[2.4849727E4,9.171428E3,1.5678299E4,5.5517925E3,3.619635E3,1.53473545E4,3.3094403E2,3.933191E3,1.6186018E3,2.0400645E3,1.5795704E3,1.4166292E4,1.1810625E3,1.1760397E2,2.1334007E2],"tree_param":{"num_deleted":"0","num_feature":"10","num_nodes":"15","size_leaf_vector":"1"}},{"base_weights":[-5.854062E-4,6.1958297E-3,-6.4897114E-1,-3.5584736E-1,1.8330283E-2,-3.3801168E-1,-7.766304E-1,-9.2896104E-2,-2.2840274E-2,1.2480678E-2,-2.9060931E-3,-8.238172E-2,2.836786E-2,-5.4497935E-2,-9.4659865E-2],"categories":[],"categories_nodes":[],"categories_segments":[],"categories_sizes":[],"default_left":[0,0,0,0,0,0,0,0,0,0,0,0,0,0,0],"id":47,"left_children":[1,3,5,7,9,11,13,-1,-1,-1,-1,-1,-1,-1,-1],"loss_changes":[1.0897176E2,1.0776098E2,9.920692E0,5.7889153E1,1.1976207E2,2.3317604E1,6.6143494E0,0E0,0E0,0E0,0E0,0E0,0E0,0E0,0E0],"parents":[2147483647,0,0,1,1,2,2,3,3,4,4,5,5,6,6],"right_children":[2,4,6,8,10,12,14,-1,-1,-1,-1,-1,-1,-1,-1],"split_conditions":[1E0,2.3E1,1.6E1,3.9E1,2.9E1,2.01E2,1.25E2,-9.2896104E-2,-2.2840274E-2,1.2480678E-2,-2.9060931E-3,-8.238172E-2,2.836786E-2,-5.4497935E-2,-9.4659865E-2],"split_indices":[4,8,3,1,8,9,8,0,0,0,0,0,0,0,0],"split_type":[0,0,0,0,0,0,0,0,0,0,0,0,0,0,0],"sum_hessian":[2.47821E4,2.4526576E4,2.5552429E2,7.944699E2,2.3732105E4,7.543158E1,1.8009271E2,1.433848E2,6.510851E2,7.3089795E3,1.6423127E4,4.216084E1,3.327074E1,7.7996735E1,1.0209597E2],"tree_param":{"num_deleted":"0","num_feature":"10","num_nodes":"15","size_leaf_vector":"1"}},{"base_weights":[-5.506454E-4,-8.395354E-3,5.3437424E-1,1.1238932E-2,-6.0489845E-1,-4.79582E-1,5.725701E-1,-2.486726E-3,2.802054E-2,-4.7665834E-2,-1.2525092E-1,-1.3807666E-1,2.8594298E-2,8.287423E-2,4.0341776E-2],"categories":[],"categories_nodes":[],"categories_segments":[],"categories_sizes":[],"default_left":[0,0,0,0,0,0,0,0,0,0,0,0,0,0,0],"id":48,"left_children":[1,3,5,7,9,11,13,-1,-1,-1,-1,-1,-1,-1,-1],"loss_changes":[1.03867294E2,2.8570868E2,1.412957E1,2.2936732E2,6.396408E1,9.7296915E0,1.4624413E1,0E0,0E0,0E0,0E0,0E0,0E0,0E0,0E0],"parents":[2147483647,0,0,1,1,2,2,3,3,4,4,5,5,6,6],"right_children":[2,4,6,8,10,12,14,-1,-1,-1,-1,-1,-1,-1,-1],"split_conditions":[1.63E2,1.59E2,2.2E1,1.54E2,3.4E1,2.02E2,3.6E1,-2.486726E-3,2.802054E-2,-4.7665834E-2,-1.2525092E-1,-1.3807666E-1,2.8594298E-2,8.287423E-2,4.0341776E-2],"split_indices":[8,8,1,8,1,9,1,0,0,0,0,0,0,0,0],"split_type":[0,0,0,0,0,0,0,0,0,0,0,0,0,0,0],"sum_hessian":[2.474987E4,2.4393127E4,3.5674252E2,2.3616748E4,7.763794E2,1.2531166E1,3.4421136E2,2.0822441E4,2.7943071E3,6.4950104E2,1.2687839E2,5.386469E0,7.1446977E0,1.3534264E2,2.0886873E2],"tree_param":{"num_deleted":"0","num_feature":"10","num_nodes":"15","size_leaf_vector":"1"}},{"base_weights":[-4.9711834E-4,-3.4783116E-1,1.144401E-2,-2.4963339E-1,-7.7147806E-1,2.332477E-2,-3.285209E-1,-7.2737894E-4,-4.0986054E-2,2.9935911E-2,-8.847715E-2,-8.753038E-3,6.721691E-3,-4.660889E-2,-1.9700928E-2],"categories":[],"categories_nodes":[],"categories_segments":[],"categories_sizes":[],"default_left":[0,0,0,0,0,0,0,0,0,0,0,0,0,0,0],"id":49,"left_children":[1,3,5,7,9,11,13,-1,-1,-1,-1,-1,-1,-1,-1],"loss_changes":[1.02526886E2,3.3987183E1,9.6533646E1,2.5955776E1,1.896331E1,1.1236494E2,1.4508934E1,0E0,0E0,0E0,0E0,0E0,0E0,0E0,0E0],"parents":[2147483647,0,0,1,1,2,2,3,3,4,4,5,5,6,6],"right_children":[2,4,6,8,10,12,14,-1,-1,-1,-1,-1,-1,-1,-1],"split_conditions":[1E0,2.41E2,4.8E1,1.3196E3,7E0,2.8E1,1.21395E3,-7.2737894E-4,-4.0986054E-2,2.9935911E-2,-8.847715E-2,-8.753038E-3,6.721691E-3,-4.660889E-2,-1.9700928E-2],"split_indices":[6,9,3,7,3,3,7,0,0,0,0,0,0,0,0],"split_type":[0,0,0,0,0,0,0,0,0,0,0,0,0,0,0],"sum_hessian":[2.4717848E4,8.2060535E2,2.3897242E4,6.674787E2,1.5312665E2,2.3091205E4,8.060375E2,2.6606863E2,4.0141003E2,1.449348E1,1.3863318E2,6.5492505E3,1.6541955E4,3.9270425E2,4.1333322E2],"tree_param":{"num_deleted":"0","num_feature":"10","num_nodes":"15","size_leaf_vector":"1"}}]},"name":"gbtree"},"learner_model_param":{"base_score":"5E-1","boost_from_average":"1","num_class":"0","num_feature":"10","num_target":"1"},"objective":{"name":"binary:logistic","reg_loss_param":{"scale_pos_weight":"7.28328848"}}},"version":[2,0,3]}