{"learner":{"attributes":{"scikit_learn":"{\"_estimator_type\": \"classifier\"}"},"feature_names":["Gender","Age","HasDrivingLicense","RegionID","Switch","VehicleAge","PastAccident","AnnualPremium","SalesChannelID","DaysSinceCreated"],"feature_types":["int","float","float","float","int","int","int","float","int","int"],"gradient_booster":{"model":{"gbtree_model_param":{"num_parallel_tree":"1","num_trees":"100"},"iteration_indptr":[0,1,2,3,4,5,6,7,8,9,10,11,12,13,14,15,16,17,18,19,20,21,22,23,24,25,26,27,28,29,30,31,32,33,34,35,36,37,38,39,40,41,42,43,44,45,46,47,48,49,50,51,52,53,54,55,56,57,58,59,60,61,62,63,64,65,66,67,68,69,70,71,72,73,74,75,76,77,78,79,80,81,82,83,84,85,86,87,88,89,90,91,92,93,94,95,96,97,98,99,100],"tree_info":[0,0,0,0,0,0,0,0,0,0,0,0,0,0,0,0,0,0,0,0,0,0,0,0,0,0,0,0,0,0,0,0,0,0,0,0,0,0,0,0,0,0,0,0,0,0,0,0,0,0,0,0,0,0,0,0,0,0,0,0,0,0,0,0,0,0,0,0,0,0,0,0,0,0,0,0,0,0,0,0,0,0,0,0,0,0,0,0,0,0,0,0,0,0,0,0,0,0,0,0],"trees":[{"base_weights":[-8.155028E-8,-1.8747747E0,3.1744516E-1,-1.9136302E0,-1.5094926E0,5.195277E-1,-1.9659818E0,-1.8541381E0,-1.9911962E-2,-7.0054847E-1,-1.8855525E0,-5.7500374E-1,7.3265934E-1,-1.9688576E-2,-9.76445E-1,-1.7736781E0,-1.9060068E0,-3.4568742E-1,-1.9424185E-2,-1.9261305E0,-7.393089E-1,4.04023E-1,-7.031199E-1,8.215148E-1,1.6460688E-1,2.8043885E-3,-1.6662905E-2,-1.6685119E-2,-1.900978E-2,-1.6994774E-2,-1.9306388E-2,-7.6502864E-4,-9.714481E-3,-1.9470435E-2,-1.1003674E-2,-1.7138988E-2,3.1971603E-3,2.0641764E-3,7.0820767E-3,-8.939392E-3,-5.302686E-3,2.8305948E-3,8.827028E-3,3.4861257E-3,-1.9097051E-3],"categories":[],"categories_nodes":[],"categories_segments":[],"categories_sizes":[],"default_left":[0,0,0,0,0,0,0,0,0,0,0,0,0,0,0,0,0,0,0,0,0,0,0,0,0,0,0,0,0,0,0,0,0,0,0,0,0,0,0,0,0,0,0,0,0],"id":0,"left_children":[1,3,5,7,9,11,13,15,-1,17,19,21,23,-1,25,27,29,31,-1,33,35,37,39,41,43,-1,-1,-1,-1,-1,-1,-1,-1,-1,-1,-1,-1,-1,-1,-1,-1,-1,-1,-1,-1],"loss_changes":[2.0928074E4,6.9384766E1,1.3877916E4,1.7527344E1,1.4905383E2,6.4456235E3,5.036133E0,7.541992E0,0E0,6.916047E1,1.4243652E1,5.6517554E2,1.1671426E3,0E0,8.331487E0,1.0754395E1,4.7456055E0,2.0890366E1,0E0,3.465088E0,1.4109953E1,3.121785E1,1.3089478E2,6.586123E2,2.0481451E2,0E0,0E0,0E0,0E0,0E0,0E0,0E0,0E0,0E0,0E0,0E0,0E0,0E0,0E0,0E0,0E0,0E0,0E0,0E0,0E0],"parents":[2147483647,0,0,1,1,2,2,3,3,4,4,5,5,6,6,7,7,9,9,10,10,11,11,12,12,14,14,15,15,16,16,17,17,19,19,20,20,21,21,22,22,23,23,24,24],"right_children":[2,4,6,8,10,12,14,16,-1,18,20,22,24,-1,26,28,30,32,-1,34,36,38,40,42,44,-1,-1,-1,-1,-1,-1,-1,-1,-1,-1,-1,-1,-1,-1,-1,-1,-1,-1,-1,-1],"split_conditions":[1E0,1.54E2,1E0,1E0,1.58E2,2.8E1,1.63E2,1.25E2,-1.9911962E-2,1E0,1.63E2,1.51E2,5.9E1,-1.9688576E-2,2.3E1,4.8E1,9.423E2,1.3541E3,-1.9424185E-2,5E1,2.38E2,2.5E1,1E0,1E0,6.9E1,2.8043885E-3,-1.6662905E-2,-1.6685119E-2,-1.900978E-2,-1.6994774E-2,-1.9306388E-2,-7.6502864E-4,-9.714481E-3,-1.9470435E-2,-1.1003674E-2,-1.7138988E-2,3.1971603E-3,2.0641764E-3,7.0820767E-3,-8.939392E-3,-5.302686E-3,2.8305948E-3,8.827028E-3,3.4861257E-3,-1.9097051E-3],"split_indices":[6,8,4,4,8,1,8,8,0,4,8,8,1,0,1,1,7,7,0,3,9,1,0,5,1,0,0,0,0,0,0,0,0,0,0,0,0,0,0,0,0,0,0,0,0],"split_type":[0,0,0,0,0,0,0,0,0,0,0,0,0,0,0,0,0,0,0,0,0,0,0,0,0,0,0,0,0,0,0,0,0,0,0,0,0,0,0,0,0,0,0,0,0],"sum_hessian":[3.516306E4,5.09109E3,3.007197E4,4.59778E3,4.9331E2,2.7627701E4,2.44427E3,2.61614E3,1.98164E3,1.5746E2,3.3585E2,4.50267E3,2.3125031E4,2.4362E3,8.07E0,1.03924E3,1.5769E3,1.2346E2,3.4E1,3.2371E2,1.214E1,5.2079004E2,3.9818801E3,1.999668E4,3.12835E3,3.0700002E0,5E0,5.7682E2,4.6242E2,1.7549E2,1.40141E3,8.711E1,3.635E1,3.1439E2,9.32E0,6E0,6.1400003E0,3.1672E2,2.0407E2,1.89059E3,2.09129E3,2.04105E3,1.795563E4,2.06155E3,1.0668E3],"tree_param":{"num_deleted":"0","num_feature":"10","num_nodes":"45","size_leaf_vector":"1"}},{"base_weights":[-5.76415E-6,-1.8562344E0,3.142763E-1,-1.8946965E0,-1.4946582E0,5.1433975E-1,-1.9465333E0,-1.8357905E0,-1.9714992E-2,-6.9375074E-1,-1.8670067E0,-5.692627E-1,7.2534335E-1,-1.9493753E-2,-9.682484E-1,-1.7561213E0,-1.88715E0,-3.423174E-1,-1.9237345E-2,-1.9071487E0,-7.3300356E-1,4.0000215E-1,-6.961027E-1,8.1331295E-1,1.6296166E-1,2.7832373E-3,-1.652506E-2,-1.651977E-2,-1.8821876E-2,-1.6827067E-2,-1.9115334E-2,-7.574645E-4,-9.620181E-3,-1.9278262E-2,-1.0904625E-2,-1.6993212E-2,3.1696719E-3,2.0436011E-3,7.011676E-3,-8.85024E-3,-5.24973E-3,2.8023054E-3,8.738914E-3,3.4512894E-3,-1.8906282E-3],"categories":[],"categories_nodes":[],"categories_segments":[],"categories_sizes":[],"default_left":[0,0,0,0,0,0,0,0,0,0,0,0,0,0,0,0,0,0,0,0,0,0,0,0,0,0,0,0,0,0,0,0,0,0,0,0,0,0,0,0,0,0,0,0,0],"id":1,"left_children":[1,3,5,7,9,11,13,15,-1,17,19,21,23,-1,25,27,29,31,-1,33,35,37,39,41,43,-1,-1,-1,-1,-1,-1,-1,-1,-1,-1,-1,-1,-1,-1,-1,-1,-1,-1,-1,-1],"loss_changes":[2.0513924E4,6.797656E1,1.3602881E4,1.7183594E1,1.4610547E2,6.317461E3,4.9121094E0,7.3935547E0,0E0,6.78351E1,1.3934326E1,5.539591E2,1.1439541E3,0E0,8.196114E0,1.0547363E1,4.647949E0,2.048704E1,0E0,3.3806152E0,1.3870063E1,3.0600777E1,1.2830017E2,6.455371E2,2.0074179E2,0E0,0E0,0E0,0E0,0E0,0E0,0E0,0E0,0E0,0E0,0E0,0E0,0E0,0E0,0E0,0E0,0E0,0E0,0E0,0E0],"parents":[2147483647,0,0,1,1,2,2,3,3,4,4,5,5,6,6,7,7,9,9,10,10,11,11,12,12,14,14,15,15,16,16,17,17,19,19,20,20,21,21,22,22,23,23,24,24],"right_children":[2,4,6,8,10,12,14,16,-1,18,20,22,24,-1,26,28,30,32,-1,34,36,38,40,42,44,-1,-1,-1,-1,-1,-1,-1,-1,-1,-1,-1,-1,-1,-1,-1,-1,-1,-1,-1,-1],"split_conditions":[1E0,1.54E2,1E0,1E0,1.58E2,2.8E1,1.63E2,1.25E2,-1.9714992E-2,1E0,1.63E2,1.51E2,5.9E1,-1.9493753E-2,2.3E1,4.8E1,9.423E2,1.3541E3,-1.9237345E-2,5E1,2.38E2,2.5E1,1E0,1E0,6.9E1,2.7832373E-3,-1.652506E-2,-1.651977E-2,-1.8821876E-2,-1.6827067E-2,-1.9115334E-2,-7.574645E-4,-9.620181E-3,-1.9278262E-2,-1.0904625E-2,-1.6993212E-2,3.1696719E-3,2.0436011E-3,7.011676E-3,-8.85024E-3,-5.24973E-3,2.8023054E-3,8.738914E-3,3.4512894E-3,-1.8906282E-3],"split_indices":[6,8,4,4,8,1,8,8,0,4,8,8,1,0,1,1,7,7,0,3,9,1,0,5,1,0,0,0,0,0,0,0,0,0,0,0,0,0,0,0,0,0,0,0,0],"split_type":[0,0,0,0,0,0,0,0,0,0,0,0,0,0,0,0,0,0,0,0,0,0,0,0,0,0,0,0,0,0,0,0,0,0,0,0,0,0,0,0,0,0,0,0,0],"sum_hessian":[3.516195E4,5.0906123E3,3.0071338E4,4.5973384E3,4.932737E2,2.7627314E4,2.4440227E3,2.6159038E3,1.9814347E3,1.5745567E2,3.3581802E2,4.5026084E3,2.3124707E4,2.435953E3,8.06963E0,1.0391539E3,1.5767499E3,1.2345903E2,3.3996643E1,3.2367853E2,1.2139524E1,5.207876E2,3.9818208E3,1.9996363E4,3.128344E3,3.0699959E0,4.999634E0,5.7677765E2,4.6237622E2,1.7547664E2,1.4012733E3,8.710997E1,3.6349064E1,3.1435883E2,9.3196945E0,5.999536E0,6.1399884E0,3.167198E2,2.0406776E2,1.8905483E3,2.0912727E3,2.0410471E3,1.7955314E4,2.0615452E3,1.0667986E3],"tree_param":{"num_deleted":"0","num_feature":"10","num_nodes":"45","size_leaf_vector":"1"}},{"base_weights":[-1.1480508E-5,-1.8382019E0,3.1115243E-1,-1.8762889E0,-1.4801742E0,5.09219E-1,-1.9276445E0,-1.8179325E0,-1.952378E-2,-6.870541E-1,-1.8489736E0,-5.6359255E-1,7.181227E-1,-1.9304544E-2,-9.601945E-1,-1.7390083E0,-1.8688136E0,-3.3898488E-1,-1.9055745E-2,-1.8886987E0,-7.268023E-1,3.960256E-1,-6.8917334E-1,8.052214E-1,1.613336E-1,2.762254E-3,-1.6390229E-2,-1.63583E-2,-1.8639142E-2,-1.666337E-2,-1.892964E-2,-7.4997585E-4,-9.527223E-3,-1.9091537E-2,-1.0807048E-2,-1.6850773E-2,3.1424318E-3,2.0232329E-3,6.9421493E-3,-8.762321E-3,-5.1973728E-3,2.774313E-3,8.652014E-3,3.416821E-3,-1.8717445E-3],"categories":[],"categories_nodes":[],"categories_segments":[],"categories_sizes":[],"default_left":[0,0,0,0,0,0,0,0,0,0,0,0,0,0,0,0,0,0,0,0,0,0,0,0,0,0,0,0,0,0,0,0,0,0,0,0,0,0,0,0,0,0,0,0,0],"id":2,"left_children":[1,3,5,7,9,11,13,15,-1,17,19,21,23,-1,25,27,29,31,-1,33,35,37,39,41,43,-1,-1,-1,-1,-1,-1,-1,-1,-1,-1,-1,-1,-1,-1,-1,-1,-1,-1,-1,-1],"loss_changes":[2.0111146E4,6.663281E1,1.3335135E4,1.6863281E1,1.4327539E2,6.1920386E3,4.791992E0,7.2558594E0,0E0,6.655453E1,1.3638062E1,5.429807E2,1.1213145E3,0E0,8.064139E0,1.0353027E1,4.5585938E0,2.009283E1,0E0,3.3012695E0,1.3636248E1,2.9997498E1,1.2577307E2,6.327822E2,1.9675104E2,0E0,0E0,0E0,0E0,0E0,0E0,0E0,0E0,0E0,0E0,0E0,0E0,0E0,0E0,0E0,0E0,0E0,0E0,0E0,0E0],"parents":[2147483647,0,0,1,1,2,2,3,3,4,4,5,5,6,6,7,7,9,9,10,10,11,11,12,12,14,14,15,15,16,16,17,17,19,19,20,20,21,21,22,22,23,23,24,24],"right_children":[2,4,6,8,10,12,14,16,-1,18,20,22,24,-1,26,28,30,32,-1,34,36,38,40,42,44,-1,-1,-1,-1,-1,-1,-1,-1,-1,-1,-1,-1,-1,-1,-1,-1,-1,-1,-1,-1],"split_conditions":[1E0,1.54E2,1E0,1E0,1.58E2,2.8E1,1.63E2,1.25E2,-1.952378E-2,1E0,1.63E2,1.51E2,5.9E1,-1.9304544E-2,2.3E1,4.8E1,9.423E2,1.3541E3,-1.9055745E-2,5E1,2.38E2,2.5E1,1E0,1E0,6.9E1,2.762254E-3,-1.6390229E-2,-1.63583E-2,-1.8639142E-2,-1.666337E-2,-1.892964E-2,-7.4997585E-4,-9.527223E-3,-1.9091537E-2,-1.0807048E-2,-1.6850773E-2,3.1424318E-3,2.0232329E-3,6.9421493E-3,-8.762321E-3,-5.1973728E-3,2.774313E-3,8.652014E-3,3.416821E-3,-1.8717445E-3],"split_indices":[6,8,4,4,8,1,8,8,0,4,8,8,1,0,1,1,7,7,0,3,9,1,0,5,1,0,0,0,0,0,0,0,0,0,0,0,0,0,0,0,0,0,0,0,0],"split_type":[0,0,0,0,0,0,0,0,0,0,0,0,0,0,0,0,0,0,0,0,0,0,0,0,0,0,0,0,0,0,0,0,0,0,0,0,0,0,0,0,0,0,0,0,0],"sum_hessian":[3.5158668E4,5.0892407E3,3.0069428E4,4.596071E3,4.931696E2,2.7626115E4,2.443312E3,2.6152266E3,1.9808444E3,1.5744336E2,3.3572623E2,4.502439E3,2.3123676E4,2.4352434E3,8.068565E0,1.0389073E3,1.5763192E3,1.2345636E2,3.3987E1,3.2358807E2,1.2138152E1,5.207794E2,3.9816592E3,1.9995354E4,3.1283235E3,3.0699797E0,4.9985857E0,5.766567E2,4.622506E2,1.7543848E2,1.4008807E3,8.710992E1,3.6346443E1,3.1426926E2,9.318836E0,5.998206E0,6.1399465E0,3.1671893E2,2.040605E2,1.8904327E3,2.0912266E3,2.0410363E3,1.7954316E4,2.0615283E3,1.0667952E3],"tree_param":{"num_deleted":"0","num_feature":"10","num_nodes":"45","size_leaf_vector":"1"}},{"base_weights":[-1.730028E-5,-1.8206564E0,3.0807233E-1,-1.8583857E0,-1.466027E0,5.0416374E-1,-1.9092914E0,-1.8005445E0,-1.9338084E-2,-6.804561E-1,-1.831432E0,-5.579919E-1,7.109953E-1,-1.9120706E-2,-9.522795E-1,-1.7223214E0,-1.8509771E0,-3.3568972E-1,-1.887917E-2,-1.8707582E0,-7.207021E-1,3.9209303E-1,-6.823301E-1,7.9723734E-1,1.5972242E-1,2.741438E-3,-1.6258312E-2,-1.620056E-2,-1.846136E-2,-1.6503533E-2,-1.8749088E-2,-7.4256514E-4,-9.435583E-3,-1.8910034E-2,-1.071091E-2,-1.6711557E-2,3.1154405E-3,2.0030767E-3,6.8734754E-3,-8.675609E-3,-5.1456057E-3,2.7466058E-3,8.566299E-3,3.382716E-3,-1.853055E-3],"categories":[],"categories_nodes":[],"categories_segments":[],"categories_sizes":[],"default_left":[0,0,0,0,0,0,0,0,0,0,0,0,0,0,0,0,0,0,0,0,0,0,0,0,0,0,0,0,0,0,0,0,0,0,0,0,0,0,0,0,0,0,0,0,0],"id":3,"left_children":[1,3,5,7,9,11,13,15,-1,17,19,21,23,-1,25,27,29,31,-1,33,35,37,39,41,43,-1,-1,-1,-1,-1,-1,-1,-1,-1,-1,-1,-1,-1,-1,-1,-1,-1,-1,-1,-1],"loss_changes":[1.97193E4,6.535156E1,1.30743955E4,1.656543E1,1.4055713E2,6.0692847E3,4.676758E0,7.1279297E0,0E0,6.5316574E1,1.335376E1,5.322344E2,1.0992051E3,0E0,7.9354486E0,1.0171387E1,4.475586E0,1.9707481E1,0E0,3.2271729E0,1.3408305E1,2.940757E1,1.2331079E2,6.203457E2,1.9284088E2,0E0,0E0,0E0,0E0,0E0,0E0,0E0,0E0,0E0,0E0,0E0,0E0,0E0,0E0,0E0,0E0,0E0,0E0,0E0,0E0],"parents":[2147483647,0,0,1,1,2,2,3,3,4,4,5,5,6,6,7,7,9,9,10,10,11,11,12,12,14,14,15,15,16,16,17,17,19,19,20,20,21,21,22,22,23,23,24,24],"right_children":[2,4,6,8,10,12,14,16,-1,18,20,22,24,-1,26,28,30,32,-1,34,36,38,40,42,44,-1,-1,-1,-1,-1,-1,-1,-1,-1,-1,-1,-1,-1,-1,-1,-1,-1,-1,-1,-1],"split_conditions":[1E0,1.54E2,1E0,1E0,1.58E2,2.8E1,1.63E2,1.25E2,-1.9338084E-2,1E0,1.63E2,1.51E2,5.9E1,-1.9120706E-2,2.3E1,4.8E1,9.423E2,1.3541E3,-1.887917E-2,5E1,2.38E2,2.5E1,1E0,1E0,6.9E1,2.741438E-3,-1.6258312E-2,-1.620056E-2,-1.846136E-2,-1.6503533E-2,-1.8749088E-2,-7.4256514E-4,-9.435583E-3,-1.8910034E-2,-1.071091E-2,-1.6711557E-2,3.1154405E-3,2.0030767E-3,6.8734754E-3,-8.675609E-3,-5.1456057E-3,2.7466058E-3,8.566299E-3,3.382716E-3,-1.853055E-3],"split_indices":[6,8,4,4,8,1,8,8,0,4,8,8,1,0,1,1,7,7,0,3,9,1,0,5,1,0,0,0,0,0,0,0,0,0,0,0,0,0,0,0,0,0,0,0,0],"split_type":[0,0,0,0,0,0,0,0,0,0,0,0,0,0,0,0,0,0,0,0,0,0,0,0,0,0,0,0,0,0,0,0,0,0,0,0,0,0,0,0,0,0,0,0,0],"sum_hessian":[3.5153277E4,5.087002E3,3.0066275E4,4.5940024E3,4.929997E2,2.7624123E4,2.4421523E3,2.614121E3,1.9798811E3,1.5742328E2,3.3557642E2,4.502164E3,2.3121959E4,2.4340857E3,8.066824E0,1.038505E3,1.5756162E3,1.2345203E2,3.3971252E1,3.234405E2,1.2135908E1,5.2076587E2,3.9813982E3,1.999367E4,3.1282896E3,3.0699522E0,4.9968724E0,5.764594E2,4.620456E2,1.7537622E2,1.40024E3,8.710983E1,3.634219E1,3.1412305E2,9.317437E0,5.9960337E0,6.1398745E0,3.1671747E2,2.0404839E2,1.8902454E3,2.0911528E3,2.0410178E3,1.795265E4,2.0614995E3,1.06679E3],"tree_param":{"num_deleted":"0","num_feature":"10","num_nodes":"45","size_leaf_vector":"1"}},{"base_weights":[-2.3430634E-5,-1.8035783E0,3.0503473E-1,-1.8409665E0,-1.4522043E0,4.9917254E-1,-1.8914528E0,-1.7836071E0,-1.9157678E-2,-6.739536E-1,-1.8143628E0,-5.5245966E-1,7.039588E-1,-1.8942028E-2,-9.444996E-1,-1.7060436E0,-1.8336191E0,-3.3243048E-1,-1.870742E-2,-1.8533074E0,-7.147004E-1,3.8820317E-1,-6.7557126E-1,7.893582E-1,1.5812804E-1,2.7207863E-3,-1.6129224E-2,-1.6046405E-2,-1.8288331E-2,-1.6347403E-2,-1.8573463E-2,-7.352218E-4,-9.345222E-3,-1.8733548E-2,-1.0616168E-2,-1.6575456E-2,3.0886934E-3,1.9831208E-3,6.805636E-3,-8.590073E-3,-5.09442E-3,2.719191E-3,8.481736E-3,3.3489706E-3,-1.8345544E-3],"categories":[],"categories_nodes":[],"categories_segments":[],"categories_sizes":[],"default_left":[0,0,0,0,0,0,0,0,0,0,0,0,0,0,0,0,0,0,0,0,0,0,0,0,0,0,0,0,0,0,0,0,0,0,0,0,0,0,0,0,0,0,0,0,0],"id":4,"left_children":[1,3,5,7,9,11,13,15,-1,17,19,21,23,-1,25,27,29,31,-1,33,35,37,39,41,43,-1,-1,-1,-1,-1,-1,-1,-1,-1,-1,-1,-1,-1,-1,-1,-1,-1,-1,-1,-1],"loss_changes":[1.9337959E4,6.413086E1,1.2820413E4,1.6285156E1,1.3794519E2,5.949136E3,4.567383E0,7.0097656E0,0E0,6.411932E1,1.3080811E1,5.2171436E2,1.0776084E3,0E0,7.80993E0,1.0001709E1,4.398926E0,1.9330765E1,0E0,3.1572266E0,1.318602E1,2.8830666E1,1.2091162E2,6.082051E2,1.890094E2,0E0,0E0,0E0,0E0,0E0,0E0,0E0,0E0,0E0,0E0,0E0,0E0,0E0,0E0,0E0,0E0,0E0,0E0,0E0,0E0],"parents":[2147483647,0,0,1,1,2,2,3,3,4,4,5,5,6,6,7,7,9,9,10,10,11,11,12,12,14,14,15,15,16,16,17,17,19,19,20,20,21,21,22,22,23,23,24,24],"right_children":[2,4,6,8,10,12,14,16,-1,18,20,22,24,-1,26,28,30,32,-1,34,36,38,40,42,44,-1,-1,-1,-1,-1,-1,-1,-1,-1,-1,-1,-1,-1,-1,-1,-1,-1,-1,-1,-1],"split_conditions":[1E0,1.54E2,1E0,1E0,1.58E2,2.8E1,1.63E2,1.25E2,-1.9157678E-2,1E0,1.63E2,1.51E2,5.9E1,-1.8942028E-2,2.3E1,4.8E1,9.423E2,1.3541E3,-1.870742E-2,5E1,2.38E2,2.5E1,1E0,1E0,6.9E1,2.7207863E-3,-1.6129224E-2,-1.6046405E-2,-1.8288331E-2,-1.6347403E-2,-1.8573463E-2,-7.352218E-4,-9.345222E-3,-1.8733548E-2,-1.0616168E-2,-1.6575456E-2,3.0886934E-3,1.9831208E-3,6.805636E-3,-8.590073E-3,-5.09442E-3,2.719191E-3,8.481736E-3,3.3489706E-3,-1.8345544E-3],"split_indices":[6,8,4,4,8,1,8,8,0,4,8,8,1,0,1,1,7,7,0,3,9,1,0,5,1,0,0,0,0,0,0,0,0,0,0,0,0,0,0,0,0,0,0,0,0],"split_type":[0,0,0,0,0,0,0,0,0,0,0,0,0,0,0,0,0,0,0,0,0,0,0,0,0,0,0,0,0,0,0,0,0,0,0,0,0,0,0,0,0,0,0,0,0],"sum_hessian":[3.5145844E4,5.0839233E3,3.0061918E4,4.591157E3,4.9276602E2,2.7621361E4,2.4405571E3,2.6126013E3,1.978556E3,1.5739569E2,3.3537033E2,4.501787E3,2.3119574E4,2.432493E3,8.0644245E0,1.0379519E3,1.5746494E3,1.234461E2,3.394959E1,3.2323752E2,1.2132812E1,5.207469E2,3.9810403E3,1.9991332E4,3.1282422E3,3.0699131E0,4.994511E0,5.7618823E2,4.617637E2,1.7529062E2,1.3993588E3,8.710974E1,3.633636E1,3.13922E2,9.3155155E0,5.993039E0,6.1397724E0,3.1671533E2,2.0403154E2,1.8899884E3,2.0910518E3,2.0409916E3,1.795034E4,2.0614592E3,1.0667831E3],"tree_param":{"num_deleted":"0","num_feature":"10","num_nodes":"45","size_leaf_vector":"1"}},{"base_weights":[-2.970823E-5,-1.7869492E0,3.0203873E-1,-1.8240124E0,-1.4386936E0,4.9424416E-1,-1.8741078E0,-1.7671037E0,-1.8982349E-2,-6.675448E-1,-1.7977462E0,-5.469942E-1,6.970116E-1,-1.8768298E-2,-9.368508E-1,-1.6901598E0,-1.8167217E0,-3.292074E-1,-1.854031E-2,-1.8363255E0,-7.0879436E-1,3.8435587E-1,-6.6889524E-1,7.8158176E-1,1.5655045E-1,2.7002958E-3,-1.6002864E-2,-1.5895711E-2,-1.8119872E-2,-1.6194848E-2,-1.8402578E-2,-7.2795583E-4,-9.256109E-3,-1.8561864E-2,-1.0522791E-2,-1.6442368E-2,3.062189E-3,1.963368E-3,6.738619E-3,-8.505682E-3,-5.0438093E-3,2.692056E-3,8.398303E-3,3.3155829E-3,-1.8162396E-3],"categories":[],"categories_nodes":[],"categories_segments":[],"categories_sizes":[],"default_left":[0,0,0,0,0,0,0,0,0,0,0,0,0,0,0,0,0,0,0,0,0,0,0,0,0,0,0,0,0,0,0,0,0,0,0,0,0,0,0,0,0,0,0,0,0],"id":5,"left_children":[1,3,5,7,9,11,13,15,-1,17,19,21,23,-1,25,27,29,31,-1,33,35,37,39,41,43,-1,-1,-1,-1,-1,-1,-1,-1,-1,-1,-1,-1,-1,-1,-1,-1,-1,-1,-1,-1],"loss_changes":[1.8966738E4,6.2958008E1,1.2572947E4,1.6027344E1,1.3543347E2,5.8315293E3,4.4658203E0,6.900879E0,0E0,6.2960823E1,1.2818848E1,5.1141565E2,1.0565088E3,0E0,7.6874576E0,9.843018E0,4.3286133E0,1.8962383E1,0E0,3.0916748E0,1.2969198E1,2.8266457E1,1.1857214E2,5.963613E2,1.8525513E2,0E0,0E0,0E0,0E0,0E0,0E0,0E0,0E0,0E0,0E0,0E0,0E0,0E0,0E0,0E0,0E0,0E0,0E0,0E0,0E0],"parents":[2147483647,0,0,1,1,2,2,3,3,4,4,5,5,6,6,7,7,9,9,10,10,11,11,12,12,14,14,15,15,16,16,17,17,19,19,20,20,21,21,22,22,23,23,24,24],"right_children":[2,4,6,8,10,12,14,16,-1,18,20,22,24,-1,26,28,30,32,-1,34,36,38,40,42,44,-1,-1,-1,-1,-1,-1,-1,-1,-1,-1,-1,-1,-1,-1,-1,-1,-1,-1,-1,-1],"split_conditions":[1E0,1.54E2,1E0,1E0,1.58E2,2.8E1,1.63E2,1.25E2,-1.8982349E-2,1E0,1.63E2,1.51E2,5.9E1,-1.8768298E-2,2.3E1,4.8E1,9.423E2,1.3541E3,-1.854031E-2,5E1,2.38E2,2.5E1,1E0,1E0,6.9E1,2.7002958E-3,-1.6002864E-2,-1.5895711E-2,-1.8119872E-2,-1.6194848E-2,-1.8402578E-2,-7.2795583E-4,-9.256109E-3,-1.8561864E-2,-1.0522791E-2,-1.6442368E-2,3.062189E-3,1.963368E-3,6.738619E-3,-8.505682E-3,-5.0438093E-3,2.692056E-3,8.398303E-3,3.3155829E-3,-1.8162396E-3],"split_indices":[6,8,4,4,8,1,8,8,0,4,8,8,1,0,1,1,7,7,0,3,9,1,0,5,1,0,0,0,0,0,0,0,0,0,0,0,0,0,0,0,0,0,0,0,0],"split_type":[0,0,0,0,0,0,0,0,0,0,0,0,0,0,0,0,0,0,0,0,0,0,0,0,0,0,0,0,0,0,0,0,0,0,0,0,0,0,0,0,0,0,0,0,0],"sum_hessian":[3.5136426E4,5.08003E3,3.0056395E4,4.587559E3,4.924705E2,2.7617855E4,2.4385398E3,2.6106792E3,1.9768801E3,1.5736078E2,3.3510968E2,4.501311E3,2.3116545E4,2.4304783E3,8.061381E0,1.0372524E3,1.5734268E3,1.2343861E2,3.3922184E1,3.229808E2,1.2128889E1,5.207227E2,3.9805884E3,1.9988363E4,3.1281816E3,3.0698628E0,4.991519E0,5.758453E2,4.6140714E2,1.7518236E2,1.3982444E3,8.710962E1,3.6328987E1,3.1366772E2,9.313085E0,5.9892464E0,6.1396427E0,3.1671262E2,2.0401012E2,1.889664E3,2.0909243E3,2.040958E3,1.7947404E4,2.0614072E3,1.0667743E3],"tree_param":{"num_deleted":"0","num_feature":"10","num_nodes":"45","size_leaf_vector":"1"}},{"base_weights":[-3.602191E-5,-1.770751E0,2.990835E-1,-1.8075043E0,-1.4254838E0,4.893774E-1,-1.8572364E0,-1.7510165E0,-1.8811883E-2,-6.6122675E-1,-1.7815653E0,-5.415946E-1,6.901519E-1,-1.8599318E-2,-9.2932975E-1,-1.6746546E0,-1.8002663E0,-3.2601935E-1,-1.8377654E-2,-1.8197951E0,-7.0298153E-1,3.805506E-1,-6.6230047E-1,7.7390605E-1,1.54989E-1,2.679968E-3,-1.5879152E-2,-1.4847173E-2,-1.7370526E-2,-1.6045736E-2,-1.823624E-2,-7.207585E-4,-9.168214E-3,-1.8394805E-2,-1.043074E-2,-1.631219E-2,3.0359235E-3,1.9438178E-3,6.672409E-3,-8.422417E-3,-4.9937614E-3,8.682016E-3,4.603829E-3,3.2825412E-3,-1.7981109E-3],"categories":[],"categories_nodes":[],"categories_segments":[],"categories_sizes":[],"default_left":[0,0,0,0,0,0,0,0,0,0,0,0,0,0,0,0,0,0,0,0,0,0,0,0,0,0,0,0,0,0,0,0,0,0,0,0,0,0,0,0,0,0,0,0,0],"id":6,"left_children":[1,3,5,7,9,11,13,15,-1,17,19,21,23,-1,25,27,29,31,-1,33,35,37,39,41,43,-1,-1,-1,-1,-1,-1,-1,-1,-1,-1,-1,-1,-1,-1,-1,-1,-1,-1,-1,-1],"loss_changes":[1.8605252E4,6.1841797E1,1.2331766E4,1.5785156E1,1.3301703E2,5.7164043E3,4.3671875E0,6.79834E0,0E0,6.183934E1,1.2567017E1,5.0133325E2,1.0358936E3,0E0,7.567944E0,9.716064E0,4.263672E0,1.8602135E1,0E0,3.0302734E0,1.27576475E1,2.7714539E1,1.1629089E2,5.90458E2,1.8157608E2,0E0,0E0,0E0,0E0,0E0,0E0,0E0,0E0,0E0,0E0,0E0,0E0,0E0,0E0,0E0,0E0,0E0,0E0,0E0,0E0],"parents":[2147483647,0,0,1,1,2,2,3,3,4,4,5,5,6,6,7,7,9,9,10,10,11,11,12,12,14,14,15,15,16,16,17,17,19,19,20,20,21,21,22,22,23,23,24,24],"right_children":[2,4,6,8,10,12,14,16,-1,18,20,22,24,-1,26,28,30,32,-1,34,36,38,40,42,44,-1,-1,-1,-1,-1,-1,-1,-1,-1,-1,-1,-1,-1,-1,-1,-1,-1,-1,-1,-1],"split_conditions":[1E0,1.54E2,1E0,1E0,1.58E2,2.8E1,1.63E2,1.25E2,-1.8811883E-2,1E0,1.63E2,1.51E2,5.9E1,-1.8599318E-2,2.3E1,3.8E1,9.423E2,1.3541E3,-1.8377654E-2,5E1,2.38E2,2.5E1,1E0,1.25E2,6.9E1,2.679968E-3,-1.5879152E-2,-1.4847173E-2,-1.7370526E-2,-1.6045736E-2,-1.823624E-2,-7.207585E-4,-9.168214E-3,-1.8394805E-2,-1.043074E-2,-1.631219E-2,3.0359235E-3,1.9438178E-3,6.672409E-3,-8.422417E-3,-4.9937614E-3,8.682016E-3,4.603829E-3,3.2825412E-3,-1.7981109E-3],"split_indices":[6,8,4,4,8,1,8,8,0,4,8,8,1,0,1,1,7,7,0,3,9,1,0,8,1,0,0,0,0,0,0,0,0,0,0,0,0,0,0,0,0,0,0,0,0],"split_type":[0,0,0,0,0,0,0,0,0,0,0,0,0,0,0,0,0,0,0,0,0,0,0,0,0,0,0,0,0,0,0,0,0,0,0,0,0,0,0,0,0,0,0,0,0],"sum_hessian":[3.512509E4,5.0753467E3,3.0049742E4,4.583232E3,4.92115E2,2.7613629E4,2.436113E3,2.6083674E3,1.9748645E3,1.573188E2,3.347962E2,4.5007397E3,2.3112889E4,2.4280552E3,8.0577135E0,1.0364111E3,1.5719563E3,1.23429596E2,3.3889206E1,3.2267203E2,1.212416E1,5.2069354E2,3.9800461E3,1.998478E4,3.128109E3,3.069802E0,4.987911E0,2.6241742E2,7.739937E2,1.7505214E2,1.3969042E3,8.7109474E1,3.6320126E1,3.1336188E2,9.310158E0,5.9846754E0,6.139485E0,3.167093E2,2.0398425E2,1.8892744E3,2.0907717E3,1.5362552E4,4.622228E3,2.061345E3,1.0667639E3],"tree_param":{"num_deleted":"0","num_feature":"10","num_nodes":"45","size_leaf_vector":"1"}},{"base_weights":[-4.2450898E-5,-1.7549666E0,2.9616675E-1,-1.7914244E0,-1.412564E0,4.8456886E-1,-1.8408197E0,-1.7353283E0,-1.8646099E-2,-6.5499777E-1,-1.7658029E0,-5.362595E-1,6.8337417E-1,-1.8434897E-2,-9.219327E-1,-1.6595098E0,-1.7842357E0,-3.2286635E-1,-1.8219287E-2,-1.8036982E0,-6.972593E-1,3.767863E-1,-6.557854E-1,7.6632404E-1,1.5344377E-1,2.6598002E-3,-1.5758006E-2,-1.5599906E-2,-1.7801115E-2,-1.589994E-2,-1.8074268E-2,-7.136366E-4,-9.081508E-3,-1.8232182E-2,-1.0339984E-2,-1.618483E-2,3.009896E-3,1.4378433E-3,6.0437093E-3,-8.340247E-3,-4.9442695E-3,2.6049172E-3,8.238484E-3,3.2498485E-3,-1.7801689E-3],"categories":[],"categories_nodes":[],"categories_segments":[],"categories_sizes":[],"default_left":[0,0,0,0,0,0,0,0,0,0,0,0,0,0,0,0,0,0,0,0,0,0,0,0,0,0,0,0,0,0,0,0,0,0,0,0,0,0,0,0,0,0,0,0,0],"id":7,"left_children":[1,3,5,7,9,11,13,15,-1,17,19,21,23,-1,25,27,29,31,-1,33,35,37,39,41,43,-1,-1,-1,-1,-1,-1,-1,-1,-1,-1,-1,-1,-1,-1,-1,-1,-1,-1,-1,-1],"loss_changes":[1.8253133E4,6.076953E1,1.2096631E4,1.5563477E1,1.306914E2,5.603672E3,4.274414E0,6.7055664E0,0E0,6.0753128E1,1.2324951E1,4.914613E2,1.0157334E3,0E0,7.451278E0,9.662598E0,4.2041016E0,1.8249763E1,0E0,2.97229E0,1.2551193E1,2.7575485E1,1.1406592E2,5.8120605E2,1.779714E2,0E0,0E0,0E0,0E0,0E0,0E0,0E0,0E0,0E0,0E0,0E0,0E0,0E0,0E0,0E0,0E0,0E0,0E0,0E0,0E0],"parents":[2147483647,0,0,1,1,2,2,3,3,4,4,5,5,6,6,7,7,9,9,10,10,11,11,12,12,14,14,15,15,16,16,17,17,19,19,20,20,21,21,22,22,23,23,24,24],"right_children":[2,4,6,8,10,12,14,16,-1,18,20,22,24,-1,26,28,30,32,-1,34,36,38,40,42,44,-1,-1,-1,-1,-1,-1,-1,-1,-1,-1,-1,-1,-1,-1,-1,-1,-1,-1,-1,-1],"split_conditions":[1E0,1.54E2,1E0,1E0,1.58E2,2.8E1,1.63E2,1.25E2,-1.8646099E-2,1E0,1.63E2,1.51E2,5.9E1,-1.8434897E-2,2.3E1,4.8E1,9.423E2,1.3541E3,-1.8219287E-2,5E1,2.38E2,1.24E2,1E0,1E0,6.9E1,2.6598002E-3,-1.5758006E-2,-1.5599906E-2,-1.7801115E-2,-1.589994E-2,-1.8074268E-2,-7.136366E-4,-9.081508E-3,-1.8232182E-2,-1.0339984E-2,-1.618483E-2,3.009896E-3,1.4378433E-3,6.0437093E-3,-8.340247E-3,-4.9442695E-3,2.6049172E-3,8.238484E-3,3.2498485E-3,-1.7801689E-3],"split_indices":[6,8,4,4,8,1,8,8,0,4,8,8,1,0,1,1,7,7,0,3,9,8,0,5,1,0,0,0,0,0,0,0,0,0,0,0,0,0,0,0,0,0,0,0,0],"split_type":[0,0,0,0,0,0,0,0,0,0,0,0,0,0,0,0,0,0,0,0,0,0,0,0,0,0,0,0,0,0,0,0,0,0,0,0,0,0,0,0,0,0,0,0,0],"sum_hessian":[3.511201E4,5.0699004E3,3.0042111E4,4.578199E3,4.9170135E2,2.7608822E4,2.43329E3,2.6056797E3,1.9725197E3,1.5726994E2,3.344314E2,4.500075E3,2.3108746E4,2.4252366E3,8.053435E0,1.0354341E3,1.5702455E3,1.2341913E2,3.3850822E1,3.2231274E2,1.2118646E1,5.2065955E2,3.9794155E3,1.9980723E4,3.128024E3,3.0697305E0,4.9837046E0,5.749374E2,4.604967E2,1.7490067E2,1.3953448E3,8.710931E1,3.6309822E1,3.13006E2,9.30675E0,5.9793463E0,6.1392994E0,2.5807416E2,2.625854E2,1.888821E3,2.0905945E3,2.0407976E3,1.7939926E4,2.061272E3,1.066752E3],"tree_param":{"num_deleted":"0","num_feature":"10","num_nodes":"45","size_leaf_vector":"1"}},{"base_weights":[-4.907565E-5,-1.7395815E0,2.932896E-1,-1.7757577E0,-1.3999234E0,4.798209E-1,-1.8248404E0,-1.7200266E0,-1.8484809E-2,-6.4885503E-1,-1.7504427E0,-5.309865E-1,6.7668325E-1,-1.8274862E-2,-9.1465634E-1,-1.6447197E0,-1.7686132E0,-3.1974727E-1,-1.8065043E-2,-1.7880179E0,-6.9162565E-1,3.7305343E-1,-6.493482E-1,7.588421E-1,1.5191448E-1,2.6397908E-3,-1.5639339E-2,-1.5458931E-2,-1.7645186E-2,-1.5757333E-2,-1.7916495E-2,-7.065809E-4,-8.995965E-3,-1.8073823E-2,-1.0250491E-2,-1.6060198E-2,2.9841007E-3,1.886706E-3,6.570681E-3,-8.259147E-3,-4.895324E-3,8.519655E-3,4.492798E-3,2.8897685E-3,-2.554226E-3],"categories":[],"categories_nodes":[],"categories_segments":[],"categories_sizes":[],"default_left":[0,0,0,0,0,0,0,0,0,0,0,0,0,0,0,0,0,0,0,0,0,0,0,0,0,0,0,0,0,0,0,0,0,0,0,0,0,0,0,0,0,0,0,0,0],"id":8,"left_children":[1,3,5,7,9,11,13,15,-1,17,19,21,23,-1,25,27,29,31,-1,33,35,37,39,41,43,-1,-1,-1,-1,-1,-1,-1,-1,-1,-1,-1,-1,-1,-1,-1,-1,-1,-1,-1,-1],"loss_changes":[1.791006E4,5.9748047E1,1.1867366E4,1.5355469E1,1.2845105E2,5.493324E3,4.1835938E0,6.617676E0,0E0,5.9700714E1,1.2092041E1,4.817943E2,9.9604004E2,0E0,7.3373632E0,9.530029E0,4.149414E0,1.7905087E1,0E0,2.9180908E0,1.2349655E1,2.7192497E1,1.11895386E2,5.755039E2,1.7476364E2,0E0,0E0,0E0,0E0,0E0,0E0,0E0,0E0,0E0,0E0,0E0,0E0,0E0,0E0,0E0,0E0,0E0,0E0,0E0,0E0],"parents":[2147483647,0,0,1,1,2,2,3,3,4,4,5,5,6,6,7,7,9,9,10,10,11,11,12,12,14,14,15,15,16,16,17,17,19,19,20,20,21,21,22,22,23,23,24,24],"right_children":[2,4,6,8,10,12,14,16,-1,18,20,22,24,-1,26,28,30,32,-1,34,36,38,40,42,44,-1,-1,-1,-1,-1,-1,-1,-1,-1,-1,-1,-1,-1,-1,-1,-1,-1,-1,-1,-1],"split_conditions":[1E0,1.54E2,1E0,1E0,1.58E2,2.8E1,1.63E2,1.25E2,-1.8484809E-2,1E0,1.63E2,1.51E2,5.9E1,-1.8274862E-2,2.3E1,4.8E1,9.423E2,1.3541E3,-1.8065043E-2,5E1,2.38E2,2.5E1,1E0,1.25E2,7.1E1,2.6397908E-3,-1.5639339E-2,-1.5458931E-2,-1.7645186E-2,-1.5757333E-2,-1.7916495E-2,-7.065809E-4,-8.995965E-3,-1.8073823E-2,-1.0250491E-2,-1.6060198E-2,2.9841007E-3,1.886706E-3,6.570681E-3,-8.259147E-3,-4.895324E-3,8.519655E-3,4.492798E-3,2.8897685E-3,-2.554226E-3],"split_indices":[6,8,4,4,8,1,8,8,0,4,8,8,1,0,1,1,7,7,0,3,9,1,0,8,1,0,0,0,0,0,0,0,0,0,0,0,0,0,0,0,0,0,0,0,0],"split_type":[0,0,0,0,0,0,0,0,0,0,0,0,0,0,0,0,0,0,0,0,0,0,0,0,0,0,0,0,0,0,0,0,0,0,0,0,0,0,0,0,0,0,0,0,0],"sum_hessian":[3.509704E4,5.0637114E3,3.003333E4,4.57248E3,4.9123145E2,2.7603246E4,2.430083E3,2.6026245E3,1.9698556E3,1.5721443E2,3.34017E2,4.4993306E3,2.3103916E4,2.4220344E3,8.048564E0,1.0343225E3,1.568302E3,1.2340723E2,3.38072E1,3.2190463E2,1.21123705E1,5.206308E2,3.9786995E3,1.9975988E4,3.127927E3,3.0696485E0,4.9789157E0,5.743904E2,4.5993207E2,1.7472862E2,1.3935734E3,8.7109116E1,3.629811E1,3.1260178E2,9.302873E0,5.973282E0,6.1390886E0,3.166957E2,2.0393509E2,1.8883065E3,2.090393E3,1.5355076E4,4.620912E3,2.3406326E3,7.8729456E2],"tree_param":{"num_deleted":"0","num_feature":"10","num_nodes":"45","size_leaf_vector":"1"}},{"base_weights":[-5.5844073E-5,-1.72458E0,2.9044908E-1,-1.7604878E0,-1.3875524E0,4.7512874E-1,-1.8092817E0,-1.705096E0,-1.8327838E-2,-6.427968E-1,-1.7354699E0,-5.2577645E-1,6.700706E-1,-1.8119045E-2,-9.074974E-1,-1.6302676E0,-1.753384E0,-3.1666192E-1,-1.7914772E-2,-1.7727383E0,-6.860779E-1,3.6936912E-1,-6.429877E-1,7.514499E-1,1.5040009E-1,2.6199385E-3,-1.5523078E-2,-1.4430308E-2,-1.691836E-2,-1.561781E-2,-1.7762763E-2,-6.9959555E-4,-8.911554E-3,-1.7919568E-2,-1.016223E-2,-1.5938202E-2,2.9585385E-3,1.3861785E-3,5.947865E-3,-8.179098E-3,-4.8469156E-3,2.520028E-3,8.082724E-3,3.188742E-3,-1.7511544E-3],"categories":[],"categories_nodes":[],"categories_segments":[],"categories_sizes":[],"default_left":[0,0,0,0,0,0,0,0,0,0,0,0,0,0,0,0,0,0,0,0,0,0,0,0,0,0,0,0,0,0,0,0,0,0,0,0,0,0,0,0,0,0,0,0,0],"id":9,"left_children":[1,3,5,7,9,11,13,15,-1,17,19,21,23,-1,25,27,29,31,-1,33,35,37,39,41,43,-1,-1,-1,-1,-1,-1,-1,-1,-1,-1,-1,-1,-1,-1,-1,-1,-1,-1,-1,-1],"loss_changes":[1.7575701E4,5.876758E1,1.1643741E4,1.5165039E1,1.2629242E2,5.3852544E3,4.0961914E0,6.536621E0,0E0,5.868052E1,1.186792E1,4.7232922E2,9.767793E2,0E0,7.226111E0,9.479492E0,4.099121E0,1.7567873E1,0E0,2.8669434E0,1.2152874E1,2.7048164E1,1.0977734E2,5.665947E2,1.7164398E2,0E0,0E0,0E0,0E0,0E0,0E0,0E0,0E0,0E0,0E0,0E0,0E0,0E0,0E0,0E0,0E0,0E0,0E0,0E0,0E0],"parents":[2147483647,0,0,1,1,2,2,3,3,4,4,5,5,6,6,7,7,9,9,10,10,11,11,12,12,14,14,15,15,16,16,17,17,19,19,20,20,21,21,22,22,23,23,24,24],"right_children":[2,4,6,8,10,12,14,16,-1,18,20,22,24,-1,26,28,30,32,-1,34,36,38,40,42,44,-1,-1,-1,-1,-1,-1,-1,-1,-1,-1,-1,-1,-1,-1,-1,-1,-1,-1,-1,-1],"split_conditions":[1E0,1.54E2,1E0,1E0,1.58E2,2.8E1,1.63E2,1.25E2,-1.8327838E-2,1E0,1.63E2,1.51E2,5.9E1,-1.8119045E-2,2.3E1,3.8E1,9.423E2,1.3541E3,-1.7914772E-2,5E1,2.38E2,1.24E2,1E0,1E0,6.9E1,2.6199385E-3,-1.5523078E-2,-1.4430308E-2,-1.691836E-2,-1.561781E-2,-1.7762763E-2,-6.9959555E-4,-8.911554E-3,-1.7919568E-2,-1.016223E-2,-1.5938202E-2,2.9585385E-3,1.3861785E-3,5.947865E-3,-8.179098E-3,-4.8469156E-3,2.520028E-3,8.082724E-3,3.188742E-3,-1.7511544E-3],"split_indices":[6,8,4,4,8,1,8,8,0,4,8,8,1,0,1,1,7,7,0,3,9,8,0,5,1,0,0,0,0,0,0,0,0,0,0,0,0,0,0,0,0,0,0,0,0],"split_type":[0,0,0,0,0,0,0,0,0,0,0,0,0,0,0,0,0,0,0,0,0,0,0,0,0,0,0,0,0,0,0,0,0,0,0,0,0,0,0,0,0,0,0,0,0],"sum_hessian":[3.5080445E4,5.0568047E3,3.002364E4,4.5660977E3,4.9070697E2,2.7597137E4,2.426504E3,2.599215E3,1.9668824E3,1.5715245E2,3.335545E2,4.4984897E3,2.3098646E4,2.418461E3,8.043116E0,1.0330819E3,1.566133E3,1.2339395E2,3.3758503E1,3.2144916E2,1.2105351E1,5.205887E2,3.9779011E3,1.9970814E4,3.1278328E3,3.0695565E0,4.9735594E0,2.6168985E2,7.713921E2,1.7453658E2,1.3915966E3,8.710891E1,3.628504E1,3.1215063E2,9.298542E0,5.9665003E0,6.1388516E0,2.5804883E2,2.625399E2,1.8877322E3,2.0901687E3,2.040562E3,1.7930252E4,2.0611055E3,1.0667273E3],"tree_param":{"num_deleted":"0","num_feature":"10","num_nodes":"45","size_leaf_vector":"1"}},{"base_weights":[-6.264583E-5,-1.7099466E0,2.8764665E-1,-1.7455986E0,-1.3754414E0,4.7049522E-1,-1.7941272E0,-1.6905204E0,-1.8175023E-2,-6.3682103E-1,-1.7208698E0,-5.2062654E-1,6.635419E-1,-1.7967278E-2,-9.0045273E-1,-1.6161367E0,-1.7385327E0,-3.1360993E-1,-1.7768323E-2,-1.7578448E0,-6.806137E-1,3.657154E-1,-6.3670254E-1,7.4415386E-1,1.4890224E-1,2.6002445E-3,-1.5409152E-2,-1.5181777E-2,-1.7349727E-2,-1.5481255E-2,-1.7612917E-2,-6.9268135E-4,-8.828251E-3,-1.776926E-2,-1.0075166E-2,-1.5818758E-2,2.9332063E-3,1.8309345E-3,6.4710085E-3,-8.100073E-3,-4.79904E-3,8.361429E-3,4.384463E-3,2.835129E-3,-2.5113197E-3],"categories":[],"categories_nodes":[],"categories_segments":[],"categories_sizes":[],"default_left":[0,0,0,0,0,0,0,0,0,0,0,0,0,0,0,0,0,0,0,0,0,0,0,0,0,0,0,0,0,0,0,0,0,0,0,0,0,0,0,0,0,0,0,0,0],"id":10,"left_children":[1,3,5,7,9,11,13,15,-1,17,19,21,23,-1,25,27,29,31,-1,33,35,37,39,41,43,-1,-1,-1,-1,-1,-1,-1,-1,-1,-1,-1,-1,-1,-1,-1,-1,-1,-1,-1,-1],"loss_changes":[1.7249746E4,5.782715E1,1.1425599E4,1.4986328E1,1.2421106E2,5.2794624E3,4.0146484E0,6.463867E0,0E0,5.7691162E1,1.1652161E1,4.630598E2,9.57958E2,0E0,7.1174326E0,9.387939E0,4.054199E0,1.7237907E1,0E0,2.8190918E0,1.1960692E1,2.6682587E1,1.0770984E2,5.611113E2,1.6854895E2,0E0,0E0,0E0,0E0,0E0,0E0,0E0,0E0,0E0,0E0,0E0,0E0,0E0,0E0,0E0,0E0,0E0,0E0,0E0,0E0],"parents":[2147483647,0,0,1,1,2,2,3,3,4,4,5,5,6,6,7,7,9,9,10,10,11,11,12,12,14,14,15,15,16,16,17,17,19,19,20,20,21,21,22,22,23,23,24,24],"right_children":[2,4,6,8,10,12,14,16,-1,18,20,22,24,-1,26,28,30,32,-1,34,36,38,40,42,44,-1,-1,-1,-1,-1,-1,-1,-1,-1,-1,-1,-1,-1,-1,-1,-1,-1,-1,-1,-1],"split_conditions":[1E0,1.54E2,1E0,1E0,1.58E2,2.8E1,1.63E2,1.25E2,-1.8175023E-2,1E0,1.63E2,1.51E2,5.9E1,-1.7967278E-2,2.3E1,4.8E1,9.423E2,1.3541E3,-1.7768323E-2,5E1,2.38E2,2.5E1,1E0,1.25E2,7.1E1,2.6002445E-3,-1.5409152E-2,-1.5181777E-2,-1.7349727E-2,-1.5481255E-2,-1.7612917E-2,-6.9268135E-4,-8.828251E-3,-1.776926E-2,-1.0075166E-2,-1.5818758E-2,2.9332063E-3,1.8309345E-3,6.4710085E-3,-8.100073E-3,-4.79904E-3,8.361429E-3,4.384463E-3,2.835129E-3,-2.5113197E-3],"split_indices":[6,8,4,4,8,1,8,8,0,4,8,8,1,0,1,1,7,7,0,3,9,1,0,8,1,0,0,0,0,0,0,0,0,0,0,0,0,0,0,0,0,0,0,0,0],"split_type":[0,0,0,0,0,0,0,0,0,0,0,0,0,0,0,0,0,0,0,0,0,0,0,0,0,0,0,0,0,0,0,0,0,0,0,0,0,0,0,0,0,0,0,0,0],"sum_hessian":[3.5062055E4,5.0492046E3,3.0012852E4,4.559075E3,4.9012967E2,2.7590285E4,2.4225652E3,2.5954646E3,1.9636106E3,1.5708423E2,3.3304544E2,4.4975747E3,2.309271E4,2.414528E3,8.037105E0,1.0317185E3,1.563746E3,1.2337935E2,3.3704887E1,3.209478E2,1.2097613E1,5.2055206E2,3.9770225E3,1.9964996E4,3.1277148E3,3.0694544E0,4.9676504E0,5.7308716E2,4.5863138E2,1.7432521E2,1.3894208E3,8.710869E1,3.627066E1,3.1165405E2,9.293771E0,5.959023E0,6.13859E0,3.1667657E2,2.0387553E2,1.8871005E3,2.0899219E3,1.5345667E4,4.6193286E3,2.34045E3,7.872651E2],"tree_param":{"num_deleted":"0","num_feature":"10","num_nodes":"45","size_leaf_vector":"1"}},{"base_weights":[-6.9580885E-5,-1.6956695E0,2.8487927E-1,-1.7310779E0,-1.3635814E0,4.6591532E-1,-1.7793622E0,-1.6762905E0,-1.8026205E-2,-6.3092583E-1,-1.7066287E0,-5.155374E-1,6.5708846E-1,-1.7819418E-2,-8.935192E-1,-1.6023239E0,-1.7240456E0,-3.1059095E-1,-1.7625557E-2,-1.7433226E0,-6.752314E-1,3.6210895E-1,-6.3049126E-1,7.369439E-1,1.4741872E-1,2.5807025E-3,-1.52974855E-2,-1.4168741E-2,-1.66335E-2,-1.5347567E-2,-1.7466813E-2,-6.858382E-4,-8.746034E-3,-1.7622754E-2,-9.989272E-3,-1.5701793E-2,2.9080994E-3,1.3357762E-3,5.8539556E-3,-8.022051E-3,-4.7516865E-3,2.4373243E-3,7.930857E-3,3.537105E-4,6.270548E-3],"categories":[],"categories_nodes":[],"categories_segments":[],"categories_sizes":[],"default_left":[0,0,0,0,0,0,0,0,0,0,0,0,0,0,0,0,0,0,0,0,0,0,0,0,0,0,0,0,0,0,0,0,0,0,0,0,0,0,0,0,0,0,0,0,0],"id":11,"left_children":[1,3,5,7,9,11,13,15,-1,17,19,21,23,-1,25,27,29,31,-1,33,35,37,39,41,43,-1,-1,-1,-1,-1,-1,-1,-1,-1,-1,-1,-1,-1,-1,-1,-1,-1,-1,-1,-1],"loss_changes":[1.6931904E4,5.6926758E1,1.1212725E4,1.4821289E1,1.22203735E2,5.1758413E3,3.9360352E0,6.3950195E0,0E0,5.6731247E1,1.1444092E1,4.539828E2,9.395449E2,0E0,7.011239E0,9.313721E0,4.0126953E0,1.6915009E1,0E0,2.7740479E0,1.1772955E1,2.6533028E1,1.05691284E2,5.524873E2,1.6811539E2,0E0,0E0,0E0,0E0,0E0,0E0,0E0,0E0,0E0,0E0,0E0,0E0,0E0,0E0,0E0,0E0,0E0,0E0,0E0,0E0],"parents":[2147483647,0,0,1,1,2,2,3,3,4,4,5,5,6,6,7,7,9,9,10,10,11,11,12,12,14,14,15,15,16,16,17,17,19,19,20,20,21,21,22,22,23,23,24,24],"right_children":[2,4,6,8,10,12,14,16,-1,18,20,22,24,-1,26,28,30,32,-1,34,36,38,40,42,44,-1,-1,-1,-1,-1,-1,-1,-1,-1,-1,-1,-1,-1,-1,-1,-1,-1,-1,-1,-1],"split_conditions":[1E0,1.54E2,1E0,1E0,1.58E2,2.8E1,1.63E2,1.25E2,-1.8026205E-2,1E0,1.63E2,1.51E2,5.9E1,-1.7819418E-2,2.3E1,3.8E1,9.423E2,1.3541E3,-1.7625557E-2,5E1,2.38E2,1.24E2,1E0,1E0,2E0,2.5807025E-3,-1.52974855E-2,-1.4168741E-2,-1.66335E-2,-1.5347567E-2,-1.7466813E-2,-6.858382E-4,-8.746034E-3,-1.7622754E-2,-9.989272E-3,-1.5701793E-2,2.9080994E-3,1.3357762E-3,5.8539556E-3,-8.022051E-3,-4.7516865E-3,2.4373243E-3,7.930857E-3,3.537105E-4,6.270548E-3],"split_indices":[6,8,4,4,8,1,8,8,0,4,8,8,1,0,1,1,7,7,0,3,9,8,0,5,5,0,0,0,0,0,0,0,0,0,0,0,0,0,0,0,0,0,0,0,0],"split_type":[0,0,0,0,0,0,0,0,0,0,0,0,0,0,0,0,0,0,0,0,0,0,0,0,0,0,0,0,0,0,0,0,0,0,0,0,0,0,0,0,0,0,0,0,0],"sum_hessian":[3.504215E4,5.0409307E3,3.0001219E4,4.551429E3,4.8950125E2,2.7582941E4,2.4182776E3,2.5913801E3,1.9600492E3,1.5700995E2,3.324913E2,4.496569E3,2.3086373E4,2.410247E3,8.030548E0,1.0302325E3,1.5611476E3,1.23363434E2,3.3646507E1,3.2040213E2,1.2089172E1,5.2050244E2,3.9760664E3,1.9958771E4,3.1276E3,3.0693429E0,4.961205E0,2.6107632E2,7.6915625E2,1.7409511E2,1.3870525E3,8.7108444E1,3.6254993E1,3.1111356E2,9.28857E0,5.9508686E0,6.1383038E0,2.5802005E2,2.6248236E2,1.8864131E3,2.0896533E3,2.0402573E3,1.7918516E4,2.536194E3,5.9140594E2],"tree_param":{"num_deleted":"0","num_feature":"10","num_nodes":"45","size_leaf_vector":"1"}},{"base_weights":[-7.634402E-5,-1.681734E0,2.8214762E-1,-1.7169104E0,-1.3519635E0,4.6139058E-1,-1.7649721E0,-1.6623904E0,-1.7881237E-2,-6.251087E-1,-1.6927333E0,-5.1050586E-1,6.5071344E-1,-1.7675318E-2,-8.8669413E-1,-1.5888096E0,-1.7099094E0,-3.0760372E-1,-1.748634E-2,-1.7291582E0,-6.699287E-1,3.585322E-1,-6.243521E-1,7.298262E-1,1.4594875E-1,2.5613136E-3,-1.5188014E-2,-1.4916017E-2,-1.706835E-2,-1.5216645E-2,-1.7324314E-2,-6.790582E-4,-8.664867E-3,-1.7479908E-2,-9.904523E-3,-1.5587227E-2,2.8832178E-3,1.7764717E-3,6.3733244E-3,-7.945008E-3,-4.7048447E-3,8.207161E-3,4.2787353E-3,3.1138628E-3,-1.7366351E-3],"categories":[],"categories_nodes":[],"categories_segments":[],"categories_sizes":[],"default_left":[0,0,0,0,0,0,0,0,0,0,0,0,0,0,0,0,0,0,0,0,0,0,0,0,0,0,0,0,0,0,0,0,0,0,0,0,0,0,0,0,0,0,0,0,0],"id":12,"left_children":[1,3,5,7,9,11,13,15,-1,17,19,21,23,-1,25,27,29,31,-1,33,35,37,39,41,43,-1,-1,-1,-1,-1,-1,-1,-1,-1,-1,-1,-1,-1,-1,-1,-1,-1,-1,-1,-1],"loss_changes":[1.6621893E4,5.6061523E1,1.1004967E4,1.4670898E1,1.20266235E2,5.074375E3,3.8613281E0,6.3320312E0,0E0,5.579959E1,1.1243652E1,4.4509204E2,9.215752E2,0E0,6.9074535E0,9.266846E0,3.974121E0,1.659897E1,0E0,2.7317505E0,1.1589526E1,2.6184326E1,1.0372034E2,5.472461E2,1.6547908E2,0E0,0E0,0E0,0E0,0E0,0E0,0E0,0E0,0E0,0E0,0E0,0E0,0E0,0E0,0E0,0E0,0E0,0E0,0E0,0E0],"parents":[2147483647,0,0,1,1,2,2,3,3,4,4,5,5,6,6,7,7,9,9,10,10,11,11,12,12,14,14,15,15,16,16,17,17,19,19,20,20,21,21,22,22,23,23,24,24],"right_children":[2,4,6,8,10,12,14,16,-1,18,20,22,24,-1,26,28,30,32,-1,34,36,38,40,42,44,-1,-1,-1,-1,-1,-1,-1,-1,-1,-1,-1,-1,-1,-1,-1,-1,-1,-1,-1,-1],"split_conditions":[1E0,1.54E2,1E0,1E0,1.58E2,2.8E1,1.63E2,1.25E2,-1.7881237E-2,1E0,1.63E2,1.51E2,5.9E1,-1.7675318E-2,2.3E1,4.8E1,9.423E2,1.3541E3,-1.748634E-2,5E1,2.38E2,2.5E1,1E0,1.25E2,6.9E1,2.5613136E-3,-1.5188014E-2,-1.4916017E-2,-1.706835E-2,-1.5216645E-2,-1.7324314E-2,-6.790582E-4,-8.664867E-3,-1.7479908E-2,-9.904523E-3,-1.5587227E-2,2.8832178E-3,1.7764717E-3,6.3733244E-3,-7.945008E-3,-4.7048447E-3,8.207161E-3,4.2787353E-3,3.1138628E-3,-1.7366351E-3],"split_indices":[6,8,4,4,8,1,8,8,0,4,8,8,1,0,1,1,7,7,0,3,9,1,0,8,1,0,0,0,0,0,0,0,0,0,0,0,0,0,0,0,0,0,0,0,0],"split_type":[0,0,0,0,0,0,0,0,0,0,0,0,0,0,0,0,0,0,0,0,0,0,0,0,0,0,0,0,0,0,0,0,0,0,0,0,0,0,0,0,0,0,0,0,0],"sum_hessian":[3.502065E4,5.0320073E3,2.998864E4,4.543184E3,4.8882327E2,2.7574988E4,2.4136528E3,2.5869763E3,1.9562075E3,1.5692978E2,3.318935E2,4.495494E3,2.3079494E4,2.4056294E3,8.0234585E0,1.0286315E3,1.5583448E3,1.23346275E2,3.3583515E1,3.1981345E2,1.20800495E1,5.204583E2,3.9750356E3,1.995194E4,3.1275537E3,3.069222E0,4.954237E0,5.715394E2,4.5709207E2,1.7384691E2,1.384498E3,8.710818E1,3.62381E1,3.105305E2,9.282952E0,5.9420557E0,6.1379943E0,3.1665222E2,2.038061E2,1.8856719E3,2.0893638E3,1.5334444E4,4.6174956E3,2.0608455E3,1.0667081E3],"tree_param":{"num_deleted":"0","num_feature":"10","num_nodes":"45","size_leaf_vector":"1"}},{"base_weights":[-8.345462E-5,-1.6681293E0,2.7945015E-1,-1.7030848E0,-1.3405796E0,4.5691878E-1,-1.750943E0,-1.6488111E0,-1.773998E-2,-6.1936843E-1,-1.6791712E0,-5.055331E-1,6.444132E-1,-1.7534833E-2,-8.7997454E-1,-1.5755914E0,-1.696111E0,-3.0464858E-1,-1.7350545E-2,-1.7153386E0,-6.6470337E-1,3.5500148E-1,-6.182843E-1,7.2279096E-1,1.4449637E-1,2.5420769E-3,-1.5080672E-2,-1.3917173E-2,-1.6361512E-2,-1.5088394E-2,-1.7185282E-2,-6.723473E-4,-8.584741E-3,-1.7340587E-2,-9.8208925E-3,-1.5474981E-2,2.8585582E-3,1.2866042E-3,5.7619214E-3,-7.868927E-3,-4.6585132E-3,2.3567376E-3,7.782717E-3,3.358328E-4,6.1931065E-3],"categories":[],"categories_nodes":[],"categories_segments":[],"categories_sizes":[],"default_left":[0,0,0,0,0,0,0,0,0,0,0,0,0,0,0,0,0,0,0,0,0,0,0,0,0,0,0,0,0,0,0,0,0,0,0,0,0,0,0,0,0,0,0,0,0],"id":13,"left_children":[1,3,5,7,9,11,13,15,-1,17,19,21,23,-1,25,27,29,31,-1,33,35,37,39,41,43,-1,-1,-1,-1,-1,-1,-1,-1,-1,-1,-1,-1,-1,-1,-1,-1,-1,-1,-1,-1],"loss_changes":[1.6319448E4,5.523535E1,1.0802148E4,1.4529297E1,1.1839563E2,4.9749966E3,3.7890625E0,6.273926E0,0E0,5.489495E1,1.1050415E1,4.3638538E2,9.0395605E2,0E0,6.806E0,9.169189E0,3.940918E0,1.628964E1,0E0,2.6920776E0,1.1410259E1,2.6029594E1,1.01795044E2,5.388623E2,1.647312E2,0E0,0E0,0E0,0E0,0E0,0E0,0E0,0E0,0E0,0E0,0E0,0E0,0E0,0E0,0E0,0E0,0E0,0E0,0E0,0E0],"parents":[2147483647,0,0,1,1,2,2,3,3,4,4,5,5,6,6,7,7,9,9,10,10,11,11,12,12,14,14,15,15,16,16,17,17,19,19,20,20,21,21,22,22,23,23,24,24],"right_children":[2,4,6,8,10,12,14,16,-1,18,20,22,24,-1,26,28,30,32,-1,34,36,38,40,42,44,-1,-1,-1,-1,-1,-1,-1,-1,-1,-1,-1,-1,-1,-1,-1,-1,-1,-1,-1,-1],"split_conditions":[1E0,1.54E2,1E0,1E0,1.58E2,2.8E1,1.63E2,1.25E2,-1.773998E-2,1E0,1.63E2,1.51E2,5.9E1,-1.7534833E-2,2.3E1,3.8E1,9.423E2,1.3541E3,-1.7350545E-2,5E1,2.38E2,1.24E2,1E0,1E0,2E0,2.5420769E-3,-1.5080672E-2,-1.3917173E-2,-1.6361512E-2,-1.5088394E-2,-1.7185282E-2,-6.723473E-4,-8.584741E-3,-1.7340587E-2,-9.8208925E-3,-1.5474981E-2,2.8585582E-3,1.2866042E-3,5.7619214E-3,-7.868927E-3,-4.6585132E-3,2.3567376E-3,7.782717E-3,3.358328E-4,6.1931065E-3],"split_indices":[6,8,4,4,8,1,8,8,0,4,8,8,1,0,1,1,7,7,0,3,9,8,0,5,5,0,0,0,0,0,0,0,0,0,0,0,0,0,0,0,0,0,0,0,0],"split_type":[0,0,0,0,0,0,0,0,0,0,0,0,0,0,0,0,0,0,0,0,0,0,0,0,0,0,0,0,0,0,0,0,0,0,0,0,0,0,0,0,0,0,0,0,0],"sum_hessian":[3.4997633E4,5.0224526E3,2.997518E4,4.534355E3,4.8809744E2,2.7566479E4,2.408702E3,2.5822603E3,1.9520948E3,1.5684395E2,3.3125348E2,4.494334E3,2.3072145E4,2.400686E3,8.015853E0,1.0269156E3,1.5553445E3,1.23327896E2,3.3516052E1,3.1918323E2,1.2070266E1,5.2040155E2,3.9739321E3,1.994473E4,3.127413E3,3.069092E0,4.9467607E0,2.603648E2,7.6655084E2,1.7358118E2,1.3817633E3,8.7107895E1,3.622E1,3.0990628E2,9.276931E0,5.9326043E0,6.1376615E0,2.57988E2,2.624135E2,1.884878E3,2.0890542E3,2.0398887E3,1.7904842E4,2.5360754E3,5.913376E2],"tree_param":{"num_deleted":"0","num_feature":"10","num_nodes":"45","size_leaf_vector":"1"}},{"base_weights":[-9.0361755E-5,-1.654842E0,2.767868E-1,-1.6895874E0,-1.3294218E0,4.5249987E-1,-1.737262E0,-1.6355383E0,-1.7602295E-2,-6.137027E-1,-1.6659305E0,-5.006163E-1,6.381881E-1,-1.7397841E-2,-8.7335753E-1,-1.562651E0,-1.6826385E0,-3.0172455E-1,-1.7218055E-2,-1.7018515E0,-6.595536E-1,3.5149953E-1,-6.122865E-1,7.1584445E-1,1.4305626E-1,2.5229894E-3,-1.4975392E-2,-1.4660867E-2,-1.6800063E-2,-1.4962725E-2,-1.7049601E-2,-6.657019E-4,-8.505619E-3,-1.7204667E-2,-9.738347E-3,-1.5364989E-2,2.834121E-3,1.7232822E-3,6.277568E-3,-7.7937846E-3,-4.6126833E-3,8.0566835E-3,4.1755266E-3,2.7520668E-3,-2.4961263E-3],"categories":[],"categories_nodes":[],"categories_segments":[],"categories_sizes":[],"default_left":[0,0,0,0,0,0,0,0,0,0,0,0,0,0,0,0,0,0,0,0,0,0,0,0,0,0,0,0,0,0,0,0,0,0,0,0,0,0,0,0,0,0,0,0,0],"id":14,"left_children":[1,3,5,7,9,11,13,15,-1,17,19,21,23,-1,25,27,29,31,-1,33,35,37,39,41,43,-1,-1,-1,-1,-1,-1,-1,-1,-1,-1,-1,-1,-1,-1,-1,-1,-1,-1,-1,-1],"loss_changes":[1.6024311E4,5.444043E1,1.0604124E4,1.4401367E1,1.1658862E2,4.8776753E3,3.7197266E0,6.2211914E0,0E0,5.4016182E1,1.0863831E1,4.2785632E2,8.867617E2,0E0,6.7067966E0,9.165039E0,3.9101562E0,1.5986803E1,0E0,2.6548462E0,1.1235025E1,2.5697311E1,9.991406E1,5.33876E2,1.6240317E2,0E0,0E0,0E0,0E0,0E0,0E0,0E0,0E0,0E0,0E0,0E0,0E0,0E0,0E0,0E0,0E0,0E0,0E0,0E0,0E0],"parents":[2147483647,0,0,1,1,2,2,3,3,4,4,5,5,6,6,7,7,9,9,10,10,11,11,12,12,14,14,15,15,16,16,17,17,19,19,20,20,21,21,22,22,23,23,24,24],"right_children":[2,4,6,8,10,12,14,16,-1,18,20,22,24,-1,26,28,30,32,-1,34,36,38,40,42,44,-1,-1,-1,-1,-1,-1,-1,-1,-1,-1,-1,-1,-1,-1,-1,-1,-1,-1,-1,-1],"split_conditions":[1E0,1.54E2,1E0,1E0,1.58E2,2.8E1,1.63E2,1.25E2,-1.7602295E-2,1E0,1.63E2,1.51E2,5.9E1,-1.7397841E-2,2.3E1,4.8E1,9.423E2,1.3541E3,-1.7218055E-2,5E1,2.38E2,2.5E1,1E0,1.25E2,7.1E1,2.5229894E-3,-1.4975392E-2,-1.4660867E-2,-1.6800063E-2,-1.4962725E-2,-1.7049601E-2,-6.657019E-4,-8.505619E-3,-1.7204667E-2,-9.738347E-3,-1.5364989E-2,2.834121E-3,1.7232822E-3,6.277568E-3,-7.7937846E-3,-4.6126833E-3,8.0566835E-3,4.1755266E-3,2.7520668E-3,-2.4961263E-3],"split_indices":[6,8,4,4,8,1,8,8,0,4,8,8,1,0,1,1,7,7,0,3,9,1,0,8,1,0,0,0,0,0,0,0,0,0,0,0,0,0,0,0,0,0,0,0,0],"split_type":[0,0,0,0,0,0,0,0,0,0,0,0,0,0,0,0,0,0,0,0,0,0,0,0,0,0,0,0,0,0,0,0,0,0,0,0,0,0,0,0,0,0,0,0,0],"sum_hessian":[3.4973137E4,5.0122905E3,2.9960846E4,4.524965E3,4.8732526E2,2.755741E4,2.403435E3,2.5772449E3,1.9477201E3,1.5675261E2,3.3057266E2,4.493109E3,2.30643E4,2.3954275E3,8.007744E0,1.0250922E3,1.5521528E3,1.2330835E2,3.3444267E1,3.1851282E2,1.2059838E1,5.203504E2,3.9727585E3,1.993695E4,3.1273523E3,3.0689526E0,4.9387913E0,5.6976294E2,4.553292E2,1.732985E2,1.3788544E3,8.71076E1,3.620075E1,3.0924228E2,9.270516E0,5.9225316E0,6.137306E0,3.1662305E2,2.0372737E2,1.8840339E3,2.0887246E3,1.5321519E4,4.6154307E3,2.3401033E3,7.87249E2],"tree_param":{"num_deleted":"0","num_feature":"10","num_nodes":"45","size_leaf_vector":"1"}},{"base_weights":[-9.757453E-5,-1.6418625E0,2.7415603E-1,-1.676408E0,-1.3184822E0,4.481318E-1,-1.7239165E0,-1.6225648E0,-1.7468056E-2,-6.081102E-1,-1.6529998E0,-4.9575594E-1,6.3203466E-1,-1.7264215E-2,-8.668406E-1,-1.5499867E0,-1.6694806E0,-2.9883146E-1,-1.7088752E-2,-1.6886847E0,-6.5447766E-1,3.4804276E-1,-6.063572E-1,7.089772E-1,1.4163218E-1,2.5040521E-3,-1.4872121E-2,-1.4538916E-2,-1.6668325E-2,-1.4839548E-2,-1.691715E-2,-6.5912143E-4,-8.42749E-3,-1.7072024E-2,-9.656867E-3,-1.5257181E-2,2.8098987E-3,1.2386309E-3,5.6717116E-3,-7.7195647E-3,-4.5673423E-3,2.2782104E-3,7.6381513E-3,3.1845472E-4,6.1167185E-3],"categories":[],"categories_nodes":[],"categories_segments":[],"categories_sizes":[],"default_left":[0,0,0,0,0,0,0,0,0,0,0,0,0,0,0,0,0,0,0,0,0,0,0,0,0,0,0,0,0,0,0,0,0,0,0,0,0,0,0,0,0,0,0,0,0],"id":15,"left_children":[1,3,5,7,9,11,13,15,-1,17,19,21,23,-1,25,27,29,31,-1,33,35,37,39,41,43,-1,-1,-1,-1,-1,-1,-1,-1,-1,-1,-1,-1,-1,-1,-1,-1,-1,-1,-1,-1],"loss_changes":[1.5736242E4,5.367578E1,1.0410729E4,1.4283203E1,1.1484241E2,4.782341E3,3.6547852E0,6.17334E0,0E0,5.3162247E1,1.0683777E1,4.1950293E2,8.6990625E2,0E0,6.6097803E0,9.076172E0,3.8823242E0,1.569032E1,0E0,2.619629E0,1.1063696E1,2.5537502E1,9.807617E1,5.256875E2,1.6140912E2,0E0,0E0,0E0,0E0,0E0,0E0,0E0,0E0,0E0,0E0,0E0,0E0,0E0,0E0,0E0,0E0,0E0,0E0,0E0,0E0],"parents":[2147483647,0,0,1,1,2,2,3,3,4,4,5,5,6,6,7,7,9,9,10,10,11,11,12,12,14,14,15,15,16,16,17,17,19,19,20,20,21,21,22,22,23,23,24,24],"right_children":[2,4,6,8,10,12,14,16,-1,18,20,22,24,-1,26,28,30,32,-1,34,36,38,40,42,44,-1,-1,-1,-1,-1,-1,-1,-1,-1,-1,-1,-1,-1,-1,-1,-1,-1,-1,-1,-1],"split_conditions":[1E0,1.54E2,1E0,1E0,1.58E2,2.8E1,1.63E2,1.25E2,-1.7468056E-2,1E0,1.63E2,1.51E2,5.9E1,-1.7264215E-2,2.3E1,4.8E1,9.423E2,1.3541E3,-1.7088752E-2,5E1,2.38E2,1.24E2,1E0,1E0,2E0,2.5040521E-3,-1.4872121E-2,-1.4538916E-2,-1.6668325E-2,-1.4839548E-2,-1.691715E-2,-6.5912143E-4,-8.42749E-3,-1.7072024E-2,-9.656867E-3,-1.5257181E-2,2.8098987E-3,1.2386309E-3,5.6717116E-3,-7.7195647E-3,-4.5673423E-3,2.2782104E-3,7.6381513E-3,3.1845472E-4,6.1167185E-3],"split_indices":[6,8,4,4,8,1,8,8,0,4,8,8,1,0,1,1,7,7,0,3,9,8,0,5,5,0,0,0,0,0,0,0,0,0,0,0,0,0,0,0,0,0,0,0,0],"split_type":[0,0,0,0,0,0,0,0,0,0,0,0,0,0,0,0,0,0,0,0,0,0,0,0,0,0,0,0,0,0,0,0,0,0,0,0,0,0,0,0,0,0,0,0,0],"sum_hessian":[3.4947234E4,5.001537E3,2.9945697E4,4.515029E3,4.8650824E2,2.7547834E4,2.3978635E3,2.5719373E3,1.9430918E3,1.5665596E2,3.2985226E2,4.4918037E3,2.3056031E4,2.3898643E3,7.999147E0,1.0231612E3,1.548776E3,1.2328766E2,3.3368294E1,3.178035E2,1.2048786E1,5.2028687E2,3.9715166E3,1.9928818E4,3.127212E3,3.0688047E0,4.930342E0,5.688098E2,4.5435135E2,1.7299939E2,1.3757766E3,8.7107285E1,3.6180374E1,3.0853976E2,9.263721E0,5.9118567E0,6.13693E0,2.5795297E2,2.6233392E2,1.8831407E3,2.088376E3,2.0394608E3,1.7889357E4,2.5359585E3,5.912536E2],"tree_param":{"num_deleted":"0","num_feature":"10","num_nodes":"45","size_leaf_vector":"1"}},{"base_weights":[-1.0469968E-4,-1.6291792E0,2.7155805E-1,-1.6635349E0,-1.3077538E0,4.438148E-1,-1.7108945E0,-1.609878E0,-1.733714E-2,-6.025892E-1,-1.640368E0,-4.909498E-1,6.259539E-1,-1.713383E-2,-8.604212E-1,-1.5375851E0,-1.6566257E0,-2.959689E-1,-1.6962528E-2,-1.6758273E0,-6.494735E-1,3.4461403E-1,-6.004956E-1,7.021951E-1,1.4022146E-1,2.485263E-3,-1.4770794E-2,-1.3553517E-2,-1.597694E-2,-1.4718777E-2,-1.678781E-2,-6.5260817E-4,-8.350326E-3,-1.6942542E-2,-9.576422E-3,-1.51514895E-2,2.7858934E-3,1.6713399E-3,6.1836885E-3,-7.6462463E-3,-4.52249E-3,7.909838E-3,4.0747593E-3,3.0265779E-3,-1.7353528E-3],"categories":[],"categories_nodes":[],"categories_segments":[],"categories_sizes":[],"default_left":[0,0,0,0,0,0,0,0,0,0,0,0,0,0,0,0,0,0,0,0,0,0,0,0,0,0,0,0,0,0,0,0,0,0,0,0,0,0,0,0,0,0,0,0,0],"id":16,"left_children":[1,3,5,7,9,11,13,15,-1,17,19,21,23,-1,25,27,29,31,-1,33,35,37,39,41,43,-1,-1,-1,-1,-1,-1,-1,-1,-1,-1,-1,-1,-1,-1,-1,-1,-1,-1,-1,-1],"loss_changes":[1.5455011E4,5.2941406E1,1.0221827E4,1.4175781E1,1.1315369E2,4.6889736E3,3.5898438E0,6.129883E0,0E0,5.233208E1,1.0509949E1,4.1131958E2,8.5344434E2,0E0,6.51488E0,9.030762E0,3.8579102E0,1.5399997E1,0E0,2.58667E0,1.0896151E1,2.5221104E1,9.627991E1,5.209697E2,1.5947958E2,0E0,0E0,0E0,0E0,0E0,0E0,0E0,0E0,0E0,0E0,0E0,0E0,0E0,0E0,0E0,0E0,0E0,0E0,0E0,0E0],"parents":[2147483647,0,0,1,1,2,2,3,3,4,4,5,5,6,6,7,7,9,9,10,10,11,11,12,12,14,14,15,15,16,16,17,17,19,19,20,20,21,21,22,22,23,23,24,24],"right_children":[2,4,6,8,10,12,14,16,-1,18,20,22,24,-1,26,28,30,32,-1,34,36,38,40,42,44,-1,-1,-1,-1,-1,-1,-1,-1,-1,-1,-1,-1,-1,-1,-1,-1,-1,-1,-1,-1],"split_conditions":[1E0,1.54E2,1E0,1E0,1.58E2,2.8E1,1.63E2,1.25E2,-1.733714E-2,1E0,1.63E2,1.51E2,5.9E1,-1.713383E-2,2.3E1,3.8E1,9.423E2,1.3541E3,-1.6962528E-2,5E1,2.38E2,2.5E1,1E0,1.25E2,6.9E1,2.485263E-3,-1.4770794E-2,-1.3553517E-2,-1.597694E-2,-1.4718777E-2,-1.678781E-2,-6.5260817E-4,-8.350326E-3,-1.6942542E-2,-9.576422E-3,-1.51514895E-2,2.7858934E-3,1.6713399E-3,6.1836885E-3,-7.6462463E-3,-4.52249E-3,7.909838E-3,4.0747593E-3,3.0265779E-3,-1.7353528E-3],"split_indices":[6,8,4,4,8,1,8,8,0,4,8,8,1,0,1,1,7,7,0,3,9,1,0,8,1,0,0,0,0,0,0,0,0,0,0,0,0,0,0,0,0,0,0,0,0],"split_type":[0,0,0,0,0,0,0,0,0,0,0,0,0,0,0,0,0,0,0,0,0,0,0,0,0,0,0,0,0,0,0,0,0,0,0,0,0,0,0,0,0,0,0,0,0],"sum_hessian":[3.4919934E4,4.9902153E3,2.9929719E4,4.5045674E3,4.8564795E2,2.7537723E4,2.3919968E3,2.5663486E3,1.9382186E3,1.5655414E2,3.290938E2,4.490439E3,2.3047283E4,2.3840068E3,7.990075E0,1.0211279E3,1.5452206E3,1.2326587E2,3.3288277E1,3.1705667E2,1.20371275E1,5.202291E2,3.9702097E3,1.9920146E4,3.1271377E3,3.0686483E0,4.921427E0,2.59114E2,7.620139E2,1.7268445E2,1.3725361E3,8.710696E1,3.615891E1,3.078001E2,9.256558E0,5.9005957E0,6.1365323E0,3.1658932E2,2.0363982E2,1.8822007E3,2.088009E3,1.5306995E4,4.6131514E3,2.0604492E3,1.0666885E3],"tree_param":{"num_deleted":"0","num_feature":"10","num_nodes":"45","size_leaf_vector":"1"}},{"base_weights":[-1.11946756E-4,-1.6167808E0,2.6899147E-1,-1.6509559E0,-1.2972298E0,4.3954715E-1,-1.6981851E0,-1.5974663E0,-1.7209427E-2,-5.971379E-1,-1.6280252E0,-4.8619798E-1,6.199426E-1,-1.7006576E-2,-8.540968E-1,-1.5254332E0,-1.6440637E0,-2.9313642E-1,-1.6839275E-2,-1.6632684E0,-6.445395E-1,3.4122905E-1,-5.9469986E-1,6.954893E-1,1.3882694E-1,2.4666188E-3,-1.4671356E-2,-1.4298309E-2,-1.6418073E-2,-1.4600338E-2,-1.6661478E-2,-6.4615987E-4,-8.274108E-3,-1.6816115E-2,-9.496993E-3,-1.5047854E-2,2.7621004E-3,1.1918315E-3,5.5832714E-3,-7.5738067E-3,-4.4781137E-3,2.2016815E-3,7.4970177E-3,3.0149802E-4,6.0417545E-3],"categories":[],"categories_nodes":[],"categories_segments":[],"categories_sizes":[],"default_left":[0,0,0,0,0,0,0,0,0,0,0,0,0,0,0,0,0,0,0,0,0,0,0,0,0,0,0,0,0,0,0,0,0,0,0,0,0,0,0,0,0,0,0,0,0],"id":17,"left_children":[1,3,5,7,9,11,13,15,-1,17,19,21,23,-1,25,27,29,31,-1,33,35,37,39,41,43,-1,-1,-1,-1,-1,-1,-1,-1,-1,-1,-1,-1,-1,-1,-1,-1,-1,-1,-1,-1],"loss_changes":[1.5180378E4,5.223535E1,1.0037275E4,1.4077148E1,1.11520325E2,4.597505E3,3.5297852E0,6.0893555E0,0E0,5.1524723E1,1.0341919E1,4.0330322E2,8.373008E2,0E0,6.422026E0,9.000732E0,3.8364258E0,1.5115691E1,0E0,2.555725E0,1.0732267E1,2.5056332E1,9.4523926E1,5.129375E2,1.5817197E2,0E0,0E0,0E0,0E0,0E0,0E0,0E0,0E0,0E0,0E0,0E0,0E0,0E0,0E0,0E0,0E0,0E0,0E0,0E0,0E0],"parents":[2147483647,0,0,1,1,2,2,3,3,4,4,5,5,6,6,7,7,9,9,10,10,11,11,12,12,14,14,15,15,16,16,17,17,19,19,20,20,21,21,22,22,23,23,24,24],"right_children":[2,4,6,8,10,12,14,16,-1,18,20,22,24,-1,26,28,30,32,-1,34,36,38,40,42,44,-1,-1,-1,-1,-1,-1,-1,-1,-1,-1,-1,-1,-1,-1,-1,-1,-1,-1,-1,-1],"split_conditions":[1E0,1.54E2,1E0,1E0,1.58E2,2.8E1,1.63E2,1.25E2,-1.7209427E-2,1E0,1.63E2,1.51E2,5.9E1,-1.7006576E-2,2.3E1,4.8E1,9.423E2,1.3541E3,-1.6839275E-2,5E1,2.38E2,1.24E2,1E0,1E0,2E0,2.4666188E-3,-1.4671356E-2,-1.4298309E-2,-1.6418073E-2,-1.4600338E-2,-1.6661478E-2,-6.4615987E-4,-8.274108E-3,-1.6816115E-2,-9.496993E-3,-1.5047854E-2,2.7621004E-3,1.1918315E-3,5.5832714E-3,-7.5738067E-3,-4.4781137E-3,2.2016815E-3,7.4970177E-3,3.0149802E-4,6.0417545E-3],"split_indices":[6,8,4,4,8,1,8,8,0,4,8,8,1,0,1,1,7,7,0,3,9,8,0,5,5,0,0,0,0,0,0,0,0,0,0,0,0,0,0,0,0,0,0,0,0],"split_type":[0,0,0,0,0,0,0,0,0,0,0,0,0,0,0,0,0,0,0,0,0,0,0,0,0,0,0,0,0,0,0,0,0,0,0,0,0,0,0,0,0,0,0,0,0],"sum_hessian":[3.4891316E4,4.978345E3,2.9912973E4,4.4935996E3,4.8474576E2,2.7527127E4,2.3858457E3,2.5604905E3,1.933109E3,1.5644736E2,3.2829837E2,4.4889985E3,2.3038129E4,2.377865E3,7.980542E0,1.01899786E3,1.5414927E3,1.2324302E2,3.3204346E1,3.162735E2,1.2024882E1,5.201593E2,3.9688394E3,1.9911154E4,3.1269731E3,3.0684836E0,4.912059E0,5.667198E2,4.522781E2,1.723542E2,1.3691384E3,8.710661E1,3.61364E1,3.0702448E2,9.249038E0,5.8887677E0,6.136114E0,2.5791513E2,2.6224417E2,1.881215E3,2.0876245E3,2.0389789E3,1.7872176E4,2.5358237E3,5.9114954E2],"tree_param":{"num_deleted":"0","num_feature":"10","num_nodes":"45","size_leaf_vector":"1"}},{"base_weights":[-1.1912393E-4,-1.6046596E0,2.6645622E-1,-1.6386634E0,-1.2869034E0,4.3532854E-1,-1.6857771E0,-1.585324E0,-1.7084816E-2,-5.9175485E-1,-1.6159614E0,-4.4002753E-1,6.2251663E-1,-1.6882347E-2,-8.47865E-1,-1.5135307E0,-1.6317844E0,-2.903334E-1,-1.6718896E-2,-1.6509981E0,-6.396739E-1,3.9372855E-1,-5.555422E-1,7.001217E-1,1.3744453E-1,2.4481192E-3,-1.4573755E-2,-1.3324221E-2,-1.5733352E-2,-1.4484151E-2,-1.6538048E-2,-6.397734E-4,-8.1988145E-3,-1.6692637E-2,-9.418557E-3,-1.4946211E-2,2.7385184E-3,1.5354651E-3,6.6676866E-3,-6.295209E-3,-1.3752021E-3,7.7648684E-3,4.311604E-3,2.6718606E-3,-2.4800263E-3],"categories":[],"categories_nodes":[],"categories_segments":[],"categories_sizes":[],"default_left":[0,0,0,0,0,0,0,0,0,0,0,0,0,0,0,0,0,0,0,0,0,0,0,0,0,0,0,0,0,0,0,0,0,0,0,0,0,0,0,0,0,0,0,0,0],"id":18,"left_children":[1,3,5,7,9,11,13,15,-1,17,19,21,23,-1,25,27,29,31,-1,33,35,37,39,41,43,-1,-1,-1,-1,-1,-1,-1,-1,-1,-1,-1,-1,-1,-1,-1,-1,-1,-1,-1,-1],"loss_changes":[1.4912153E4,5.155957E1,9.856944E3,1.3986328E1,1.0993964E2,4.509113E3,3.4707031E0,6.053711E0,0E0,5.0739307E1,1.0179443E1,4.6715918E2,8.5328613E2,0E0,6.3311605E0,8.92749E0,3.8173828E0,1.4837247E1,0E0,2.5267944E0,1.05719385E1,3.862606E1,1.3161243E2,4.010625E2,1.564872E2,0E0,0E0,0E0,0E0,0E0,0E0,0E0,0E0,0E0,0E0,0E0,0E0,0E0,0E0,0E0,0E0,0E0,0E0,0E0,0E0],"parents":[2147483647,0,0,1,1,2,2,3,3,4,4,5,5,6,6,7,7,9,9,10,10,11,11,12,12,14,14,15,15,16,16,17,17,19,19,20,20,21,21,22,22,23,23,24,24],"right_children":[2,4,6,8,10,12,14,16,-1,18,20,22,24,-1,26,28,30,32,-1,34,36,38,40,42,44,-1,-1,-1,-1,-1,-1,-1,-1,-1,-1,-1,-1,-1,-1,-1,-1,-1,-1,-1,-1],"split_conditions":[1E0,1.54E2,1E0,1E0,1.58E2,2.9E1,1.63E2,1.25E2,-1.7084816E-2,1E0,1.63E2,1.37E2,5.9E1,-1.6882347E-2,2.3E1,3.8E1,9.423E2,1.3541E3,-1.6718896E-2,5E1,2.38E2,2.5E1,1E0,1.25E2,7.1E1,2.4481192E-3,-1.4573755E-2,-1.3324221E-2,-1.5733352E-2,-1.4484151E-2,-1.6538048E-2,-6.397734E-4,-8.1988145E-3,-1.6692637E-2,-9.418557E-3,-1.4946211E-2,2.7385184E-3,1.5354651E-3,6.6676866E-3,-6.295209E-3,-1.3752021E-3,7.7648684E-3,4.311604E-3,2.6718606E-3,-2.4800263E-3],"split_indices":[6,8,4,4,8,1,8,8,0,4,8,8,1,0,1,1,7,7,0,3,9,1,5,8,1,0,0,0,0,0,0,0,0,0,0,0,0,0,0,0,0,0,0,0,0],"split_type":[0,0,0,0,0,0,0,0,0,0,0,0,0,0,0,0,0,0,0,0,0,0,0,0,0,0,0,0,0,0,0,0,0,0,0,0,0,0,0,0,0,0,0,0,0],"sum_hessian":[3.4861402E4,4.965942E3,2.9895459E4,4.4821387E3,4.8380304E2,2.7516041E4,2.379419E3,2.5543682E3,1.9277706E3,1.5633574E2,3.2746732E2,4.847255E3,2.2668785E4,2.3714485E3,7.970562E0,1.01677045E3,1.5375978E3,1.2321912E2,3.3116627E1,3.1545523E2,1.2012065E1,5.8955853E2,4.2576963E3,1.95419E4,3.126886E3,3.0683107E0,4.9022512E0,2.5818347E2,7.58587E2,1.7200916E2,1.3655886E3,8.710625E1,3.611287E1,3.0621408E2,9.241169E0,5.8763885E0,6.135676E0,3.144831E2,2.750754E2,3.6170662E3,6.406301E2,1.521895E4,4.3229497E3,2.3396624E3,7.872237E2],"tree_param":{"num_deleted":"0","num_feature":"10","num_nodes":"45","size_leaf_vector":"1"}},{"base_weights":[-1.2626806E-4,-1.5928038E0,2.6394966E-1,-1.6266452E0,-1.2767678E0,4.3115488E-1,-1.6736606E0,-1.5734384E0,-1.6963188E-2,-5.864385E-1,-1.6041667E0,-4.771E-1,6.081776E-1,-1.676104E-2,-8.417235E-1,-1.5443012E0,-1.689888E0,-2.8755957E-1,-1.6601289E-2,-1.6390059E0,-6.34875E-1,3.3443516E-1,-5.835625E-1,6.682047E-1,2.3516325E-2,2.4297643E-3,-1.4477937E-2,-1.4540826E-2,-1.6025526E-2,-1.3143607E-2,-1.70363E-2,-6.334498E-4,-8.124429E-3,-1.6572002E-2,-9.341089E-3,-1.4846506E-2,2.7151464E-3,1.1443995E-3,5.495891E-3,-6.026443E-3,6.529746E-3,2.1638728E-3,7.171894E-3,-8.0231077E-4,4.7071488E-3],"categories":[],"categories_nodes":[],"categories_segments":[],"categories_sizes":[],"default_left":[0,0,0,0,0,0,0,0,0,0,0,0,0,0,0,0,0,0,0,0,0,0,0,0,0,0,0,0,0,0,0,0,0,0,0,0,0,0,0,0,0,0,0,0,0],"id":19,"left_children":[1,3,5,7,9,11,13,15,-1,17,19,21,23,-1,25,27,29,31,-1,33,35,37,39,41,43,-1,-1,-1,-1,-1,-1,-1,-1,-1,-1,-1,-1,-1,-1,-1,-1,-1,-1,-1,-1],"loss_changes":[1.4650097E4,5.0907227E1,9.680684E3,1.390625E1,1.084093E2,4.4227036E3,3.4140625E0,6.0390625E0,0E0,4.9974884E1,1.0022339E1,3.878711E2,8.0786816E2,0E0,6.242221E0,8.445801E0,3.388672E-1,1.4564522E1,0E0,2.4995117E0,1.0415059E1,2.4598217E1,9.399817E1,4.6187988E2,9.952855E1,0E0,0E0,0E0,0E0,0E0,0E0,0E0,0E0,0E0,0E0,0E0,0E0,0E0,0E0,0E0,0E0,0E0,0E0,0E0,0E0],"parents":[2147483647,0,0,1,1,2,2,3,3,4,4,5,5,6,6,7,7,9,9,10,10,11,11,12,12,14,14,15,15,16,16,17,17,19,19,20,20,21,21,22,22,23,23,24,24],"right_children":[2,4,6,8,10,12,14,16,-1,18,20,22,24,-1,26,28,30,32,-1,34,36,38,40,42,44,-1,-1,-1,-1,-1,-1,-1,-1,-1,-1,-1,-1,-1,-1,-1,-1,-1,-1,-1,-1],"split_conditions":[1E0,1.54E2,1E0,1E0,1.58E2,2.8E1,1.63E2,2.41E2,-1.6963188E-2,1E0,1.63E2,1.51E2,6.3E1,-1.676104E-2,2.3E1,1.25E2,6E0,1.3541E3,-1.6601289E-2,5E1,2.38E2,1.24E2,1.63E2,1E0,2E0,2.4297643E-3,-1.4477937E-2,-1.4540826E-2,-1.6025526E-2,-1.3143607E-2,-1.70363E-2,-6.334498E-4,-8.124429E-3,-1.6572002E-2,-9.341089E-3,-1.4846506E-2,2.7151464E-3,1.1443995E-3,5.495891E-3,-6.026443E-3,6.529746E-3,2.1638728E-3,7.171894E-3,-8.0231077E-4,4.7071488E-3],"split_indices":[6,8,4,4,8,1,8,9,0,4,8,8,1,0,1,8,3,7,0,3,9,8,8,5,5,0,0,0,0,0,0,0,0,0,0,0,0,0,0,0,0,0,0,0,0],"split_type":[0,0,0,0,0,0,0,0,0,0,0,0,0,0,0,0,0,0,0,0,0,0,0,0,0,0,0,0,0,0,0,0,0,0,0,0,0,0,0,0,0,0,0,0,0],"sum_hessian":[3.4830438E4,4.953028E3,2.9877408E4,4.4702065E3,4.8282135E2,2.7504682E4,2.3727263E3,2.5479946E3,1.9222118E3,1.562195E2,3.2660184E2,4.4860913E3,2.301859E4,2.3647664E3,7.960148E0,2.0494534E3,4.985413E2,1.2319424E2,3.302526E1,3.1460315E2,1.1998693E1,5.200149E2,3.9660764E3,2.0875193E4,2.1433972E3,3.06813E0,4.892018E0,8.142802E2,1.2351732E3,2.1011507E1,4.7752975E2,8.710587E1,3.608836E1,3.053702E2,9.2329645E0,5.8634744E0,6.1352186E0,2.5787216E2,2.6214276E2,3.906308E3,5.976817E1,2.0423832E3,1.883281E4,1.740445E3,4.029523E2],"tree_param":{"num_deleted":"0","num_feature":"10","num_nodes":"45","size_leaf_vector":"1"}},{"base_weights":[-1.3336132E-4,-1.5812019E0,2.6147276E-1,-1.6148888E0,-1.2668176E0,4.270279E-1,-1.6618253E0,-1.5617949E0,-1.6844451E-2,-5.811874E-1,-1.5926327E0,-4.3176147E-1,6.10723E-1,-1.6642552E-2,-8.3567E-1,-1.490414E0,-1.6080272E0,-2.848147E-1,-1.6486367E-2,-1.6272831E0,-6.301412E-1,3.8646612E-1,-5.451604E-1,6.871114E-1,1.3367885E-1,2.4115508E-3,-1.4383851E-2,-1.394839E-2,-1.6069539E-2,-1.4244315E-2,-1.6301095E-2,-6.2719174E-4,-8.050927E-3,-1.645412E-2,-9.264567E-3,2.1629333E-3,-1.53515395E-2,1.4869074E-3,6.5690475E-3,-6.1822482E-3,-1.3242981E-3,7.6264283E-3,4.2122677E-3,2.6813394E-4,5.9138583E-3],"categories":[],"categories_nodes":[],"categories_segments":[],"categories_sizes":[],"default_left":[0,0,0,0,0,0,0,0,0,0,0,0,0,0,0,0,0,0,0,0,0,0,0,0,0,0,0,0,0,0,0,0,0,0,0,0,0,0,0,0,0,0,0,0,0],"id":20,"left_children":[1,3,5,7,9,11,13,15,-1,17,19,21,23,-1,25,27,29,31,-1,33,35,37,39,41,43,-1,-1,-1,-1,-1,-1,-1,-1,-1,-1,-1,-1,-1,-1,-1,-1,-1,-1,-1,-1],"loss_changes":[1.4394011E4,5.0279297E1,9.508388E3,1.3834961E1,1.0692688E2,4.337577E3,3.3608398E0,5.9936523E0,0E0,4.9230663E1,9.870361E0,4.4978333E2,8.252754E2,0E0,6.1551456E0,9.04248E0,3.8825684E0,1.42973385E1,0E0,2.474121E0,1.0278833E1,3.7864433E1,1.2825879E2,3.9175586E2,1.5295947E2,0E0,0E0,0E0,0E0,0E0,0E0,0E0,0E0,0E0,0E0,0E0,0E0,0E0,0E0,0E0,0E0,0E0,0E0,0E0,0E0],"parents":[2147483647,0,0,1,1,2,2,3,3,4,4,5,5,6,6,7,7,9,9,10,10,11,11,12,12,14,14,15,15,16,16,17,17,19,19,20,20,21,21,22,22,23,23,24,24],"right_children":[2,4,6,8,10,12,14,16,-1,18,20,22,24,-1,26,28,30,32,-1,34,36,38,40,42,44,-1,-1,-1,-1,-1,-1,-1,-1,-1,-1,-1,-1,-1,-1,-1,-1,-1,-1,-1,-1],"split_conditions":[1E0,1.54E2,1E0,1E0,1.58E2,2.9E1,1.63E2,1.25E2,-1.6844451E-2,1E0,1.63E2,1.37E2,5.9E1,-1.6642552E-2,2.3E1,4.8E1,9.423E2,1.3541E3,-1.6486367E-2,5E1,1.2654E3,2.5E1,1E0,1.25E2,2E0,2.4115508E-3,-1.4383851E-2,-1.394839E-2,-1.6069539E-2,-1.4244315E-2,-1.6301095E-2,-6.2719174E-4,-8.050927E-3,-1.645412E-2,-9.264567E-3,2.1629333E-3,-1.53515395E-2,1.4869074E-3,6.5690475E-3,-6.1822482E-3,-1.3242981E-3,7.6264283E-3,4.2122677E-3,2.6813394E-4,5.9138583E-3],"split_indices":[6,8,4,4,8,1,8,8,0,4,8,8,1,0,1,1,7,7,0,3,7,1,5,8,5,0,0,0,0,0,0,0,0,0,0,0,0,0,0,0,0,0,0,0,0],"split_type":[0,0,0,0,0,0,0,0,0,0,0,0,0,0,0,0,0,0,0,0,0,0,0,0,0,0,0,0,0,0,0,0,0,0,0,0,0,0,0,0,0,0,0,0,0],"sum_hessian":[3.479832E4,4.939632E3,2.9858688E4,4.4578296E3,4.8180194E2,2.749291E4,2.3657778E3,2.5413901E3,1.9164397E3,1.5609875E2,3.257032E2,4.844259E3,2.264865E4,2.3578284E3,7.9493117E0,1.012054E3,1.529336E3,1.23168396E2,3.293036E1,3.1371838E2,1.1984786E1,5.89357E2,4.254902E3,1.9522156E4,3.1264949E3,3.0679414E0,4.8813705E0,5.631667E2,4.4888727E2,1.7122879E2,1.3581073E3,8.710549E1,3.606291E1,3.0449396E2,9.224435E0,6.5860415E0,5.3987446E0,3.1444238E2,2.749146E2,3.6145337E3,6.403682E2,1.5201815E4,4.3203403E3,2.5355525E3,5.909424E2],"tree_param":{"num_deleted":"0","num_feature":"10","num_nodes":"45","size_leaf_vector":"1"}},{"base_weights":[-1.40341E-4,-1.5698524E0,2.5902495E-1,-1.6033951E0,-1.2570338E0,4.229468E-1,-1.6502619E0,-1.5504023E0,-1.6728507E-2,-5.7600015E-1,-1.581326E0,-4.6818393E-1,5.966717E-1,-1.6526788E-2,-8.2970244E-1,-1.5213192E0,-1.6666877E0,-2.8209805E-1,-1.6374044E-2,-1.6158203E0,-6.252811E-1,3.2778257E-1,-5.7264864E-1,6.557343E-1,2.1955077E-2,2.3934792E-3,-1.4291453E-2,-1.4315418E-2,-1.5793398E-2,-1.2929531E-2,-1.6803924E-2,-6.209929E-4,-7.978297E-3,-1.6338896E-2,-9.1889715E-3,-1.4686863E-2,2.710072E-3,1.0981325E-3,5.410208E-3,-7.342309E-3,-4.2688698E-3,2.0992782E-3,7.041069E-3,-7.96971E-4,4.602267E-3],"categories":[],"categories_nodes":[],"categories_segments":[],"categories_sizes":[],"default_left":[0,0,0,0,0,0,0,0,0,0,0,0,0,0,0,0,0,0,0,0,0,0,0,0,0,0,0,0,0,0,0,0,0,0,0,0,0,0,0,0,0,0,0,0,0],"id":21,"left_children":[1,3,5,7,9,11,13,15,-1,17,19,21,23,-1,25,27,29,31,-1,33,35,37,39,41,43,-1,-1,-1,-1,-1,-1,-1,-1,-1,-1,-1,-1,-1,-1,-1,-1,-1,-1,-1,-1],"loss_changes":[1.4143763E4,4.9680664E1,9.33994E3,1.3770508E1,1.054859E2,4.254773E3,3.3085938E0,6.039551E0,0E0,4.8505856E1,9.733276E0,3.730379E2,7.806592E2,0E0,6.0698857E0,8.36377E0,3.720703E-1,1.4035602E1,0E0,2.4502563E0,1.0207073E1,2.4149765E1,9.30531E1,4.4959473E2,9.556841E1,0E0,0E0,0E0,0E0,0E0,0E0,0E0,0E0,0E0,0E0,0E0,0E0,0E0,0E0,0E0,0E0,0E0,0E0,0E0,0E0],"parents":[2147483647,0,0,1,1,2,2,3,3,4,4,5,5,6,6,7,7,9,9,10,10,11,11,12,12,14,14,15,15,16,16,17,17,19,19,20,20,21,21,22,22,23,23,24,24],"right_children":[2,4,6,8,10,12,14,16,-1,18,20,22,24,-1,26,28,30,32,-1,34,36,38,40,42,44,-1,-1,-1,-1,-1,-1,-1,-1,-1,-1,-1,-1,-1,-1,-1,-1,-1,-1,-1,-1],"split_conditions":[1E0,1.54E2,1E0,1E0,1.58E2,2.8E1,1.63E2,2.41E2,-1.6728507E-2,1E0,1.63E2,1.51E2,6.3E1,-1.6526788E-2,2.3E1,1.25E2,6E0,1.3541E3,-1.6374044E-2,5E1,2.38E2,1.24E2,1E0,1E0,2E0,2.3934792E-3,-1.4291453E-2,-1.4315418E-2,-1.5793398E-2,-1.2929531E-2,-1.6803924E-2,-6.209929E-4,-7.978297E-3,-1.6338896E-2,-9.1889715E-3,-1.4686863E-2,2.710072E-3,1.0981325E-3,5.410208E-3,-7.342309E-3,-4.2688698E-3,2.0992782E-3,7.041069E-3,-7.96971E-4,4.602267E-3],"split_indices":[6,8,4,4,8,1,8,9,0,4,8,8,1,0,1,8,3,7,0,3,9,8,0,5,5,0,0,0,0,0,0,0,0,0,0,0,0,0,0,0,0,0,0,0,0],"split_type":[0,0,0,0,0,0,0,0,0,0,0,0,0,0,0,0,0,0,0,0,0,0,0,0,0,0,0,0,0,0,0,0,0,0,0,0,0,0,0,0,0,0,0,0,0],"sum_hessian":[3.4765074E4,4.925749E3,2.9839326E4,4.444997E3,4.8075177E2,2.7480746E4,2.3585815E3,2.534535E3,1.9104623E3,1.5597366E2,3.247781E2,4.4830444E3,2.2997701E4,2.3506433E3,7.9380674E0,2.0387285E3,4.9580627E2,1.2314162E2,3.2832047E1,3.1280203E2,1.197606E1,5.1985834E2,3.963186E3,2.085439E4,2.14331E3,3.0677454E0,4.8703218E0,8.104165E2,1.228312E3,2.0910448E1,4.748958E2,8.710509E1,3.6036533E1,3.0358646E2,9.21559E0,5.841031E0,6.135029E0,2.5782645E2,2.620319E2,1.8776752E3,2.085511E3,2.0418499E3,1.8812541E4,1.7404504E3,4.0285974E2],"tree_param":{"num_deleted":"0","num_feature":"10","num_nodes":"45","size_leaf_vector":"1"}},{"base_weights":[-1.4783158E-4,-1.5587403E0,2.566061E-1,-1.5921446E0,-1.2474356E0,4.1891226E-1,-1.6389612E0,-1.5392337E0,-1.6615259E-2,-5.7087547E-1,-1.570286E0,-4.2367926E-1,5.991913E-1,-1.6413659E-2,-8.2381856E-1,-1.4973886E0,-1.6189183E0,-2.7940965E-1,-1.6264234E-2,-1.6046089E0,-6.206637E-1,3.7935394E-1,-5.350122E-1,6.743944E-1,1.3000338E-1,2.375548E-3,-1.420069E-2,-7.5027877E-3,-1.5041226E-2,-1.2343621E-2,-1.6257975E-2,-6.1485893E-4,-7.906514E-3,-1.6226241E-2,-9.114283E-3,2.1666351E-3,-1.5183983E-2,1.4395072E-3,6.4723645E-3,-6.0724365E-3,-1.2712065E-3,7.4911406E-3,4.1151764E-3,2.569586E-3,-2.4706172E-3],"categories":[],"categories_nodes":[],"categories_segments":[],"categories_sizes":[],"default_left":[0,0,0,0,0,0,0,0,0,0,0,0,0,0,0,0,0,0,0,0,0,0,0,0,0,0,0,0,0,0,0,0,0,0,0,0,0,0,0,0,0,0,0,0,0],"id":22,"left_children":[1,3,5,7,9,11,13,15,-1,17,19,21,23,-1,25,27,29,31,-1,33,35,37,39,41,43,-1,-1,-1,-1,-1,-1,-1,-1,-1,-1,-1,-1,-1,-1,-1,-1,-1,-1,-1,-1],"loss_changes":[1.3899115E4,4.9097656E1,9.175235E3,1.3713867E1,1.0409332E2,4.172845E3,3.2592773E0,6.006836E0,0E0,4.779969E1,9.591064E0,4.3309308E2,7.9833105E2,0E0,5.986382E0,7.2790527E0,2.6391602E-1,1.3779137E1,0E0,2.4279175E0,1.0071985E1,3.71213E1,1.252218E2,3.8275098E2,1.4976007E2,0E0,0E0,0E0,0E0,0E0,0E0,0E0,0E0,0E0,0E0,0E0,0E0,0E0,0E0,0E0,0E0,0E0,0E0,0E0,0E0],"parents":[2147483647,0,0,1,1,2,2,3,3,4,4,5,5,6,6,7,7,9,9,10,10,11,11,12,12,14,14,15,15,16,16,17,17,19,19,20,20,21,21,22,22,23,23,24,24],"right_children":[2,4,6,8,10,12,14,16,-1,18,20,22,24,-1,26,28,30,32,-1,34,36,38,40,42,44,-1,-1,-1,-1,-1,-1,-1,-1,-1,-1,-1,-1,-1,-1,-1,-1,-1,-1,-1,-1],"split_conditions":[1E0,1.54E2,1E0,1E0,1.58E2,2.9E1,1.63E2,2.01E2,-1.6615259E-2,1E0,1.63E2,1.37E2,5.9E1,-1.6413659E-2,2.3E1,2E0,9E0,1.3541E3,-1.6264234E-2,5E1,1.2654E3,2.5E1,1E0,1.25E2,7.1E1,2.375548E-3,-1.420069E-2,-7.5027877E-3,-1.5041226E-2,-1.2343621E-2,-1.6257975E-2,-6.1485893E-4,-7.906514E-3,-1.6226241E-2,-9.114283E-3,2.1666351E-3,-1.5183983E-2,1.4395072E-3,6.4723645E-3,-6.0724365E-3,-1.2712065E-3,7.4911406E-3,4.1151764E-3,2.569586E-3,-2.4706172E-3],"split_indices":[6,8,4,4,8,1,8,9,0,4,8,8,1,0,1,8,8,7,0,3,7,1,5,8,1,0,0,0,0,0,0,0,0,0,0,0,0,0,0,0,0,0,0,0,0],"split_type":[0,0,0,0,0,0,0,0,0,0,0,0,0,0,0,0,0,0,0,0,0,0,0,0,0,0,0,0,0,0,0,0,0,0,0,0,0,0,0,0,0,0,0,0,0],"sum_hessian":[3.4730613E4,4.911415E3,2.9819197E4,4.431754E3,4.7966104E2,2.746805E4,2.351147E3,2.5274675E3,1.9042865E3,1.5584438E2,3.2381665E2,4.840954E3,2.2627096E4,2.3432205E3,7.9264255E0,1.6701865E3,8.5728107E2,1.23113945E2,3.273044E1,3.1185532E2,1.1961332E1,5.891399E2,4.2518145E3,1.9500973E4,3.1261235E3,3.067542E0,4.8588834E0,1.5923724E1,1.6542628E3,1.8237158E1,8.390439E2,8.710467E1,3.6009277E1,3.026489E2,9.206438E0,6.5814214E0,5.3799105E0,3.1439816E2,2.7474173E2,3.6117407E3,6.400736E2,1.5183413E4,4.31756E3,2.338938E3,7.8718567E2],"tree_param":{"num_deleted":"0","num_feature":"10","num_nodes":"45","size_leaf_vector":"1"}},{"base_weights":[-1.5481947E-4,-1.5478561E0,2.5421527E-1,-1.5811309E0,-1.2379931E0,4.1492206E-1,-1.6279153E0,-1.5282843E0,-1.6504623E-2,-5.658117E-1,-1.5594579E0,-4.594675E-1,5.8542234E-1,-1.6303083E-2,-8.180165E-1,-1.4569463E0,-1.5745503E0,-2.767486E-1,-1.6156852E-2,-1.5936409E0,-6.159223E-1,3.212675E-1,-5.6198215E-1,6.5733635E-1,1.2871122E-1,2.3577544E-3,-1.4111523E-2,-1.3609345E-2,-1.574224E-2,-1.389726E-2,-1.5968345E-2,-6.0878106E-4,-7.835569E-3,-1.6116073E-2,-9.0404805E-3,-1.453261E-2,2.7047442E-3,1.0529998E-3,5.3261733E-3,-5.8086314E-3,6.599378E-3,7.4231396E-3,3.7585937E-3,2.3621615E-4,5.789543E-3],"categories":[],"categories_nodes":[],"categories_segments":[],"categories_sizes":[],"default_left":[0,0,0,0,0,0,0,0,0,0,0,0,0,0,0,0,0,0,0,0,0,0,0,0,0,0,0,0,0,0,0,0,0,0,0,0,0,0,0,0,0,0,0,0,0],"id":23,"left_children":[1,3,5,7,9,11,13,15,-1,17,19,21,23,-1,25,27,29,31,-1,33,35,37,39,41,43,-1,-1,-1,-1,-1,-1,-1,-1,-1,-1,-1,-1,-1,-1,-1,-1,-1,-1,-1,-1],"loss_changes":[1.3659877E4,4.854004E1,9.014161E3,1.3668945E1,1.027384E2,4.0935103E3,3.209961E0,6.027832E0,0E0,4.711149E1,9.462891E0,3.588014E2,7.5454736E2,0E0,5.904586E0,9.176514E0,4.0283203E0,1.3527856E1,0E0,2.4071045E0,1.0006048E1,2.3710667E1,9.176819E1,4.7452734E2,1.4793994E2,0E0,0E0,0E0,0E0,0E0,0E0,0E0,0E0,0E0,0E0,0E0,0E0,0E0,0E0,0E0,0E0,0E0,0E0,0E0,0E0],"parents":[2147483647,0,0,1,1,2,2,3,3,4,4,5,5,6,6,7,7,9,9,10,10,11,11,12,12,14,14,15,15,16,16,17,17,19,19,20,20,21,21,22,22,23,23,24,24],"right_children":[2,4,6,8,10,12,14,16,-1,18,20,22,24,-1,26,28,30,32,-1,34,36,38,40,42,44,-1,-1,-1,-1,-1,-1,-1,-1,-1,-1,-1,-1,-1,-1,-1,-1,-1,-1,-1,-1],"split_conditions":[1E0,1.54E2,1E0,1E0,1.58E2,2.8E1,1.63E2,1.25E2,-1.6504623E-2,1E0,1.63E2,1.51E2,5.9E1,-1.6303083E-2,2.3E1,4.8E1,9.423E2,1.3541E3,-1.6156852E-2,5E1,2.38E2,1.24E2,1.63E2,1.25E2,2E0,2.3577544E-3,-1.4111523E-2,-1.3609345E-2,-1.574224E-2,-1.389726E-2,-1.5968345E-2,-6.0878106E-4,-7.835569E-3,-1.6116073E-2,-9.0404805E-3,-1.453261E-2,2.7047442E-3,1.0529998E-3,5.3261733E-3,-5.8086314E-3,6.599378E-3,7.4231396E-3,3.7585937E-3,2.3621615E-4,5.789543E-3],"split_indices":[6,8,4,4,8,1,8,8,0,4,8,8,1,0,1,1,7,7,0,3,9,8,8,8,5,0,0,0,0,0,0,0,0,0,0,0,0,0,0,0,0,0,0,0,0],"split_type":[0,0,0,0,0,0,0,0,0,0,0,0,0,0,0,0,0,0,0,0,0,0,0,0,0,0,0,0,0,0,0,0,0,0,0,0,0,0,0,0,0,0,0,0,0],"sum_hessian":[3.4695137E4,4.896649E3,2.9798486E4,4.418107E3,4.7854205E2,2.7455004E4,2.3434817E3,2.520187E3,1.8979199E3,1.5571106E2,3.22831E2,4.479703E3,2.29753E4,2.3355674E3,7.9143996E0,1.0042353E3,1.5159517E3,1.230854E2,3.262566E1,3.1087924E2,1.1951756E1,5.196903E2,3.960013E3,1.9849367E4,3.1259343E3,3.0673316E0,4.847068E0,5.591115E2,4.4512372E2,1.6992967E2,1.3460221E3,8.710424E1,3.5981163E1,3.0168225E2,9.196992E0,5.8170943E0,6.1346607E0,2.5777826E2,2.6191208E2,3.9002708E3,5.974208E1,1.5245213E4,4.6041543E3,2.5352444E3,5.9068976E2],"tree_param":{"num_deleted":"0","num_feature":"10","num_nodes":"45","size_leaf_vector":"1"}},{"base_weights":[-1.6176254E-4,-1.5372071E0,2.5185215E-1,-1.570359E0,-1.2287252E0,4.1097596E-1,-1.617115E0,-1.5175693E0,-1.639651E-2,-5.608078E-1,-1.5488805E0,-4.158191E-1,5.8792996E-1,-1.6194971E-2,-8.1229424E-1,-1.4885631E0,-1.6336378E0,-2.7411497E-1,-1.6051829E-2,-1.5829083E0,-6.114166E-1,3.7202525E-1,-5.250829E-1,6.61819E-1,1.2743132E-1,2.3401E-3,-1.4023904E-2,-1.3987954E-2,-1.5466601E-2,-1.260703E-2,-1.6473653E-2,-6.027656E-4,-7.7654365E-3,-1.6008312E-2,-8.967543E-3,-1.5334228E-2,1.9371123E-3,1.3932341E-3,6.369936E-3,-5.9651583E-3,-1.2186829E-3,7.3520336E-3,4.038556E-3,2.8341082E-3,-1.7369135E-3],"categories":[],"categories_nodes":[],"categories_segments":[],"categories_sizes":[],"default_left":[0,0,0,0,0,0,0,0,0,0,0,0,0,0,0,0,0,0,0,0,0,0,0,0,0,0,0,0,0,0,0,0,0,0,0,0,0,0,0,0,0,0,0,0,0],"id":24,"left_children":[1,3,5,7,9,11,13,15,-1,17,19,21,23,-1,25,27,29,31,-1,33,35,37,39,41,43,-1,-1,-1,-1,-1,-1,-1,-1,-1,-1,-1,-1,-1,-1,-1,-1,-1,-1,-1,-1],"loss_changes":[1.3426022E4,4.8001953E1,8.856609E3,1.3623047E1,1.0142804E2,4.0152227E3,3.1640625E0,6.03125E0,0E0,4.6440536E1,9.329773E0,4.1670898E2,7.690708E2,0E0,5.8244486E0,8.383301E0,4.4348145E-1,1.3281591E1,0E0,2.3874512E0,9.900045E0,3.628341E1,1.2232849E2,3.6845508E2,1.4691208E2,0E0,0E0,0E0,0E0,0E0,0E0,0E0,0E0,0E0,0E0,0E0,0E0,0E0,0E0,0E0,0E0,0E0,0E0,0E0,0E0],"parents":[2147483647,0,0,1,1,2,2,3,3,4,4,5,5,6,6,7,7,9,9,10,10,11,11,12,12,14,14,15,15,16,16,17,17,19,19,20,20,21,21,22,22,23,23,24,24],"right_children":[2,4,6,8,10,12,14,16,-1,18,20,22,24,-1,26,28,30,32,-1,34,36,38,40,42,44,-1,-1,-1,-1,-1,-1,-1,-1,-1,-1,-1,-1,-1,-1,-1,-1,-1,-1,-1,-1],"split_conditions":[1E0,1.54E2,1E0,1E0,1.58E2,2.9E1,1.63E2,2.41E2,-1.639651E-2,1E0,1.63E2,1.37E2,5.9E1,-1.6194971E-2,2.3E1,1.25E2,6E0,1.3541E3,-1.6051829E-2,5E1,3.6E1,2.5E1,1E0,1.25E2,6.9E1,2.3401E-3,-1.4023904E-2,-1.3987954E-2,-1.5466601E-2,-1.260703E-2,-1.6473653E-2,-6.027656E-4,-7.7654365E-3,-1.6008312E-2,-8.967543E-3,-1.5334228E-2,1.9371123E-3,1.3932341E-3,6.369936E-3,-5.9651583E-3,-1.2186829E-3,7.3520336E-3,4.038556E-3,2.8341082E-3,-1.7369135E-3],"split_indices":[6,8,4,4,8,1,8,9,0,4,8,8,1,0,1,8,3,7,0,3,1,1,5,8,1,0,0,0,0,0,0,0,0,0,0,0,0,0,0,0,0,0,0,0,0],"split_type":[0,0,0,0,0,0,0,0,0,0,0,0,0,0,0,0,0,0,0,0,0,0,0,0,0,0,0,0,0,0,0,0,0,0,0,0,0,0,0,0,0,0,0,0,0],"sum_hessian":[3.4658605E4,4.881429E3,2.9777176E4,4.404044E3,4.77385E2,2.7441582E4,2.3355952E3,2.5126753E3,1.891369E3,1.5557385E2,3.2181113E2,4.837523E3,2.2604059E4,2.327693E3,7.902001E0,2.0213507E3,4.9132452E2,1.2305604E2,3.251782E1,3.0987488E2,1.193625E1,5.888957E2,4.2486274E3,1.9478252E4,3.1258064E3,3.0671139E0,4.834887E0,8.040557E2,1.2172949E3,2.0739359E1,4.7058517E2,8.7103806E1,3.5952232E1,3.0068762E2,9.187261E0,5.142572E0,6.793678E0,3.1435077E2,2.745449E2,3.608815E3,6.398124E2,1.5162914E4,4.315338E3,2.059209E3,1.0665974E3],"tree_param":{"num_deleted":"0","num_feature":"10","num_nodes":"45","size_leaf_vector":"1"}},{"base_weights":[-1.691554E-4,-1.5267693E0,2.495159E-1,-1.5598073E0,-1.2195973E0,4.0707317E-1,-1.6065528E0,-1.507057E0,-1.6290842E-2,-5.558626E-1,-1.5384887E0,-4.509215E-1,5.744209E-1,-1.6089246E-2,-8.066497E-1,-1.4653056E0,-1.5866172E0,-2.715083E-1,-1.5949083E-2,-1.5724036E0,-6.0669965E-1,3.1488967E-1,-5.515251E-1,6.3159907E-1,1.9184273E-2,2.3225823E-3,-1.3937791E-2,-1.37185985E-2,-1.525756E-2,-1.2036888E-2,-1.5934965E-2,-5.968094E-4,-7.696108E-3,-1.5902879E-2,-8.895454E-3,-1.4394166E-2,2.7132868E-3,1.0090078E-3,5.2437736E-3,-7.120572E-3,-4.0685055E-3,1.9448291E-3,6.791062E-3,-8.035715E-4,4.4849785E-3],"categories":[],"categories_nodes":[],"categories_segments":[],"categories_sizes":[],"default_left":[0,0,0,0,0,0,0,0,0,0,0,0,0,0,0,0,0,0,0,0,0,0,0,0,0,0,0,0,0,0,0,0,0,0,0,0,0,0,0,0,0,0,0,0,0],"id":25,"left_children":[1,3,5,7,9,11,13,15,-1,17,19,21,23,-1,25,27,29,31,-1,33,35,37,39,41,43,-1,-1,-1,-1,-1,-1,-1,-1,-1,-1,-1,-1,-1,-1,-1,-1,-1,-1,-1,-1],"loss_changes":[1.3197246E4,4.7487305E1,8.702483E3,1.359082E1,1.001496E2,3.9385742E3,3.119629E0,5.9990234E0,0E0,4.578618E1,9.214539E0,3.4511615E2,7.2866943E2,0E0,5.7459188E0,7.2646484E0,3.2226562E-1,1.3040253E1,0E0,2.3692627E0,9.843321E0,2.3280613E1,9.1628296E1,4.3200195E2,9.16584E1,0E0,0E0,0E0,0E0,0E0,0E0,0E0,0E0,0E0,0E0,0E0,0E0,0E0,0E0,0E0,0E0,0E0,0E0,0E0,0E0],"parents":[2147483647,0,0,1,1,2,2,3,3,4,4,5,5,6,6,7,7,9,9,10,10,11,11,12,12,14,14,15,15,16,16,17,17,19,19,20,20,21,21,22,22,23,23,24,24],"right_children":[2,4,6,8,10,12,14,16,-1,18,20,22,24,-1,26,28,30,32,-1,34,36,38,40,42,44,-1,-1,-1,-1,-1,-1,-1,-1,-1,-1,-1,-1,-1,-1,-1,-1,-1,-1,-1,-1],"split_conditions":[1E0,1.54E2,1E0,1E0,1.58E2,2.8E1,1.63E2,2.01E2,-1.6290842E-2,1E0,1.63E2,1.51E2,6.3E1,-1.6089246E-2,2.3E1,1.25E2,9E0,1.3541E3,-1.5949083E-2,5E1,2.38E2,1.24E2,1E0,1E0,2E0,2.3225823E-3,-1.3937791E-2,-1.37185985E-2,-1.525756E-2,-1.2036888E-2,-1.5934965E-2,-5.968094E-4,-7.696108E-3,-1.5902879E-2,-8.895454E-3,-1.4394166E-2,2.7132868E-3,1.0090078E-3,5.2437736E-3,-7.120572E-3,-4.0685055E-3,1.9448291E-3,6.791062E-3,-8.035715E-4,4.4849785E-3],"split_indices":[6,8,4,4,8,1,8,9,0,4,8,8,1,0,1,8,8,7,0,3,9,8,0,5,5,0,0,0,0,0,0,0,0,0,0,0,0,0,0,0,0,0,0,0,0],"split_type":[0,0,0,0,0,0,0,0,0,0,0,0,0,0,0,0,0,0,0,0,0,0,0,0,0,0,0,0,0,0,0,0,0,0,0,0,0,0,0,0,0,0,0,0,0],"sum_hessian":[3.4621062E4,4.8658203E3,2.9755242E4,4.3896157E3,4.7620483E2,2.7427746E4,2.3274954E3,2.5049746E3,1.884641E3,1.5543288E2,3.2077197E2,4.47625E3,2.2951496E4,2.3196062E3,7.889242E0,1.6555814E3,8.4939325E2,1.23025856E2,3.2407024E1,3.0884332E2,1.1928643E1,5.195117E2,3.956738E3,2.0808506E4,2.1429912E3,3.0668898E0,4.8223524E0,6.5962E2,9.9596136E2,1.8095606E1,8.312976E2,8.7103355E1,3.5922504E1,2.9966608E2,9.177252E0,5.7941403E0,6.1345024E0,2.577278E2,2.617839E2,1.8737203E3,2.0830178E3,2.040339E3,1.8768166E4,1.7402959E3,4.026953E2],"tree_param":{"num_deleted":"0","num_feature":"10","num_nodes":"45","size_leaf_vector":"1"}},{"base_weights":[-1.7656505E-4,-1.5165445E0,2.4720588E-1,-1.5494732E0,-1.2106398E0,4.0321252E-1,-1.5962214E0,-1.4967484E0,-1.618754E-2,-5.509747E-1,-1.5283446E0,-4.0806678E-1,5.768995E-1,-1.5985833E-2,-8.010813E-1,-1.4257095E0,-1.5428895E0,-2.6892814E-1,-1.5848547E-2,-1.5621195E0,-6.022984E-1,3.6520746E-1,-5.153524E-1,6.4965886E-1,1.2391992E-1,2.3051975E-3,-1.3853146E-2,-1.3291325E-2,-1.543886E-2,-1.3565987E-2,-1.565406E-2,-5.909124E-4,-7.6275617E-3,-1.5799701E-2,-8.824191E-3,2.2204558E-3,-1.4907816E-2,1.3480668E-3,6.277113E-3,-5.859855E-3,-1.1681351E-3,7.2227702E-3,3.9455956E-3,2.0566888E-4,5.6688786E-3],"categories":[],"categories_nodes":[],"categories_segments":[],"categories_sizes":[],"default_left":[0,0,0,0,0,0,0,0,0,0,0,0,0,0,0,0,0,0,0,0,0,0,0,0,0,0,0,0,0,0,0,0,0,0,0,0,0,0,0,0,0,0,0,0,0],"id":26,"left_children":[1,3,5,7,9,11,13,15,-1,17,19,21,23,-1,25,27,29,31,-1,33,35,37,39,41,43,-1,-1,-1,-1,-1,-1,-1,-1,-1,-1,-1,-1,-1,-1,-1,-1,-1,-1,-1,-1],"loss_changes":[1.2973458E4,4.6987305E1,8.551682E3,1.3560547E1,9.891455E1,3.863186E3,3.0776367E0,5.9887695E0,0E0,4.514782E1,9.0896E0,4.0129065E2,7.44147E2,0E0,5.66895E0,9.324585E0,4.1777344E0,1.2803694E1,0E0,2.352295E0,9.788315E0,3.557804E1,1.1946118E2,3.60125E2,1.4311623E2,0E0,0E0,0E0,0E0,0E0,0E0,0E0,0E0,0E0,0E0,0E0,0E0,0E0,0E0,0E0,0E0,0E0,0E0,0E0,0E0],"parents":[2147483647,0,0,1,1,2,2,3,3,4,4,5,5,6,6,7,7,9,9,10,10,11,11,12,12,14,14,15,15,16,16,17,17,19,19,20,20,21,21,22,22,23,23,24,24],"right_children":[2,4,6,8,10,12,14,16,-1,18,20,22,24,-1,26,28,30,32,-1,34,36,38,40,42,44,-1,-1,-1,-1,-1,-1,-1,-1,-1,-1,-1,-1,-1,-1,-1,-1,-1,-1,-1,-1],"split_conditions":[1E0,1.54E2,1E0,1E0,1.58E2,2.9E1,1.63E2,1.25E2,-1.618754E-2,1E0,1.63E2,1.37E2,5.9E1,-1.5985833E-2,2.3E1,4.8E1,9.423E2,1.3541E3,-1.5848547E-2,5E1,1.2654E3,2.5E1,1E0,1.25E2,2E0,2.3051975E-3,-1.3853146E-2,-1.3291325E-2,-1.543886E-2,-1.3565987E-2,-1.565406E-2,-5.909124E-4,-7.6275617E-3,-1.5799701E-2,-8.824191E-3,2.2204558E-3,-1.4907816E-2,1.3480668E-3,6.277113E-3,-5.859855E-3,-1.1681351E-3,7.2227702E-3,3.9455956E-3,2.0566888E-4,5.6688786E-3],"split_indices":[6,8,4,4,8,1,8,8,0,4,8,8,1,0,1,1,7,7,0,3,7,1,5,8,5,0,0,0,0,0,0,0,0,0,0,0,0,0,0,0,0,0,0,0,0],"split_type":[0,0,0,0,0,0,0,0,0,0,0,0,0,0,0,0,0,0,0,0,0,0,0,0,0,0,0,0,0,0,0,0,0,0,0,0,0,0,0,0,0,0,0,0,0],"sum_hessian":[3.4582562E4,4.8498076E3,2.9732756E4,4.3748213E3,4.7498627E2,2.7413566E4,2.3191897E3,2.4970793E3,1.8777421E3,1.5528828E2,3.19698E2,4.8338164E3,2.257975E4,2.3113135E3,7.8761334E0,9.958156E2,1.5012637E3,1.229949E2,3.2293385E1,3.0778552E2,1.1912467E1,5.8864966E2,4.2451665E3,1.9454463E4,3.1252861E3,3.066659E0,4.8094745E0,5.547265E2,4.4108914E2,1.6849194E2,1.3327717E3,8.710289E1,3.589201E1,2.9861856E2,9.166976E0,6.56836E0,5.3441076E0,3.143004E2,2.7434924E2,3.605664E3,6.3950256E2,1.5142167E4,4.3122964E3,2.5348928E3,5.903933E2],"tree_param":{"num_deleted":"0","num_feature":"10","num_nodes":"45","size_leaf_vector":"1"}},{"base_weights":[-1.8375336E-4,-1.5065279E0,2.4492164E-1,-1.5393561E0,-1.2018185E0,3.9939308E-1,-1.5861133E0,-1.4866483E0,-1.608653E-2,-5.4614294E-1,-1.5183835E0,-4.4256338E-1,5.6365466E-1,-1.5884658E-2,-7.9558676E-1,-1.4576693E0,-1.6027099E0,-2.6637402E-1,-1.5750153E-2,-1.5520492E0,-5.97769E-1,3.0864263E-1,-5.4130054E-1,6.1993414E-1,1.776368E-2,2.2879501E-3,-1.3769925E-2,-1.3682434E-2,-1.5156413E-2,-1.2300081E-2,-1.6164834E-2,-5.850716E-4,-7.5597847E-3,-1.5698707E-2,-8.753746E-3,-1.51265105E-2,1.9864605E-3,9.6609734E-4,5.1629334E-3,-7.0059733E-3,-3.9782734E-3,1.8850624E-3,6.668681E-3,1.5505197E-3,-2.8738144E-3],"categories":[],"categories_nodes":[],"categories_segments":[],"categories_sizes":[],"default_left":[0,0,0,0,0,0,0,0,0,0,0,0,0,0,0,0,0,0,0,0,0,0,0,0,0,0,0,0,0,0,0,0,0,0,0,0,0,0,0,0,0,0,0,0,0],"id":27,"left_children":[1,3,5,7,9,11,13,15,-1,17,19,21,23,-1,25,27,29,31,-1,33,35,37,39,41,43,-1,-1,-1,-1,-1,-1,-1,-1,-1,-1,-1,-1,-1,-1,-1,-1,-1,-1,-1,-1],"loss_changes":[1.2754538E4,4.6507812E1,8.40411E3,1.3537109E1,9.771051E1,3.7897144E3,3.0356445E0,6.038086E0,0E0,4.452487E1,8.977783E0,3.319776E2,7.043799E2,0E0,5.5935E0,8.312988E0,5.140381E-1,1.2571818E1,0E0,2.3364258E0,9.700899E0,2.2859314E1,9.0093994E1,4.2073584E2,8.985711E1,0E0,0E0,0E0,0E0,0E0,0E0,0E0,0E0,0E0,0E0,0E0,0E0,0E0,0E0,0E0,0E0,0E0,0E0,0E0,0E0],"parents":[2147483647,0,0,1,1,2,2,3,3,4,4,5,5,6,6,7,7,9,9,10,10,11,11,12,12,14,14,15,15,16,16,17,17,19,19,20,20,21,21,22,22,23,23,24,24],"right_children":[2,4,6,8,10,12,14,16,-1,18,20,22,24,-1,26,28,30,32,-1,34,36,38,40,42,44,-1,-1,-1,-1,-1,-1,-1,-1,-1,-1,-1,-1,-1,-1,-1,-1,-1,-1,-1,-1],"split_conditions":[1E0,1.54E2,1E0,1E0,1.58E2,2.8E1,1.63E2,2.41E2,-1.608653E-2,1E0,1.63E2,1.51E2,6.3E1,-1.5884658E-2,2.3E1,1.25E2,6E0,1.3541E3,-1.5750153E-2,5E1,3.6E1,1.24E2,1E0,1E0,7.2E1,2.2879501E-3,-1.3769925E-2,-1.3682434E-2,-1.5156413E-2,-1.2300081E-2,-1.6164834E-2,-5.850716E-4,-7.5597847E-3,-1.5698707E-2,-8.753746E-3,-1.51265105E-2,1.9864605E-3,9.6609734E-4,5.1629334E-3,-7.0059733E-3,-3.9782734E-3,1.8850624E-3,6.668681E-3,1.5505197E-3,-2.8738144E-3],"split_indices":[6,8,4,4,8,1,8,9,0,4,8,8,1,0,1,8,3,7,0,3,1,8,0,5,1,0,0,0,0,0,0,0,0,0,0,0,0,0,0,0,0,0,0,0,0],"split_type":[0,0,0,0,0,0,0,0,0,0,0,0,0,0,0,0,0,0,0,0,0,0,0,0,0,0,0,0,0,0,0,0,0,0,0,0,0,0,0,0,0,0,0,0,0],"sum_hessian":[3.4543195E4,4.8334033E3,2.9709791E4,4.359659E3,4.7374426E2,2.7399105E4,2.3106863E3,2.4889802E3,1.870679E3,1.551402E2,3.1860406E2,4.4725317E3,2.2926572E4,2.3028237E3,7.862687E0,2.0025325E3,4.8644775E2,1.22963196E2,3.217701E1,3.0670248E2,1.1901568E1,5.1932306E2,3.9532087E3,2.0783709E4,2.1428635E3,3.0664217E0,4.7962656E0,7.972782E2,1.2052542E3,2.0554554E1,4.6589322E2,8.710242E1,3.586078E1,2.9754605E2,9.156441E0,5.120299E0,6.78127E0,2.5767523E2,2.6164783E2,1.8714612E3,2.0817478E3,2.0396637E3,1.8744047E4,1.4782664E3,6.6459717E2],"tree_param":{"num_deleted":"0","num_feature":"10","num_nodes":"45","size_leaf_vector":"1"}},{"base_weights":[-1.9146738E-4,-1.4967041E0,2.4266297E-1,-1.5294385E0,-1.1931353E0,3.956153E-1,-1.5762212E0,-1.4767317E0,-1.5987743E-2,-5.413665E-1,-1.5086116E0,-4.0047336E-1,5.6610525E-1,-1.5785651E-2,-7.90165E-1,-1.435006E0,-1.5563035E0,-2.6384616E-1,-1.5653836E-2,-1.5421858E0,-5.9320885E-1,3.5852814E-1,-5.058226E-1,6.377619E-1,1.2049094E-1,2.2708331E-3,-1.3688094E-2,-6.879901E-3,-1.4417981E-2,-1.1744113E-2,-1.5631951E-2,-5.792926E-4,-7.492764E-3,-1.5599827E-2,-8.684095E-3,-1.4205087E-2,2.7380243E-3,1.3039734E-3,6.1860713E-3,-5.756715E-3,-1.118807E-3,7.096318E-3,3.8546931E-3,1.8185966E-4,5.590924E-3],"categories":[],"categories_nodes":[],"categories_segments":[],"categories_sizes":[],"default_left":[0,0,0,0,0,0,0,0,0,0,0,0,0,0,0,0,0,0,0,0,0,0,0,0,0,0,0,0,0,0,0,0,0,0,0,0,0,0,0,0,0,0,0,0,0],"id":28,"left_children":[1,3,5,7,9,11,13,15,-1,17,19,21,23,-1,25,27,29,31,-1,33,35,37,39,41,43,-1,-1,-1,-1,-1,-1,-1,-1,-1,-1,-1,-1,-1,-1,-1,-1,-1,-1,-1,-1],"loss_changes":[1.2540269E4,4.604883E1,8.259687E3,1.3518555E1,9.653845E1,3.7170889E3,2.9956055E0,6.006836E0,0E0,4.391673E1,8.873535E0,3.8646362E2,7.201421E2,0E0,5.5195274E0,7.333252E0,3.798828E-1,1.2344502E1,0E0,2.3217163E0,9.636814E0,3.48891E1,1.1667493E2,3.520454E2,1.402471E2,0E0,0E0,0E0,0E0,0E0,0E0,0E0,0E0,0E0,0E0,0E0,0E0,0E0,0E0,0E0,0E0,0E0,0E0,0E0,0E0],"parents":[2147483647,0,0,1,1,2,2,3,3,4,4,5,5,6,6,7,7,9,9,10,10,11,11,12,12,14,14,15,15,16,16,17,17,19,19,20,20,21,21,22,22,23,23,24,24],"right_children":[2,4,6,8,10,12,14,16,-1,18,20,22,24,-1,26,28,30,32,-1,34,36,38,40,42,44,-1,-1,-1,-1,-1,-1,-1,-1,-1,-1,-1,-1,-1,-1,-1,-1,-1,-1,-1,-1],"split_conditions":[1E0,1.54E2,1E0,1E0,1.58E2,2.9E1,1.63E2,2.01E2,-1.5987743E-2,1E0,1.63E2,1.37E2,5.9E1,-1.5785651E-2,2.3E1,2E0,9E0,1.3541E3,-1.5653836E-2,5E1,2.38E2,2.5E1,1E0,1.25E2,2E0,2.2708331E-3,-1.3688094E-2,-6.879901E-3,-1.4417981E-2,-1.1744113E-2,-1.5631951E-2,-5.792926E-4,-7.492764E-3,-1.5599827E-2,-8.684095E-3,-1.4205087E-2,2.7380243E-3,1.3039734E-3,6.1860713E-3,-5.756715E-3,-1.118807E-3,7.096318E-3,3.8546931E-3,1.8185966E-4,5.590924E-3],"split_indices":[6,8,4,4,8,1,8,9,0,4,8,8,1,0,1,8,8,7,0,3,9,1,5,8,5,0,0,0,0,0,0,0,0,0,0,0,0,0,0,0,0,0,0,0,0],"split_type":[0,0,0,0,0,0,0,0,0,0,0,0,0,0,0,0,0,0,0,0,0,0,0,0,0,0,0,0,0,0,0,0,0,0,0,0,0,0,0,0,0,0,0,0,0],"sum_hessian":[3.450287E4,4.8166494E3,2.968622E4,4.3441724E3,4.72477E2,2.7384229E4,2.301993E3,2.4807146E3,1.8634578E3,1.5498877E2,3.1748822E2,4.8299277E3,2.25543E4,2.294144E3,7.848913E0,1.6398495E3,8.4086505E2,1.2293077E2,3.205799E1,3.055952E2,1.1893008E1,5.8839087E2,4.2415366E3,1.942952E4,3.1247812E3,3.0661783E0,4.782735E0,1.5697404E1,1.6241521E3,1.7943605E1,8.2292145E2,8.710194E1,3.5828835E1,2.9644955E2,9.145657E0,5.759199E0,6.1338096E0,3.142473E2,2.741436E2,3.602351E3,6.391855E2,1.5120399E4,4.3091196E3,2.5346165E3,5.901647E2],"tree_param":{"num_deleted":"0","num_feature":"10","num_nodes":"45","size_leaf_vector":"1"}},{"base_weights":[-1.9821736E-4,-1.4870709E0,2.4042943E-1,-1.5197148E0,-1.1846088E0,3.9187768E-1,-1.5665388E0,-1.466994E0,-1.5891105E-2,-5.366438E-1,-1.4990673E0,-4.343771E-1,5.5311936E-1,-1.5688743E-2,-7.848138E-1,-1.3957496E0,-1.5133394E0,-2.6134357E-1,-1.555953E-2,-1.5325229E0,-5.8895445E-1,3.0252317E-1,-5.312874E-1,6.085194E-1,1.638956E-2,2.253849E-3,-1.3607617E-2,-1.2985423E-2,-1.5149176E-2,-1.3254112E-2,-1.5361099E-2,-5.7997643E-3,4.920293E-4,-1.5502998E-2,-8.615222E-3,2.2501033E-3,-1.46999275E-2,9.242438E-4,5.083612E-3,-5.4996777E-3,6.7526945E-3,1.826744E-3,6.5489244E-3,1.5226286E-3,-2.855956E-3],"categories":[],"categories_nodes":[],"categories_segments":[],"categories_sizes":[],"default_left":[0,0,0,0,0,0,0,0,0,0,0,0,0,0,0,0,0,0,0,0,0,0,0,0,0,0,0,0,0,0,0,0,0,0,0,0,0,0,0,0,0,0,0,0,0],"id":29,"left_children":[1,3,5,7,9,11,13,15,-1,17,19,21,23,-1,25,27,29,31,-1,33,35,37,39,41,43,-1,-1,-1,-1,-1,-1,-1,-1,-1,-1,-1,-1,-1,-1,-1,-1,-1,-1,-1,-1],"loss_changes":[1.233054E4,4.5598633E1,8.1183193E3,1.35078125E1,9.540497E1,3.646671E3,2.9570312E0,6.0546875E0,0E0,4.332291E1,8.759949E0,3.193523E2,6.8096045E2,0E0,5.446988E0,9.473755E0,4.3254395E0,1.228825E1,0E0,2.3080444E0,9.564547E0,2.244651E1,8.941199E1,4.098203E2,8.8003235E1,0E0,0E0,0E0,0E0,0E0,0E0,0E0,0E0,0E0,0E0,0E0,0E0,0E0,0E0,0E0,0E0,0E0,0E0,0E0,0E0],"parents":[2147483647,0,0,1,1,2,2,3,3,4,4,5,5,6,6,7,7,9,9,10,10,11,11,12,12,14,14,15,15,16,16,17,17,19,19,20,20,21,21,22,22,23,23,24,24],"right_children":[2,4,6,8,10,12,14,16,-1,18,20,22,24,-1,26,28,30,32,-1,34,36,38,40,42,44,-1,-1,-1,-1,-1,-1,-1,-1,-1,-1,-1,-1,-1,-1,-1,-1,-1,-1,-1,-1],"split_conditions":[1E0,1.54E2,1E0,1E0,1.58E2,2.8E1,1.63E2,1.25E2,-1.5891105E-2,1E0,1.63E2,1.51E2,6.3E1,-1.5688743E-2,2.3E1,4.8E1,9.423E2,3.7E1,-1.555953E-2,5E1,1.2654E3,1.24E2,1.63E2,1E0,7.2E1,2.253849E-3,-1.3607617E-2,-1.2985423E-2,-1.5149176E-2,-1.3254112E-2,-1.5361099E-2,-5.7997643E-3,4.920293E-4,-1.5502998E-2,-8.615222E-3,2.2501033E-3,-1.46999275E-2,9.242438E-4,5.083612E-3,-5.4996777E-3,6.7526945E-3,1.826744E-3,6.5489244E-3,1.5226286E-3,-2.855956E-3],"split_indices":[6,8,4,4,8,1,8,8,0,4,8,8,1,0,1,1,7,1,0,3,7,8,8,5,1,0,0,0,0,0,0,0,0,0,0,0,0,0,0,0,0,0,0,0,0],"split_type":[0,0,0,0,0,0,0,0,0,0,0,0,0,0,0,0,0,0,0,0,0,0,0,0,0,0,0,0,0,0,0,0,0,0,0,0,0,0,0,0,0,0,0,0,0],"sum_hessian":[3.4461773E4,4.799541E3,2.966223E4,4.328366E3,4.7117465E2,2.7369113E4,2.2931167E3,2.4722815E3,1.856085E3,1.548341E2,3.1634055E2,4.4686436E3,2.290047E4,2.285282E3,7.8348227E0,9.866578E2,1.4856237E3,1.2289766E2,3.193644E1,3.044646E2,1.1875951E1,5.1912506E2,3.9495186E3,2.075777E4,2.142701E3,3.0659285E0,4.768894E0,5.4995074E2,4.36707E2,1.669522E2,1.3186715E3,6.023085E1,6.266681E1,2.9532996E2,9.134632E0,6.559985E0,5.315965E0,2.5762073E2,2.615043E2,3.8898386E3,5.9679848E1,2.038955E3,1.8718814E4,1.4781343E3,6.6456665E2],"tree_param":{"num_deleted":"0","num_feature":"10","num_nodes":"45","size_leaf_vector":"1"}},{"base_weights":[-2.0546516E-4,-1.477624E0,2.3822004E-1,-1.5101928E0,-1.1761528E0,3.8817936E-1,-1.5570599E0,-1.4574529E0,-1.5796553E-2,-5.318916E-1,-1.4896883E0,-3.9302438E-1,5.55541E-1,-1.5593878E-2,-7.7953184E-1,-1.4284528E0,-1.5737126E0,-2.5880432E-1,-1.5467178E-2,-1.5230546E0,-5.8457685E-1,3.519843E-1,-4.964742E-1,6.2611943E-1,1.17144324E-1,2.2369956E-3,-1.3528455E-2,-1.3387566E-2,-1.4866959E-2,-1.2007235E-2,-1.5875531E-2,-5.4859323E-4,-7.4022454E-3,-1.54081555E-2,-8.547111E-3,-1.4928214E-2,2.033781E-3,1.2609347E-3,6.096764E-3,-5.6549255E-3,-1.0740679E-3,6.97258E-3,3.765789E-3,1.5875539E-4,5.5143815E-3],"categories":[],"categories_nodes":[],"categories_segments":[],"categories_sizes":[],"default_left":[0,0,0,0,0,0,0,0,0,0,0,0,0,0,0,0,0,0,0,0,0,0,0,0,0,0,0,0,0,0,0,0,0,0,0,0,0,0,0,0,0,0,0,0,0],"id":30,"left_children":[1,3,5,7,9,11,13,15,-1,17,19,21,23,-1,25,27,29,31,-1,33,35,37,39,41,43,-1,-1,-1,-1,-1,-1,-1,-1,-1,-1,-1,-1,-1,-1,-1,-1,-1,-1,-1,-1],"loss_changes":[1.2125249E4,4.5185547E1,7.979923E3,1.35E1,9.4323E1,3.5766685E3,2.9199219E0,6.0620117E0,0E0,4.2748486E1,8.658203E0,3.7219293E2,6.969971E2,0E0,5.3758435E0,8.371338E0,5.8325195E-1,1.2122607E1,0E0,2.2954102E0,9.509873E0,3.421598E1,1.13763916E2,3.4420557E2,1.3744067E2,0E0,0E0,0E0,0E0,0E0,0E0,0E0,0E0,0E0,0E0,0E0,0E0,0E0,0E0,0E0,0E0,0E0,0E0,0E0,0E0],"parents":[2147483647,0,0,1,1,2,2,3,3,4,4,5,5,6,6,7,7,9,9,10,10,11,11,12,12,14,14,15,15,16,16,17,17,19,19,20,20,21,21,22,22,23,23,24,24],"right_children":[2,4,6,8,10,12,14,16,-1,18,20,22,24,-1,26,28,30,32,-1,34,36,38,40,42,44,-1,-1,-1,-1,-1,-1,-1,-1,-1,-1,-1,-1,-1,-1,-1,-1,-1,-1,-1,-1],"split_conditions":[1E0,1.54E2,1E0,1E0,1.58E2,2.9E1,1.63E2,2.41E2,-1.5796553E-2,1E0,1.63E2,1.37E2,5.9E1,-1.5593878E-2,2.3E1,1.25E2,6E0,1.3541E3,-1.5467178E-2,5E1,3.6E1,2.5E1,1E0,1.25E2,2E0,2.2369956E-3,-1.3528455E-2,-1.3387566E-2,-1.4866959E-2,-1.2007235E-2,-1.5875531E-2,-5.4859323E-4,-7.4022454E-3,-1.54081555E-2,-8.547111E-3,-1.4928214E-2,2.033781E-3,1.2609347E-3,6.096764E-3,-5.6549255E-3,-1.0740679E-3,6.97258E-3,3.765789E-3,1.5875539E-4,5.5143815E-3],"split_indices":[6,8,4,4,8,1,8,9,0,4,8,8,1,0,1,8,3,7,0,3,1,1,5,8,5,0,0,0,0,0,0,0,0,0,0,0,0,0,0,0,0,0,0,0,0],"split_type":[0,0,0,0,0,0,0,0,0,0,0,0,0,0,0,0,0,0,0,0,0,0,0,0,0,0,0,0,0,0,0,0,0,0,0,0,0,0,0,0,0,0,0,0,0],"sum_hessian":[3.4419863E4,4.7820977E3,2.9637766E4,4.312227E3,4.6987094E2,2.7353701E4,2.2840647E3,2.4636604E3,1.8485665E3,1.5469528E2,3.1517566E2,4.825955E3,2.2527746E4,2.2762444E3,7.820427E0,1.982442E3,4.8121826E2,1.2288283E2,3.1812447E1,3.0331158E2,1.1864099E1,5.8812024E2,4.237835E3,1.9403504E4,3.124242E3,3.065673E0,4.7547536E0,7.899227E2,1.1925193E3,2.0357555E1,4.6086072E2,8.709891E1,3.5783928E1,2.941882E2,9.123374E0,5.095809E0,6.76829E0,3.1419168E2,2.7392856E2,3.598948E3,6.388866E2,1.5097686E4,4.305819E3,2.534324E3,5.899179E2],"tree_param":{"num_deleted":"0","num_feature":"10","num_nodes":"45","size_leaf_vector":"1"}},{"base_weights":[-2.1265463E-4,-1.468359E0,2.3603502E-1,-1.5008521E0,-1.1678753E0,3.845206E-1,-1.5477777E0,-1.4480783E0,-1.5704028E-2,-5.2727336E-1,-1.4804807E0,-4.263466E-1,5.42807E-1,-1.5500981E-2,-7.7431744E-1,-1.3769062E0,-1.49443E0,-2.56352E-1,-1.53767215E-2,-1.513775E0,-5.8016545E-1,2.9652828E-1,-5.214649E-1,6.1031616E-1,1.1598104E-1,2.2202698E-3,-1.3450577E-2,-1.2794322E-2,-1.4965616E-2,-1.3057157E-2,-1.5173352E-2,-5.7198917E-3,5.1139866E-4,-1.5315243E-2,-8.479751E-3,-1.4024294E-2,2.7613416E-3,8.83422E-4,5.005771E-3,-6.7978194E-3,-3.7902151E-3,1.7411348E-3,6.603958E-3,2.3699508E-3,-2.4318965E-3],"categories":[],"categories_nodes":[],"categories_segments":[],"categories_sizes":[],"default_left":[0,0,0,0,0,0,0,0,0,0,0,0,0,0,0,0,0,0,0,0,0,0,0,0,0,0,0,0,0,0,0,0,0,0,0,0,0,0,0,0,0,0,0,0,0],"id":31,"left_children":[1,3,5,7,9,11,13,15,-1,17,19,21,23,-1,25,27,29,31,-1,33,35,37,39,41,43,-1,-1,-1,-1,-1,-1,-1,-1,-1,-1,-1,-1,-1,-1,-1,-1,-1,-1,-1,-1],"loss_changes":[1.1924276E4,4.4773438E1,7.844422E3,1.349707E1,9.324475E1,3.5091692E3,2.8847656E0,6.0444336E0,0E0,4.2181705E1,8.563721E0,3.0720886E2,6.5904395E2,0E0,5.306053E0,9.530762E0,4.3967285E0,1.2049501E1,0E0,2.2836304E0,9.438276E0,2.204197E1,8.8746704E1,4.3132666E2,1.3588812E2,0E0,0E0,0E0,0E0,0E0,0E0,0E0,0E0,0E0,0E0,0E0,0E0,0E0,0E0,0E0,0E0,0E0,0E0,0E0,0E0],"parents":[2147483647,0,0,1,1,2,2,3,3,4,4,5,5,6,6,7,7,9,9,10,10,11,11,12,12,14,14,15,15,16,16,17,17,19,19,20,20,21,21,22,22,23,23,24,24],"right_children":[2,4,6,8,10,12,14,16,-1,18,20,22,24,-1,26,28,30,32,-1,34,36,38,40,42,44,-1,-1,-1,-1,-1,-1,-1,-1,-1,-1,-1,-1,-1,-1,-1,-1,-1,-1,-1,-1],"split_conditions":[1E0,1.54E2,1E0,1E0,1.58E2,2.8E1,1.63E2,1.25E2,-1.5704028E-2,1E0,1.63E2,1.51E2,5.9E1,-1.5500981E-2,2.3E1,4.8E1,9.423E2,3.7E1,-1.53767215E-2,5E1,2.38E2,1.24E2,1E0,1E0,7.1E1,2.2202698E-3,-1.3450577E-2,-1.2794322E-2,-1.4965616E-2,-1.3057157E-2,-1.5173352E-2,-5.7198917E-3,5.1139866E-4,-1.5315243E-2,-8.479751E-3,-1.4024294E-2,2.7613416E-3,8.83422E-4,5.005771E-3,-6.7978194E-3,-3.7902151E-3,1.7411348E-3,6.603958E-3,2.3699508E-3,-2.4318965E-3],"split_indices":[6,8,4,4,8,1,8,8,0,4,8,8,1,0,1,1,7,1,0,3,9,8,0,5,1,0,0,0,0,0,0,0,0,0,0,0,0,0,0,0,0,0,0,0,0],"split_type":[0,0,0,0,0,0,0,0,0,0,0,0,0,0,0,0,0,0,0,0,0,0,0,0,0,0,0,0,0,0,0,0,0,0,0,0,0,0,0,0,0,0,0,0,0],"sum_hessian":[3.4377152E4,4.764327E3,2.9612824E4,4.2958003E3,4.6852658E2,2.733798E4,2.2748445E3,2.4548928E3,1.8409076E3,1.5453488E2,3.139917E2,4.464682E3,2.2873299E4,2.2670386E3,7.8057346E0,9.803258E2,1.474567E3,1.2284877E2,3.1686111E1,3.0213705E2,1.1854652E1,5.189183E2,3.945764E3,1.9749223E4,3.1240757E3,3.0654118E0,4.740323E0,5.46681E2,4.3364478E2,1.6588304E2,1.308684E3,6.0197006E1,6.2651768E1,2.9302515E2,9.111892E0,5.7221565E0,6.1324954E0,2.5756445E2,2.6135382E2,1.8669694E3,2.0787944E3,2.0343297E3,1.7714893E4,2.3370142E3,7.870614E2],"tree_param":{"num_deleted":"0","num_feature":"10","num_nodes":"45","size_leaf_vector":"1"}},{"base_weights":[-2.2012227E-4,-1.459269E0,2.3387524E-1,-1.4916972E0,-1.15969E0,3.8090345E-1,-1.5386868E0,-1.4388821E0,-1.5613462E-2,-5.226252E-1,-1.4714831E0,-3.8573802E-1,5.452044E-1,-1.5410004E-2,-7.691691E-1,-1.4098209E0,-1.555466E0,-2.5386357E-1,-1.5288102E-2,-1.5046782E0,-5.7605034E-1,3.455644E-1,-4.8733014E-1,6.145803E-1,1.1482995E-1,2.2036738E-3,-1.3373948E-2,-1.320183E-2,-1.4681E-2,-1.1828343E-2,-1.5693298E-2,-1.4796164E-3,-1.1841643E-2,-1.5224197E-2,-8.413121E-3,-1.47902295E-2,2.0508205E-3,1.2189217E-3,6.0089766E-3,-5.555902E-3,-1.0272899E-3,6.849964E-3,3.677672E-3,1.4582403E-4,5.448762E-3],"categories":[],"categories_nodes":[],"categories_segments":[],"categories_sizes":[],"default_left":[0,0,0,0,0,0,0,0,0,0,0,0,0,0,0,0,0,0,0,0,0,0,0,0,0,0,0,0,0,0,0,0,0,0,0,0,0,0,0,0,0,0,0,0,0],"id":32,"left_children":[1,3,5,7,9,11,13,15,-1,17,19,21,23,-1,25,27,29,31,-1,33,35,37,39,41,43,-1,-1,-1,-1,-1,-1,-1,-1,-1,-1,-1,-1,-1,-1,-1,-1,-1,-1,-1,-1],"loss_changes":[1.1727491E4,4.438867E1,7.7117583E3,1.349707E1,9.222455E1,3.4417778E3,2.8500977E0,6.097168E0,0E0,4.163318E1,8.459961E0,3.584718E2,6.7175586E2,0E0,5.237585E0,8.3498535E0,6.1621094E-1,1.2024881E1,0E0,2.272766E0,9.35763E0,3.3555862E1,1.1112146E2,3.3651465E2,1.3470732E2,0E0,0E0,0E0,0E0,0E0,0E0,0E0,0E0,0E0,0E0,0E0,0E0,0E0,0E0,0E0,0E0,0E0,0E0,0E0,0E0],"parents":[2147483647,0,0,1,1,2,2,3,3,4,4,5,5,6,6,7,7,9,9,10,10,11,11,12,12,14,14,15,15,16,16,17,17,19,19,20,20,21,21,22,22,23,23,24,24],"right_children":[2,4,6,8,10,12,14,16,-1,18,20,22,24,-1,26,28,30,32,-1,34,36,38,40,42,44,-1,-1,-1,-1,-1,-1,-1,-1,-1,-1,-1,-1,-1,-1,-1,-1,-1,-1,-1,-1],"split_conditions":[1E0,1.54E2,1E0,1E0,1.58E2,2.9E1,1.63E2,2.41E2,-1.5613462E-2,1E0,1.63E2,1.37E2,5.9E1,-1.5410004E-2,2.3E1,1.25E2,6E0,5.2E1,-1.5288102E-2,5E1,3.6E1,2.5E1,1E0,1.25E2,2E0,2.2036738E-3,-1.3373948E-2,-1.320183E-2,-1.4681E-2,-1.1828343E-2,-1.5693298E-2,-1.4796164E-3,-1.1841643E-2,-1.5224197E-2,-8.413121E-3,-1.47902295E-2,2.0508205E-3,1.2189217E-3,6.0089766E-3,-5.555902E-3,-1.0272899E-3,6.849964E-3,3.677672E-3,1.4582403E-4,5.448762E-3],"split_indices":[6,8,4,4,8,1,8,9,0,4,8,8,1,0,1,8,3,1,0,3,1,1,5,8,5,0,0,0,0,0,0,0,0,0,0,0,0,0,0,0,0,0,0,0,0],"split_type":[0,0,0,0,0,0,0,0,0,0,0,0,0,0,0,0,0,0,0,0,0,0,0,0,0,0,0,0,0,0,0,0,0,0,0,0,0,0,0,0,0,0,0,0,0],"sum_hessian":[3.4333426E4,4.7462407E3,2.9587186E4,4.279072E3,4.67169E2,2.7321723E4,2.2654624E3,2.445957E3,1.8331149E3,1.5439037E2,3.1277863E2,4.8217407E3,2.2499982E4,2.2576716E3,7.790757E0,1.9683845E3,4.775726E2,1.2283285E2,3.1557524E1,3.0094186E2,1.183678E1,5.878379E2,4.233903E3,1.937614E4,3.1238403E3,3.0651448E0,4.725612E0,7.848614E2,1.1835231E3,2.0226957E1,4.5734564E2,1.1131968E2,1.1513165E1,2.9184167E2,9.100193E0,5.0758123E0,6.7609673E0,3.1413376E2,2.737041E2,3.5953462E3,6.385568E2,1.507379E4,4.302352E3,2.5341433E3,5.896971E2],"tree_param":{"num_deleted":"0","num_feature":"10","num_nodes":"45","size_leaf_vector":"1"}},{"base_weights":[-2.2738775E-4,-1.4503435E0,2.3173733E-1,-1.4827125E0,-1.1516241E0,3.7732145E-1,-1.5297811E0,-1.4298421E0,-1.5524801E-2,-5.1807326E-1,-1.4626242E0,-4.1848895E-1,5.327155E-1,-1.5320884E-2,-7.6408523E-1,-1.3878998E0,-1.5099379E0,-2.514618E-1,-1.5201269E-2,-1.495759E0,-5.717371E-1,2.90655E-1,-5.118559E-1,5.8645976E-1,1.3317065E-2,2.187205E-3,-1.3298537E-2,-6.398536E-3,-1.39475595E-2,-1.1272375E-2,-1.5169014E-2,-4.945783E-4,-7.291464E-3,-1.5134966E-2,-8.34721E-3,2.3047198E-3,-1.4449212E-2,8.436099E-4,4.9293702E-3,-5.303521E-3,6.807318E-3,1.714581E-3,6.317489E-3,1.4638776E-3,-2.8239896E-3],"categories":[],"categories_nodes":[],"categories_segments":[],"categories_sizes":[],"default_left":[0,0,0,0,0,0,0,0,0,0,0,0,0,0,0,0,0,0,0,0,0,0,0,0,0,0,0,0,0,0,0,0,0,0,0,0,0,0,0,0,0,0,0,0,0],"id":33,"left_children":[1,3,5,7,9,11,13,15,-1,17,19,21,23,-1,25,27,29,31,-1,33,35,37,39,41,43,-1,-1,-1,-1,-1,-1,-1,-1,-1,-1,-1,-1,-1,-1,-1,-1,-1,-1,-1,-1],"loss_changes":[1.1534743E4,4.4015625E1,7.5818184E3,1.3505859E1,9.121777E1,3.377052E3,2.8168945E0,6.09375E0,0E0,4.1092926E1,8.371155E0,2.955467E2,6.377295E2,0E0,5.170401E0,7.376953E0,4.925537E-1,1.1911712E1,0E0,2.2627563E0,9.317818E0,2.164542E1,8.733264E1,3.890171E2,8.438322E1,0E0,0E0,0E0,0E0,0E0,0E0,0E0,0E0,0E0,0E0,0E0,0E0,0E0,0E0,0E0,0E0,0E0,0E0,0E0,0E0],"parents":[2147483647,0,0,1,1,2,2,3,3,4,4,5,5,6,6,7,7,9,9,10,10,11,11,12,12,14,14,15,15,16,16,17,17,19,19,20,20,21,21,22,22,23,23,24,24],"right_children":[2,4,6,8,10,12,14,16,-1,18,20,22,24,-1,26,28,30,32,-1,34,36,38,40,42,44,-1,-1,-1,-1,-1,-1,-1,-1,-1,-1,-1,-1,-1,-1,-1,-1,-1,-1,-1,-1],"split_conditions":[1E0,1.54E2,1E0,1E0,1.58E2,2.8E1,1.63E2,2.01E2,-1.5524801E-2,1E0,1.63E2,1.51E2,6.3E1,-1.5320884E-2,2.3E1,2E0,9E0,1.3541E3,-1.5201269E-2,5E1,1.2654E3,1.24E2,1.63E2,1E0,7.2E1,2.187205E-3,-1.3298537E-2,-6.398536E-3,-1.39475595E-2,-1.1272375E-2,-1.5169014E-2,-4.945783E-4,-7.291464E-3,-1.5134966E-2,-8.34721E-3,2.3047198E-3,-1.4449212E-2,8.436099E-4,4.9293702E-3,-5.303521E-3,6.807318E-3,1.714581E-3,6.317489E-3,1.4638776E-3,-2.8239896E-3],"split_indices":[6,8,4,4,8,1,8,9,0,4,8,8,1,0,1,8,8,7,0,3,7,8,8,5,1,0,0,0,0,0,0,0,0,0,0,0,0,0,0,0,0,0,0,0,0],"split_type":[0,0,0,0,0,0,0,0,0,0,0,0,0,0,0,0,0,0,0,0,0,0,0,0,0,0,0,0,0,0,0,0,0,0,0,0,0,0,0,0,0,0,0,0,0],"sum_hessian":[3.4289242E4,4.72788E3,2.9561363E4,4.262081E3,4.6579892E2,2.7305438E4,2.255925E3,2.4368877E3,1.8251932E3,1.5424535E2,3.1155356E2,4.460492E3,2.2844945E4,2.2481497E3,7.775504E0,1.6114001E3,8.254877E2,1.22818565E2,3.1426777E1,2.9972687E2,1.1826706E1,5.1870337E2,3.9417888E3,2.070263E4,2.1423145E3,3.0648725E0,4.7106314E0,1.5491783E1,1.5959083E3,1.766271E1,8.0782495E2,8.7092354E1,3.572621E1,2.9063858E2,9.088286E0,6.54748E0,5.2792253E0,2.5750662E2,2.6119675E2,3.8821348E3,5.9654037E1,2.0374523E3,1.866518E4,1.4778118E3,6.6450275E2],"tree_param":{"num_deleted":"0","num_feature":"10","num_nodes":"45","size_leaf_vector":"1"}},{"base_weights":[-2.3440241E-4,-1.4415843E0,2.2962181E-1,