{"learner":{"attributes":{"scikit_learn":"{\"_estimator_type\": \"classifier\"}"},"feature_names":["Gender","Age","HasDrivingLicense","RegionID","Switch","VehicleAge","PastAccident","AnnualPremium","SalesChannelID","DaysSinceCreated"],"feature_types":["int","float","float","float","int","int","int","float","int","int"],"gradient_booster":{"model":{"gbtree_model_param":{"num_parallel_tree":"1","num_trees":"50"},"iteration_indptr":[0,1,2,3,4,5,6,7,8,9,10,11,12,13,14,15,16,17,18,19,20,21,22,23,24,25,26,27,28,29,30,31,32,33,34,35,36,37,38,39,40,41,42,43,44,45,46,47,48,49,50],"tree_info":[0,0,0,0,0,0,0,0,0,0,0,0,0,0,0,0,0,0,0,0,0,0,0,0,0,0,0,0,0,0,0,0,0,0,0,0,0,0,0,0,0,0,0,0,0,0,0,0,0,0],"trees":[{"base_weights":[-4.0099898E-1,-1.1891837E0,-1.4134416E-1,-1.1986205E-2,-1.0885072E0,6.449043E-2,-1.2108211E-2,-7.895125E-3,-1.1873804E-2,-7.1347235E-3,3.4143154E-3],"categories":[],"categories_nodes":[],"categories_segments":[],"categories_sizes":[],"default_left":[0,0,0,0,0,0,0,0,0,0,0],"id":0,"left_children":[1,3,5,-1,7,9,-1,-1,-1,-1,-1],"loss_changes":[2.4154512E3,1.4736328E0,1.9547888E3,0E0,6.7942505E0,1.6047797E3,0E0,0E0,0E0,0E0,0E0],"parents":[2147483647,0,0,1,1,2,2,4,4,5,5],"right_children":[2,4,6,-1,8,10,-1,-1,-1,-1,-1],"split_conditions":[1E0,1.54E2,1E0,-1.1986205E-2,1.58E2,2.9E1,-1.2108211E-2,-7.895125E-3,-1.1873804E-2,-7.1347235E-3,3.4143154E-3],"split_indices":[6,8,4,0,8,1,0,0,0,0,0],"split_type":[0,0,0,0,0,0,0,0,0,0,0],"sum_hessian":[1.1802314E4,2.9237283E3,8.878586E3,2.6631924E3,2.605361E2,7.4463755E3,1.4322108E3,6.6978134E1,1.9355795E2,1.9544633E3,5.491912E3],"tree_param":{"num_deleted":"0","num_feature":"10","num_nodes":"11","size_leaf_vector":"1"}},{"base_weights":[-3.9803365E-1,-1.1863623E0,-1.400722E-1,-1.195848E-2,-1.0852389E0,6.3811585E-2,-1.2081168E-2,-7.856633E-3,-1.1845615E-2,-7.095951E-3,3.3727682E-3],"categories":[],"categories_nodes":[],"categories_segments":[],"categories_sizes":[],"default_left":[0,0,0,0,0,0,0,0,0,0,0],"id":1,"left_children":[1,3,5,-1,7,9,-1,-1,-1,-1,-1],"loss_changes":[2.3939897E3,1.4865723E0,1.9319259E3,0E0,6.7974243E0,1.576011E3,0E0,0E0,0E0,0E0,0E0],"parents":[2147483647,0,0,1,1,2,2,4,4,5,5],"right_children":[2,4,6,-1,8,10,-1,-1,-1,-1,-1],"split_conditions":[1E0,1.54E2,1E0,-1.195848E-2,1.58E2,2.9E1,-1.2081168E-2,-7.856633E-3,-1.1845615E-2,-7.095951E-3,3.3727682E-3],"split_indices":[6,8,4,0,8,1,0,0,0,0,0],"split_type":[0,0,0,0,0,0,0,0,0,0,0],"sum_hessian":[1.1772088E4,2.9015056E3,8.870582E3,2.6427776E3,2.5872797E2,7.449462E3,1.4211206E3,6.6639824E1,1.9208815E2,1.9455413E3,5.5039204E3],"tree_param":{"num_deleted":"0","num_feature":"10","num_nodes":"11","size_leaf_vector":"1"}},{"base_weights":[-3.9509043E-1,-1.1835752E0,-1.3881223E-1,-1.1931109E-2,-1.0819961E0,6.3140586E-2,-1.205449E-2,-7.818279E-3,-1.1817765E-2,-7.0573185E-3,3.3318268E-3],"categories":[],"categories_nodes":[],"categories_segments":[],"categories_sizes":[],"default_left":[0,0,0,0,0,0,0,0,0,0,0],"id":2,"left_children":[1,3,5,-1,7,9,-1,-1,-1,-1,-1],"loss_changes":[2.3727476E3,1.4992676E0,1.9093762E3,0E0,6.801239E0,1.5477836E3,0E0,0E0,0E0,0E0,0E0],"parents":[2147483647,0,0,1,1,2,2,4,4,5,5],"right_children":[2,4,6,-1,8,10,-1,-1,-1,-1,-1],"split_conditions":[1E0,1.54E2,1E0,-1.1931109E-2,1.58E2,2.9E1,-1.205449E-2,-7.818279E-3,-1.1817765E-2,-7.0573185E-3,3.3318268E-3],"split_indices":[6,8,4,0,8,1,0,0,0,0,0],"split_type":[0,0,0,0,0,0,0,0,0,0,0],"sum_hessian":[1.1741935E4,2.8793848E3,8.86255E3,2.622456E3,2.5692874E2,7.452469E3,1.4100804E3,6.630366E1,1.9062509E2,1.9366798E3,5.5157896E3],"tree_param":{"num_deleted":"0","num_feature":"10","num_nodes":"11","size_leaf_vector":"1"}},{"base_weights":[-3.9216903E-1,-1.1808218E0,-1.3756411E-1,-1.1904084E-2,-1.0787783E0,6.2477376E-2,-1.20281745E-2,-7.780065E-3,-1.17902495E-2,-7.0188236E-3,3.2914798E-3],"categories":[],"categories_nodes":[],"categories_segments":[],"categories_sizes":[],"default_left":[0,0,0,0,0,0,0,0,0,0,0],"id":3,"left_children":[1,3,5,-1,7,9,-1,-1,-1,-1,-1],"loss_changes":[2.3517195E3,1.5119629E0,1.8871348E3,0E0,6.805603E0,1.5200862E3,0E0,0E0,0E0,0E0,0E0],"parents":[2147483647,0,0,1,1,2,2,4,4,5,5],"right_children":[2,4,6,-1,8,10,-1,-1,-1,-1,-1],"split_conditions":[1E0,1.54E2,1E0,-1.1904084E-2,1.58E2,2.9E1,-1.20281745E-2,-7.780065E-3,-1.17902495E-2,-7.0188236E-3,3.2914798E-3],"split_indices":[6,8,4,0,8,1,0,0,0,0,0],"split_type":[0,0,0,0,0,0,0,0,0,0,0],"sum_hessian":[1.1711859E4,2.8573677E3,8.854491E3,2.6022292E3,2.5513855E2,7.4554004E3,1.3990913E3,6.5969635E1,1.8916891E2,1.9278782E3,5.527522E3],"tree_param":{"num_deleted":"0","num_feature":"10","num_nodes":"11","size_leaf_vector":"1"}},{"base_weights":[-3.8926923E-1,-1.1781012E0,-1.3632782E-1,-1.18774E-2,-1.0755847E0,6.182164E-2,-1.2002213E-2,-7.7419854E-3,-1.17630595E-2,-6.980466E-3,3.251714E-3],"categories":[],"categories_nodes":[],"categories_segments":[],"categories_sizes":[],"default_left":[0,0,0,0,0,0,0,0,0,0,0],"id":4,"left_children":[1,3,5,-1,7,9,-1,-1,-1,-1,-1],"loss_changes":[2.3309011E3,1.5251465E0,1.8651959E3,0E0,6.810608E0,1.4929071E3,0E0,0E0,0E0,0E0,0E0],"parents":[2147483647,0,0,1,1,2,2,4,4,5,5],"right_children":[2,4,6,-1,8,10,-1,-1,-1,-1,-1],"split_conditions":[1E0,1.54E2,1E0,-1.18774E-2,1.58E2,2.9E1,-1.2002213E-2,-7.7419854E-3,-1.17630595E-2,-6.980466E-3,3.251714E-3],"split_indices":[6,8,4,0,8,1,0,0,0,0,0],"split_type":[0,0,0,0,0,0,0,0,0,0,0],"sum_hessian":[1.1681864E4,2.8354556E3,8.846409E3,2.5820981E3,2.533574E2,7.458256E3,1.3881532E3,6.5637764E1,1.8771965E2,1.9191367E3,5.539119E3],"tree_param":{"num_deleted":"0","num_feature":"10","num_nodes":"11","size_leaf_vector":"1"}},{"base_weights":[-3.863905E-1,-1.175413E0,-1.3510285E-1,-1.1851047E-2,-1.0724146E0,6.117372E-2,-1.1976602E-2,-7.7040386E-3,-1.1736191E-2,-6.9422433E-3,3.2125248E-3],"categories":[],"categories_nodes":[],"categories_segments":[],"categories_sizes":[],"default_left":[0,0,0,0,0,0,0,0,0,0,0],"id":5,"left_children":[1,3,5,-1,7,9,-1,-1,-1,-1,-1],"loss_changes":[2.310291E3,1.5383301E0,1.8435552E3,0E0,6.8160706E0,1.4662372E3,0E0,0E0,0E0,0E0,0E0],"parents":[2147483647,0,0,1,1,2,2,4,4,5,5],"right_children":[2,4,6,-1,8,10,-1,-1,-1,-1,-1],"split_conditions":[1E0,1.54E2,1E0,-1.1851047E-2,1.58E2,2.9E1,-1.1976602E-2,-7.7040386E-3,-1.1736191E-2,-6.9422433E-3,3.2125248E-3],"split_indices":[6,8,4,0,8,1,0,0,0,0,0],"split_type":[0,0,0,0,0,0,0,0,0,0,0],"sum_hessian":[1.1651953E4,2.8136494E3,8.838304E3,2.562064E3,2.5158548E2,7.4610366E3,1.3772672E3,6.5308044E1,1.8627744E2,1.9104553E3,5.5505815E3],"tree_param":{"num_deleted":"0","num_feature":"10","num_nodes":"11","size_leaf_vector":"1"}},{"base_weights":[-3.835329E-1,-1.1727566E0,-1.3388951E-1,-1.1825022E-2,-1.0692677E0,6.0532987E-2,-1.1951333E-2,-7.666224E-3,-1.1709637E-2,-6.904154E-3,3.1738933E-3],"categories":[],"categories_nodes":[],"categories_segments":[],"categories_sizes":[],"default_left":[0,0,0,0,0,0,0,0,0,0,0],"id":6,"left_children":[1,3,5,-1,7,9,-1,-1,-1,-1,-1],"loss_changes":[2.2898843E3,1.5524902E0,1.822207E3,0E0,6.822052E0,1.4400632E3,0E0,0E0,0E0,0E0,0E0],"parents":[2147483647,0,0,1,1,2,2,4,4,5,5],"right_children":[2,4,6,-1,8,10,-1,-1,-1,-1,-1],"split_conditions":[1E0,1.54E2,1E0,-1.1825022E-2,1.58E2,2.9E1,-1.1951333E-2,-7.666224E-3,-1.1709637E-2,-6.904154E-3,3.1738933E-3],"split_indices":[6,8,4,0,8,1,0,0,0,0,0],"split_type":[0,0,0,0,0,0,0,0,0,0,0],"sum_hessian":[1.1622131E4,2.7919502E3,8.830181E3,2.5421274E3,2.4982278E2,7.4637466E3,1.3664338E3,6.498045E1,1.8484233E2,1.9018339E3,5.5619126E3],"tree_param":{"num_deleted":"0","num_feature":"10","num_nodes":"11","size_leaf_vector":"1"}},{"base_weights":[-3.8069612E-1,-1.1701314E0,-1.3268751E-1,-1.1799321E-2,-1.0661436E0,5.989946E-2,-1.1926398E-2,-7.6285386E-3,-1.1683392E-2,-6.866198E-3,3.1358125E-3],"categories":[],"categories_nodes":[],"categories_segments":[],"categories_sizes":[],"default_left":[0,0,0,0,0,0,0,0,0,0,0],"id":7,"left_children":[1,3,5,-1,7,9,-1,-1,-1,-1,-1],"loss_changes":[2.2696782E3,1.5668945E0,1.8011453E3,0E0,6.8286133E0,1.4143765E3,0E0,0E0,0E0,0E0,0E0],"parents":[2147483647,0,0,1,1,2,2,4,4,5,5],"right_children":[2,4,6,-1,8,10,-1,-1,-1,-1,-1],"split_conditions":[1E0,1.54E2,1E0,-1.1799321E-2,1.58E2,2.9E1,-1.1926398E-2,-7.6285386E-3,-1.1683392E-2,-6.866198E-3,3.1358125E-3],"split_indices":[6,8,4,0,8,1,0,0,0,0,0],"split_type":[0,0,0,0,0,0,0,0,0,0,0],"sum_hessian":[1.1592399E4,2.7703596E3,8.82204E3,2.52229E3,2.480694E2,7.4663857E3,1.3556539E3,6.465502E1,1.8341437E2,1.8932725E3,5.5731133E3],"tree_param":{"num_deleted":"0","num_feature":"10","num_nodes":"11","size_leaf_vector":"1"}},{"base_weights":[-3.778796E-1,-1.1675366E0,-1.3149646E-1,-1.1773933E-2,-1.0630414E0,5.9273373E-2,-1.1901794E-2,-7.5909807E-3,-1.165745E-2,-6.8283733E-3,3.0982753E-3],"categories":[],"categories_nodes":[],"categories_segments":[],"categories_sizes":[],"default_left":[0,0,0,0,0,0,0,0,0,0,0],"id":8,"left_children":[1,3,5,-1,7,9,-1,-1,-1,-1,-1],"loss_changes":[2.2496704E3,1.5810547E0,1.7803665E3,0E0,6.835602E0,1.3891672E3,0E0,0E0,0E0,0E0,0E0],"parents":[2147483647,0,0,1,1,2,2,4,4,5,5],"right_children":[2,4,6,-1,8,10,-1,-1,-1,-1,-1],"split_conditions":[1E0,1.54E2,1E0,-1.1773933E-2,1.58E2,2.9E1,-1.1901794E-2,-7.5909807E-3,-1.165745E-2,-6.8283733E-3,3.0982753E-3],"split_indices":[6,8,4,0,8,1,0,0,0,0,0],"split_type":[0,0,0,0,0,0,0,0,0,0,0],"sum_hessian":[1.1562761E4,2.748878E3,8.813883E3,2.5025525E3,2.4632542E2,7.4689556E3,1.3449276E3,6.433173E1,1.8199368E2,1.8847706E3,5.5841846E3],"tree_param":{"num_deleted":"0","num_feature":"10","num_nodes":"11","size_leaf_vector":"1"}},{"base_weights":[-3.7508318E-1,-1.1649718E0,-1.3031633E-1,-1.1748855E-2,-1.0599608E0,5.86545E-2,-1.1877515E-2,-7.553549E-3,-1.1631805E-2,-6.790677E-3,3.06127E-3],"categories":[],"categories_nodes":[],"categories_segments":[],"categories_sizes":[],"default_left":[0,0,0,0,0,0,0,0,0,0,0],"id":9,"left_children":[1,3,5,-1,7,9,-1,-1,-1,-1,-1],"loss_changes":[2.2298574E3,1.595459E0,1.759866E3,0E0,6.843109E0,1.3644244E3,0E0,0E0,0E0,0E0,0E0],"parents":[2147483647,0,0,1,1,2,2,4,4,5,5],"right_children":[2,4,6,-1,8,10,-1,-1,-1,-1,-1],"split_conditions":[1E0,1.54E2,1E0,-1.1748855E-2,1.58E2,2.9E1,-1.1877515E-2,-7.553549E-3,-1.1631805E-2,-6.790677E-3,3.06127E-3],"split_indices":[6,8,4,0,8,1,0,0,0,0,0],"split_type":[0,0,0,0,0,0,0,0,0,0,0],"sum_hessian":[1.1533221E4,2.7275068E3,8.805714E3,2.4829158E3,2.4459085E2,7.4714585E3,1.3342556E3,6.401059E1,1.8058026E2,1.8763286E3,5.59513E3],"tree_param":{"num_deleted":"0","num_feature":"10","num_nodes":"11","size_leaf_vector":"1"}},{"base_weights":[-3.723068E-1,-1.1624365E0,-1.2914717E-1,-1.1724081E-2,-1.0569012E0,5.8042523E-2,-1.1853554E-2,-7.5162407E-3,-1.160645E-2,-6.7531117E-3,3.024786E-3],"categories":[],"categories_nodes":[],"categories_segments":[],"categories_sizes":[],"default_left":[0,0,0,0,0,0,0,0,0,0,0],"id":10,"left_children":[1,3,5,-1,7,9,-1,-1,-1,-1,-1],"loss_changes":[2.210236E3,1.6098633E0,1.7396382E3,0E0,6.851013E0,1.3401398E3,0E0,0E0,0E0,0E0,0E0],"parents":[2147483647,0,0,1,1,2,2,4,4,5,5],"right_children":[2,4,6,-1,8,10,-1,-1,-1,-1,-1],"split_conditions":[1E0,1.54E2,1E0,-1.1724081E-2,1.58E2,2.9E1,-1.1853554E-2,-7.5162407E-3,-1.160645E-2,-6.7531117E-3,3.024786E-3],"split_indices":[6,8,4,0,8,1,0,0,0,0,0],"split_type":[0,0,0,0,0,0,0,0,0,0,0],"sum_hessian":[1.1503779E4,2.7062463E3,8.797533E3,2.4633806E3,2.4286581E2,7.4738945E3,1.3236384E3,6.36916E1,1.7917422E2,1.8679462E3,5.605948E3],"tree_param":{"num_deleted":"0","num_feature":"10","num_nodes":"11","size_leaf_vector":"1"}},{"base_weights":[-3.695502E-1,-1.1599299E0,-1.2798885E-1,-1.1699605E-2,-1.0538621E0,5.7437316E-2,-1.1829904E-2,-7.479055E-3,-1.1581381E-2,-6.715673E-3,2.9888123E-3],"categories":[],"categories_nodes":[],"categories_segments":[],"categories_sizes":[],"default_left":[0,0,0,0,0,0,0,0,0,0,0],"id":11,"left_children":[1,3,5,-1,7,9,-1,-1,-1,-1,-1],"loss_changes":[2.1908027E3,1.6245117E0,1.719678E3,0E0,6.859375E0,1.3163024E3,0E0,0E0,0E0,0E0,0E0],"parents":[2147483647,0,0,1,1,2,2,4,4,5,5],"right_children":[2,4,6,-1,8,10,-1,-1,-1,-1,-1],"split_conditions":[1E0,1.54E2,1E0,-1.1699605E-2,1.58E2,2.9E1,-1.1829904E-2,-7.479055E-3,-1.1581381E-2,-6.715673E-3,2.9888123E-3],"split_indices":[6,8,4,0,8,1,0,0,0,0,0],"split_type":[0,0,0,0,0,0,0,0,0,0,0],"sum_hessian":[1.1474443E4,2.6850989E3,8.789344E3,2.4439487E3,2.4115036E2,7.4762676E3,1.3130768E3,6.3374756E1,1.777756E2,1.8596237E3,5.6166436E3],"tree_param":{"num_deleted":"0","num_feature":"10","num_nodes":"11","size_leaf_vector":"1"}},{"base_weights":[-3.66813E-1,-1.1574514E0,-1.2684105E-1,-1.1675419E-2,-1.050843E0,5.6839056E-2,-1.1806563E-2,-7.4419896E-3,-1.1556593E-2,-6.6783624E-3,2.9533433E-3],"categories":[],"categories_nodes":[],"categories_segments":[],"categories_sizes":[],"default_left":[0,0,0,0,0,0,0,0,0,0,0],"id":12,"left_children":[1,3,5,-1,7,9,-1,-1,-1,-1,-1],"loss_changes":[2.1715547E3,1.6401367E0,1.6999825E3,0E0,6.8681335E0,1.2929047E3,0E0,0E0,0E0,0E0,0E0],"parents":[2147483647,0,0,1,1,2,2,4,4,5,5],"right_children":[2,4,6,-1,8,10,-1,-1,-1,-1,-1],"split_conditions":[1E0,1.54E2,1E0,-1.1675419E-2,1.58E2,2.9E1,-1.1806563E-2,-7.4419896E-3,-1.1556593E-2,-6.6783624E-3,2.9533433E-3],"split_indices":[6,8,4,0,8,1,0,0,0,0,0],"split_type":[0,0,0,0,0,0,0,0,0,0,0],"sum_hessian":[1.1445211E4,2.6640645E3,8.781146E3,2.4246199E3,2.3944455E2,7.478576E3,1.3025704E3,6.3060062E1,1.7638449E2,1.8513602E3,5.627216E3],"tree_param":{"num_deleted":"0","num_feature":"10","num_nodes":"11","size_leaf_vector":"1"}},{"base_weights":[-3.6409497E-1,-1.1550008E0,-1.2570362E-1,-1.16515225E-2,-1.0478432E0,5.624766E-2,-1.17835235E-2,-7.4050426E-3,-1.1532078E-2,-6.641176E-3,2.9183694E-3],"categories":[],"categories_nodes":[],"categories_segments":[],"categories_sizes":[],"default_left":[0,0,0,0,0,0,0,0,0,0,0],"id":13,"left_children":[1,3,5,-1,7,9,-1,-1,-1,-1,-1],"loss_changes":[2.1524905E3,1.6557617E0,1.6805468E3,0E0,6.87735E0,1.2699366E3,0E0,0E0,0E0,0E0,0E0],"parents":[2147483647,0,0,1,1,2,2,4,4,5,5],"right_children":[2,4,6,-1,8,10,-1,-1,-1,-1,-1],"split_conditions":[1E0,1.54E2,1E0,-1.16515225E-2,1.58E2,2.9E1,-1.17835235E-2,-7.4050426E-3,-1.1532078E-2,-6.641176E-3,2.9183694E-3],"split_indices":[6,8,4,0,8,1,0,0,0,0,0],"split_type":[0,0,0,0,0,0,0,0,0,0,0],"sum_hessian":[1.1416088E4,2.6431436E3,8.772944E3,2.405395E3,2.3774841E2,7.4808237E3,1.2921206E3,6.274751E1,1.7500092E2,1.8431561E3,5.637668E3],"tree_param":{"num_deleted":"0","num_feature":"10","num_nodes":"11","size_leaf_vector":"1"}},{"base_weights":[-3.61396E-1,-1.1525773E0,-1.2457665E-1,-1.1627908E-2,-1.0448626E0,5.5662774E-2,-1.176078E-2,-7.368212E-3,-1.1507832E-2,-6.604115E-3,2.8838797E-3],"categories":[],"categories_nodes":[],"categories_segments":[],"categories_sizes":[],"default_left":[0,0,0,0,0,0,0,0,0,0,0],"id":14,"left_children":[1,3,5,-1,7,9,-1,-1,-1,-1,-1],"loss_changes":[2.1336067E3,1.6708984E0,1.6613657E3,0E0,6.886963E0,1.2473901E3,0E0,0E0,0E0,0E0,0E0],"parents":[2147483647,0,0,1,1,2,2,4,4,5,5],"right_children":[2,4,6,-1,8,10,-1,-1,-1,-1,-1],"split_conditions":[1E0,1.54E2,1E0,-1.1627908E-2,1.58E2,2.9E1,-1.176078E-2,-7.368212E-3,-1.1507832E-2,-6.604115E-3,2.8838797E-3],"split_indices":[6,8,4,0,8,1,0,0,0,0,0],"split_type":[0,0,0,0,0,0,0,0,0,0,0],"sum_hessian":[1.1387076E4,2.6223372E3,8.764738E3,2.3862751E3,2.36062E2,7.4830117E3,1.2817272E3,6.2437096E1,1.736249E2,1.8350111E3,5.6480005E3],"tree_param":{"num_deleted":"0","num_feature":"10","num_nodes":"11","size_leaf_vector":"1"}},{"base_weights":[-3.5871595E-1,-1.1501805E0,-1.2346E-1,-1.1604569E-2,-1.0419005E0,5.508433E-2,-1.1738327E-2,-7.3314994E-3,-1.1483852E-2,-6.854895E-3,2.7623486E-3],"categories":[],"categories_nodes":[],"categories_segments":[],"categories_sizes":[],"default_left":[0,0,0,0,0,0,0,0,0,0,0],"id":15,"left_children":[1,3,5,-1,7,9,-1,-1,-1,-1,-1],"loss_changes":[2.1148997E3,1.6867676E0,1.6424354E3,0E0,6.8968964E0,1.2262566E3,0E0,0E0,0E0,0E0,0E0],"parents":[2147483647,0,0,1,1,2,2,4,4,5,5],"right_children":[2,4,6,-1,8,10,-1,-1,-1,-1,-1],"split_conditions":[1E0,1.54E2,1E0,-1.1604569E-2,1.58E2,2.8E1,-1.1738327E-2,-7.3314994E-3,-1.1483852E-2,-6.854895E-3,2.7623486E-3],"split_indices":[6,8,4,0,8,1,0,0,0,0,0],"split_type":[0,0,0,0,0,0,0,0,0,0,0],"sum_hessian":[1.1358177E4,2.6016465E3,8.75653E3,2.3672612E3,2.3438538E2,7.48514E3,1.2713906E3,6.212882E1,1.7225655E2,1.7207407E3,5.7643994E3],"tree_param":{"num_deleted":"0","num_feature":"10","num_nodes":"11","size_leaf_vector":"1"}},{"base_weights":[-3.560537E-1,-1.1478097E0,-1.22353114E-1,-1.1581502E-2,-1.0389565E0,5.4512274E-2,-1.1716161E-2,-7.2949E-3,-1.146013E-2,-6.817792E-3,2.7299782E-3],"categories":[],"categories_nodes":[],"categories_segments":[],"categories_sizes":[],"default_left":[0,0,0,0,0,0,0,0,0,0,0],"id":16,"left_children":[1,3,5,-1,7,9,-1,-1,-1,-1,-1],"loss_changes":[2.0963706E3,1.7028809E0,1.6237524E3,0E0,6.907181E0,1.2048112E3,0E0,0E0,0E0,0E0,0E0],"parents":[2147483647,0,0,1,1,2,2,4,4,5,5],"right_children":[2,4,6,-1,8,10,-1,-1,-1,-1,-1],"split_conditions":[1E0,1.54E2,1E0,-1.1581502E-2,1.58E2,2.8E1,-1.1716161E-2,-7.2949E-3,-1.146013E-2,-6.817792E-3,2.7299782E-3],"split_indices":[6,8,4,0,8,1,0,0,0,0,0],"split_type":[0,0,0,0,0,0,0,0,0,0,0],"sum_hessian":[1.1329417E4,2.5810718E3,8.748345E3,2.3483533E3,2.3271855E2,7.4872334E3,1.2611116E3,6.182268E1,1.7089587E2,1.7128491E3,5.7743843E3],"tree_param":{"num_deleted":"0","num_feature":"10","num_nodes":"11","size_leaf_vector":"1"}},{"base_weights":[-3.5340992E-1,-1.1454648E0,-1.212563E-1,-1.15587E-2,-1.0360302E0,5.3946525E-2,-1.1694276E-2,-7.2584134E-3,-1.1436663E-2,-6.4967577E-3,2.785277E-3],"categories":[],"categories_nodes":[],"categories_segments":[],"categories_sizes":[],"default_left":[0,0,0,0,0,0,0,0,0,0,0],"id":17,"left_children":[1,3,5,-1,7,9,-1,-1,-1,-1,-1],"loss_changes":[2.078013E3,1.7194824E0,1.6053123E3,0E0,6.9178314E0,1.183796E3,0E0,0E0,0E0,0E0,0E0],"parents":[2147483647,0,0,1,1,2,2,4,4,5,5],"right_children":[2,4,6,-1,8,10,-1,-1,-1,-1,-1],"split_conditions":[1E0,1.54E2,1E0,-1.15587E-2,1.58E2,2.9E1,-1.1694276E-2,-7.2584134E-3,-1.1436663E-2,-6.4967577E-3,2.785277E-3],"split_indices":[6,8,4,0,8,1,0,0,0,0,0],"split_type":[0,0,0,0,0,0,0,0,0,0,0],"sum_hessian":[1.1300773E4,2.5606133E3,8.74016E3,2.3295518E3,2.3106158E2,7.48927E3,1.25089E3,6.151867E1,1.6954291E2,1.8115898E3,5.67768E3],"tree_param":{"num_deleted":"0","num_feature":"10","num_nodes":"11","size_leaf_vector":"1"}},{"base_weights":[-3.5078484E-1,-1.1431448E0,-1.2016955E-1,-1.15361605E-2,-1.0331211E0,5.338734E-2,-1.1672668E-2,-7.222038E-3,-1.1413445E-2,-6.7454865E-3,2.667543E-3],"categories":[],"categories_nodes":[],"categories_segments":[],"categories_sizes":[],"default_left":[0,0,0,0,0,0,0,0,0,0,0],"id":18,"left_children":[1,3,5,-1,7,9,-1,-1,-1,-1,-1],"loss_changes":[2.0598237E3,1.736084E0,1.587111E3,0E0,6.928833E0,1.1638546E3,0E0,0E0,0E0,0E0,0E0],"parents":[2147483647,0,0,1,1,2,2,4,4,5,5],"right_children":[2,4,6,-1,8,10,-1,-1,-1,-1,-1],"split_conditions":[1E0,1.54E2,1E0,-1.15361605E-2,1.58E2,2.8E1,-1.1672668E-2,-7.222038E-3,-1.1413445E-2,-6.7454865E-3,2.667543E-3],"split_indices":[6,8,4,0,8,1,0,0,0,0,0],"split_type":[0,0,0,0,0,0,0,0,0,0,0],"sum_hessian":[1.127223E4,2.5402727E3,8.731958E3,2.3108582E3,2.2941446E2,7.491232E3,1.2407264E3,6.121679E1,1.6819766E2,1.697562E3,5.79367E3],"tree_param":{"num_deleted":"0","num_feature":"10","num_nodes":"11","size_leaf_vector":"1"}},{"base_weights":[-3.4817725E-1,-1.1408498E0,-1.1909245E-1,-1.1513879E-2,-1.0302287E0,5.2834075E-2,-1.16513325E-2,-7.1857735E-3,-1.1390471E-2,-6.7087314E-3,2.6364576E-3],"categories":[],"categories_nodes":[],"categories_segments":[],"categories_sizes":[],"default_left":[0,0,0,0,0,0,0,0,0,0,0],"id":19,"left_children":[1,3,5,-1,7,9,-1,-1,-1,-1,-1],"loss_changes":[2.0418044E3,1.7524414E0,1.5691449E3,0E0,6.9401245E0,1.1435305E3,0E0,0E0,0E0,0E0,0E0],"parents":[2147483647,0,0,1,1,2,2,4,4,5,5],"right_children":[2,4,6,-1,8,10,-1,-1,-1,-1,-1],"split_conditions":[1E0,1.54E2,1E0,-1.1513879E-2,1.58E2,2.8E1,-1.16513325E-2,-7.1857735E-3,-1.1390471E-2,-6.7087314E-3,2.6364576E-3],"split_indices":[6,8,4,0,8,1,0,0,0,0,0],"split_type":[0,0,0,0,0,0,0,0,0,0,0],"sum_hessian":[1.124383E4,2.5200493E3,8.723781E3,2.2922722E3,2.277773E2,7.4931597E3,1.230621E3,6.0917027E1,1.6686028E2,1.689838E3,5.803322E3],"tree_param":{"num_deleted":"0","num_feature":"10","num_nodes":"11","size_leaf_vector":"1"}},{"base_weights":[-3.4558743E-1,-1.1385788E0,-1.18024975E-1,-1.1491848E-2,-1.0273527E0,5.228699E-2,-1.1630262E-2,-7.1496167E-3,-1.1367738E-2,-6.6720927E-3,2.6057917E-3],"categories":[],"categories_nodes":[],"categories_segments":[],"categories_sizes":[],"default_left":[0,0,0,0,0,0,0,0,0,0,0],"id":20,"left_children":[1,3,5,-1,7,9,-1,-1,-1,-1,-1],"loss_changes":[2.0239497E3,1.7695312E0,1.55141E3,0E0,6.9517517E0,1.1235704E3,0E0,0E0,0E0,0E0,0E0],"parents":[2147483647,0,0,1,1,2,2,4,4,5,5],"right_children":[2,4,6,-1,8,10,-1,-1,-1,-1,-1],"split_conditions":[1E0,1.54E2,1E0,-1.1491848E-2,1.58E2,2.8E1,-1.1630262E-2,-7.1496167E-3,-1.1367738E-2,-6.6720927E-3,2.6057917E-3],"split_indices":[6,8,4,0,8,1,0,0,0,0,0],"split_type":[0,0,0,0,0,0,0,0,0,0,0],"sum_hessian":[1.1215555E4,2.4999446E3,8.71561E3,2.2737944E3,2.2615009E2,7.4950356E3,1.2205742E3,6.061939E1,1.6553069E2,1.6821705E3,5.812865E3],"tree_param":{"num_deleted":"0","num_feature":"10","num_nodes":"11","size_leaf_vector":"1"}},{"base_weights":[-3.4301513E-1,-1.1363317E0,-1.16966985E-1,-1.14700645E-2,-1.0244926E0,5.174604E-2,-1.1609453E-2,-7.1135694E-3,-1.1345241E-2,-6.3558356E-3,2.6602128E-3],"categories":[],"categories_nodes":[],"categories_segments":[],"categories_sizes":[],"default_left":[0,0,0,0,0,0,0,0,0,0,0],"id":21,"left_children":[1,3,5,-1,7,9,-1,-1,-1,-1,-1],"loss_changes":[2.0062584E3,1.7866211E0,1.5339027E3,0E0,6.963623E0,1.104437E3,0E0,0E0,0E0,0E0,0E0],"parents":[2147483647,0,0,1,1,2,2,4,4,5,5],"right_children":[2,4,6,-1,8,10,-1,-1,-1,-1,-1],"split_conditions":[1E0,1.54E2,1E0,-1.14700645E-2,1.58E2,2.9E1,-1.1609453E-2,-7.1135694E-3,-1.1345241E-2,-6.3558356E-3,2.6602128E-3],"split_indices":[6,8,4,0,8,1,0,0,0,0,0],"split_type":[0,0,0,0,0,0,0,0,0,0,0],"sum_hessian":[1.1187404E4,2.4799583E3,8.707446E3,2.2554255E3,2.245328E2,7.4968604E3,1.210586E3,6.0323868E1,1.6420894E2,1.7812351E3,5.715625E3],"tree_param":{"num_deleted":"0","num_feature":"10","num_nodes":"11","size_leaf_vector":"1"}},{"base_weights":[-3.404608E-1,-1.1341077E0,-1.1591867E-1,-1.1448525E-2,-1.0216479E0,5.121121E-2,-1.1588903E-2,-7.077627E-3,-1.1322973E-2,-6.600694E-3,2.5466355E-3],"categories":[],"categories_nodes":[],"categories_segments":[],"categories_sizes":[],"default_left":[0,0,0,0,0,0,0,0,0,0,0],"id":22,"left_children":[1,3,5,-1,7,9,-1,-1,-1,-1,-1],"loss_changes":[1.9887253E3,1.8041992E0,1.5166193E3,0E0,6.975815E0,1.0854503E3,0E0,0E0,0E0,0E0,0E0],"parents":[2147483647,0,0,1,1,2,2,4,4,5,5],"right_children":[2,4,6,-1,8,10,-1,-1,-1,-1,-1],"split_conditions":[1E0,1.54E2,1E0,-1.1448525E-2,1.58E2,2.8E1,-1.1588903E-2,-7.077627E-3,-1.1322973E-2,-6.600694E-3,2.5466355E-3],"split_indices":[6,8,4,0,8,1,0,0,0,0,0],"split_type":[0,0,0,0,0,0,0,0,0,0,0],"sum_hessian":[1.1159364E4,2.4600913E3,8.699273E3,2.2371658E3,2.2292554E2,7.4986167E3,1.200657E3,6.0030457E1,1.6289508E2,1.6673221E3,5.8312944E3],"tree_param":{"num_deleted":"0","num_feature":"10","num_nodes":"11","size_leaf_vector":"1"}},{"base_weights":[-3.3792338E-1,-1.1319069E0,-1.1487969E-1,-1.1427225E-2,-1.0188184E0,5.068193E-2,-1.1568607E-2,-7.041791E-3,-1.13009345E-2,-6.564392E-3,2.5171693E-3],"categories":[],"categories_nodes":[],"categories_segments":[],"categories_sizes":[],"default_left":[0,0,0,0,0,0,0,0,0,0,0],"id":23,"left_children":[1,3,5,-1,7,9,-1,-1,-1,-1,-1],"loss_changes":[1.971353E3,1.8217773E0,1.4995559E3,0E0,6.9882355E0,1.0665267E3,0E0,0E0,0E0,0E0,0E0],"parents":[2147483647,0,0,1,1,2,2,4,4,5,5],"right_children":[2,4,6,-1,8,10,-1,-1,-1,-1,-1],"split_conditions":[1E0,1.54E2,1E0,-1.1427225E-2,1.58E2,2.8E1,-1.1568607E-2,-7.041791E-3,-1.13009345E-2,-6.564392E-3,2.5171693E-3],"split_indices":[6,8,4,0,8,1,0,0,0,0,0],"split_type":[0,0,0,0,0,0,0,0,0,0,0],"sum_hessian":[1.1131473E4,2.4403438E3,8.691129E3,2.2190154E3,2.2132831E2,7.5003423E3,1.190787E3,5.973916E1,1.6158916E2,1.6598204E3,5.8405215E3],"tree_param":{"num_deleted":"0","num_feature":"10","num_nodes":"11","size_leaf_vector":"1"}},{"base_weights":[-3.3540294E-1,-1.1297282E0,-1.138499E-1,-1.1406157E-2,-1.0160036E0,5.015854E-2,-1.1548559E-2,-7.006059E-3,-1.1279116E-2,-6.250997E-3,2.5704636E-3],"categories":[],"categories_nodes":[],"categories_segments":[],"categories_sizes":[],"default_left":[0,0,0,0,0,0,0,0,0,0,0],"id":24,"left_children":[1,3,5,-1,7,9,-1,-1,-1,-1,-1],"loss_changes":[1.9541362E3,1.8398438E0,1.4827095E3,0E0,7.0009613E0,1.0483528E3,0E0,0E0,0E0,0E0,0E0],"parents":[2147483647,0,0,1,1,2,2,4,4,5,5],"right_children":[2,4,6,-1,8,10,-1,-1,-1,-1,-1],"split_conditions":[1E0,1.54E2,1E0,-1.1406157E-2,1.58E2,2.9E1,-1.1548559E-2,-7.006059E-3,-1.1279116E-2,-6.250997E-3,2.5704636E-3],"split_indices":[6,8,4,0,8,1,0,0,0,0,0],"split_type":[0,0,0,0,0,0,0,0,0,0,0],"sum_hessian":[1.1103712E4,2.4207163E3,8.682996E3,2.200975E3,2.1974109E2,7.5020195E3,1.1809764E3,5.9449947E1,1.6029115E2,1.7589585E3,5.743061E3],"tree_param":{"num_deleted":"0","num_feature":"10","num_nodes":"11","size_leaf_vector":"1"}},{"base_weights":[-3.328999E-1,-1.1275716E0,-1.1282947E-1,-1.1385319E-2,-1.0132033E0,4.9641035E-2,-1.1528757E-2,-6.970431E-3,-1.1257517E-2,-6.4936588E-3,2.4603251E-3],"categories":[],"categories_nodes":[],"categories_segments":[],"categories_sizes":[],"default_left":[0,0,0,0,0,0,0,0,0,0,0],"id":25,"left_children":[1,3,5,-1,7,9,-1,-1,-1,-1,-1],"loss_changes":[1.937072E3,1.8579102E0,1.4660764E3,0E0,7.0138702E0,1.0303885E3,0E0,0E0,0E0,0E0,0E0],"parents":[2147483647,0,0,1,1,2,2,4,4,5,5],"right_children":[2,4,6,-1,8,10,-1,-1,-1,-1,-1],"split_conditions":[1E0,1.54E2,1E0,-1.1385319E-2,1.58E2,2.8E1,-1.1528757E-2,-6.970431E-3,-1.1257517E-2,-6.4936588E-3,2.4603251E-3],"split_indices":[6,8,4,0,8,1,0,0,0,0,0],"split_type":[0,0,0,0,0,0,0,0,0,0,0],"sum_hessian":[1.1076068E4,2.4012087E3,8.674859E3,2.1830447E3,2.1816393E2,7.503634E3,1.1712256E3,5.9162838E1,1.5900108E2,1.6452976E3,5.8583364E3],"tree_param":{"num_deleted":"0","num_feature":"10","num_nodes":"11","size_leaf_vector":"1"}},{"base_weights":[-3.3041316E-1,-1.1254367E0,-1.1181792E-1,-1.1364708E-2,-1.0104166E0,4.9129054E-2,-1.1509195E-2,-6.9349045E-3,-1.1236131E-2,-6.4576874E-3,2.4320034E-3],"categories":[],"categories_nodes":[],"categories_segments":[],"categories_sizes":[],"default_left":[0,0,0,0,0,0,0,0,0,0,0],"id":26,"left_children":[1,3,5,-1,7,9,-1,-1,-1,-1,-1],"loss_changes":[1.9201619E3,1.8759766E0,1.449654E3,0E0,7.027054E0,1.01244366E3,0E0,0E0,0E0,0E0,0E0],"parents":[2147483647,0,0,1,1,2,2,4,4,5,5],"right_children":[2,4,6,-1,8,10,-1,-1,-1,-1,-1],"split_conditions":[1E0,1.54E2,1E0,-1.1364708E-2,1.58E2,2.8E1,-1.1509195E-2,-6.9349045E-3,-1.1236131E-2,-6.4576874E-3,2.4320034E-3],"split_indices":[6,8,4,0,8,1,0,0,0,0,0],"split_type":[0,0,0,0,0,0,0,0,0,0,0],"sum_hessian":[1.1048576E4,2.381822E3,8.666754E3,2.165225E3,2.1659683E2,7.505219E3,1.1615344E3,5.8877815E1,1.5771902E2,1.6379602E3,5.8672593E3],"tree_param":{"num_deleted":"0","num_feature":"10","num_nodes":"11","size_leaf_vector":"1"}},{"base_weights":[-3.2794303E-1,-1.1233228E0,-1.1081531E-1,-1.1344318E-2,-1.0076436E0,4.8622712E-2,-1.1489872E-2,-6.8994793E-3,-1.1214955E-2,-6.1471933E-3,2.484201E-3],"categories":[],"categories_nodes":[],"categories_segments":[],"categories_sizes":[],"default_left":[0,0,0,0,0,0,0,0,0,0,0],"id":27,"left_children":[1,3,5,-1,7,9,-1,-1,-1,-1,-1],"loss_changes":[1.9034015E3,1.8942871E0,1.4334382E3,0E0,7.040436E0,9.951861E2,0E0,0E0,0E0,0E0,0E0],"parents":[2147483647,0,0,1,1,2,2,4,4,5,5],"right_children":[2,4,6,-1,8,10,-1,-1,-1,-1,-1],"split_conditions":[1E0,1.54E2,1E0,-1.1344318E-2,1.58E2,2.9E1,-1.1489872E-2,-6.8994793E-3,-1.1214955E-2,-6.1471933E-3,2.484201E-3],"split_indices":[6,8,4,0,8,1,0,0,0,0,0],"split_type":[0,0,0,0,0,0,0,0,0,0,0],"sum_hessian":[1.1021218E4,2.3625562E3,8.658662E3,2.1475164E3,2.1503983E2,7.506759E3,1.151903E3,5.859488E1,1.5644495E2,1.7371654E3,5.7695933E3],"tree_param":{"num_deleted":"0","num_feature":"10","num_nodes":"11","size_leaf_vector":"1"}},{"base_weights":[-3.2548973E-1,-1.1212298E0,-1.0982173E-1,-1.1324147E-2,-1.0048839E0,4.812202E-2,-1.1470778E-2,-6.8641547E-3,-1.1193983E-2,-6.3876063E-3,2.3773627E-3],"categories":[],"categories_nodes":[],"categories_segments":[],"categories_sizes":[],"default_left":[0,0,0,0,0,0,0,0,0,0,0],"id":28,"left_children":[1,3,5,-1,7,9,-1,-1,-1,-1,-1],"loss_changes":[1.886788E3,1.9130859E0,1.4174261E3,0E0,7.054016E0,9.781761E2,0E0,0E0,0E0,0E0,0E0],"parents":[2147483647,0,0,1,1,2,2,4,4,5,5],"right_children":[2,4,6,-1,8,10,-1,-1,-1,-1,-1],"split_conditions":[1E0,1.54E2,1E0,-1.1324147E-2,1.58E2,2.8E1,-1.1470778E-2,-6.8641547E-3,-1.1193983E-2,-6.3876063E-3,2.3773627E-3],"split_indices":[6,8,4,0,8,1,0,0,0,0,0],"split_type":[0,0,0,0,0,0,0,0,0,0,0],"sum_hessian":[1.0993983E4,2.3434111E3,8.650572E3,2.1299182E3,2.1349289E2,7.5082407E3,1.1423318E3,5.8314014E1,1.5517888E2,1.6237598E3,5.884481E3],"tree_param":{"num_deleted":"0","num_feature":"10","num_nodes":"11","size_leaf_vector":"1"}},{"base_weights":[-3.2305232E-1,-1.1191571E0,-1.0883682E-1,-1.1304188E-2,-1.0021368E0,4.7626622E-2,-1.1451915E-2,-6.82893E-3,-1.1173215E-2,-6.3519604E-3,2.3501304E-3],"categories":[],"categories_nodes":[],"categories_segments":[],"categories_sizes":[],"default_left":[0,0,0,0,0,0,0,0,0,0,0],"id":29,"left_children":[1,3,5,-1,7,9,-1,-1,-1,-1,-1],"loss_changes":[1.8703219E3,1.9318848E0,1.4016146E3,0E0,7.0678253E0,9.611553E2,0E0,0E0,0E0,0E0,0E0],"parents":[2147483647,0,0,1,1,2,2,4,4,5,5],"right_children":[2,4,6,-1,8,10,-1,-1,-1,-1,-1],"split_conditions":[1E0,1.54E2,1E0,-1.1304188E-2,1.58E2,2.8E1,-1.1451915E-2,-6.82893E-3,-1.1173215E-2,-6.3519604E-3,2.3501304E-3],"split_indices":[6,8,4,0,8,1,0,0,0,0,0],"split_type":[0,0,0,0,0,0,0,0,0,0,0],"sum_hessian":[1.0966902E4,2.3243875E3,8.642516E3,2.1124314E3,2.1195601E2,7.5096943E3,1.1328206E3,5.8035213E1,1.5392079E2,1.6165851E3,5.8931094E3],"tree_param":{"num_deleted":"0","num_feature":"10","num_nodes":"11","size_leaf_vector":"1"}},{"base_weights":[-3.206311E-1,-1.1171043E0,-1.0786057E-1,-1.1284439E-2,-9.994024E-1,4.7136653E-2,-1.1433275E-2,-6.7938045E-3,-1.1152644E-2,-6.0444092E-3,2.4012583E-3],"categories":[],"categories_nodes":[],"categories_segments":[],"categories_sizes":[],"default_left":[0,0,0,0,0,0,0,0,0,0,0],"id":30,"left_children":[1,3,5,-1,7,9,-1,-1,-1,-1,-1],"loss_changes":[1.8540004E3,1.9509277E0,1.3860004E3,0E0,7.0817566E0,9.4477313E2,0E0,0E0,0E0,0E0,0E0],"parents":[2147483647,0,0,1,1,2,2,4,4,5,5],"right_children":[2,4,6,-1,8,10,-1,-1,-1,-1,-1],"split_conditions":[1E0,1.54E2,1E0,-1.1284439E-2,1.58E2,2.9E1,-1.1433275E-2,-6.7938045E-3,-1.1152644E-2,-6.0444092E-3,2.4012583E-3],"split_indices":[6,8,4,0,8,1,0,0,0,0,0],"split_type":[0,0,0,0,0,0,0,0,0,0,0],"sum_hessian":[1.093996E4,2.3054854E3,8.634475E3,2.095056E3,2.1042926E2,7.5111055E3,1.1233696E3,5.7758484E1,1.5267078E2,1.715851E3,5.7952544E3],"tree_param":{"num_deleted":"0","num_feature":"10","num_nodes":"11","size_leaf_vector":"1"}},{"base_weights":[-3.182262E-1,-1.1150712E0,-1.0689311E-1,-1.1264897E-2,-9.9668E-1,4.6652082E-2,-1.1414859E-2,-6.758776E-3,-1.1132267E-2,-6.282521E-3,2.2975872E-3],"categories":[],"categories_nodes":[],"categories_segments":[],"categories_sizes":[],"default_left":[0,0,0,0,0,0,0,0,0,0,0],"id":31,"left_children":[1,3,5,-1,7,9,-1,-1,-1,-1,-1],"loss_changes":[1.8378202E3,1.9697266E0,1.3705806E3,0E0,7.095886E0,9.2865393E2,0E0,0E0,0E0,0E0,0E0],"parents":[2147483647,0,0,1,1,2,2,4,4,5,5],"right_children":[2,4,6,-1,8,10,-1,-1,-1,-1,-1],"split_conditions":[1E0,1.54E2,1E0,-1.1264897E-2,1.58E2,2.8E1,-1.1414859E-2,-6.758776E-3,-1.1132267E-2,-6.282521E-3,2.2975872E-3],"split_indices":[6,8,4,0,8,1,0,0,0,0,0],"split_type":[0,0,0,0,0,0,0,0,0,0,0],"sum_hessian":[1.0913146E4,2.2867043E3,8.626442E3,2.0777917E3,2.0891258E2,7.5124634E3,1.113979E3,5.7483807E1,1.5142879E2,1.6027032E3,5.9097603E3],"tree_param":{"num_deleted":"0","num_feature":"10","num_nodes":"11","size_leaf_vector":"1"}},{"base_weights":[-3.158368E-1,-1.1130574E0,-1.05933994E-1,-1.1245558E-2,-9.939695E-1,4.617266E-2,-1.139666E-2,-6.723845E-3,-1.1112081E-2,-6.2471945E-3,2.2713921E-3],"categories":[],"categories_nodes":[],"categories_segments":[],"categories_sizes":[],"default_left":[0,0,0,0,0,0,0,0,0,0,0],"id":32,"left_children":[1,3,5,-1,7,9,-1,-1,-1,-1,-1],"loss_changes":[1.8217819E3,1.9890137E0,1.3553522E3,0E0,7.1101837E0,9.1250586E2,0E0,0E0,0E0,0E0,0E0],"parents":[2147483647,0,0,1,1,2,2,4,4,5,5],"right_children":[2,4,6,-1,8,10,-1,-1,-1,-1,-1],"split_conditions":[1E0,1.54E2,1E0,-1.1245558E-2,1.58E2,2.8E1,-1.139666E-2,-6.723845E-3,-1.1112081E-2,-6.2471945E-3,2.2713921E-3],"split_indices":[6,8,4,0,8,1,0,0,0,0,0],"split_type":[0,0,0,0,0,0,0,0,0,0,0],"sum_hessian":[1.0886488E4,2.268045E3,8.618443E3,2.060639E3,2.07406E2,7.5137944E3,1.1046487E3,5.7211178E1,1.5019484E2,1.5956893E3,5.9181055E3],"tree_param":{"num_deleted":"0","num_feature":"10","num_nodes":"11","size_leaf_vector":"1"}},{"base_weights":[-3.1346318E-1,-1.1110623E0,-1.0498342E-1,-1.1226416E-2,-9.9127036E-1,4.5698322E-2,-1.1378673E-2,-6.68901E-3,-1.1092081E-2,-5.9426306E-3,2.3214763E-3],"categories":[],"categories_nodes":[],"categories_segments":[],"categories_sizes":[],"default_left":[0,0,0,0,0,0,0,0,0,0,0],"id":33,"left_children":[1,3,5,-1,7,9,-1,-1,-1,-1,-1],"loss_changes":[1.8058816E3,2.008789E0,1.3403125E3,0E0,7.124649E0,8.9696014E2,0E0,0E0,0E0,0E0,0E0],"parents":[2147483647,0,0,1,1,2,2,4,4,5,5],"right_children":[2,4,6,-1,8,10,-1,-1,-1,-1,-1],"split_conditions":[1E0,1.54E2,1E0,-1.1226416E-2,1.58E2,2.9E1,-1.1378673E-2,-6.68901E-3,-1.1092081E-2,-5.9426306E-3,2.3214763E-3],"split_indices":[6,8,4,0,8,1,0,0,0,0,0],"split_type":[0,0,0,0,0,0,0,0,0,0,0],"sum_hessian":[1.0859974E4,2.2495076E3,8.610466E3,2.043598E3,2.0590953E2,7.515087E3,1.0953789E3,5.6940594E1,1.4896893E2,1.6950107E3,5.820076E3],"tree_param":{"num_deleted":"0","num_feature":"10","num_nodes":"11","size_leaf_vector":"1"}},{"base_weights":[-3.1110546E-1,-1.1090858E0,-1.04041256E-1,-1.120747E-2,-9.885825E-1,4.52293E-2,-1.1360898E-2,-6.6542733E-3,-1.1072266E-2,-6.178389E-3,2.2208467E-3],"categories":[],"categories_nodes":[],"categories_segments":[],"categories_sizes":[],"default_left":[0,0,0,0,0,0,0,0,0,0,0],"id":34,"left_children":[1,3,5,-1,7,9,-1,-1,-1,-1,-1],"loss_changes":[1.7901182E3,2.0285645E0,1.3254587E3,0E0,7.139221E0,8.816731E2,0E0,0E0,0E0,0E0,0E0],"parents":[2147483647,0,0,1,1,2,2,4,4,5,5],"right_children":[2,4,6,-1,8,10,-1,-1,-1,-1,-1],"split_conditions":[1E0,1.54E2,1E0,-1.120747E-2,1.58E2,2.8E1,-1.1360898E-2,-6.6542733E-3,-1.1072266E-2,-6.178389E-3,2.2208467E-3],"split_indices":[6,8,4,0,8,1,0,0,0,0,0],"split_type":[0,0,0,0,0,0,0,0,0,0,0],"sum_hessian":[1.083359E4,2.231092E3,8.602498E3,2.0266688E3,2.0442313E2,7.516328E3,1.0861696E3,5.6672043E1,1.4775108E2,1.5821227E3,5.9342056E3],"tree_param":{"num_deleted":"0","num_feature":"10","num_nodes":"11","size_leaf_vector":"1"}},{"base_weights":[-3.0876282E-1,-1.1071274E0,-1.0310717E-1,-1.1188716E-2,-9.859053E-1,4.4765294E-2,-1.1343328E-2,-6.61963E-3,-1.1052628E-2,-6.143378E-3,2.1956416E-3],"categories":[],"categories_nodes":[],"categories_segments":[],"categories_sizes":[],"default_left":[0,0,0,0,0,0,0,0,0,0,0],"id":35,"left_children":[1,3,5,-1,7,9,-1,-1,-1,-1,-1],"loss_changes":[1.7744912E3,2.0488281E0,1.3107877E3,0E0,7.153946E0,8.663501E2,0E0,0E0,0E0,0E0,0E0],"parents":[2147483647,0,0,1,1,2,2,4,4,5,5],"right_children":[2,4,6,-1,8,10,-1,-1,-1,-1,-1],"split_conditions":[1E0,1.54E2,1E0,-1.1188716E-2,1.58E2,2.8E1,-1.1343328E-2,-6.61963E-3,-1.1052628E-2,-6.143378E-3,2.1956416E-3],"split_indices":[6,8,4,0,8,1,0,0,0,0,0],"split_type":[0,0,0,0,0,0,0,0,0,0,0],"sum_hessian":[1.0807364E4,2.212798E3,8.594565E3,2.0098512E3,2.0294681E2,7.517545E3,1.0770206E3,5.640552E1,1.4654129E2,1.5752677E3,5.9422773E3],"tree_param":{"num_deleted":"0","num_feature":"10","num_nodes":"11","size_leaf_vector":"1"}},{"base_weights":[-3.0643556E-1,-1.1051867E0,-1.0218134E-1,-1.1170147E-2,-9.832386E-1,4.430623E-2,-1.1325965E-2,-6.585081E-3,-1.1033167E-2,-5.841848E-3,2.2447119E-3],"categories":[],"categories_nodes":[],"categories_segments":[],"categories_sizes":[],"default_left":[0,0,0,0,0,0,0,0,0,0,0],"id":36,"left_children":[1,3,5,-1,7,9,-1,-1,-1,-1,-1],"loss_changes":[1.7589983E3,2.0686035E0,1.296297E3,0E0,7.1687927E0,8.516051E2,0E0,0E0,0E0,0E0,0E0],"parents":[2147483647,0,0,1,1,2,2,4,4,5,5],"right_children":[2,4,6,-1,8,10,-1,-1,-1,-1,-1],"split_conditions":[1E0,1.54E2,1E0,-1.1170147E-2,1.58E2,2.9E1,-1.1325965E-2,-6.585081E-3,-1.1033167E-2,-5.841848E-3,2.2447119E-3],"split_indices":[6,8,4,0,8,1,0,0,0,0,0],"split_type":[0,0,0,0,0,0,0,0,0,0,0],"sum_hessian":[1.0781283E4,2.194626E3,8.586657E3,1.9931455E3,2.0148058E2,7.518725E3,1.0679323E3,5.6141014E1,1.4533955E2,1.6746388E3,5.844086E3],"tree_param":{"num_deleted":"0","num_feature":"10","num_nodes":"11","size_leaf_vector":"1"}},{"base_weights":[-3.0412376E-1,-1.1032635E0,-1.01263665E-1,-1.11517655E-2,-9.8058206E-1,4.385226E-2,-1.1308799E-2,-6.550626E-3,-1.1013879E-2,-5.1576607E-3,2.4319568E-3],"categories":[],"categories_nodes":[],"categories_segments":[],"categories_sizes":[],"default_left":[0,0,0,0,0,0,0,0,0,0,0],"id":37,"left_children":[1,3,5,-1,7,9,-1,-1,-1,-1,-1],"loss_changes":[1.7436371E3,2.088623E0,1.2819838E3,0E0,7.1837616E0,8.391241E2,0E0,0E0,0E0,0E0,0E0],"parents":[2147483647,0,0,1,1,2,2,4,4,5,5],"right_children":[2,4,6,-1,8,10,-1,-1,-1,-1,-1],"split_conditions":[1E0,1.54E2,1E0,-1.11517655E-2,1.58E2,1E0,-1.1308799E-2,-6.550626E-3,-1.1013879E-2,-5.1576607E-3,2.4319568E-3],"split_indices":[6,8,4,0,8,5,0,0,0,0,0],"split_type":[0,0,0,0,0,0,0,0,0,0,0],"sum_hessian":[1.0755339E4,2.1765757E3,8.578763E3,1.9765514E3,2.0002438E2,7.5198584E3,1.0589047E3,5.5878513E1,1.4414586E2,1.9746948E3,5.5451636E3],"tree_param":{"num_deleted":"0","num_feature":"10","num_nodes":"11","size_leaf_vector":"1"}},{"base_weights":[-3.018191E-1,-1.1013575E0,-1.0035064E-1,-1.1133566E-2,-9.7793543E-1,4.340161E-2,-1.1291832E-2,-6.516265E-3,-1.099476E-2,-6.052128E-3,2.128751E-3],"categories":[],"categories_nodes":[],"categories_segments":[],"categories_sizes":[],"default_left":[0,0,0,0,0,0,0,0,0,0,0],"id":38,"left_children":[1,3,5,-1,7,9,-1,-1,-1,-1,-1],"loss_changes":[1.7284292E3,2.1096191E0,1.2678479E3,0E0,7.1987915E0,8.269954E2,0E0,0E0,0E0,0E0,0E0],"parents":[2147483647,0,0,1,1,2,2,4,4,5,5],"right_children":[2,4,6,-1,8,10,-1,-1,-1,-1,-1],"split_conditions":[1E0,1.54E2,1E0,-1.1133566E-2,1.58E2,2.8E1,-1.1291832E-2,-6.516265E-3,-1.099476E-2,-6.052128E-3,2.128751E-3],"split_indices":[6,8,4,0,8,1,0,0,0,0,0],"split_type":[0,0,0,0,0,0,0,0,0,0,0],"sum_hessian":[1.0729822E4,2.1586472E3,8.571175E3,1.960069E3,1.9857826E2,7.5212383E3,1.0499371E3,5.5618015E1,1.4296025E2,1.5575524E3,5.9636855E3],"tree_param":{"num_deleted":"0","num_feature":"10","num_nodes":"11","size_leaf_vector":"1"}},{"base_weights":[-2.9953697E-1,-1.0994681E0,-9.944883E-2,-1.1115543E-2,-9.7529835E-1,4.2957213E-2,-1.1275057E-2,-6.481997E-3,-1.0975809E-2,-5.1028137E-3,2.3835732E-3],"categories":[],"categories_nodes":[],"categories_segments":[],"categories_sizes":[],"default_left":[0,0,0,0,0,0,0,0,0,0,0],"id":39,"left_children":[1,3,5,-1,7,9,-1,-1,-1,-1,-1],"loss_changes":[1.7133281E3,2.130371E0,1.2538818E3,0E0,7.213913E0,8.1341394E2,0E0,0E0,0E0,0E0,0E0],"parents":[2147483647,0,0,1,1,2,2,4,4,5,5],"right_children":[2,4,6,-1,8,10,-1,-1,-1,-1,-1],"split_conditions":[1E0,1.54E2,1E0,-1.1115543E-2,1.58E2,1E0,-1.1275057E-2,-6.481997E-3,-1.0975809E-2,-5.1028137E-3,2.3835732E-3],"split_indices":[6,8,4,0,8,5,0,0,0,0,0],"split_type":[0,0,0,0,0,0,0,0,0,0,0],"sum_hessian":[1.0704188E4,2.1408403E3,8.563348E3,1.9436981E3,1.9714218E2,7.522318E3,1.0410304E3,5.5359528E1,1.4178265E2,1.9629586E3,5.5593594E3],"tree_param":{"num_deleted":"0","num_feature":"10","num_nodes":"11","size_leaf_vector":"1"}},{"base_weights":[-2.9726225E-1,-1.0975953E0,-9.855174E-2,-1.1097695E-2,-9.7267056E-1,4.2516183E-2,-1.1258472E-2,-6.447821E-3,-1.0957019E-2,-5.994594E-3,2.0868995E-3],"categories":[],"categories_nodes":[],"categories_segments":[],"categories_sizes":[],"default_left":[0,0,0,0,0,0,0,0,0,0,0],"id":40,"left_children":[1,3,5,-1,7,9,-1,-1,-1,-1,-1],"loss_changes":[1.6983762E3,2.151123E0,1.2400881E3,0E0,7.229141E0,8.028489E2,0E0,0E0,0E0,0E0,0E0],"parents":[2147483647,0,0,1,1,2,2,4,4,5,5],"right_children":[2,4,6,-1,8,10,-1,-1,-1,-1,-1],"split_conditions":[1E0,1.54E2,1E0,-1.1097695E-2,1.58E2,2.8E1,-1.1258472E-2,-6.447821E-3,-1.0957019E-2,-5.994594E-3,2.0868995E-3],"split_indices":[6,8,4,0,8,1,0,0,0,0,0],"split_type":[0,0,0,0,0,0,0,0,0,0,0],"sum_hessian":[1.0678969E4,2.123155E3,8.555813E3,1.927439E3,1.9571611E2,7.52363E3,1.0321841E3,5.510301E1,1.406131E2,1.5464921E3,5.9771377E3],"tree_param":{"num_deleted":"0","num_feature":"10","num_nodes":"11","size_leaf_vector":"1"}},{"base_weights":[-2.950097E-1,-1.0957386E0,-9.766556E-2,-1.1080018E-2,-9.7005177E-1,4.2081274E-2,-1.1242076E-2,-6.4137387E-3,-1.0938389E-2,-5.9601413E-3,2.063402E-3],"categories":[],"categories_nodes":[],"categories_segments":[],"categories_sizes":[],"default_left":[0,0,0,0,0,0,0,0,0,0,0],"id":41,"left_children":[1,3,5,-1,7,9,-1,-1,-1,-1,-1],"loss_changes":[1.6835295E3,2.1721191E0,1.226459E3,0E0,7.2444305E0,7.8890753E2,0E0,0E0,0E0,0E0,0E0],"parents":[2147483647,0,0,1,1,2,2,4,4,5,5],"right_children":[2,4,6,-1,8,10,-1,-1,-1,-1,-1],"split_conditions":[1E0,1.54E2,1E0,-1.1080018E-2,1.58E2,2.8E1,-1.1242076E-2,-6.4137387E-3,-1.0938389E-2,-5.9601413E-3,2.063402E-3],"split_indices":[6,8,4,0,8,1,0,0,0,0,0],"split_type":[0,0,0,0,0,0,0,0,0,0,0],"sum_hessian":[1.0653636E4,2.1055916E3,8.548044E3,1.9112914E3,1.9430008E2,7.5246465E3,1.023398E3,5.484847E1,1.3945161E2,1.5399163E3,5.98473E3],"tree_param":{"num_deleted":"0","num_feature":"10","num_nodes":"11","size_leaf_vector":"1"}},{"base_weights":[-2.9277188E-1,-1.0938976E0,-9.678731E-2,-1.1062509E-2,-9.674416E-1,4.1650783E-2,-1.1225863E-2,-6.379747E-3,-1.09199155E-2,-5.0273472E-3,2.3165422E-3],"categories":[],"categories_nodes":[],"categories_segments":[],"categories_sizes":[],"default_left":[0,0,0,0,0,0,0,0,0,0,0],"id":42,"left_children":[1,3,5,-1,7,9,-1,-1,-1,-1,-1],"loss_changes":[1.6688065E3,2.1931152E0,1.2129945E3,0E0,7.259796E0,7.786345E2,0E0,0E0,0E0,0E0,0E0],"parents":[2147483647,0,0,1,1,2,2,4,4,5,5],"right_children":[2,4,6,-1,8,10,-1,-1,-1,-1,-1],"split_conditions":[1E0,1.54E2,1E0,-1.1062509E-2,1.58E2,1E0,-1.1225863E-2,-6.379747E-3,-1.09199155E-2,-5.0273472E-3,2.3165422E-3],"split_indices":[6,8,4,0,8,5,0,0,0,0,0],"split_type":[0,0,0,0,0,0,0,0,0,0,0],"sum_hessian":[1.0628453E4,2.088149E3,8.540304E3,1.895255E3,1.9289401E2,7.525632E3,1.0146724E3,5.45959E1,1.3829811E2,1.9466296E3,5.579002E3],"tree_param":{"num_deleted":"0","num_feature":"10","num_nodes":"11","size_leaf_vector":"1"}},{"base_weights":[-2.9054114E-1,-1.0920721E0,-9.591343E-2,-1.1045166E-2,-9.648399E-1,4.122381E-2,-1.1209831E-2,-6.3458453E-3,-1.0901594E-2,-5.903072E-3,2.0229928E-3],"categories":[],"categories_nodes":[],"categories_segments":[],"categories_sizes":[],"default_left":[0,0,0,0,0,0,0,0,0,0,0],"id":43,"left_children":[1,3,5,-1,7,9,-1,-1,-1,-1,-1],"loss_changes":[1.6542273E3,2.2148438E0,1.199695E3,0E0,7.2751923E0,7.658835E2,0E0,0E0,0E0,0E0,0E0],"parents":[2147483647,0,0,1,1,2,2,4,4,5,5],"right_children":[2,4,6,-1,8,10,-1,-1,-1,-1,-1],"split_conditions":[1E0,1.54E2,1E0,-1.1045166E-2,1.58E2,2.8E1,-1.1209831E-2,-6.3458453E-3,-1.0901594E-2,-5.903072E-3,2.0229928E-3],"split_indices":[6,8,4,0,8,1,0,0,0,0,0],"split_type":[0,0,0,0,0,0,0,0,0,0,0],"sum_hessian":[1.0603684E4,2.070828E3,8.532855E3,1.8793298E3,1.9149792E2,7.5268486E3,1.006007E3,5.434529E1,1.3715263E2,1.5290834E3,5.997765E3],"tree_param":{"num_deleted":"0","num_feature":"10","num_nodes":"11","size_leaf_vector":"1"}},{"base_weights":[-2.8833222E-1,-1.0902619E0,-9.505039E-2,-1.1027987E-2,-9.6224636E-1,4.0802486E-2,-1.1193979E-2,-6.3120364E-3,-1.0883425E-2,-4.973451E-3,2.2708268E-3],"categories":[],"categories_nodes":[],"categories_segments":[],"categories_sizes":[],"default_left":[0,0,0,0,0,0,0,0,0,0,0],"id":44,"left_children":[1,3,5,-1,7,9,-1,-1,-1,-1,-1],"loss_changes":[1.6397495E3,2.2363281E0,1.1865531E3,0E0,7.2906647E0,7.548443E2,0E0,0E0,0E0,0E0,0E0],"parents":[2147483647,0,0,1,1,2,2,4,4,5,5],"right_children":[2,4,6,-1,8,10,-1,-1,-1,-1,-1],"split_conditions":[1E0,1.54E2,1E0,-1.1027987E-2,1.58E2,1E0,-1.1193979E-2,-6.3120364E-3,-1.0883425E-2,-4.973451E-3,2.2708268E-3],"split_indices":[6,8,4,0,8,5,0,0,0,0,0],"split_type":[0,0,0,0,0,0,0,0,0,0,0],"sum_hessian":[1.0578804E4,2.0536274E3,8.525177E3,1.8635157E3,1.901118E2,7.5277744E3,9.97402E2,5.409663E1,1.3601517E2,1.9352712E3,5.5925034E3],"tree_param":{"num_deleted":"0","num_feature":"10","num_nodes":"11","size_leaf_vector":"1"}},{"base_weights":[-2.861304E-1,-1.0884665E0,-9.419167E-2,-1.1010966E-2,-9.596606E-1,4.038465E-2,-1.1178302E-2,-6.278316E-3,-1.0865402E-2,-5.846337E-3,1.9834957E-3],"categories":[],"categories_nodes":[],"categories_segments":[],"categories_sizes":[],"default_left":[0,0,0,0,0,0,0,0,0,0,0],"id":45,"left_children":[1,3,5,-1,7,9,-1,-1,-1,-1,-1],"loss_changes":[1.6254124E3,2.2583008E0,1.1735719E3,0E0,7.3061523E0,7.4355316E2,0E0,0E0,0E0,0E0,0E0],"parents":[2147483647,0,0,1,1,2,2,4,4,5,5],"right_children":[2,4,6,-1,8,10,-1,-1,-1,-1,-1],"split_conditions":[1E0,1.54E2,1E0,-1.1010966E-2,1.58E2,2.8E1,-1.1178302E-2,-6.278316E-3,-1.0865402E-2,-5.846337E-3,1.9834957E-3],"split_indices":[6,8,4,0,8,1,0,0,0,0,0],"split_type":[0,0,0,0,0,0,0,0,0,0,0],"sum_hessian":[1.0554334E4,2.0365482E3,8.517785E3,1.8478126E3,1.887356E2,7.528928E3,9.888571E2,5.3849907E1,1.3488568E2,1.5183976E3,6.010531E3],"tree_param":{"num_deleted":"0","num_feature":"10","num_nodes":"11","size_leaf_vector":"1"}},{"base_weights":[-2.8395006E-1,-1.0866858E0,-9.334365E-2,-1.0994102E-2,-9.570826E-1,3.9972156E-2,-1.1162796E-2,-6.244688E-3,-1.0847526E-2,-4.9199173E-3,2.2261394E-3],"categories":[],"categories_nodes":[],"categories_segments":[],"categories_sizes":[],"default_left":[0,0,0,0,0,0,0,0,0,0,0],"id":46,"left_children":[1,3,5,-1,7,9,-1,-1,-1,-1,-1],"loss_changes":[1.6111741E3,2.2797852E0,1.160743E3,0E0,7.3216705E0,7.317931E2,0E0,0E0,0E0,0E0,0E0],"parents":[2147483647,0,0,1,1,2,2,4,4,5,5],"right_children":[2,4,6,-1,8,10,-1,-1,-1,-1,-1],"split_conditions":[1E0,1.54E2,1E0,-1.0994102E-2,1.58E2,1E0,-1.1162796E-2,-6.244688E-3,-1.0847526E-2,-4.9199173E-3,2.2261394E-3],"split_indices":[6,8,4,0,8,5,0,0,0,0,0],"split_type":[0,0,0,0,0,0,0,0,0,0,0],"sum_hessian":[1.052976E4,2.0195898E3,8.51017E3,1.8322205E3,1.8736931E2,7.529798E3,9.803723E2,5.3605118E1,1.3376419E2,1.924063E3,5.605735E3],"tree_param":{"num_deleted":"0","num_feature":"10","num_nodes":"11","size_leaf_vector":"1"}},{"base_weights":[-2.817768E-1,-1.0849192E0,-9.2499934E-2,-1.0977389E-2,-9.545118E-1,3.956306E-2,-1.1147461E-2,-6.211149E-3,-1.0829789E-2,-5.7899323E-3,1.9448816E-3],"categories":[],"categories_nodes":[],"categories_segments":[],"categories_sizes":[],"default_left":[0,0,0,0,0,0,0,0,0,0,0],"id":47,"left_children":[1,3,5,-1,7,9,-1,-1,-1,-1,-1],"loss_changes":[1.5970725E3,2.302002E0,1.14807E3,0E0,7.337204E0,7.2189307E2,0E0,0E0,0E0,0E0,0E0],"parents":[2147483647,0,0,1,1,2,2,4,4,5,5],"right_children":[2,4,6,-1,8,10,-1,-1,-1,-1,-1],"split_conditions":[1E0,1.54E2,1E0,-1.0977389E-2,1.58E2,2.8E1,-1.1147461E-2,-6.211149E-3,-1.0829789E-2,-5.7899323E-3,1.9448816E-3],"split_indices":[6,8,4,0,8,1,0,0,0,0,0],"split_type":[0,0,0,0,0,0,0,0,0,0,0],"sum_hessian":[1.0505591E4,2.0027516E3,8.502839E3,1.8167388E3,1.860129E2,7.5308916E3,9.719474E2,5.336225E1,1.3265063E2,1.507858E3,6.0230337E3],"tree_param":{"num_deleted":"0","num_feature":"10","num_nodes":"11","size_leaf_vector":"1"}},{"base_weights":[-2.796244E-1,-1.0831668E0,-9.166644E-2,-1.096083E-2,-9.5194817E-1,3.915945E-2,-1.1132292E-2,-6.1776987E-3,-1.081219E-2,-4.8667453E-3,2.1824527E-3],"categories":[],"categories_nodes":[],"categories_segments":[],"categories_sizes":[],"default_left":[0,0,0,0,0,0,0,0,0,0,0],"id":48,"left_children":[1,3,5,-1,7,9,-1,-1,-1,-1,-1],"loss_changes":[1.5830688E3,2.324463E0,1.1355461E3,0E0,7.3527374E0,7.0945685E2,0E0,0E0,0E0,0E0,0E0],"parents":[2147483647,0,0,1,1,2,2,4,4,5,5],"right_children":[2,4,6,-1,8,10,-1,-1,-1,-1,-1],"split_conditions":[1E0,1.54E2,1E0,-1.096083E-2,1.58E2,1E0,-1.1132292E-2,-6.1776987E-3,-1.081219E-2,-4.8667453E-3,2.1824527E-3],"split_indices":[6,8,4,0,8,5,0,0,0,0,0],"split_type":[0,0,0,0,0,0,0,0,0,0,0],"sum_hessian":[1.0481323E4,1.9860333E3,8.49529E3,1.801367E3,1.8466635E2,7.531707E3,9.6358234E2,5.31213E1,1.3154506E2,1.913004E3,5.618703E3],"tree_param":{"num_deleted":"0","num_feature":"10","num_nodes":"11","size_leaf_vector":"1"}},{"base_weights":[-2.7747926E-1,-1.081428E0,-9.0837374E-2,-1.0944416E-2,-9.493914E-1,3.8758993E-2,-1.1117289E-2,-6.1443406E-3,-1.0794729E-2,-5.7338583E-3,1.907131E-3],"categories":[],"categories_nodes":[],"categories_segments":[],"categories_sizes":[],"default_left":[0,0,0,0,0,0,0,0,0,0,0],"id":49,"left_children":[1,3,5,-1,7,9,-1,-1,-1,-1,-1],"loss_changes":[1.5691984E3,2.3469238E0,1.1231731E3,0E0,7.3683014E0,7.008825E2,0E0,0E0,0E0,0E0,0E0],"parents":[2147483647,0,0,1,1,2,2,4,4,5,5],"right_children":[2,4,6,-1,8,10,-1,-1,-1,-1,-1],"split_conditions":[1E0,1.54E2,1E0,-1.0944416E-2,1.58E2,2.8E1,-1.1117289E-2,-6.1443406E-3,-1.0794729E-2,-5.7338583E-3,1.907131E-3],"split_indices":[6,8,4,0,8,1,0,0,0,0,0],"split_type":[0,0,0,0,0,0,0,0,0,0,0],"sum_hessian":[1.0457455E4,1.9694354E3,8.4880205E3,1.7861057E3,1.8332962E2,7.532743E3,9.5527686E2,5.2882248E1,1.3044737E2,1.497463E3,6.0352803E3],"tree_param":{"num_deleted":"0","num_feature":"10","num_nodes":"11","size_leaf_vector":"1"}}]},"name":"gbtree"},"learner_model_param":{"base_score":"1.7988896E-1","boost_from_average":"1","num_class":"0","num_feature":"10","num_target":"1"},"objective":{"name":"binary:logistic","reg_loss_param":{"scale_pos_weight":"1"}}},"version":[2,0,3]}