{"learner":{"attributes":{"scikit_learn":"{\"_estimator_type\": \"classifier\"}"},"feature_names":["Gender","Age","HasDrivingLicense","RegionID","Switch","VehicleAge","PastAccident","AnnualPremium","SalesChannelID","DaysSinceCreated"],"feature_types":["int","float","float","float","int","int","int","float","int","int"],"gradient_booster":{"model":{"gbtree_model_param":{"num_parallel_tree":"1","num_trees":"50"},"iteration_indptr":[0,1,2,3,4,5,6,7,8,9,10,11,12,13,14,15,16,17,18,19,20,21,22,23,24,25,26,27,28,29,30,31,32,33,34,35,36,37,38,39,40,41,42,43,44,45,46,47,48,49,50],"tree_info":[0,0,0,0,0,0,0,0,0,0,0,0,0,0,0,0,0,0,0,0,0,0,0,0,0,0,0,0,0,0,0,0,0,0,0,0,0,0,0,0,0,0,0,0,0,0,0,0,0,0],"trees":[{"base_weights":[-8.155028E-8,-1.8747747E0,3.1744516E-1,-1.9136302E0,-1.5094926E0,5.195277E-1,-1.9659818E0,-1.854138E-2,-1.9911962E-2,-7.005485E-3,-1.8855525E-2,-5.7500373E-3,7.326593E-3,-1.9688576E-2,-9.76445E-3],"categories":[],"categories_nodes":[],"categories_segments":[],"categories_sizes":[],"default_left":[0,0,0,0,0,0,0,0,0,0,0,0,0,0,0],"id":0,"left_children":[1,3,5,7,9,11,13,-1,-1,-1,-1,-1,-1,-1,-1],"loss_changes":[2.0928074E4,6.9384766E1,1.3877916E4,1.7527344E1,1.4905383E2,6.4456235E3,5.036133E0,0E0,0E0,0E0,0E0,0E0,0E0,0E0,0E0],"parents":[2147483647,0,0,1,1,2,2,3,3,4,4,5,5,6,6],"right_children":[2,4,6,8,10,12,14,-1,-1,-1,-1,-1,-1,-1,-1],"split_conditions":[1E0,1.54E2,1E0,1E0,1.58E2,2.8E1,1.63E2,-1.854138E-2,-1.9911962E-2,-7.005485E-3,-1.8855525E-2,-5.7500373E-3,7.326593E-3,-1.9688576E-2,-9.76445E-3],"split_indices":[6,8,4,4,8,1,8,0,0,0,0,0,0,0,0],"split_type":[0,0,0,0,0,0,0,0,0,0,0,0,0,0,0],"sum_hessian":[3.516306E4,5.09109E3,3.007197E4,4.59778E3,4.9331E2,2.7627701E4,2.44427E3,2.61614E3,1.98164E3,1.5746E2,3.3585E2,4.50267E3,2.3125031E4,2.4362E3,8.07E0],"tree_param":{"num_deleted":"0","num_feature":"10","num_nodes":"15","size_leaf_vector":"1"}},{"base_weights":[-2.832029E-6,-1.8562132E0,3.142756E-1,-1.8946846E0,-1.4945517E0,5.143384E-1,-1.9465315E0,-1.8357696E-2,-1.9714992E-2,-6.9359667E-3,-1.8669272E-2,-5.692604E-3,7.253416E-3,-1.9493753E-2,-9.677798E-3],"categories":[],"categories_nodes":[],"categories_segments":[],"categories_sizes":[],"default_left":[0,0,0,0,0,0,0,0,0,0,0,0,0,0,0],"id":1,"left_children":[1,3,5,7,9,11,13,-1,-1,-1,-1,-1,-1,-1,-1],"loss_changes":[2.0513527E4,6.801172E1,1.360285E4,1.7189453E1,1.461261E2,6.317446E3,4.919922E0,0E0,0E0,0E0,0E0,0E0,0E0,0E0,0E0],"parents":[2147483647,0,0,1,1,2,2,3,3,4,4,5,5,6,6],"right_children":[2,4,6,8,10,12,14,-1,-1,-1,-1,-1,-1,-1,-1],"split_conditions":[1E0,1.54E2,1E0,1E0,1.58E2,2.8E1,1.63E2,-1.8357696E-2,-1.9714992E-2,-6.9359667E-3,-1.8669272E-2,-5.692604E-3,7.253416E-3,-1.9493753E-2,-9.677798E-3],"split_indices":[6,8,4,4,8,1,8,0,0,0,0,0,0,0,0],"split_type":[0,0,0,0,0,0,0,0,0,0,0,0,0,0,0],"sum_hessian":[3.5162023E4,5.090615E3,3.0071408E4,4.597339E3,4.9327652E2,2.7627385E4,2.4440227E3,2.6159043E3,1.9814347E3,1.5745781E2,3.358187E2,4.502627E3,2.3124758E4,2.435953E3,8.069789E0],"tree_param":{"num_deleted":"0","num_feature":"10","num_nodes":"15","size_leaf_vector":"1"}},{"base_weights":[-5.9061545E-6,-1.8381577E0,3.111494E-1,-1.8762652E0,-1.4799463E0,5.092134E-1,-1.9276407E0,-1.8178908E-2,-1.952378E-2,-6.8673044E-3,-1.8488083E-2,-5.6358348E-3,7.1811583E-3,-1.9304544E-2,-9.592313E-3],"categories":[],"categories_nodes":[],"categories_segments":[],"categories_sizes":[],"default_left":[0,0,0,0,0,0,0,0,0,0,0,0,0,0,0],"id":2,"left_children":[1,3,5,7,9,11,13,-1,-1,-1,-1,-1,-1,-1,-1],"loss_changes":[2.011033E4,6.670703E1,1.3335046E4,1.6875977E1,1.4332141E2,6.191976E3,4.8095703E0,0E0,0E0,0E0,0E0,0E0,0E0,0E0,0E0],"parents":[2147483647,0,0,1,1,2,2,3,3,4,4,5,5,6,6],"right_children":[2,4,6,8,10,12,14,-1,-1,-1,-1,-1,-1,-1,-1],"split_conditions":[1E0,1.54E2,1E0,1E0,1.58E2,2.8E1,1.63E2,-1.8178908E-2,-1.952378E-2,-6.8673044E-3,-1.8488083E-2,-5.6358348E-3,7.1811583E-3,-1.9304544E-2,-9.592313E-3],"split_indices":[6,8,4,4,8,1,8,0,0,0,0,0,0,0,0],"split_type":[0,0,0,0,0,0,0,0,0,0,0,0,0,0,0],"sum_hessian":[3.5158953E4,5.089253E3,3.0069701E4,4.5960723E3,4.9318076E2,2.7626387E4,2.4433127E3,2.615228E3,1.9808444E3,1.5745186E2,3.357289E2,4.502511E3,2.3123877E4,2.4352434E3,8.069202E0],"tree_param":{"num_deleted":"0","num_feature":"10","num_nodes":"15","size_leaf_vector":"1"}},{"base_weights":[-9.062079E-6,-1.8205873E0,3.0806574E-1,-1.8583502E0,-1.4656637E0,5.041519E-1,-1.9092853E0,-1.800482E-2,-1.9338084E-2,-6.7994827E-3,-1.8311752E-2,-5.5797235E-3,7.1098064E-3,-1.9120706E-2,-9.507975E-3],"categories":[],"categories_nodes":[],"categories_segments":[],"categories_sizes":[],"default_left":[0,0,0,0,0,0,0,0,0,0,0,0,0,0,0],"id":3,"left_children":[1,3,5,7,9,11,13,-1,-1,-1,-1,-1,-1,-1,-1],"loss_changes":[1.9718047E4,6.54707E1,1.307423E4,1.6583984E1,1.4063293E2,6.069158E3,4.705078E0,0E0,0E0,0E0,0E0,0E0,0E0,0E0,0E0],"parents":[2147483647,0,0,1,1,2,2,3,3,4,4,5,5,6,6],"right_children":[2,4,6,8,10,12,14,-1,-1,-1,-1,-1,-1,-1,-1],"split_conditions":[1E0,1.54E2,1E0,1E0,1.58E2,2.8E1,1.63E2,-1.800482E-2,-1.9338084E-2,-6.7994827E-3,-1.8311752E-2,-5.5797235E-3,7.1098064E-3,-1.9120706E-2,-9.507975E-3],"split_indices":[6,8,4,4,8,1,8,0,0,0,0,0,0,0,0],"split_type":[0,0,0,0,0,0,0,0,0,0,0,0,0,0,0],"sum_hessian":[3.5153914E4,5.0870303E3,3.0066883E4,4.5940054E3,4.930247E2,2.7624729E4,2.4421538E3,2.6141243E3,1.9798811E3,1.5744221E2,3.355825E2,4.502324E3,2.3122404E4,2.4340857E3,8.068247E0],"tree_param":{"num_deleted":"0","num_feature":"10","num_nodes":"15","size_leaf_vector":"1"}},{"base_weights":[-1.25061615E-5,-1.8034828E0,3.050234E-1,-1.8409193E0,-1.4516922E0,4.9915215E-1,-1.8914443E0,-1.783524E-2,-1.9157678E-2,-6.732478E-3,-1.814009E-2,-5.524252E-3,7.039336E-3,-1.8942028E-2,-9.42475E-3],"categories":[],"categories_nodes":[],"categories_segments":[],"categories_sizes":[],"default_left":[0,0,0,0,0,0,0,0,0,0,0,0,0,0,0],"id":4,"left_children":[1,3,5,7,9,11,13,-1,-1,-1,-1,-1,-1,-1,-1],"loss_changes":[1.9336262E4,6.4296875E1,1.2820154E4,1.6311523E1,1.3805469E2,5.948917E3,4.6054688E0,0E0,0E0,0E0,0E0,0E0,0E0,0E0,0E0],"parents":[2147483647,0,0,1,1,2,2,3,3,4,4,5,5,6,6],"right_children":[2,4,6,8,10,12,14,-1,-1,-1,-1,-1,-1,-1,-1],"split_conditions":[1E0,1.54E2,1E0,1E0,1.58E2,2.8E1,1.63E2,-1.783524E-2,-1.9157678E-2,-6.732478E-3,-1.814009E-2,-5.524252E-3,7.039336E-3,-1.8942028E-2,-9.42475E-3],"split_indices":[6,8,4,4,8,1,8,0,0,0,0,0,0,0,0],"split_type":[0,0,0,0,0,0,0,0,0,0,0,0,0,0,0],"sum_hessian":[3.5146965E4,5.0839727E3,3.006299E4,4.5911626E3,4.9280997E2,2.7622432E4,2.4405598E3,2.6126067E3,1.978556E3,1.5742902E2,3.3538095E2,4.502069E3,2.3120361E4,2.432493E3,8.066933E0],"tree_param":{"num_deleted":"0","num_feature":"10","num_nodes":"15","size_leaf_vector":"1"}},{"base_weights":[-1.6107966E-5,-1.7868257E0,3.0202162E-1,-1.823953E0,-1.438021E0,4.9421334E-1,-1.8740966E0,-1.7669996E-2,-1.8982349E-2,-6.6662817E-3,-1.797291E-2,-5.469414E-3,6.969734E-3,-1.8768298E-2,-9.342616E-3],"categories":[],"categories_nodes":[],"categories_segments":[],"categories_sizes":[],"default_left":[0,0,0,0,0,0,0,0,0,0,0,0,0,0,0],"id":5,"left_children":[1,3,5,7,9,11,13,-1,-1,-1,-1,-1,-1,-1,-1],"loss_changes":[1.896458E4,6.317871E1,1.2572582E4,1.605664E1,1.3558032E2,5.831198E3,4.513672E0,0E0,0E0,0E0,0E0,0E0,0E0,0E0,0E0],"parents":[2147483647,0,0,1,1,2,2,3,3,4,4,5,5,6,6],"right_children":[2,4,6,8,10,12,14,-1,-1,-1,-1,-1,-1,-1,-1],"split_conditions":[1E0,1.54E2,1E0,1E0,1.58E2,2.8E1,1.63E2,-1.7669996E-2,-1.8982349E-2,-6.6662817E-3,-1.797291E-2,-5.469414E-3,6.969734E-3,-1.8768298E-2,-9.342616E-3],"split_indices":[6,8,4,4,8,1,8,0,0,0,0,0,0,0,0],"split_type":[0,0,0,0,0,0,0,0,0,0,0,0,0,0,0],"sum_hessian":[3.513816E4,5.080106E3,3.0058055E4,4.5875674E3,4.925385E2,2.761951E4,2.4385437E3,2.6106875E3,1.9768801E3,1.5741237E2,3.3512613E2,4.501747E3,2.3117764E4,2.4304783E3,8.065272E0],"tree_param":{"num_deleted":"0","num_feature":"10","num_nodes":"15","size_leaf_vector":"1"}},{"base_weights":[-2.016825E-5,-1.7705979E0,2.9905906E-1,-1.807433E0,-1.4246386E0,4.8933378E-1,-1.8572224E0,-1.7508915E-2,-1.8811883E-2,-6.6008805E-3,-1.7810035E-2,-5.415202E-3,6.9009787E-3,-1.8599318E-2,-9.26155E-3],"categories":[],"categories_nodes":[],"categories_segments":[],"categories_sizes":[],"default_left":[0,0,0,0,0,0,0,0,0,0,0,0,0,0,0],"id":6,"left_children":[1,3,5,7,9,11,13,-1,-1,-1,-1,-1,-1,-1,-1],"loss_changes":[1.8602615E4,6.211621E1,1.2331273E4,1.5823242E1,1.332044E2,5.7159424E3,4.4257812E0,0E0,0E0,0E0,0E0,0E0,0E0,0E0,0E0],"parents":[2147483647,0,0,1,1,2,2,3,3,4,4,5,5,6,6],"right_children":[2,4,6,8,10,12,14,-1,-1,-1,-1,-1,-1,-1,-1],"split_conditions":[1E0,1.54E2,1E0,1E0,1.58E2,2.8E1,1.63E2,-1.7508915E-2,-1.8811883E-2,-6.6008805E-3,-1.7810035E-2,-5.415202E-3,6.9009787E-3,-1.8599318E-2,-9.26155E-3],"split_indices":[6,8,4,4,8,1,8,0,0,0,0,0,0,0,0],"split_type":[0,0,0,0,0,0,0,0,0,0,0,0,0,0,0],"sum_hessian":[3.5127562E4,5.0754556E3,3.0052105E4,4.5832437E3,4.9221204E2,2.7615988E4,2.4361184E3,2.6083794E3,1.9748645E3,1.5739236E2,3.3481967E2,4.5013613E3,2.3114627E4,2.4280552E3,8.063272E0],"tree_param":{"num_deleted":"0","num_feature":"10","num_nodes":"15","size_leaf_vector":"1"}},{"base_weights":[-2.410516E-5,-1.7547834E0,2.9613551E-1,-1.7913418E0,-1.4115351E0,4.845131E-1,-1.8408028E0,-1.7351836E-2,-1.8646099E-2,-6.5362505E-3,-1.7651299E-2,-5.3615957E-3,6.8330597E-3,-1.8434897E-2,-9.181525E-3],"categories":[],"categories_nodes":[],"categories_segments":[],"categories_sizes":[],"default_left":[0,0,0,0,0,0,0,0,0,0,0,0,0,0,0],"id":7,"left_children":[1,3,5,7,9,11,13,-1,-1,-1,-1,-1,-1,-1,-1],"loss_changes":[1.825003E4,6.11084E1,1.209602E4,1.5603516E1,1.3092194E2,5.603088E3,4.34375E0,0E0,0E0,0E0,0E0,0E0,0E0,0E0,0E0],"parents":[2147483647,0,0,1,1,2,2,3,3,4,4,5,5,6,6],"right_children":[2,4,6,8,10,12,14,-1,-1,-1,-1,-1,-1,-1,-1],"split_conditions":[1E0,1.54E2,1E0,1E0,1.58E2,2.8E1,1.63E2,-1.7351836E-2,-1.8646099E-2,-6.5362505E-3,-1.7651299E-2,-5.3615957E-3,6.8330597E-3,-1.8434897E-2,-9.181525E-3],"split_indices":[6,8,4,4,8,1,8,0,0,0,0,0,0,0,0],"split_type":[0,0,0,0,0,0,0,0,0,0,0,0,0,0,0],"sum_hessian":[3.5115223E4,5.070046E3,3.0045178E4,4.5782134E3,4.9183224E2,2.761188E4,2.4332976E3,2.605694E3,1.9725197E3,1.5736911E2,3.344631E2,4.5009126E3,2.3110969E4,2.4252366E3,8.060944E0],"tree_param":{"num_deleted":"0","num_feature":"10","num_nodes":"15","size_leaf_vector":"1"}},{"base_weights":[-2.8344353E-5,-1.7393662E0,2.932496E-1,-1.7756633E0,-1.3987006E0,4.7974962E-1,-1.8248204E0,-1.7198613E-2,-1.8484809E-2,-6.472384E-3,-1.7496543E-2,-5.308595E-3,6.7659565E-3,-1.8274862E-2,-9.102515E-3],"categories":[],"categories_nodes":[],"categories_segments":[],"categories_sizes":[],"default_left":[0,0,0,0,0,0,0,0,0,0,0,0,0,0,0],"id":8,"left_children":[1,3,5,7,9,11,13,-1,-1,-1,-1,-1,-1,-1,-1],"loss_changes":[1.7906475E4,6.014258E1,1.1866608E4,1.5405273E1,1.287276E2,5.492582E3,4.26416E0,0E0,0E0,0E0,0E0,0E0,0E0,0E0,0E0],"parents":[2147483647,0,0,1,1,2,2,3,3,4,4,5,5,6,6],"right_children":[2,4,6,8,10,12,14,-1,-1,-1,-1,-1,-1,-1,-1],"split_conditions":[1E0,1.54E2,1E0,1E0,1.58E2,2.8E1,1.63E2,-1.7198613E-2,-1.8484809E-2,-6.472384E-3,-1.7496543E-2,-5.308595E-3,6.7659565E-3,-1.8274862E-2,-9.102515E-3],"split_indices":[6,8,4,4,8,1,8,0,0,0,0,0,0,0,0],"split_type":[0,0,0,0,0,0,0,0,0,0,0,0,0,0,0],"sum_hessian":[3.51012E4,5.0638994E3,3.00373E4,4.572499E3,4.914008E2,2.7607209E4,2.4300928E3,2.6026433E3,1.9698556E3,1.5734273E2,3.3405804E2,4.500404E3,2.3106805E4,2.4220344E3,8.058296E0],"tree_param":{"num_deleted":"0","num_feature":"10","num_nodes":"15","size_leaf_vector":"1"}},{"base_weights":[-3.2650736E-5,-1.7243311E0,2.9040077E-1,-1.7603812E0,-1.3861257E0,4.750426E-1,-1.8092583E0,-1.7049093E-2,-1.8327838E-2,-6.409267E-3,-1.7345617E-2,-5.256187E-3,6.6996566E-3,-1.8119045E-2,-9.024503E-3],"categories":[],"categories_nodes":[],"categories_segments":[],"categories_sizes":[],"default_left":[0,0,0,0,0,0,0,0,0,0,0,0,0,0,0],"id":9,"left_children":[1,3,5,7,9,11,13,-1,-1,-1,-1,-1,-1,-1,-1],"loss_changes":[1.7571629E4,5.9229492E1,1.1642845E4,1.521875E1,1.2661713E2,5.3843696E3,4.188965E0,0E0,0E0,0E0,0E0,0E0,0E0,0E0,0E0],"parents":[2147483647,0,0,1,1,2,2,3,3,4,4,5,5,6,6],"right_children":[2,4,6,8,10,12,14,-1,-1,-1,-1,-1,-1,-1,-1],"split_conditions":[1E0,1.54E2,1E0,1E0,1.58E2,2.8E1,1.63E2,-1.7049093E-2,-1.8327838E-2,-6.409267E-3,-1.7345617E-2,-5.256187E-3,6.6996566E-3,-1.8119045E-2,-9.024503E-3],"split_indices":[6,8,4,4,8,1,8,0,0,0,0,0,0,0,0],"split_type":[0,0,0,0,0,0,0,0,0,0,0,0,0,0,0],"sum_hessian":[3.5085547E4,5.057041E3,3.0028504E4,4.5661216E3,4.9091928E2,2.7601988E4,2.426516E3,2.599239E3,1.9668824E3,1.573133E2,3.33606E2,4.4998354E3,2.3102152E4,2.418461E3,8.055336E0],"tree_param":{"num_deleted":"0","num_feature":"10","num_nodes":"15","size_leaf_vector":"1"}},{"base_weights":[-3.734675E-5,-1.709664E0,2.8758785E-1,-1.745481E0,-1.3738016E0,4.7039062E-1,-1.7941004E0,-1.6903145E-2,-1.8175023E-2,-6.3468856E-3,-1.719838E-2,-5.2043665E-3,6.634141E-3,-1.7967278E-2,-8.947462E-3],"categories":[],"categories_nodes":[],"categories_segments":[],"categories_sizes":[],"default_left":[0,0,0,0,0,0,0,0,0,0,0,0,0,0,0],"id":10,"left_children":[1,3,5,7,9,11,13,-1,-1,-1,-1,-1,-1,-1,-1],"loss_changes":[1.7245184E4,5.8356445E1,1.1424535E4,1.5046875E1,1.2458606E2,5.278398E3,4.1191406E0,0E0,0E0,0E0,0E0,0E0,0E0,0E0,0E0],"parents":[2147483647,0,0,1,1,2,2,3,3,4,4,5,5,6,6],"right_children":[2,4,6,8,10,12,14,-1,-1,-1,-1,-1,-1,-1,-1],"split_conditions":[1E0,1.54E2,1E0,1E0,1.58E2,2.8E1,1.63E2,-1.6903145E-2,-1.8175023E-2,-6.3468856E-3,-1.719838E-2,-5.2043665E-3,6.634141E-3,-1.7967278E-2,-8.947462E-3],"split_indices":[6,8,4,4,8,1,8,0,0,0,0,0,0,0,0],"split_type":[0,0,0,0,0,0,0,0,0,0,0,0,0,0,0],"sum_hessian":[3.506831E4,5.049492E3,3.0018816E4,4.559103E3,4.9038934E2,2.7596236E4,2.4225803E3,2.5954922E3,1.9636106E3,1.572809E2,3.3310846E2,4.499211E3,2.3097025E4,2.414528E3,8.052074E0],"tree_param":{"num_deleted":"0","num_feature":"10","num_nodes":"15","size_leaf_vector":"1"}},{"base_weights":[-4.205422E-5,-1.6953509E0,2.8481045E-1,-1.7309482E0,-1.3617195E0,4.6579304E-1,-1.7793318E0,-1.6760634E-2,-1.8026205E-2,-6.285223E-3,-1.7054692E-2,-5.153113E-3,6.569398E-3,-1.7819418E-2,-8.871375E-3],"categories":[],"categories_nodes":[],"categories_segments":[],"categories_sizes":[],"default_left":[0,0,0,0,0,0,0,0,0,0,0,0,0,0,0],"id":11,"left_children":[1,3,5,7,9,11,13,-1,-1,-1,-1,-1,-1,-1,-1],"loss_changes":[1.6926846E4,5.7527344E1,1.1211504E4,1.4886719E1,1.22630615E2,5.1746094E3,4.0532227E0,0E0,0E0,0E0,0E0,0E0,0E0,0E0,0E0],"parents":[2147483647,0,0,1,1,2,2,3,3,4,4,5,5,6,6],"right_children":[2,4,6,8,10,12,14,-1,-1,-1,-1,-1,-1,-1,-1],"split_conditions":[1E0,1.54E2,1E0,1E0,1.58E2,2.8E1,1.63E2,-1.6760634E-2,-1.8026205E-2,-6.285223E-3,-1.7054692E-2,-5.153113E-3,6.569398E-3,-1.7819418E-2,-8.871375E-3],"split_indices":[6,8,4,4,8,1,8,0,0,0,0,0,0,0,0],"split_type":[0,0,0,0,0,0,0,0,0,0,0,0,0,0,0],"sum_hessian":[3.5049543E4,5.041276E3,3.0008268E4,4.5514634E3,4.8981253E2,2.7589973E4,2.4182957E3,2.5914143E3,1.9600492E3,1.5724565E2,3.325669E2,4.498532E3,2.309144E4,2.410247E3,8.048518E0],"tree_param":{"num_deleted":"0","num_feature":"10","num_nodes":"15","size_leaf_vector":"1"}},{"base_weights":[-4.67609E-5,-1.6813793E0,2.8206784E-1,-1.7167695E0,-1.3498713E0,4.6124896E-1,-1.7649379E0,-1.6621437E-2,-1.7881237E-2,-6.2242714E-3,-1.6914427E-2,-4.66659E-3,6.596047E-3,-1.7675318E-2,-8.796217E-3],"categories":[],"categories_nodes":[],"categories_segments":[],"categories_sizes":[],"default_left":[0,0,0,0,0,0,0,0,0,0,0,0,0,0,0],"id":12,"left_children":[1,3,5,7,9,11,13,-1,-1,-1,-1,-1,-1,-1,-1],"loss_changes":[1.6616342E4,5.673535E1,1.1003581E4,1.4740234E1,1.20746765E2,5.0773438E3,3.9902344E0,0E0,0E0,0E0,0E0,0E0,0E0,0E0,0E0],"parents":[2147483647,0,0,1,1,2,2,3,3,4,4,5,5,6,6],"right_children":[2,4,6,8,10,12,14,-1,-1,-1,-1,-1,-1,-1,-1],"split_conditions":[1E0,1.54E2,1E0,1E0,1.58E2,2.9E1,1.63E2,-1.6621437E-2,-1.7881237E-2,-6.2242714E-3,-1.6914427E-2,-4.66659E-3,6.596047E-3,-1.7675318E-2,-8.796217E-3],"split_indices":[6,8,4,4,8,1,8,0,0,0,0,0,0,0,0],"split_type":[0,0,0,0,0,0,0,0,0,0,0,0,0,0,0],"sum_hessian":[3.5029297E4,5.032413E3,2.9996883E4,4.5432227E3,4.8919034E2,2.7583209E4,2.413674E3,2.5870151E3,1.9562075E3,1.5720764E2,3.319827E2,4.857672E3,2.2725537E4,2.4056294E3,8.044678E0],"tree_param":{"num_deleted":"0","num_feature":"10","num_nodes":"15","size_leaf_vector":"1"}},{"base_weights":[-5.168839E-5,-1.6677366E0,2.793577E-1,-1.7029319E0,-1.3382494E0,4.5675474E-1,-1.7509048E0,-1.6485434E-2,-1.773998E-2,-6.1640153E-3,-1.6777463E-2,-5.0565796E-3,6.443003E-3,-1.7534833E-2,-8.72197E-3],"categories":[],"categories_nodes":[],"categories_segments":[],"categories_sizes":[],"default_left":[0,0,0,0,0,0,0,0,0,0,0,0,0,0,0],"id":13,"left_children":[1,3,5,7,9,11,13,-1,-1,-1,-1,-1,-1,-1,-1],"loss_changes":[1.6313388E4,5.598047E1,1.0800577E4,1.4605469E1,1.18931274E2,4.97789E3,3.930664E0,0E0,0E0,0E0,0E0,0E0,0E0,0E0,0E0],"parents":[2147483647,0,0,1,1,2,2,3,3,4,4,5,5,6,6],"right_children":[2,4,6,8,10,12,14,-1,-1,-1,-1,-1,-1,-1,-1],"split_conditions":[1E0,1.54E2,1E0,1E0,1.58E2,2.8E1,1.63E2,-1.6485434E-2,-1.773998E-2,-6.1640153E-3,-1.6777463E-2,-5.0565796E-3,6.443003E-3,-1.7534833E-2,-8.72197E-3],"split_indices":[6,8,4,4,8,1,8,0,0,0,0,0,0,0,0],"split_type":[0,0,0,0,0,0,0,0,0,0,0,0,0,0,0],"sum_hessian":[3.500776E4,5.0229253E3,2.9984838E4,4.534401E3,4.885242E2,2.7576111E4,2.4087266E3,2.5823062E3,1.9520948E3,1.5716695E2,3.3135724E2,4.4970845E3,2.3079027E4,2.400686E3,8.04056E0],"tree_param":{"num_deleted":"0","num_feature":"10","num_nodes":"15","size_leaf_vector":"1"}},{"base_weights":[-5.67439E-5,-1.6544113E0,2.76682E-1,-1.6894232E0,-1.3268459E0,4.523142E-1,-1.7372198E0,-1.6352512E-2,-1.7602295E-2,-6.1044437E-3,-1.6643675E-2,-4.5793937E-3,6.4694635E-3,-1.7397841E-2,-8.648616E-3],"categories":[],"categories_nodes":[],"categories_segments":[],"categories_sizes":[],"default_left":[0,0,0,0,0,0,0,0,0,0,0,0,0,0,0],"id":14,"left_children":[1,3,5,7,9,11,13,-1,-1,-1,-1,-1,-1,-1,-1],"loss_changes":[1.6017754E4,5.5260742E1,1.0602372E4,1.4480469E1,1.17180115E2,4.884621E3,3.875E0,0E0,0E0,0E0,0E0,0E0,0E0,0E0,0E0],"parents":[2147483647,0,0,1,1,2,2,3,3,4,4,5,5,6,6],"right_children":[2,4,6,8,10,12,14,-1,-1,-1,-1,-1,-1,-1,-1],"split_conditions":[1E0,1.54E2,1E0,1E0,1.58E2,2.9E1,1.63E2,-1.6352512E-2,-1.7602295E-2,-6.1044437E-3,-1.6643675E-2,-4.5793937E-3,6.4694635E-3,-1.7397841E-2,-8.648616E-3],"split_indices":[6,8,4,4,8,1,8,0,0,0,0,0,0,0,0],"split_type":[0,0,0,0,0,0,0,0,0,0,0,0,0,0,0],"sum_hessian":[3.4984707E4,5.012832E3,2.9971875E4,4.5250166E3,4.878156E2,2.7568412E4,2.4034636E3,2.5772964E3,1.9477201E3,1.5712367E2,3.3069193E2,4.856101E3,2.271231E4,2.3954275E3,8.036173E0],"tree_param":{"num_deleted":"0","num_feature":"10","num_nodes":"15","size_leaf_vector":"1"}},{"base_weights":[-6.1754254E-5,-1.6413916E0,2.7403766E-1,-1.6762315E0,-1.3156538E0,4.4792208E-1,-1.7238702E0,-1.622256E-2,-1.7468056E-2,-6.0455417E-3,-1.6512958E-2,-4.962057E-3,6.3195E-3,-1.7264215E-2,-8.576134E-3],"categories":[],"categories_nodes":[],"categories_segments":[],"categories_sizes":[],"default_left":[0,0,0,0,0,0,0,0,0,0,0,0,0,0,0],"id":15,"left_children":[1,3,5,7,9,11,13,-1,-1,-1,-1,-1,-1,-1,-1],"loss_changes":[1.5729176E4,5.4573242E1,1.0408785E4,1.4370117E1,1.1549078E2,4.7889946E3,3.8208008E0,0E0,0E0,0E0,0E0,0E0,0E0,0E0,0E0],"parents":[2147483647,0,0,1,1,2,2,3,3,4,4,5,5,6,6],"right_children":[2,4,6,8,10,12,14,-1,-1,-1,-1,-1,-1,-1,-1],"split_conditions":[1E0,1.54E2,1E0,1E0,1.58E2,2.8E1,1.63E2,-1.622256E-2,-1.7468056E-2,-6.0455417E-3,-1.6512958E-2,-4.962057E-3,6.3195E-3,-1.7264215E-2,-8.576134E-3],"split_indices":[6,8,4,4,8,1,8,0,0,0,0,0,0,0,0],"split_type":[0,0,0,0,0,0,0,0,0,0,0,0,0,0,0],"sum_hessian":[3.4960457E4,5.002155E3,2.99583E4,4.515089E3,4.8706595E2,2.7560406E4,2.3978958E3,2.5719968E3,1.9430918E3,1.570779E2,3.2998804E2,4.4954546E3,2.3064951E4,2.3898643E3,8.031525E0],"tree_param":{"num_deleted":"0","num_feature":"10","num_nodes":"15","size_leaf_vector":"1"}},{"base_weights":[-6.691289E-5,-1.6286674E0,2.714264E-1,-1.6633459E0,-1.3046663E0,4.4358176E-1,-1.7108439E0,-1.6095478E-2,-1.733714E-2,-5.9873066E-3,-1.6385198E-2,-4.4939895E-3,6.3457666E-3,-1.713383E-2,-8.504507E-3],"categories":[],"categories_nodes":[],"categories_segments":[],"categories_sizes":[],"default_left":[0,0,0,0,0,0,0,0,0,0,0,0,0,0,0],"id":16,"left_children":[1,3,5,7,9,11,13,-1,-1,-1,-1,-1,-1,-1,-1],"loss_changes":[1.5447438E4,5.3918945E1,1.0219698E4,1.4266602E1,1.13859924E2,4.699552E3,3.7705078E0,0E0,0E0,0E0,0E0,0E0,0E0,0E0,0E0],"parents":[2147483647,0,0,1,1,2,2,3,3,4,4,5,5,6,6],"right_children":[2,4,6,8,10,12,14,-1,-1,-1,-1,-1,-1,-1,-1],"split_conditions":[1E0,1.54E2,1E0,1E0,1.58E2,2.9E1,1.63E2,-1.6095478E-2,-1.733714E-2,-5.9873066E-3,-1.6385198E-2,-4.4939895E-3,6.3457666E-3,-1.713383E-2,-8.504507E-3],"split_indices":[6,8,4,4,8,1,8,0,0,0,0,0,0,0,0],"split_type":[0,0,0,0,0,0,0,0,0,0,0,0,0,0,0],"sum_hessian":[3.4934777E4,4.990912E3,2.9943863E4,4.5046357E3,4.862766E2,2.755183E4,2.3920334E3,2.566417E3,1.9382186E3,1.570297E2,3.2924692E2,4.854353E3,2.2697477E4,2.3840068E3,8.026624E0],"tree_param":{"num_deleted":"0","num_feature":"10","num_nodes":"15","size_leaf_vector":"1"}},{"base_weights":[-7.214257E-5,-1.616228E0,2.688451E-1,-1.6507558E0,-1.2938766E0,4.3928814E-1,-1.69813E0,-1.5971167E-2,-1.7209427E-2,-5.929716E-3,-1.62603E-2,-4.4498057E-3,6.28455E-3,-1.7006576E-2,-8.433716E-3],"categories":[],"categories_nodes":[],"categories_segments":[],"categories_sizes":[],"default_left":[0,0,0,0,0,0,0,0,0,0,0,0,0,0,0],"id":17,"left_children":[1,3,5,7,9,11,13,-1,-1,-1,-1,-1,-1,-1,-1],"loss_changes":[1.5172306E4,5.329297E1,1.0034946E4,1.4173828E1,1.1228497E2,4.607679E3,3.7231445E0,0E0,0E0,0E0,0E0,0E0,0E0,0E0,0E0],"parents":[2147483647,0,0,1,1,2,2,3,3,4,4,5,5,6,6],"right_children":[2,4,6,8,10,12,14,-1,-1,-1,-1,-1,-1,-1,-1],"split_conditions":[1E0,1.54E2,1E0,1E0,1.58E2,2.9E1,1.63E2,-1.5971167E-2,-1.7209427E-2,-5.929716E-3,-1.62603E-2,-4.4498057E-3,6.28455E-3,-1.7006576E-2,-8.433716E-3],"split_indices":[6,8,4,4,8,1,8,0,0,0,0,0,0,0,0],"split_type":[0,0,0,0,0,0,0,0,0,0,0,0,0,0,0],"sum_hessian":[3.4907984E4,4.9791235E3,2.992886E4,4.493675E3,4.8544888E2,2.7542973E4,2.3858865E3,2.5605657E3,1.933109E3,1.5697914E2,3.2846976E2,4.85354E3,2.2689434E4,2.377865E3,8.021476E0],"tree_param":{"num_deleted":"0","num_feature":"10","num_nodes":"15","size_leaf_vector":"1"}},{"base_weights":[-7.757932E-5,-1.604064E0,2.6629436E-1,-1.638451E0,-1.2832786E0,4.350424E-1,-1.6857175E0,-1.5849529E-2,-1.7084816E-2,-5.8727693E-3,-1.613816E-2,-4.8259874E-3,6.1398554E-3,-1.6882347E-2,-8.363747E-3],"categories":[],"categories_nodes":[],"categories_segments":[],"categories_sizes":[],"default_left":[0,0,0,0,0,0,0,0,0,0,0,0,0,0,0],"id":18,"left_children":[1,3,5,7,9,11,13,-1,-1,-1,-1,-1,-1,-1,-1],"loss_changes":[1.4903568E4,5.269629E1,9.854409E3,1.4088867E1,1.1076312E2,4.5216475E3,3.6782227E0,0E0,0E0,0E0,0E0,0E0,0E0,0E0,0E0],"parents":[2147483647,0,0,1,1,2,2,3,3,4,4,5,5,6,6],"right_children":[2,4,6,8,10,12,14,-1,-1,-1,-1,-1,-1,-1,-1],"split_conditions":[1E0,1.54E2,1E0,1E0,1.58E2,2.8E1,1.63E2,-1.5849529E-2,-1.7084816E-2,-5.8727693E-3,-1.613816E-2,-4.8259874E-3,6.1398554E-3,-1.6882347E-2,-8.363747E-3],"split_indices":[6,8,4,4,8,1,8,0,0,0,0,0,0,0,0],"split_type":[0,0,0,0,0,0,0,0,0,0,0,0,0,0,0],"sum_hessian":[3.487998E4,4.9668076E3,2.9913172E4,4.4822236E3,4.845841E2,2.7533707E4,2.3794646E3,2.554453E3,1.9277706E3,1.5692635E2,3.2765778E2,4.492736E3,2.3040973E4,2.3714485E3,8.01609E0],"tree_param":{"num_deleted":"0","num_feature":"10","num_nodes":"15","size_leaf_vector":"1"}},{"base_weights":[-8.307316E-5,-1.5921657E0,2.637747E-1,-1.6264213E0,-1.2728659E0,4.3084592E-1,-1.6735964E0,-1.5730476E-2,-1.6963188E-2,-5.8164457E-3,-1.6018689E-2,-4.367003E-3,6.1649904E-3,-1.676104E-2,-8.294579E-3],"categories":[],"categories_nodes":[],"categories_segments":[],"categories_sizes":[],"default_left":[0,0,0,0,0,0,0,0,0,0,0,0,0,0,0],"id":19,"left_children":[1,3,5,7,9,11,13,-1,-1,-1,-1,-1,-1,-1,-1],"loss_changes":[1.4641034E4,5.2126953E1,9.677979E3,1.4013672E1,1.0929205E2,4.433509E3,3.633789E0,0E0,0E0,0E0,0E0,0E0,0E0,0E0,0E0],"parents":[2147483647,0,0,1,1,2,2,3,3,4,4,5,5,6,6],"right_children":[2,4,6,8,10,12,14,-1,-1,-1,-1,-1,-1,-1,-1],"split_conditions":[1E0,1.54E2,1E0,1E0,1.58E2,2.9E1,1.63E2,-1.5730476E-2,-1.6963188E-2,-5.8164457E-3,-1.6018689E-2,-4.367003E-3,6.1649904E-3,-1.676104E-2,-8.294579E-3],"split_indices":[6,8,4,4,8,1,8,0,0,0,0,0,0,0,0],"split_type":[0,0,0,0,0,0,0,0,0,0,0,0,0,0,0],"sum_hessian":[3.4850688E4,4.953983E3,2.9896705E4,4.4702993E3,4.8368353E2,2.7523928E4,2.3727766E3,2.5480874E3,1.9222118E3,1.5687135E2,3.268122E2,4.851553E3,2.2672375E4,2.3647664E3,8.010473E0],"tree_param":{"num_deleted":"0","num_feature":"10","num_nodes":"15","size_leaf_vector":"1"}},{"base_weights":[-8.8537E-5,-1.5805244E0,2.612835E-1,-1.614658E0,-1.2626331E0,4.26694E-1,-1.6617564E0,-1.5613919E-2,-1.6844451E-2,-5.760745E-3,-1.5901793E-2,-4.7362433E-3,6.0231513E-3,-1.6642552E-2,-8.226197E-3],"categories":[],"categories_nodes":[],"categories_segments":[],"categories_sizes":[],"default_left":[0,0,0,0,0,0,0,0,0,0,0,0,0,0,0],"id":20,"left_children":[1,3,5,7,9,11,13,-1,-1,-1,-1,-1,-1,-1,-1],"loss_changes":[1.4384496E4,5.158203E1,9.5055E3,1.3944336E1,1.0786914E2,4.3508013E3,3.59375E0,0E0,0E0,0E0,0E0,0E0,0E0,0E0,0E0],"parents":[2147483647,0,0,1,1,2,2,3,3,4,4,5,5,6,6],"right_children":[2,4,6,8,10,12,14,-1,-1,-1,-1,-1,-1,-1,-1],"split_conditions":[1E0,1.54E2,1E0,1E0,1.58E2,2.8E1,1.63E2,-1.5613919E-2,-1.6844451E-2,-5.760745E-3,-1.5901793E-2,-4.7362433E-3,6.0231513E-3,-1.6642552E-2,-8.226197E-3],"split_indices":[6,8,4,4,8,1,8,0,0,0,0,0,0,0,0],"split_type":[0,0,0,0,0,0,0,0,0,0,0,0,0,0,0],"sum_hessian":[3.4820395E4,4.940666E3,2.9879729E4,4.4579175E3,4.827485E2,2.7513896E4,2.365833E3,2.541478E3,1.9164397E3,1.5681425E2,3.2593423E2,4.4907017E3,2.3023193E4,2.3578284E3,8.004632E0],"tree_param":{"num_deleted":"0","num_feature":"10","num_nodes":"15","size_leaf_vector":"1"}},{"base_weights":[-9.407321E-5,-1.5691315E0,2.5882214E-1,-1.6031519E0,-1.2525742E0,4.225896E-1,-1.6501881E0,-1.5499779E-2,-1.6728507E-2,-5.7056523E-3,-1.578739E-2,-4.285876E-3,6.048076E-3,-1.6526788E-2,-8.158588E-3],"categories":[],"categories_nodes":[],"categories_segments":[],"categories_sizes":[],"default_left":[0,0,0,0,0,0,0,0,0,0,0,0,0,0,0],"id":21,"left_children":[1,3,5,7,9,11,13,-1,-1,-1,-1,-1,-1,-1,-1],"loss_changes":[1.4133775E4,5.1063477E1,9.336885E3,1.3883789E1,1.0649237E2,4.2661836E3,3.555664E0,0E0,0E0,0E0,0E0,0E0,0E0,0E0,0E0],"parents":[2147483647,0,0,1,1,2,2,3,3,4,4,5,5,6,6],"right_children":[2,4,6,8,10,12,14,-1,-1,-1,-1,-1,-1,-1,-1],"split_conditions":[1E0,1.54E2,1E0,1E0,1.58E2,2.9E1,1.63E2,-1.5499779E-2,-1.6728507E-2,-5.7056523E-3,-1.578739E-2,-4.285876E-3,6.048076E-3,-1.6526788E-2,-8.158588E-3],"split_indices":[6,8,4,4,8,1,8,0,0,0,0,0,0,0,0],"split_type":[0,0,0,0,0,0,0,0,0,0,0,0,0,0,0],"sum_hessian":[3.47889E4,4.9268755E3,2.9862021E4,4.445095E3,4.8178006E2,2.7503379E4,2.3586418E3,2.534633E3,1.9104623E3,1.5675513E2,3.2502493E2,4.849417E3,2.2653963E4,2.3506433E3,7.998574E0],"tree_param":{"num_deleted":"0","num_feature":"10","num_nodes":"15","size_leaf_vector":"1"}},{"base_weights":[-9.966421E-5,-1.5579786E0,2.563881E-1,-1.5918946E0,-1.242684E0,4.185283E-1,-1.6388824E0,-1.5387975E-2,-1.6615259E-2,-5.651156E-3,-1.5675394E-2,-4.6483194E-3,5.9090075E-3,-1.6413659E-2,-8.091734E-3],"categories":[],"categories_nodes":[],"categories_segments":[],"categories_sizes":[],"default_left":[0,0,0,0,0,0,0,0,0,0,0,0,0,0,0],"id":22,"left_children":[1,3,5,7,9,11,13,-1,-1,-1,-1,-1,-1,-1,-1],"loss_changes":[1.3888682E4,5.056543E1,9.171993E3,1.3832031E1,1.05159546E2,4.186647E3,3.519043E0,0E0,0E0,0E0,0E0,0E0,0E0,0E0,0E0],"parents":[2147483647,0,0,1,1,2,2,3,3,4,4,5,5,6,6],"right_children":[2,4,6,8,10,12,14,-1,-1,-1,-1,-1,-1,-1,-1],"split_conditions":[1E0,1.54E2,1E0,1E0,1.58E2,2.8E1,1.63E2,-1.5387975E-2,-1.6615259E-2,-5.651156E-3,-1.5675394E-2,-4.6483194E-3,5.9090075E-3,-1.6413659E-2,-8.091734E-3],"split_indices":[6,8,4,4,8,1,8,0,0,0,0,0,0,0,0],"split_type":[0,0,0,0,0,0,0,0,0,0,0,0,0,0,0],"sum_hessian":[3.4756473E4,4.9126274E3,2.9843844E4,4.4318477E3,4.8077954E2,2.749263E4,2.3512126E3,2.5275613E3,1.9042865E3,1.5669403E2,3.240855E2,4.4885225E3,2.300411E4,2.3432205E3,7.992305E0],"tree_param":{"num_deleted":"0","num_feature":"10","num_nodes":"15","size_leaf_vector":"1"}},{"base_weights":[-1.0534925E-4,-1.5470582E0,2.5398275E-1,-1.580878E0,-1.2329574E0,4.1451293E-1,-1.6278313E0,-1.527843E-2,-1.6504623E-2,-5.5972515E-3,-1.5565732E-2,-4.206378E-3,5.9337146E-3,-1.6303083E-2,-8.02562E-3],"categories":[],"categories_nodes":[],"categories_segments":[],"categories_sizes":[],"default_left":[0,0,0,0,0,0,0,0,0,0,0,0,0,0,0],"id":23,"left_children":[1,3,5,7,9,11,13,-1,-1,-1,-1,-1,-1,-1,-1],"loss_changes":[1.3649057E4,5.009082E1,9.010744E3,1.3787109E1,1.0386847E2,4.105405E3,3.484375E0,0E0,0E0,0E0,0E0,0E0,0E0,0E0,0E0],"parents":[2147483647,0,0,1,1,2,2,3,3,4,4,5,5,6,6],"right_children":[2,4,6,8,10,12,14,-1,-1,-1,-1,-1,-1,-1,-1],"split_conditions":[1E0,1.54E2,1E0,1E0,1.58E2,2.9E1,1.63E2,-1.527843E-2,-1.6504623E-2,-5.5972515E-3,-1.5565732E-2,-4.206378E-3,5.9337146E-3,-1.6303083E-2,-8.02562E-3],"split_indices":[6,8,4,4,8,1,8,0,0,0,0,0,0,0,0],"split_type":[0,0,0,0,0,0,0,0,0,0,0,0,0,0,0],"sum_hessian":[3.4722918E4,4.8979385E3,2.982498E4,4.4181904E3,4.79748E2,2.7481428E4,2.3435532E3,2.5202705E3,1.8979199E3,1.5663103E2,3.2311697E2,4.8471406E3,2.2634287E4,2.3355674E3,7.9858327E0],"tree_param":{"num_deleted":"0","num_feature":"10","num_nodes":"15","size_leaf_vector":"1"}},{"base_weights":[-1.1088183E-4,-1.5363625E0,2.516039E-1,-1.5700942E0,-1.2233891E0,4.1053957E-1,-1.617026E0,-1.5171071E-2,-1.639651E-2,-5.543924E-3,-1.5458321E-2,-4.5621656E-3,5.7973415E-3,-1.6194971E-2,-7.960232E-3],"categories":[],"categories_nodes":[],"categories_segments":[],"categories_sizes":[],"default_left":[0,0,0,0,0,0,0,0,0,0,0,0,0,0,0],"id":24,"left_children":[1,3,5,7,9,11,13,-1,-1,-1,-1,-1,-1,-1,-1],"loss_changes":[1.3414725E4,4.9637695E1,8.853009E3,1.3749023E1,1.02617676E2,4.0289004E3,3.4516602E0,0E0,0E0,0E0,0E0,0E0,0E0,0E0,0E0],"parents":[2147483647,0,0,1,1,2,2,3,3,4,4,5,5,6,6],"right_children":[2,4,6,8,10,12,14,-1,-1,-1,-1,-1,-1,-1,-1],"split_conditions":[1E0,1.54E2,1E0,1E0,1.58E2,2.8E1,1.63E2,-1.5171071E-2,-1.639651E-2,-5.543924E-3,-1.5458321E-2,-4.5621656E-3,5.7973415E-3,-1.6194971E-2,-7.960232E-3],"split_indices":[6,8,4,4,8,1,8,0,0,0,0,0,0,0,0],"split_type":[0,0,0,0,0,0,0,0,0,0,0,0,0,0,0],"sum_hessian":[3.468851E4,4.8828247E3,2.9805686E4,4.404138E3,4.7868658E2,2.7470014E4,2.3356724E3,2.512769E3,1.891369E3,1.5656621E2,3.221204E2,4.4862075E3,2.2983807E4,2.327693E3,7.9791627E0],"tree_param":{"num_deleted":"0","num_feature":"10","num_nodes":"15","size_leaf_vector":"1"}},{"base_weights":[-1.1663136E-4,-1.5258843E0,2.4925256E-1,-1.5595355E0,-1.213975E0,4.0661055E-1,-1.6064584E0,-1.5065826E-2,-1.6290842E-2,-5.4911696E-3,-1.5353098E-2,-4.1284706E-3,5.821827E-3,-1.6089246E-2,-7.895559E-3],"categories":[],"categories_nodes":[],"categories_segments":[],"categories_sizes":[],"default_left":[0,0,0,0,0,0,0,0,0,0,0,0,0,0,0],"id":25,"left_children":[1,3,5,7,9,11,13,-1,-1,-1,-1,-1,-1,-1,-1],"loss_changes":[1.3185535E4,4.92041E1,8.698709E3,1.371582E1,1.0140527E2,3.9509E3,3.4204102E0,0E0,0E0,0E0,0E0,0E0,0E0,0E0,0E0],"parents":[2147483647,0,0,1,1,2,2,3,3,4,4,5,5,6,6],"right_children":[2,4,6,8,10,12,14,-1,-1,-1,-1,-1,-1,-1,-1],"split_conditions":[1E0,1.54E2,1E0,1E0,1.58E2,2.9E1,1.63E2,-1.5065826E-2,-1.6290842E-2,-5.4911696E-3,-1.5353098E-2,-4.1284706E-3,5.821827E-3,-1.6089246E-2,-7.895559E-3],"split_indices":[6,8,4,4,8,1,8,0,0,0,0,0,0,0,0],"split_type":[0,0,0,0,0,0,0,0,0,0,0,0,0,0,0],"sum_hessian":[3.465305E4,4.867302E3,2.9785748E4,4.3897056E3,4.775964E2,2.745817E4,2.3275784E3,2.5050645E3,1.884641E3,1.5649962E2,3.2109677E2,4.844733E3,2.2613438E4,2.3196062E3,7.972302E0],"tree_param":{"num_deleted":"0","num_feature":"10","num_nodes":"15","size_leaf_vector":"1"}},{"base_weights":[-1.2244588E-4,-1.5156168E0,2.4692649E-1,-1.5491952E0,-1.2047098E0,4.027219E-1,-1.5961217E0,-1.4962633E-2,-1.618754E-2,-5.438975E-3,-1.5249986E-2,-4.477739E-3,5.6880694E-3,-1.5985833E-2,-7.831584E-3],"categories":[],"categories_nodes":[],"categories_segments":[],"categories_sizes":[],"default_left":[0,0,0,0,0,0,0,0,0,0,0,0,0,0,0],"id":26,"left_children":[1,3,5,7,9,11,13,-1,-1,-1,-1,-1,-1,-1,-1],"loss_changes":[1.2961323E4,4.8791016E1,8.547727E3,1.3689453E1,1.0022931E2,3.87729E3,3.3920898E0,0E0,0E0,0E0,0E0,0E0,0E0,0E0,0E0],"parents":[2147483647,0,0,1,1,2,2,3,3,4,4,5,5,6,6],"right_children":[2,4,6,8,10,12,14,-1,-1,-1,-1,-1,-1,-1,-1],"split_conditions":[1E0,1.54E2,1E0,1E0,1.58E2,2.8E1,1.63E2,-1.4962633E-2,-1.618754E-2,-5.438975E-3,-1.5249986E-2,-4.477739E-3,5.6880694E-3,-1.5985833E-2,-7.831584E-3],"split_indices":[6,8,4,4,8,1,8,0,0,0,0,0,0,0,0],"split_type":[0,0,0,0,0,0,0,0,0,0,0,0,0,0,0],"sum_hessian":[3.4616805E4,4.851385E3,2.9765418E4,4.3749062E3,4.7647855E2,2.7446139E4,2.3192788E3,2.4971643E3,1.8777421E3,1.5643135E2,3.2004718E2,4.4837666E3,2.2962373E4,2.3113135E3,7.965256E0],"tree_param":{"num_deleted":"0","num_feature":"10","num_nodes":"15","size_leaf_vector":"1"}},{"base_weights":[-1.2823305E-4,-1.5055532E0,2.4462722E-1,-1.539066E0,-1.1955893E0,3.9887655E-1,-1.586008E0,-1.4861423E-2,-1.608653E-2,-5.387334E-3,-1.5148922E-2,-4.052109E-3,5.7123294E-3,-1.5884658E-2,-7.768295E-3],"categories":[],"categories_nodes":[],"categories_segments":[],"categories_sizes":[],"default_left":[0,0,0,0,0,0,0,0,0,0,0,0,0,0,0],"id":27,"left_children":[1,3,5,7,9,11,13,-1,-1,-1,-1,-1,-1,-1,-1],"loss_changes":[1.274196E4,4.8396484E1,8.399992E3,1.3668945E1,9.908826E1,3.802396E3,3.3637695E0,0E0,0E0,0E0,0E0,0E0,0E0,0E0,0E0],"parents":[2147483647,0,0,1,1,2,2,3,3,4,4,5,5,6,6],"right_children":[2,4,6,8,10,12,14,-1,-1,-1,-1,-1,-1,-1,-1],"split_conditions":[1E0,1.54E2,1E0,1E0,1.58E2,2.9E1,1.63E2,-1.4861423E-2,-1.608653E-2,-5.387334E-3,-1.5148922E-2,-4.052109E-3,5.7123294E-3,-1.5884658E-2,-7.768295E-3],"split_indices":[6,8,4,4,8,1,8,0,0,0,0,0,0,0,0],"split_type":[0,0,0,0,0,0,0,0,0,0,0,0,0,0,0],"sum_hessian":[3.4579574E4,4.8350894E3,2.9744484E4,4.359755E3,4.7533405E2,2.7433701E4,2.3107817E3,2.4890762E3,1.870679E3,1.5636145E2,3.1897256E2,4.8422046E3,2.2591498E4,2.3028237E3,7.958032E0],"tree_param":{"num_deleted":"0","num_feature":"10","num_nodes":"15","size_leaf_vector":"1"}},{"base_weights":[-1.3419159E-4,-1.4956875E0,2.4235219E-1,-1.5291415E0,-1.1866094E0,3.9507023E-1,-1.5761104E0,-1.4762138E-2,-1.5987743E-2,-5.336241E-3,-1.5049842E-2,-4.394992E-3,5.5811177E-3,-1.5785651E-2,-7.705679E-3],"categories":[],"categories_nodes":[],"categories_segments":[],"categories_sizes":[],"default_left":[0,0,0,0,0,0,0,0,0,0,0,0,0,0,0],"id":28,"left_children":[1,3,5,7,9,11,13,-1,-1,-1,-1,-1,-1,-1,-1],"loss_changes":[1.2527288E4,4.801953E1,8.255389E3,1.3654297E1,9.798065E1,3.7315562E3,3.3378906E0,0E0,0E0,0E0,0E0,0E0,0E0,0E0,0E0],"parents":[2147483647,0,0,1,1,2,2,3,3,4,4,5,5,6,6],"right_children":[2,4,6,8,10,12,14,-1,-1,-1,-1,-1,-1,-1,-1],"split_conditions":[1E0,1.54E2,1E0,1E0,1.58E2,2.8E1,1.63E2,-1.4762138E-2,-1.5987743E-2,-5.336241E-3,-1.5049842E-2,-4.394992E-3,5.5811177E-3,-1.5785651E-2,-7.705679E-3],"split_indices":[6,8,4,4,8,1,8,0,0,0,0,0,0,0,0],"split_type":[0,0,0,0,0,0,0,0,0,0,0,0,0,0,0],"sum_hessian":[3.454162E4,4.8184287E3,2.9723193E4,4.3442646E3,4.7416385E2,2.74211E4,2.3020947E3,2.480807E3,1.8634578E3,1.5628998E2,3.1787387E2,4.481208E3,2.293989E4,2.294144E3,7.950635E0],"tree_param":{"num_deleted":"0","num_feature":"10","num_nodes":"15","size_leaf_vector":"1"}},{"base_weights":[-1.3999798E-4,-1.4860129E0,2.4010314E-1,-1.5194153E0,-1.1777656E0,3.9130598E-1,-1.5664222E0,-1.4664714E-2,-1.5891105E-2,-5.285681E-3,-1.4952683E-2,-3.97726E-3,5.6051486E-3,-1.5688743E-2,-7.6437234E-3],"categories":[],"categories_nodes":[],"categories_segments":[],"categories_sizes":[],"default_left":[0,0,0,0,0,0,0,0,0,0,0,0,0,0,0],"id":29,"left_children":[1,3,5,7,9,11,13,-1,-1,-1,-1,-1,-1,-1,-1],"loss_changes":[1.2317189E4,4.7657227E1,8.113858E3,1.3644531E1,9.690509E1,3.659646E3,3.3134766E0,0E0,0E0,0E0,0E0,0E0,0E0,0E0,0E0],"parents":[2147483647,0,0,1,1,2,2,3,3,4,4,5,5,6,6],"right_children":[2,4,6,8,10,12,14,-1,-1,-1,-1,-1,-1,-1,-1],"split_conditions":[1E0,1.54E2,1E0,1E0,1.58E2,2.9E1,1.63E2,-1.4664714E-2,-1.5891105E-2,-5.285681E-3,-1.4952683E-2,-3.97726E-3,5.6051486E-3,-1.5688743E-2,-7.6437234E-3],"split_indices":[6,8,4,4,8,1,8,0,0,0,0,0,0,0,0],"split_type":[0,0,0,0,0,0,0,0,0,0,0,0,0,0,0],"sum_hessian":[3.4502758E4,4.801418E3,2.9701338E4,4.3284487E3,4.729691E2,2.7408113E4,2.293225E3,2.472364E3,1.856085E3,1.5621701E2,3.1675204E2,4.839563E3,2.256855E4,2.285282E3,7.9430723E0],"tree_param":{"num_deleted":"0","num_feature":"10","num_nodes":"15","size_leaf_vector":"1"}},{"base_weights":[-1.458138E-4,2.2366564E-1,-1.5707266E0,-1.3967115E0,3.8757983E-1,-1.5720265E-2,-9.8627687E-1,-1.4569097E-2,-9.099822E-3,-4.31388E-3,5.476418E-3,8.553454E-4,-1.509911E-2],"categories":[],"categories_nodes":[],"categories_segments":[],"categories_sizes":[],"default_left":[0,0,0,0,0,0,0,0,0,0,0,0,0],"id":30,"left_children":[1,3,5,7,9,-1,11,-1,-1,-1,-1,-1,-1],"loss_changes":[1.211501E4,8.012832E3,1.7167969E0,7.987891E1,3.5914556E3,0E0,6.989937E0,0E0,0E0,0E0,0E0,0E0,0E0],"parents":[2147483647,0,0,1,1,2,2,3,3,4,4,6,6],"right_children":[2,4,6,8,10,-1,12,-1,-1,-1,-1,-1,-1],"split_conditions":[1E0,1E0,1.63E2,1.54E2,2.8E1,-1.5720265E-2,2.3E1,-1.4569097E-2,-9.099822E-3,-4.31388E-3,5.476418E-3,8.553454E-4,-1.509911E-2],"split_indices":[4,6,8,8,1,0,1,0,0,0,0,0,0],"split_type":[0,0,0,0,0,0,0,0,0,0,0,0,0],"sum_hessian":[3.446323E4,3.0165443E4,4.297789E3,2.770462E3,2.739498E4,4.2865645E3,1.12244E1,2.463754E3,3.0670795E2,4.47854E3,2.2916441E4,3.9585044E0,7.265895E0],"tree_param":{"num_deleted":"0","num_feature":"10","num_nodes":"13","size_leaf_vector":"1"}},{"base_weights":[-1.5104658E-4,2.2159442E-1,-1.5614042E0,-1.3874273E0,3.8389426E-1,-1.5627032E-2,-9.790438E-1,-1.4475232E-2,-9.024422E-3,-3.9038786E-3,5.5002156E-3,8.4842596E-4,-1.5000441E-2],"categories":[],"categories_nodes":[],"categories_segments":[],"categories_sizes":[],"default_left":[0,0,0,0,0,0,0,0,0,0,0,0,0],"id":31,"left_children":[1,3,5,7,9,-1,11,-1,-1,-1,-1,-1,-1],"loss_changes":[1.1917955E4,7.872368E3,1.7080078E0,7.919922E1,3.522408E3,0E0,6.893013E0,0E0,0E0,0E0,0E0,0E0,0E0],"parents":[2147483647,0,0,1,1,2,2,3,3,4,4,6,6],"right_children":[2,4,6,8,10,-1,12,-1,-1,-1,-1,-1,-1],"split_conditions":[1E0,1E0,1.63E2,1.54E2,2.9E1,-1.5627032E-2,2.3E1,-1.4475232E-2,-9.024422E-3,-3.9038786E-3,5.5002156E-3,8.4842596E-4,-1.5000441E-2],"split_indices":[4,6,8,8,1,0,1,0,0,0,0,0,0],"split_type":[0,0,0,0,0,0,0,0,0,0,0,0,0],"sum_hessian":[3.4422977E4,3.014266E4,4.280317E3,2.761172E3,2.7381486E4,4.269111E3,1.1206258E1,2.4549834E3,3.0618875E2,4.836817E3,2.254467E4,3.9590347E0,7.247223E0],"tree_param":{"num_deleted":"0","num_feature":"10","num_nodes":"13","size_leaf_vector":"1"}},{"base_weights":[-1.562216E-4,2.1954468E-1,-1.5522768E0,-1.3783013E0,3.8024577E-1,-1.5535751E-2,-9.7191846E-1,-1.4383065E-2,-8.949867E-3,-4.234363E-3,5.373901E-3,8.4156275E-4,-1.49036525E-2],"categories":[],"categories_nodes":[],"categories_segments":[],"categories_sizes":[],"default_left":[0,0,0,0,0,0,0,0,0,0,0,0,0],"id":32,"left_children":[1,3,5,7,9,-1,11,-1,-1,-1,-1,-1,-1],"loss_changes":[1.1725064E4,7.734755E3,1.703125E0,7.854492E1,3.4567544E3,0E0,6.7983046E0,0E0,0E0,0E0,0E0,0E0,0E0],"parents":[2147483647,0,0,1,1,2,2,3,3,4,4,6,6],"right_children":[2,4,6,8,10,-1,12,-1,-1,-1,-1,-1,-1],"split_conditions":[1E0,1E0,1.63E2,1.54E2,2.8E1,-1.5535751E-2,2.3E1,-1.4383065E-2,-8.949867E-3,-4.234363E-3,5.373901E-3,8.4156275E-4,-1.49036525E-2],"split_indices":[4,6,8,8,1,0,1,0,0,0,0,0,0],"split_type":[0,0,0,0,0,0,0,0,0,0,0,0,0],"sum_hessian":[3.438212E4,3.0119588E4,4.2625347E3,2.7517222E3,2.7367865E4,4.251347E3,1.1187494E1,2.4460593E3,3.056629E2,4.4757715E3,2.2892094E4,3.9595594E0,7.2279353E0],"tree_param":{"num_deleted":"0","num_feature":"10","num_nodes":"13","size_leaf_vector":"1"}},{"base_weights":[-1.6154475E-4,2.1751739E-1,-1.5433389E0,-1.3693285E0,3.766365E-1,-1.5446366E-2,-9.6489817E-1,-1.4292541E-2,-8.876144E-3,-3.8319346E-3,5.3974614E-3,8.3475746E-4,-1.4808691E-2],"categories":[],"categories_nodes":[],"categories_segments":[],"categories_sizes":[],"default_left":[0,0,0,0,0,0,0,0,0,0,0,0,0],"id":33,"left_children":[1,3,5,7,9,-1,11,-1,-1,-1,-1,-1,-1],"loss_changes":[1.1536229E4,7.5999395E3,1.6962891E0,7.791699E1,3.3904543E3,0E0,6.7057314E0,0E0,0E0,0E0,0E0,0E0,0E0],"parents":[2147483647,0,0,1,1,2,2,3,3,4,4,6,6],"right_children":[2,4,6,8,10,-1,12,-1,-1,-1,-1,-1,-1],"split_conditions":[1E0,1E0,1.63E2,1.54E2,2.9E1,-1.5446366E-2,2.3E1,-1.4292541E-2,-8.876144E-3,-3.8319346E-3,5.3974614E-3,8.3475746E-4,-1.4808691E-2],"split_indices":[4,6,8,8,1,0,1,0,0,0,0,0,0],"split_type":[0,0,0,0,0,0,0,0,0,0,0,0,0],"sum_hessian":[3.4340477E4,3.0096023E4,4.2444536E3,2.7421182E3,2.7353906E4,4.2332856E3,1.1168132E1,2.4369875E3,3.051307E2,4.8339736E3,2.2519932E4,3.9600782E0,7.208054E0],"tree_param":{"num_deleted":"0","num_feature":"10","num_nodes":"13","size_leaf_vector":"1"}},{"base_weights":[-1.6674455E-4,2.1551093E-1,-1.5345845E0,-1.360505E0,3.7306333E-1,-1.535882E-2,-9.5798004E-1,-1.4203621E-2,-8.803229E-3,-4.1563986E-3,5.2734995E-3,8.280052E-4,-1.4715503E-2],"categories":[],"categories_nodes":[],"categories_segments":[],"categories_sizes":[],"default_left":[0,0,0,0,0,0,0,0,0,0,0,0,0],"id":34,"left_children":[1,3,5,7,9,-1,11,-1,-1,-1,-1,-1,-1],"loss_changes":[1.1351325E4,7.467836E3,1.6914062E0,7.731348E1,3.3272249E3,0E0,6.615224E0,0E0,0E0,0E0,0E0,0E0,0E0],"parents":[2147483647,0,0,1,1,2,2,3,3,4,4,6,6],"right_children":[2,4,6,8,10,-1,12,-1,-1,-1,-1,-1,-1],"split_conditions":[1E0,1E0,1.63E2,1.54E2,2.8E1,-1.535882E-2,2.3E1,-1.4203621E-2,-8.803229E-3,-4.1563986E-3,5.2734995E-3,8.280052E-4,-1.4715503E-2],"split_indices":[4,6,8,8,1,0,1,0,0,0,0,0,0],"split_type":[0,0,0,0,0,0,0,0,0,0,0,0,0],"sum_hessian":[3.429829E4,3.00722E4,4.2260874E3,2.7323667E3,2.7339834E4,4.214939E3,1.114819E1,2.4277742E3,3.0459238E2,4.4729097E3,2.2866924E4,3.9605916E0,7.187598E0],"tree_param":{"num_deleted":"0","num_feature":"10","num_nodes":"13","size_leaf_vector":"1"}},{"base_weights":[-1.7219585E-4,2.1352609E-1,-1.5260086E0,-1.3518257E0,3.6952817E-1,-1.527306E-2,-9.511614E-1,-1.4116246E-2,-8.731109E-3,-3.7613872E-3,5.29682E-3,8.2131114E-4,-1.4624039E-2],"categories":[],"categories_nodes":[],"categories_segments":[],"categories_sizes":[],"default_left":[0,0,0,0,0,0,0,0,0,0,0,0,0],"id":35,"left_children":[1,3,5,7,9,-1,11,-1,-1,-1,-1,-1,-1],"loss_changes":[1.1170251E4,7.3383896E3,1.6865234E0,7.673096E1,3.2635608E3,0E0,6.526718E0,0E0,0E0,0E0,0E0,0E0,0E0],"parents":[2147483647,0,0,1,1,2,2,3,3,4,4,6,6],"right_children":[2,4,6,8,10,-1,12,-1,-1,-1,-1,-1,-1],"split_conditions":[1E0,1E0,1.63E2,1.54E2,2.9E1,-1.527306E-2,2.3E1,-1.4116246E-2,-8.731109E-3,-3.7613872E-3,5.29682E-3,8.2131114E-4,-1.4624039E-2],"split_indices":[4,6,8,8,1,0,1,0,0,0,0,0,0],"split_type":[0,0,0,0,0,0,0,0,0,0,0,0,0],"sum_hessian":[3.4255367E4,3.0047918E4,4.2074473E3,2.7224744E3,2.7325443E4,4.1963193E3,1.11276865E1,2.4184263E3,3.040483E2,4.8310415E3,2.2494402E4,3.9611E0,7.1665864E0],"tree_param":{"num_deleted":"0","num_feature":"10","num_nodes":"13","size_leaf_vector":"1"}},{"base_weights":[-1.7737513E-4,2.1156156E-1,-1.5176058E0,-1.343287E0,3.6602825E-1,-1.5189032E-2,-9.444399E-1,-1.4030381E-2,-8.659765E-3,-4.079953E-3,5.175152E-3,8.146694E-4,-1.4534249E-2],"categories":[],"categories_nodes":[],"categories_segments":[],"categories_sizes":[],"default_left":[0,0,0,0,0,0,0,0,0,0,0,0,0],"id":36,"left_children":[1,3,5,7,9,-1,11,-1,-1,-1,-1,-1,-1],"loss_changes":[1.0992896E4,7.2115234E3,1.6806641E0,7.6171875E1,3.2026594E3,0E0,6.4401455E0,0E0,0E0,0E0,0E0,0E0,0E0],"parents":[2147483647,0,0,1,1,2,2,3,3,4,4,6,6],"right_children":[2,4,6,8,10,-1,12,-1,-1,-1,-1,-1,-1],"split_conditions":[1E0,1E0,1.63E2,1.54E2,2.8E1,-1.5189032E-2,2.3E1,-1.4030381E-2,-8.659765E-3,-4.079953E-3,5.175152E-3,8.146694E-4,-1.4534249E-2],"split_indices":[4,6,8,8,1,0,1,0,0,0,0,0,0],"split_type":[0,0,0,0,0,0,0,0,0,0,0,0,0],"sum_hessian":[3.421195E4,3.0023404E4,4.1885454E3,2.7124473E3,2.7310957E4,4.177439E3,1.110664E1,2.4089485E3,3.0349872E2,4.469962E3,2.2840996E4,3.961603E0,7.145037E0],"tree_param":{"num_deleted":"0","num_feature":"10","num_nodes":"13","size_leaf_vector":"1"}},{"base_weights":[-1.8270746E-4,2.0961802E-1,-1.5093712E0,-1.3348845E0,3.6256537E-1,-1.5106689E-2,-9.3781275E-1,-1.3945976E-2,-8.589181E-3,-3.692207E-3,5.198233E-3,8.0808304E-4,-1.4446085E-2],"categories":[],"categories_nodes":[],"categories_segments":[],"categories_sizes":[],"default_left":[0,0,0,0,0,0,0,0,0,0,0,0,0],"id":37,"left_children":[1,3,5,7,9,-1,11,-1,-1,-1,-1,-1,-1],"loss_changes":[1.0819162E4,7.0871846E3,1.6777344E0,7.56333E1,3.141528E3,0E0,6.355447E0,0E0,0E0,0E0,0E0,0E0,0E0],"parents":[2147483647,0,0,1,1,2,2,3,3,4,4,6,6],"right_children":[2,4,6,8,10,-1,12,-1,-1,-1,-1,-1,-1],"split_conditions":[1E0,1E0,1.63E2,1.54E2,2.9E1,-1.5106689E-2,2.3E1,-1.3945976E-2,-8.589181E-3,-3.692207E-3,5.198233E-3,8.0808304E-4,-1.4446085E-2],"split_indices":[4,6,8,8,1,0,1,0,0,0,0,0,0],"split_type":[0,0,0,0,0,0,0,0,0,0,0,0,0],"sum_hessian":[3.416786E4,2.9998465E4,4.1693936E3,2.7022908E3,2.7296174E4,4.158308E3,1.108507E1,2.399347E3,3.0294385E2,4.828027E3,2.2468148E4,3.9621005E0,7.122969E0],"tree_param":{"num_deleted":"0","num_feature":"10","num_nodes":"13","size_leaf_vector":"1"}},{"base_weights":[-1.8798951E-4,2.0769392E-1,-1.5012997E0,-1.3266143E0,3.5913646E-1,-1.502598E-2,-9.312778E-1,-1.3862989E-2,-8.519342E-3,-4.0049874E-3,5.0788E-3,8.0155063E-4,-1.4359505E-2],"categories":[],"categories_nodes":[],"categories_segments":[],"categories_sizes":[],"default_left":[0,0,0,0,0,0,0,0,0,0,0,0,0],"id":38,"left_children":[1,3,5,7,9,-1,11,-1,-1,-1,-1,-1,-1],"loss_changes":[1.0648943E4,6.965295E3,1.6728516E0,7.5115234E1,3.0828557E3,0E0,6.272565E0,0E0,0E0,0E0,0E0,0E0,0E0],"parents":[2147483647,0,0,1,1,2,2,3,3,4,4,6,6],"right_children":[2,4,6,8,10,-1,12,-1,-1,-1,-1,-1,-1],"split_conditions":[1E0,1E0,1.63E2,1.54E2,2.8E1,-1.502598E-2,2.3E1,-1.3862989E-2,-8.519342E-3,-4.0049874E-3,5.0788E-3,8.0155063E-4,-1.4359505E-2],"split_indices":[4,6,8,8,1,0,1,0,0,0,0,0,0],"split_type":[0,0,0,0,0,0,0,0,0,0,0,0,0],"sum_hessian":[3.4123324E4,2.9973322E4,4.1500024E3,2.6920115E3,2.728131E4,4.1389395E3,1.1062994E1,2.3896274E3,3.0238403E2,4.4669346E3,2.2814375E4,3.9625926E0,7.100401E0],"tree_param":{"num_deleted":"0","num_feature":"10","num_nodes":"13","size_leaf_vector":"1"}},{"base_weights":[-1.9336196E-4,2.0579024E-1,-1.4933873E0,-1.3184727E0,3.5574365E-1,-1.4946863E-2,-9.248325E-1,-1.3781382E-2,-8.4502315E-3,-3.624359E-3,5.1016384E-3,7.950725E-4,-1.4274462E-2],"categories":[],"categories_nodes":[],"categories_segments":[],"categories_sizes":[],"default_left":[0,0,0,0,0,0,0,0,0,0,0,0,0],"id":39,"left_children":[1,3,5,7,9,-1,11,-1,-1,-1,-1,-1,-1],"loss_changes":[1.0482155E4,6.8458154E3,1.6689453E0,7.4615234E1,3.0241528E3,0E0,6.1914406E0,0E0,0E0,0E0,0E0,0E0,0E0],"parents":[2147483647,0,0,1,1,2,2,3,3,4,4,6,6],"right_children":[2,4,6,8,10,-1,12,-1,-1,-1,-1,-1,-1],"split_conditions":[1E0,1E0,1.63E2,1.54E2,2.9E1,-1.4946863E-2,2.3E1,-1.3781382E-2,-8.4502315E-3,-3.624359E-3,5.1016384E-3,7.950725E-4,-1.4274462E-2],"split_indices":[4,6,8,8,1,0,1,0,0,0,0,0,0],"split_type":[0,0,0,0,0,0,0,0,0,0,0,0,0],"sum_hessian":[3.4078164E4,2.9947781E4,4.130384E3,2.6816147E3,2.7266168E4,4.1193438E3,1.104043E1,2.3797954E3,3.0181946E2,4.8249365E3,2.244123E4,3.96308E0,7.0773497E0],"tree_param":{"num_deleted":"0","num_feature":"10","num_nodes":"13","size_leaf_vector":"1"}},{"base_weights":[-1.984811E-4,2.0390557E-1,-1.4856292E0,-1.3104562E0,3.5238412E-1,-1.486929E-2,-9.184748E-1,-1.3701115E-2,-8.381838E-3,-3.9314646E-3,4.984391E-3,7.8864757E-4,-1.4190913E-2],"categories":[],"categories_nodes":[],"categories_segments":[],"categories_sizes":[],"default_left":[0,0,0,0,0,0,0,0,0,0,0,0,0],"id":40,"left_children":[1,3,5,7,9,-1,11,-1,-1,-1,-1,-1,-1],"loss_changes":[1.0318697E4,6.728671E3,1.6650391E0,7.413428E1,2.96762E3,0E0,6.1120167E0,0E0,0E0,0E0,0E0,0E0,0E0],"parents":[2147483647,0,0,1,1,2,2,3,3,4,4,6,6],"right_children":[2,4,6,8,10,-1,12,-1,-1,-1,-1,-1,-1],"split_conditions":[1E0,1E0,1.63E2,1.54E2,2.8E1,-1.486929E-2,2.3E1,-1.3701115E-2,-8.381838E-3,-3.9314646E-3,4.984391E-3,7.8864757E-4,-1.4190913E-2],"split_indices":[4,6,8,8,1,0,1,0,0,0,0,0,0],"split_type":[0,0,0,0,0,0,0,0,0,0,0,0,0],"sum_hessian":[3.4032613E4,2.9922064E4,4.1105474E3,2.6711062E3,2.7250959E4,4.09953E3,1.1017394E1,2.3698557E3,3.0125046E2,4.4638354E3,2.2787123E4,3.963562E0,7.053832E0],"tree_param":{"num_deleted":"0","num_feature":"10","num_nodes":"13","size_leaf_vector":"1"}},{"base_weights":[-2.0374646E-4,2.0204063E-1,-1.478021E0,-1.3025608E0,3.4905964E-1,-1.4793219E-2,-9.122025E-1,-1.3622145E-2,-8.314145E-3,-3.557813E-3,5.006985E-3,7.822735E-4,-1.410882E-2],"categories":[],"categories_nodes":[],"categories_segments":[],"categories_sizes":[],"default_left":[0,0,0,0,0,0,0,0,0,0,0,0,0],"id":41,"left_children":[1,3,5,7,9,-1,11,-1,-1,-1,-1,-1,-1],"loss_changes":[1.0158486E4,6.6138164E3,1.6621094E0,7.367041E1,2.9112493E3,0E0,6.0342445E0,0E0,0E0,0E0,0E0,0E0,0E0],"parents":[2147483647,0,0,1,1,2,2,3,3,4,4,6,6],"right_children":[2,4,6,8,10,-1,12,-1,-1,-1,-1,-1,-1],"split_conditions":[1E0,1E0,1.63E2,1.54E2,2.9E1,-1.4793219E-2,2.3E1,-1.3622145E-2,-8.314145E-3,-3.557813E-3,5.006985E-3,7.822735E-4,-1.410882E-2],"split_indices":[4,6,8,8,1,0,1,0,0,0,0,0,0],"split_type":[0,0,0,0,0,0,0,0,0,0,0,0,0],"sum_hessian":[3.3986484E4,2.989598E4,4.0905044E3,2.6604915E3,2.7235488E4,4.0795105E3,1.0993904E1,2.3598142E3,3.0067722E2,4.821778E3,2.241371E4,3.964039E0,7.0298653E0],"tree_param":{"num_deleted":"0","num_feature":"10","num_nodes":"13","size_leaf_vector":"1"}},{"base_weights":[-2.089769E-4,2.0019391E-1,-1.4705588E0,-1.2947835E0,3.4576732E-1,-1.4718609E-2,-9.060134E-1,-1.3544442E-2,-8.247138E-3,-2.8292194E-3,5.1361034E-3,7.759517E-4,-1.4028142E-2],"categories":[],"categories_nodes":[],"categories_segments":[],"categories_sizes":[],"default_left":[0,0,0,0,0,0,0,0,0,0,0,0,0],"id":42,"left_children":[1,3,5,7,9,-1,11,-1,-1,-1,-1,-1,-1],"loss_changes":[1.0001431E4,6.5011855E3,1.6591797E0,7.3223145E1,2.8725317E3,0E0,5.9580708E0,0E0,0E0,0E0,0E0,0E0,0E0],"parents":[2147483647,0,0,1,1,2,2,3,3,4,4,6,6],"right_children":[2,4,6,8,10,-1,12,-1,-1,-1,-1,-1,-1],"split_conditions":[1E0,1E0,1.63E2,1.54E2,1E0,-1.4718609E-2,2.3E1,-1.3544442E-2,-8.247138E-3,-2.8292194E-3,5.1361034E-3,7.759517E-4,-1.4028142E-2],"split_indices":[4,6,8,8,5,0,1,0,0,0,0,0,0],"split_type":[0,0,0,0,0,0,0,0,0,0,0,0,0],"sum_hessian":[3.3940004E4,2.986974E4,4.0702644E3,2.6497751E3,2.7219967E4,4.0592944E3,1.0969976E1,2.349675E3,3.001E2,5.7355693E3,2.1484396E4,3.964511E0,7.0054655E0],"tree_param":{"num_deleted":"0","num_feature":"10","num_nodes":"13","size_leaf_vector":"1"}},{"base_weights":[-2.1408408E-4,1.9835192E-1,-1.4632384E0,-1.2871208E0,3.424816E-1,-1.4645419E-2,-8.9990544E-1,-1.34679675E-2,-8.180807E-3,-3.844921E-3,4.8503396E-3,7.69684E-4,-1.3948842E-2],"categories":[],"categories_nodes":[],"categories_segments":[],"categories_sizes":[],"default_left":[0,0,0,0,0,0,0,0,0,0,0,0,0],"id":43,"left_children":[1,3,5,7,9,-1,11,-1,-1,-1,-1,-1,-1],"loss_changes":[9.847371E3,6.3905693E3,1.6572266E0,7.279199E1,2.8197397E3,0E0,5.8834534E0,0E0,0E0,0E0,0E0,0E0,0E0],"parents":[2147483647,0,0,1,1,2,2,3,3,4,4,6,6],"right_children":[2,4,6,8,10,-1,12,-1,-1,-1,-1,-1,-1],"split_conditions":[1E0,1E0,1.63E2,1.54E2,2.8E1,-1.4645419E-2,2.3E1,-1.34679675E-2,-8.180807E-3,-3.844921E-3,4.8503396E-3,7.69684E-4,-1.3948842E-2],"split_indices":[4,6,8,8,1,0,1,0,0,0,0,0,0],"split_type":[0,0,0,0,0,0,0,0,0,0,0,0,0],"sum_hessian":[3.3895207E4,2.984537E4,4.0498376E3,2.6389631E3,2.7206406E4,4.0388918E3,1.0945627E1,2.339444E3,2.99519E2,4.460011E3,2.2746395E4,3.9649782E0,6.980649E0],"tree_param":{"num_deleted":"0","num_feature":"10","num_nodes":"13","size_leaf_vector":"1"}},{"base_weights":[-2.1929006E-4,1.9654278E-1,-1.4560562E0,-1.2795697E0,3.3925608E-1,-1.4573613E-2,-8.9387673E-1,-1.3392689E-2,-8.115134E-3,-2.794526E-3,5.045547E-3,7.6346536E-4,-1.387088E-2],"categories":[],"categories_nodes":[],"categories_segments":[],"categories_sizes":[],"default_left":[0,0,0,0,0,0,0,0,0,0,0,0,0],"id":44,"left_children":[1,3,5,7,9,-1,11,-1,-1,-1,-1,-1,-1],"loss_changes":[9.696397E3,6.282253E3,1.6542969E0,7.237549E1,2.781065E3,0E0,5.810336E0,0E0,0E0,0E0,0E0,0E0,0E0],"parents":[2147483647,0,0,1,1,2,2,3,3,4,4,6,6],"right_children":[2,4,6,8,10,-1,12,-1,-1,-1,-1,-1,-1],"split_conditions":[1E0,1E0,1.63E2,1.54E2,1E0,-1.4573613E-2,2.3E1,-1.3392689E-2,-8.115134E-3,-2.794526E-3,5.045547E-3,7.6346536E-4,-1.387088E-2],"split_indices":[4,6,8,8,5,0,1,0,0,0,0,0,0],"split_type":[0,0,0,0,0,0,0,0,0,0,0,0,0],"sum_hessian":[3.3847816E4,2.9818582E4,4.0292334E3,2.6280596E3,2.7190521E4,4.0183125E3,1.0920872E1,2.3291252E3,2.9893448E2,5.7326533E3,2.1457867E4,3.9654405E0,6.9554315E0],"tree_param":{"num_deleted":"0","num_feature":"10","num_nodes":"13","size_leaf_vector":"1"}},{"base_weights":[-2.2447154E-4,1.9473752E-1,-1.4490083E0,-1.2721269E0,3.3603585E-1,-1.4503151E-2,-8.879253E-1,-1.3318569E-2,-8.050109E-3,-3.7936626E-3,4.764134E-3,7.572981E-4,-1.3794224E-2],"categories":[],"categories_nodes":[],"categories_segments":[],"categories_sizes":[],"default_left":[0,0,0,0,0,0,0,0,0,0,0,0,0],"id":45,"left_children":[1,3,5,7,9,-1,11,-1,-1,-1,-1,-1,-1],"loss_changes":[9.548261E3,6.1758496E3,1.6523438E0,7.197412E1,2.7295369E3,0E0,5.73868E0,0E0,0E0,0E0,0E0,0E0,0E0],"parents":[2147483647,0,0,1,1,2,2,3,3,4,4,6,6],"right_children":[2,4,6,8,10,-1,12,-1,-1,-1,-1,-1,-1],"split_conditions":[1E0,1E0,1.63E2,1.54E2,2.8E1,-1.4503151E-2,2.3E1,-1.3318569E-2,-8.050109E-3,-3.7936626E-3,4.764134E-3,7.572981E-4,-1.3794224E-2],"split_indices":[4,6,8,8,1,0,1,0,0,0,0,0,0],"split_type":[0,0,0,0,0,0,0,0,0,0,0,0,0],"sum_hessian":[3.3802203E4,2.9793744E4,4.0084612E3,2.6170706E3,2.7176674E4,3.9975654E3,1.0895726E1,2.3187239E3,2.9834665E2,4.457638E3,2.2719035E4,3.9658978E0,6.929828E0],"tree_param":{"num_deleted":"0","num_feature":"10","num_nodes":"13","size_leaf_vector":"1"}},{"base_weights":[-2.2965657E-4,1.9296421E-1,-1.4420912E0,-1.2647895E0,3.3287412E-1,-1.4433999E-2,-8.820495E-1,-1.3245581E-2,-7.985721E-3,-2.7602215E-3,4.9567237E-3,7.511808E-4,-1.371884E-2],"categories":[],"categories_nodes":[],"categories_segments":[],"categories_sizes":[],"default_left":[0,0,0,0,0,0,0,0,0,0,0,0,0],"id":46,"left_children":[1,3,5,7,9,-1,11,-1,-1,-1,-1,-1,-1],"loss_changes":[9.403054E3,6.0716387E3,1.6494141E0,7.1586914E1,2.6925867E3,0E0,5.6684427E0,0E0,0E0,0E0,0E0,0E0,0E0],"parents":[2147483647,0,0,1,1,2,2,3,3,4,4,6,6],"right_children":[2,4,6,8,10,-1,12,-1,-1,-1,-1,-1,-1],"split_conditions":[1E0,1E0,1.63E2,1.54E2,1E0,-1.4433999E-2,2.3E1,-1.3245581E-2,-7.985721E-3,-2.7602215E-3,4.9567237E-3,7.511808E-4,-1.371884E-2],"split_indices":[4,6,8,8,5,0,1,0,0,0,0,0,0],"split_type":[0,0,0,0,0,0,0,0,0,0,0,0,0],"sum_hessian":[3.3754082E4,2.976655E4,3.9875298E3,2.6059998E3,2.716055E4,3.9766597E3,1.0870204E1,2.3082441E3,2.9775574E2,5.729698E3,2.1430854E4,3.9663508E0,6.9038534E0],"tree_param":{"num_deleted":"0","num_feature":"10","num_nodes":"13","size_leaf_vector":"1"}},{"base_weights":[-2.3460439E-4,1.9119495E-1,-1.4353014E0,-1.2575548E0,3.297181E-1,-1.4366122E-2,-8.762473E-1,-1.3173692E-2,-7.9219565E-3,-3.4221753E-3,4.745953E-3,7.45114E-4,-1.3644692E-2],"categories":[],"categories_nodes":[],"categories_segments":[],"categories_sizes":[],"default_left":[0,0,0,0,0,0,0,0,0,0,0,0,0],"id":47,"left_children":[1,3,5,7,9,-1,11,-1,-1,-1,-1,-1,-1],"loss_changes":[9.260546E3,5.969258E3,1.6484375E0,7.121338E1,2.6429163E3,0E0,5.599581E0,0E0,0E0,0E0,0E0,0E0,0E0],"parents":[2147483647,0,0,1,1,2,2,3,3,4,4,6,6],"right_children":[2,4,6,8,10,-1,12,-1,-1,-1,-1,-1,-1],"split_conditions":[1E0,1E0,1.63E2,1.54E2,2.9E1,-1.4366122E-2,2.3E1,-1.3173692E-2,-7.9219565E-3,-3.4221753E-3,4.745953E-3,7.45114E-4,-1.3644692E-2],"split_indices":[4,6,8,8,1,0,1,0,0,0,0,0,0],"split_type":[0,0,0,0,0,0,0,0,0,0,0,0,0],"sum_hessian":[3.3707742E4,2.9741295E4,3.9664487E3,2.5948523E3,2.7146441E4,3.9556045E3,1.0844321E1,2.2976902E3,2.971619E2,4.8146934E3,2.2331748E4,3.9667985E0,6.877523E0],"tree_param":{"num_deleted":"0","num_feature":"10","num_nodes":"13","size_leaf_vector":"1"}},{"base_weights":[-2.3980594E-4,1.894558E-1,-1.4286356E0,-1.2504199E0,3.2661742E-1,-1.4299487E-2,-8.7051696E-1,-1.310287E-2,-7.8588035E-3,-2.7250713E-3,4.8693144E-3,7.390971E-4,-1.35717485E-2],"categories":[],"categories_nodes":[],"categories_segments":[],"categories_sizes":[],"default_left":[0,0,0,0,0,0,0,0,0,0,0,0,0],"id":48,"left_children":[1,3,5,7,9,-1,11,-1,-1,-1,-1,-1,-1],"loss_changes":[9.120814E3,5.86896E3,1.6464844E0,7.0850586E1,2.6060325E3,0E0,5.532054E0,0E0,0E0,0E0,0E0,0E0,0E0],"parents":[2147483647,0,0,1,1,2,2,3,3,4,4,6,6],"right_children":[2,4,6,8,10,-1,12,-1,-1,-1,-1,-1,-1],"split_conditions":[1E0,1E0,1.63E2,1.54E2,1E0,-1.4299487E-2,2.3E1,-1.310287E-2,-7.8588035E-3,-2.7250713E-3,4.8693144E-3,7.390971E-4,-1.35717485E-2],"split_indices":[4,6,8,8,5,0,1,0,0,0,0,0,0],"split_type":[0,0,0,0,0,0,0,0,0,0,0,0,0],"sum_hessian":[3.3659062E4,2.9713834E4,3.9452263E3,2.5836323E3,2.7130201E4,3.9344084E3,1.0818093E1,2.287067E3,2.965654E2,5.726914E3,2.1403287E4,3.967242E0,6.850851E0],"tree_param":{"num_deleted":"0","num_feature":"10","num_nodes":"13","size_leaf_vector":"1"}},{"base_weights":[-2.4482262E-4,1.8772124E-1,-1.4220905E0,-1.243382E0,3.235236E-1,-1.4234059E-2,-8.648569E-1,-1.303309E-2,-7.796254E-3,-3.6962482E-3,4.5972615E-3,7.3312904E-4,-1.349998E-2],"categories":[],"categories_nodes":[],"categories_segments":[],"categories_sizes":[],"default_left":[0,0,0,0,0,0,0,0,0,0,0,0,0],"id":49,"left_children":[1,3,5,7,9,-1,11,-1,-1,-1,-1,-1,-1],"loss_changes":[8.983653E3,5.770415E3,1.6459961E0,7.050122E1,2.5602341E3,0E0,5.465825E0,0E0,0E0,0E0,0E0,0E0,0E0],"parents":[2147483647,0,0,1,1,2,2,3,3,4,4,6,6],"right_children":[2,4,6,8,10,-1,12,-1,-1,-1,-1,-1,-1],"split_conditions":[1E0,1E0,1.63E2,1.54E2,2.8E1,-1.4234059E-2,2.3E1,-1.303309E-2,-7.796254E-3,-3.6962482E-3,4.5972615E-3,7.3312904E-4,-1.349998E-2],"split_indices":[4,6,8,8,1,0,1,0,0,0,0,0,0],"split_type":[0,0,0,0,0,0,0,0,0,0,0,0,0],"sum_hessian":[3.361207E4,2.9688197E4,3.923871E3,2.5723442E3,2.7115854E4,3.9130796E3,1.0791532E1,2.276378E3,2.959664E2,4.452898E3,2.2662955E4,3.9676807E0,6.8238506E0],"tree_param":{"num_deleted":"0","num_feature":"10","num_nodes":"13","size_leaf_vector":"1"}}]},"name":"gbtree"},"learner_model_param":{"base_score":"4.9988714E-1","boost_from_average":"1","num_class":"0","num_feature":"10","num_target":"1"},"objective":{"name":"binary:logistic","reg_loss_param":{"scale_pos_weight":"7.28000021"}}},"version":[2,0,3]}