{"learner":{"attributes":{"scikit_learn":"{\"_estimator_type\": \"classifier\"}"},"feature_names":["Gender","Age","HasDrivingLicense","RegionID","Switch","VehicleAge","PastAccident","AnnualPremium","SalesChannelID","DaysSinceCreated"],"feature_types":["int","float","float","float","int","int","int","float","int","int"],"gradient_booster":{"model":{"gbtree_model_param":{"num_parallel_tree":"1","num_trees":"50"},"iteration_indptr":[0,1,2,3,4,5,6,7,8,9,10,11,12,13,14,15,16,17,18,19,20,21,22,23,24,25,26,27,28,29,30,31,32,33,34,35,36,37,38,39,40,41,42,43,44,45,46,47,48,49,50],"tree_info":[0,0,0,0,0,0,0,0,0,0,0,0,0,0,0,0,0,0,0,0,0,0,0,0,0,0,0,0,0,0,0,0,0,0,0,0,0,0,0,0,0,0,0,0,0,0,0,0,0,0],"trees":[{"base_weights":[-8.155028E-8,-1.8747747E0,3.1744516E-1,-1.9136302E0,-1.5094926E0,5.195277E-1,-1.9659818E0,-1.8541382E-1,-1.9911963E-1,-7.005485E-2,-1.8855526E-1,-5.7500374E-2,7.326593E-2,-1.9688578E-1,-9.76445E-2],"categories":[],"categories_nodes":[],"categories_segments":[],"categories_sizes":[],"default_left":[0,0,0,0,0,0,0,0,0,0,0,0,0,0,0],"id":0,"left_children":[1,3,5,7,9,11,13,-1,-1,-1,-1,-1,-1,-1,-1],"loss_changes":[2.0928074E4,6.9384766E1,1.3877916E4,1.7527344E1,1.4905383E2,6.4456235E3,5.036133E0,0E0,0E0,0E0,0E0,0E0,0E0,0E0,0E0],"parents":[2147483647,0,0,1,1,2,2,3,3,4,4,5,5,6,6],"right_children":[2,4,6,8,10,12,14,-1,-1,-1,-1,-1,-1,-1,-1],"split_conditions":[1E0,1.54E2,1E0,1E0,1.58E2,2.8E1,1.63E2,-1.8541382E-1,-1.9911963E-1,-7.005485E-2,-1.8855526E-1,-5.7500374E-2,7.326593E-2,-1.9688578E-1,-9.76445E-2],"split_indices":[6,8,4,4,8,1,8,0,0,0,0,0,0,0,0],"split_type":[0,0,0,0,0,0,0,0,0,0,0,0,0,0,0],"sum_hessian":[3.516306E4,5.09109E3,3.007197E4,4.59778E3,4.9331E2,2.7627701E4,2.44427E3,2.61614E3,1.98164E3,1.5746E2,3.3585E2,4.50267E3,2.3125031E4,2.4362E3,8.07E0],"tree_param":{"num_deleted":"0","num_feature":"10","num_nodes":"15","size_leaf_vector":"1"}},{"base_weights":[-1.3414906E-4,-1.7031245E0,2.8621385E-1,-1.7388442E0,-1.3682512E0,4.6818274E-1,-1.7873785E0,-1.6837816E-1,-1.8107383E-1,-6.317442E-2,-1.7132814E-1,-5.1796682E-2,6.6030316E-2,-1.7899972E-1,-8.915415E-2],"categories":[],"categories_nodes":[],"categories_segments":[],"categories_sizes":[],"default_left":[0,0,0,0,0,0,0,0,0,0,0,0,0,0,0],"id":1,"left_children":[1,3,5,7,9,11,13,-1,-1,-1,-1,-1,-1,-1,-1],"loss_changes":[1.7097828E4,5.798828E1,1.1326371E4,1.4990234E1,1.2372308E2,5.2283423E3,4.084961E0,0E0,0E0,0E0,0E0,0E0,0E0,0E0,0E0],"parents":[2147483647,0,0,1,1,2,2,3,3,4,4,5,5,6,6],"right_children":[2,4,6,8,10,12,14,-1,-1,-1,-1,-1,-1,-1,-1],"split_conditions":[1E0,1.54E2,1E0,1E0,1.58E2,2.8E1,1.63E2,-1.6837816E-1,-1.8107383E-1,-6.317442E-2,-1.7132814E-1,-5.1796682E-2,6.6030316E-2,-1.7899972E-1,-8.915415E-2],"split_indices":[6,8,4,4,8,1,8,0,0,0,0,0,0,0,0],"split_type":[0,0,0,0,0,0,0,0,0,0,0,0,0,0,0],"sum_hessian":[3.5059832E4,5.0458467E3,3.0013984E4,4.555714E3,4.901328E2,2.7593299E4,2.420686E3,2.593675E3,1.9620387E3,1.5726448E2,3.3286832E2,4.4988916E3,2.3094406E4,2.4126355E3,8.050617E0],"tree_param":{"num_deleted":"0","num_feature":"10","num_nodes":"15","size_leaf_vector":"1"}},{"base_weights":[-4.8676934E-4,-1.5710306E0,2.587943E-1,-1.6050894E0,-1.2540648E0,4.228256E-1,-1.652222E0,-1.5518032E-1,-1.6749273E-1,-5.7088435E-2,-1.580644E-1,-4.3102294E-2,6.0554843E-2,-1.6547142E-1,-8.170621E-2],"categories":[],"categories_nodes":[],"categories_segments":[],"categories_sizes":[],"default_left":[0,0,0,0,0,0,0,0,0,0,0,0,0,0,0],"id":2,"left_children":[1,3,5,7,9,11,13,-1,-1,-1,-1,-1,-1,-1,-1],"loss_changes":[1.4168651E4,5.1211914E1,9.362065E3,1.3955078E1,1.0684723E2,4.291381E3,3.5625E0,0E0,0E0,0E0,0E0,0E0,0E0,0E0,0E0],"parents":[2147483647,0,0,1,1,2,2,3,3,4,4,5,5,6,6],"right_children":[2,4,6,8,10,12,14,-1,-1,-1,-1,-1,-1,-1,-1],"split_conditions":[1E0,1.54E2,1E0,1E0,1.58E2,2.9E1,1.63E2,-1.5518032E-1,-1.6749273E-1,-5.7088435E-2,-1.580644E-1,-4.3102294E-2,6.0554843E-2,-1.6547142E-1,-8.170621E-2],"split_indices":[6,8,4,4,8,1,8,0,0,0,0,0,0,0,0],"split_type":[0,0,0,0,0,0,0,0,0,0,0,0,0,0,0],"sum_hessian":[3.479226E4,4.9292495E3,2.9863014E4,4.447311E3,4.8193848E2,2.7503076E4,2.3599363E3,2.5357527E3,1.9115582E3,1.5675862E2,3.2517984E2,4.847897E3,2.265518E4,2.3519365E3,7.999673E0],"tree_param":{"num_deleted":"0","num_feature":"10","num_nodes":"15","size_leaf_vector":"1"}},{"base_weights":[-9.3836494E-4,2.2048238E-1,-1.5603161E0,-1.3857223E0,3.8242295E-1,-1.5616164E-1,-9.7761494E-1,-1.4459579E-1,-8.993627E-2,-3.889216E-2,5.4793287E-2,9.4498405E-3,-1.5024993E-1],"categories":[],"categories_nodes":[],"categories_segments":[],"categories_sizes":[],"default_left":[0,0,0,0,0,0,0,0,0,0,0,0,0],"id":3,"left_children":[1,3,5,7,9,-1,11,-1,-1,-1,-1,-1,-1],"loss_changes":[1.188288E4,7.839252E3,1.7167969E0,7.956641E1,3.495288E3,0E0,7.007807E0,0E0,0E0,0E0,0E0,0E0,0E0],"parents":[2147483647,0,0,1,1,2,2,3,3,4,4,6,6],"right_children":[2,4,6,8,10,-1,12,-1,-1,-1,-1,-1,-1],"split_conditions":[1E0,1E0,1.63E2,1.54E2,2.9E1,-1.5616164E-1,2.3E1,-1.4459579E-1,-8.993627E-2,-3.889216E-2,5.4793287E-2,9.4498405E-3,-1.5024993E-1],"split_indices":[4,6,8,8,1,0,1,0,0,0,0,0,0],"split_type":[0,0,0,0,0,0,0,0,0,0,0,0,0],"sum_hessian":[3.4413348E4,3.0135215E4,4.2781313E3,2.759327E3,2.7375889E4,4.26693E3,1.12008E1,2.4534897E3,3.0583704E2,4.836138E3,2.253975E4,3.9508576E0,7.2499423E0],"tree_param":{"num_deleted":"0","num_feature":"10","num_nodes":"13","size_leaf_vector":"1"}},{"base_weights":[-1.4158988E-3,2.0001188E-1,-1.475168E0,-1.2987821E0,3.4624556E-1,-1.476472E-1,-9.088805E-1,-1.3586397E-1,-8.2603686E-2,-3.878826E-2,4.901581E-2,8.68468E-3,-1.4105488E-1],"categories":[],"categories_nodes":[],"categories_segments":[],"categories_sizes":[],"default_left":[0,0,0,0,0,0,0,0,0,0,0,0,0],"id":4,"left_children":[1,3,5,7,9,-1,11,-1,-1,-1,-1,-1,-1],"loss_changes":[1.0081912E4,6.549096E3,1.6738281E0,7.404297E1,2.876357E3,0E0,6.1085987E0,0E0,0E0,0E0,0E0,0E0,0E0],"parents":[2147483647,0,0,1,1,2,2,3,3,4,4,6,6],"right_children":[2,4,6,8,10,-1,12,-1,-1,-1,-1,-1,-1],"split_conditions":[1E0,1E0,1.63E2,1.54E2,2.8E1,-1.476472E-1,2.3E1,-1.3586397E-1,-8.2603686E-2,-3.878826E-2,4.901581E-2,8.68468E-3,-1.4105488E-1],"split_indices":[4,6,8,8,1,0,1,0,0,0,0,0,0],"split_type":[0,0,0,0,0,0,0,0,0,0,0,0,0],"sum_hessian":[3.3960465E4,2.9877734E4,4.08273E3,2.6552615E3,2.7222473E4,4.0717463E3,1.0983582E1,2.3551816E3,3.0007986E2,4.4615366E3,2.2760936E4,3.9568279E0,7.026754E0],"tree_param":{"num_deleted":"0","num_feature":"10","num_nodes":"13","size_leaf_vector":"1"}},{"base_weights":[-1.8974268E-3,1.8159479E-1,-1.4055868E0,-1.2244802E0,3.1370533E-1,-1.406913E-1,-8.492012E-1,-1.2848556E-1,-7.601031E-2,-2.7583633E-2,4.7140926E-2,7.9823425E-3,-1.3339335E-1],"categories":[],"categories_nodes":[],"categories_segments":[],"categories_sizes":[],"default_left":[0,0,0,0,0,0,0,0,0,0,0,0,0],"id":5,"left_children":[1,3,5,7,9,-1,11,-1,-1,-1,-1,-1,-1],"loss_changes":[8.618834E3,5.4976943E3,1.6591797E0,7.029248E1,2.5153381E3,0E0,5.384613E0,0E0,0E0,0E0,0E0,0E0,0E0],"parents":[2147483647,0,0,1,1,2,2,3,3,4,4,6,6],"right_children":[2,4,6,8,10,-1,12,-1,-1,-1,-1,-1,-1],"split_conditions":[1E0,1E0,1.63E2,1.54E2,1E0,-1.406913E-1,2.3E1,-1.2848556E-1,-7.601031E-2,-2.7583633E-2,4.7140926E-2,7.9823425E-3,-1.3339335E-1],"split_indices":[4,6,8,8,5,0,1,0,0,0,0,0,0],"split_type":[0,0,0,0,0,0,0,0,0,0,0,0,0],"sum_hessian":[3.346062E4,2.9593047E4,3.867573E3,2.5409556E3,2.7052092E4,3.8568525E3,1.0720637E1,2.2470422E3,2.9391327E2,5.709105E3,2.1342986E4,3.9621713E0,6.758466E0],"tree_param":{"num_deleted":"0","num_feature":"10","num_nodes":"13","size_leaf_vector":"1"}},{"base_weights":[-2.3434926E-3,1.6483922E-1,-1.3477421E0,-1.1596253E0,2.84118E-1,-1.3491051E0,-7.965367E-1,-1.2211795E-1,-7.002393E-2,-2.4848958E-2,4.2748988E-2,-1.3172899E-1,-1.3647264E-1,7.337498E-3,-1.2689033E-1],"categories":[],"categories_nodes":[],"categories_segments":[],"categories_sizes":[],"default_left":[0,0,0,0,0,0,0,0,0,0,0,0,0,0,0],"id":6,"left_children":[1,3,5,7,9,11,13,-1,-1,-1,-1,-1,-1,-1,-1],"loss_changes":[7.4135483E3,4.631808E3,1.6625977E0,6.764038E1,2.0538716E3,7.3242188E-3,4.789011E0,0E0,0E0,0E0,0E0,0E0,0E0,0E0,0E0],"parents":[2147483647,0,0,1,1,2,2,3,3,4,4,5,5,6,6],"right_children":[2,4,6,8,10,12,14,-1,-1,-1,-1,-1,-1,-1,-1],"split_conditions":[1E0,1E0,1.63E2,1.54E2,1E0,1.52E2,2.3E1,-1.2211795E-1,-7.002393E-2,-2.4848958E-2,4.2748988E-2,-1.3172899E-1,-1.3647264E-1,7.337498E-3,-1.2689033E-1],"split_indices":[4,6,8,8,5,8,1,0,0,0,0,0,0,0,0],"split_type":[0,0,0,0,0,0,0,0,0,0,0,0,0,0,0],"sum_hessian":[3.2957754E4,2.9315775E4,3.641977E3,2.421282E3,2.6894494E4,3.631549E3,1.0427863E1,2.1337212E3,2.8756073E2,5.704033E3,2.119046E4,1.2240076E3,2.4075415E3,3.9669614E0,6.460902E0],"tree_param":{"num_deleted":"0","num_feature":"10","num_nodes":"15","size_leaf_vector":"1"}},{"base_weights":[-2.7550748E-3,1.4966713E-1,-1.2989559E0,-1.1019443E0,2.5738853E-1,-1.3003693E0,-7.49418E-1,-1.1651764E-1,-6.4547546E-2,4.394309E-2,-1.18129505E-2,-1.2678435E-1,-1.3163707E-1,6.745322E-3,-1.2128007E-1],"categories":[],"categories_nodes":[],"categories_segments":[],"categories_sizes":[],"default_left":[0,0,0,0,0,0,0,0,0,0,0,0,0,0,0],"id":7,"left_children":[1,3,5,7,9,11,13,-1,-1,-1,-1,-1,-1,-1,-1],"loss_changes":[6.410355E3,3.9145488E3,1.6772461E0,6.565869E1,1.8274739E3,1.0205078E-1,4.2900634E0,0E0,0E0,0E0,0E0,0E0,0E0,0E0,0E0],"parents":[2147483647,0,0,1,1,2,2,3,3,4,4,5,5,6,6],"right_children":[2,4,6,8,10,12,14,-1,-1,-1,-1,-1,-1,-1,-1],"split_conditions":[1E0,1E0,1.63E2,1.54E2,1.25E2,1.52E2,2.3E1,-1.1651764E-1,-6.4547546E-2,4.394309E-2,-1.18129505E-2,-1.2678435E-1,-1.3163707E-1,6.745322E-3,-1.2128007E-1],"split_indices":[4,6,8,8,8,8,1,0,0,0,0,0,0,0,0],"split_type":[0,0,0,0,0,0,0,0,0,0,0,0,0,0,0],"sum_hessian":[3.2444043E4,2.9031115E4,3.4129277E3,2.2998625E3,2.6731254E4,3.4028103E3,1.0117542E1,2.018674E3,2.8118857E2,1.8003438E4,8.727815E3,1.1485045E3,2.2543057E3,3.971261E0,6.1462812E0],"tree_param":{"num_deleted":"0","num_feature":"10","num_nodes":"15","size_leaf_vector":"1"}},{"base_weights":[-3.1061482E-3,1.3583255E-1,-1.2572701E0,-1.0497737E0,2.3306906E-1,-1.2587458E0,-7.067667E-1,-1.1150636E-1,-5.950892E-2,-3.479374E-2,3.381144E-2,-1.2250131E-1,-1.275386E-1,6.2013916E-3,-1.16368845E-1],"categories":[],"categories_nodes":[],"categories_segments":[],"categories_sizes":[],"default_left":[0,0,0,0,0,0,0,0,0,0,0,0,0,0,0],"id":8,"left_children":[1,3,5,7,9,11,13,-1,-1,-1,-1,-1,-1,-1,-1],"loss_changes":[5.567267E3,3.3161782E3,1.6992188E0,6.406348E1,1.6225782E3,2.2070312E-1,3.8655868E0,0E0,0E0,0E0,0E0,0E0,0E0,0E0,0E0],"parents":[2147483647,0,0,1,1,2,2,3,3,4,4,5,5,6,6],"right_children":[2,4,6,8,10,12,14,-1,-1,-1,-1,-1,-1,-1,-1],"split_conditions":[1E0,1E0,1.63E2,1.54E2,2.7E1,1.52E2,2.3E1,-1.1150636E-1,-5.950892E-2,-3.479374E-2,3.381144E-2,-1.2250131E-1,-1.275386E-1,6.2013916E-3,-1.16368845E-1],"split_indices":[4,6,8,8,1,8,1,0,0,0,0,0,0,0,0],"split_type":[0,0,0,0,0,0,0,0,0,0,0,0,0,0,0],"sum_hessian":[3.1947555E4,2.8762123E4,3.1854316E3,2.1793599E3,2.6582764E4,3.1756326E3,9.799083E0,1.9044412E3,2.7491858E2,4.0698853E3,2.2512877E4,1.0736888E3,2.1019436E3,3.9751265E0,5.8239565E0],"tree_param":{"num_deleted":"0","num_feature":"10","num_nodes":"15","size_leaf_vector":"1"}},{"base_weights":[-3.4348639E-3,1.2335392E-1,-1.221236E0,-1.0018708E0,2.1123609E-1,-1.2227857E0,-6.6777784E-1,-1.06950454E-1,-5.4853488E-2,3.6976833E-2,-1.12212505E-2,-1.1874076E-1,-1.2402969E-1,5.701689E-3,-1.12012126E-1],"categories":[],"categories_nodes":[],"categories_segments":[],"categories_sizes":[],"default_left":[0,0,0,0,0,0,0,0,0,0,0,0,0,0,0],"id":9,"left_children":[1,3,5,7,9,11,13,-1,-1,-1,-1,-1,-1,-1,-1],"loss_changes":[4.8536353E3,2.8155903E3,1.7260742E0,6.2657227E1,1.3542122E3,3.5742188E-1,3.499672E0,0E0,0E0,0E0,0E0,0E0,0E0,0E0,0E0],"parents":[2147483647,0,0,1,1,2,2,3,3,4,4,5,5,6,6],"right_children":[2,4,6,8,10,12,14,-1,-1,-1,-1,-1,-1,-1,-1],"split_conditions":[1E0,1E0,1.63E2,1.54E2,1.25E2,1.52E2,2.3E1,-1.06950454E-1,-5.4853488E-2,3.6976833E-2,-1.12212505E-2,-1.1874076E-1,-1.2402969E-1,5.701689E-3,-1.12012126E-1],"split_indices":[4,6,8,8,8,8,1,0,0,0,0,0,0,0,0],"split_type":[0,0,0,0,0,0,0,0,0,0,0,0,0,0,0],"sum_hessian":[3.143277E4,2.8469615E4,2.9631548E3,2.061696E3,2.6407918E4,2.9536753E3,9.479617E0,1.7928579E3,2.6883813E2,1.772178E4,8.68614E3,1.0007185E3,1.9529567E3,3.9786057E0,5.5010114E0],"tree_param":{"num_deleted":"0","num_feature":"10","num_nodes":"15","size_leaf_vector":"1"}},{"base_weights":[-3.681854E-3,1.1191897E-1,-1.1897503E0,-9.572922E-1,1.9126907E-1,-1.1913855E0,-6.318435E-1,-1.0274774E-1,-5.0539386E-2,-2.850146E-2,2.8707266E-2,-1.1539602E-1,-1.2099848E-1,5.2425615E-3,-1.08099975E-1],"categories":[],"categories_nodes":[],"categories_segments":[],"categories_sizes":[],"default_left":[0,0,0,0,0,0,0,0,0,0,0,0,0,0,0],"id":10,"left_children":[1,3,5,7,9,11,13,-1,-1,-1,-1,-1,-1,-1,-1],"loss_changes":[4.245144E3,2.3937317E3,1.7558594E0,6.1303345E1,1.1984819E3,5.1123047E-1,3.180656E0,0E0,0E0,0E0,0E0,0E0,0E0,0E0,0E0],"parents":[2147483647,0,0,1,1,2,2,3,3,4,4,5,5,6,6],"right_children":[2,4,6,8,10,12,14,-1,-1,-1,-1,-1,-1,-1,-1],"split_conditions":[1E0,1E0,1.63E2,1.54E2,2.8E1,1.52E2,2.3E1,-1.0274774E-1,-5.0539386E-2,-2.850146E-2,2.8707266E-2,-1.1539602E-1,-1.2099848E-1,5.2425615E-3,-1.08099975E-1],"split_indices":[4,6,8,8,1,8,1,0,0,0,0,0,0,0,0],"split_type":[0,0,0,0,0,0,0,0,0,0,0,0,0,0,0],"sum_hessian":[3.0959512E4,2.8210834E4,2.748679E3,1.9482238E3,2.626261E4,2.7395144E3,9.164465E0,1.685216E3,2.6300778E2,4.3976914E3,2.1864918E4,9.304059E2,1.8091086E3,3.981742E0,5.182723E0],"tree_param":{"num_deleted":"0","num_feature":"10","num_nodes":"15","size_leaf_vector":"1"}},{"base_weights":[-3.9022043E-3,1.01587325E-1,-1.1619554E0,-9.1531396E-1,1.7331694E-1,-1.1636875E0,-5.9849966E-1,-9.881882E-2,-4.6533924E-2,-2.0679079E-2,2.7795909E-2,-1.12383485E-1,-1.18358515E-1,4.8206667E-3,-1.04547404E-1],"categories":[],"categories_nodes":[],"categories_segments":[],"categories_sizes":[],"default_left":[0,0,0,0,0,0,0,0,0,0,0,0,0,0,0],"id":11,"left_children":[1,3,5,7,9,11,13,-1,-1,-1,-1,-1,-1,-1,-1],"loss_changes":[3.7236062E3,2.0378682E3,1.7868652E0,5.9904907E1,1.038041E3,6.809082E-1,2.8998227E0,0E0,0E0,0E0,0E0,0E0,0E0,0E0,0E0],"parents":[2147483647,0,0,1,1,2,2,3,3,4,4,5,5,6,6],"right_children":[2,4,6,8,10,12,14,-1,-1,-1,-1,-1,-1,-1,-1],"split_conditions":[1E0,1E0,1.63E2,1.54E2,1E0,1.52E2,2.3E1,-9.881882E-2,-4.6533924E-2,-2.0679079E-2,2.7795909E-2,-1.12383485E-1,-1.18358515E-1,4.8206667E-3,-1.04547404E-1],"split_indices":[4,6,8,8,5,8,1,0,0,0,0,0,0,0,0],"split_type":[0,0,0,0,0,0,0,0,0,0,0,0,0,0,0],"sum_hessian":[3.0478799E4,2.7935049E4,2.5437507E3,1.8398584E3,2.609519E4,2.5348933E3,8.857513E0,1.582391E3,2.5746747E2,5.6329136E3,2.0462275E4,8.6329724E2,1.671596E3,3.9845717E0,4.8729415E0],"tree_param":{"num_deleted":"0","num_feature":"10","num_nodes":"15","size_leaf_vector":"1"}},{"base_weights":[-4.0614153E-3,9.2137024E-2,-1.1371717E0,-8.7537795E-1,1.5694219E-1,-1.1390125E0,-5.6738967E-1,-9.5101446E-2,-4.2811066E-2,2.146708E-2,-5.387599E-2,-1.0963644E-1,-1.1604178E-1,4.1377736E-4,-1.1003118E-1],"categories":[],"categories_nodes":[],"categories_segments":[],"categories_sizes":[],"default_left":[0,0,0,0,0,0,0,0,0,0,0,0,0,0,0],"id":12,"left_children":[1,3,5,7,9,11,13,-1,-1,-1,-1,-1,-1,-1,-1],"loss_changes":[3.274083E3,1.7360532E3,1.8188477E0,5.8394897E1,1.0422727E3,8.6572266E-1,2.9167974E0,0E0,0E0,0E0,0E0,0E0,0E0,0E0,0E0],"parents":[2147483647,0,0,1,1,2,2,3,3,4,4,5,5,6,6],"right_children":[2,4,6,8,10,12,14,-1,-1,-1,-1,-1,-1,-1,-1],"split_conditions":[1E0,1E0,1.63E2,1.54E2,6.3E1,1.52E2,8.3235E2,-9.5101446E-2,-4.2811066E-2,2.146708E-2,-5.387599E-2,-1.0963644E-1,-1.1604178E-1,4.1377736E-4,-1.1003118E-1],"split_indices":[4,6,8,8,1,8,7,0,0,0,0,0,0,0,0],"split_type":[0,0,0,0,0,0,0,0,0,0,0,0,0,0,0],"sum_hessian":[3.0034547E4,2.7685068E4,2.3494792E3,1.7371791E3,2.5947889E4,2.3409177E3,8.561522E0,1.484938E3,2.5224115E2,2.3960373E4,1.9875148E3,7.9973535E2,1.5411824E3,4.609906E0,3.9516156E0],"tree_param":{"num_deleted":"0","num_feature":"10","num_nodes":"15","size_leaf_vector":"1"}},{"base_weights":[-4.1605425E-3,8.3304405E-2,-1.1148201E0,-8.370538E-1,1.4166851E-1,-1.1168138E0,-5.3518265E-1,-9.154636E-2,-3.9349586E-2,2.7550075E-2,-1.2661934E-2,-1.0710074E-1,-1.139939E-1,7.082127E-3,-9.93739E-2],"categories":[],"categories_nodes":[],"categories_segments":[],"categories_sizes":[],"default_left":[0,0,0,0,0,0,0,0,0,0,0,0,0,0,0],"id":13,"left_children":[1,3,5,7,9,11,13,-1,-1,-1,-1,-1,-1,-1,-1],"loss_changes":[2.8843896E3,1.4786189E3,1.9072266E0,5.6730347E1,9.2941235E2,1.0661621E0,2.6685753E0,0E0,0E0,0E0,0E0,0E0,0E0,0E0,0E0],"parents":[2147483647,0,0,1,1,2,2,3,3,4,4,5,5,6,6],"right_children":[2,4,6,8,10,12,14,-1,-1,-1,-1,-1,-1,-1,-1],"split_conditions":[1E0,1E0,1.63E2,1.54E2,1.25E2,1.52E2,2.3E1,-9.154636E-2,-3.9349586E-2,2.7550075E-2,-1.2661934E-2,-1.0710074E-1,-1.139939E-1,7.082127E-3,-9.93739E-2],"split_indices":[4,6,8,8,8,8,1,0,0,0,0,0,0,0,0],"split_type":[0,0,0,0,0,0,0,0,0,0,0,0,0,0,0],"sum_hessian":[2.9690008E4,2.7523447E4,2.166559E3,1.6405093E3,2.588294E4,2.1582092E3,8.349835E0,1.3931683E3,2.4734091E2,1.7268648E4,8.614289E3,7.399087E2,1.4183005E3,3.9608893E0,4.388946E0],"tree_param":{"num_deleted":"0","num_feature":"10","num_nodes":"15","size_leaf_vector":"1"}},{"base_weights":[-4.215008E-3,7.54796E-2,-1.0945152E0,-8.000118E-1,1.281917E-1,-1.0966437E0,-5.077918E-1,-8.811458E-2,-3.6131695E-2,1.9484265E-2,-3.9606016E-2,-1.0473173E-1,-1.1217075E-1,3.234169E-3,-1.045978E-1],"categories":[],"categories_nodes":[],"categories_segments":[],"categories_sizes":[],"default_left":[0,0,0,0,0,0,0,0,0,0,0,0,0,0,0],"id":14,"left_children":[1,3,5,7,9,11,13,-1,-1,-1,-1,-1,-1,-1,-1],"loss_changes":[2.5463184E3,1.2603702E3,1.9362793E0,5.4885925E1,9.001344E2,1.282959E0,2.672637E0,0E0,0E0,0E0,0E0,0E0,0E0,0E0,0E0],"parents":[2147483647,0,0,1,1,2,2,3,3,4,4,5,5,6,6],"right_children":[2,4,6,8,10,12,14,-1,-1,-1,-1,-1,-1,-1,-1],"split_conditions":[1E0,1E0,1.63E2,1.54E2,5.9E1,1.52E2,8.3235E2,-8.811458E-2,-3.6131695E-2,1.9484265E-2,-3.9606016E-2,-1.0473173E-1,-1.1217075E-1,3.234169E-3,-1.045978E-1],"split_indices":[4,6,8,8,1,8,7,0,0,0,0,0,0,0,0],"split_type":[0,0,0,0,0,0,0,0,0,0,0,0,0,0,0],"sum_hessian":[2.9302775E4,2.7307674E4,1.9951016E3,1.5499808E3,2.5757693E4,1.9870239E3,8.077666E0,1.307211E3,2.4276967E2,2.285291E4,2.9047842E3,6.838892E2,1.3031346E3,4.5006433E0,3.5770226E0],"tree_param":{"num_deleted":"0","num_feature":"10","num_nodes":"15","size_leaf_vector":"1"}},{"base_weights":[-4.2299777E-3,6.819457E-2,-1.0758219E0,-3.0893E-1,1.8454601E-1,-1.0781308E0,-4.7954097E-1,7.631028E-2,-5.201633E-2,2.8215742E-2,-3.8148485E-2,-1.02492146E-1,-1.10536076E-1,8.842093E-3,-9.491246E-2],"categories":[],"categories_nodes":[],"categories_segments":[],"categories_sizes":[],"default_left":[0,0,0,0,0,0,0,0,0,0,0,0,0,0,0],"id":15,"left_children":[1,3,5,7,9,11,13,-1,-1,-1,-1,-1,-1,-1,-1],"loss_changes":[2.2510686E3,1.1921995E3,2.0112305E0,1.451082E3,1.1473208E3,1.5161133E0,2.4533901E0,0E0,0E0,0E0,0E0,0E0,0E0,0E0,0E0],"parents":[2147483647,0,0,1,1,2,2,3,3,4,4,5,5,6,6],"right_children":[2,4,6,8,10,12,14,-1,-1,-1,-1,-1,-1,-1,-1],"split_conditions":[1E0,1E0,1.63E2,1.51E2,5.9E1,1.52E2,2.3E1,7.631028E-2,-5.201633E-2,2.8215742E-2,-3.8148485E-2,-1.02492146E-1,-1.10536076E-1,8.842093E-3,-9.491246E-2],"split_indices":[4,5,8,8,1,8,1,0,0,0,0,0,0,0,0],"split_type":[0,0,0,0,0,0,0,0,0,0,0,0,0,0,0],"sum_hessian":[2.90031E4,2.716787E4,1.8352296E3,6.4052314E3,2.0762639E4,1.8273453E3,7.884208E0,1.0539095E3,5.351322E3,1.7709207E4,3.053432E3,6.3166235E2,1.195683E3,3.93569E0,3.9485183E0],"tree_param":{"num_deleted":"0","num_feature":"10","num_nodes":"15","size_leaf_vector":"1"}},{"base_weights":[-4.098223E-3,6.1788723E-2,-1.0584911E0,-7.5654817E-1,1.08176626E-1,-1.0609626E0,-4.5526633E-1,-8.4137656E-2,-3.1988677E-2,-2.7375301E-2,1.7923694E-2,-1.003504E-1,-1.09059714E-1,5.499509E-3,-9.9877104E-2],"categories":[],"categories_nodes":[],"categories_segments":[],"categories_sizes":[],"default_left":[0,0,0,0,0,0,0,0,0,0,0,0,0,0,0],"id":16,"left_children":[1,3,5,7,9,11,13,-1,-1,-1,-1,-1,-1,-1,-1],"loss_changes":[1.9934146E3,1.0252843E3,2.032959E0,5.339978E1,6.937181E2,1.7662354E0,2.4503956E0,0E0,0E0,0E0,0E0,0E0,0E0,0E0,0E0],"parents":[2147483647,0,0,1,1,2,2,3,3,4,4,5,5,6,6],"right_children":[2,4,6,8,10,12,14,-1,-1,-1,-1,-1,-1,-1,-1],"split_conditions":[1E0,1E0,1.63E2,1.54E2,2.7E1,1.52E2,8.3235E2,-8.4137656E-2,-3.1988677E-2,-2.7375301E-2,1.7923694E-2,-1.003504E-1,-1.09059714E-1,5.499509E-3,-9.9877104E-2],"split_indices":[4,6,8,8,1,8,7,0,0,0,0,0,0,0,0],"split_type":[0,0,0,0,0,0,0,0,0,0,0,0,0,0,0],"sum_hessian":[2.8692371E4,2.7005775E4,1.6865966E3,1.4478955E3,2.5557879E4,1.678959E3,7.6376257E0,1.2115968E3,2.3629866E2,4.0088042E3,2.1549074E4,5.831504E2,1.0958085E3,4.4028697E0,3.234756E0],"tree_param":{"num_deleted":"0","num_feature":"10","num_nodes":"15","size_leaf_vector":"1"}},{"base_weights":[-4.095364E-3,5.593583E-2,-1.0421906E0,-7.2155416E-1,9.787073E-2,-1.0448718E0,-4.303916E-1,-8.0877036E-2,-2.9295603E-2,1.3017428E-2,-6.816939E-2,-9.827954E-2,-1.0771624E-1,2.2488593E-3,-1.0185492E-1],"categories":[],"categories_nodes":[],"categories_segments":[],"categories_sizes":[],"default_left":[0,0,0,0,0,0,0,0,0,0,0,0,0,0,0],"id":17,"left_children":[1,3,5,7,9,11,13,-1,-1,-1,-1,-1,-1,-1,-1],"loss_changes":[1.7669036E3,8.739569E2,2.0930176E0,5.1041748E1,6.4054224E2,2.033081E0,2.2773137E0,0E0,0E0,0E0,0E0,0E0,0E0,0E0,0E0],"parents":[2147483647,0,0,1,1,2,2,3,3,4,4,5,5,6,6],"right_children":[2,4,6,8,10,12,14,-1,-1,-1,-1,-1,-1,-1,-1],"split_conditions":[1E0,1E0,1.63E2,1.54E2,6.9E1,1.52E2,1.97E2,-8.0877036E-2,-2.9295603E-2,1.3017428E-2,-6.816939E-2,-9.827954E-2,-1.0771624E-1,2.2488593E-3,-1.0185492E-1],"split_indices":[4,6,8,8,1,8,9,0,0,0,0,0,0,0,0],"split_type":[0,0,0,0,0,0,0,0,0,0,0,0,0,0,0],"sum_hessian":[2.8351041E4,2.6802072E4,1.5489698E3,1.3707937E3,2.5431277E4,1.5415062E3,7.463607E0,1.1382766E3,2.3251706E2,2.442019E4,1.0110892E3,5.382306E2,1.0032757E3,4.7601023E0,2.7035048E0],"tree_param":{"num_deleted":"0","num_feature":"10","num_nodes":"15","size_leaf_vector":"1"}},{"base_weights":[-4.041139E-3,5.0499853E-2,-1.026698E0,-2.71776E-1,1.4909966E-1,-1.0296279E0,-4.060244E-1,6.859372E-2,-4.6225984E-2,2.3514E-2,-3.3937346E-2,-9.6256316E-2,-1.0648396E-1,-9.71707E-2,8.596045E-3],"categories":[],"categories_nodes":[],"categories_segments":[],"categories_sizes":[],"default_left":[0,0,0,0,0,0,0,0,0,0,0,0,0,0,0],"id":18,"left_children":[1,3,5,7,9,11,13,-1,-1,-1,-1,-1,-1,-1,-1],"loss_changes":[1.5674369E3,8.478075E2,2.1695557E0,1.1406016E3,8.5870435E2,2.317627E0,2.4035544E0,0E0,0E0,0E0,0E0,0E0,0E0,0E0,0E0],"parents":[2147483647,0,0,1,1,2,2,3,3,4,4,5,5,6,6],"right_children":[2,4,6,8,10,12,14,-1,-1,-1,-1,-1,-1,-1,-1],"split_conditions":[1E0,1E0,1.63E2,1.51E2,5.9E1,1.52E2,1.95E2,6.859372E-2,-4.6225984E-2,2.3514E-2,-3.3937346E-2,-9.6256316E-2,-1.0648396E-1,-9.71707E-2,8.596045E-3],"split_indices":[4,5,8,8,1,8,9,0,0,0,0,0,0,0,0],"split_type":[0,0,0,0,0,0,0,0,0,0,0,0,0,0,0],"sum_hessian":[2.810006E4,2.6678193E4,1.4218679E3,6.2495693E3,2.0428625E4,1.4145316E3,7.336204E0,1.036361E3,5.213208E3,1.736963E4,3.0589932E3,4.9674927E2,9.177824E2,2.958944E0,4.3772597E0],"tree_param":{"num_deleted":"0","num_feature":"10","num_nodes":"15","size_leaf_vector":"1"}},{"base_weights":[-3.8693473E-3,4.5744393E-2,-1.0118535E0,-6.805866E-1,8.2743734E-2,-9.4260585E-1,-1.0482215E0,-7.7103764E-2,-2.5748072E-2,1.8092472E-2,-1.1089158E-2,-4.872501E-2,-9.677549E-2,-1.0534419E-1,-3.841445E-2],"categories":[],"categories_nodes":[],"categories_segments":[],"categories_sizes":[],"default_left":[0,0,0,0,0,0,0,0,0,0,0,0,0,0,0],"id":19,"left_children":[1,3,5,7,9,11,13,-1,-1,-1,-1,-1,-1,-1,-1],"loss_changes":[1.3919271E3,7.129484E2,2.300171E0,4.9014038E1,4.7991324E2,4.790924E0,2.5323486E0,0E0,0E0,0E0,0E0,0E0,0E0,0E0,0E0],"parents":[2147483647,0,0,1,1,2,2,3,3,4,4,5,5,6,6],"right_children":[2,4,6,8,10,12,14,-1,-1,-1,-1,-1,-1,-1,-1],"split_conditions":[1E0,1E0,1.52E2,1.54E2,1.25E2,2.6E1,1.63E2,-7.7103764E-2,-2.5748072E-2,1.8092472E-2,-1.1089158E-2,-4.872501E-2,-9.677549E-2,-1.0534419E-1,-3.841445E-2],"split_indices":[4,6,8,8,8,1,8,0,0,0,0,0,0,0,0],"split_type":[0,0,0,0,0,0,0,0,0,0,0,0,0,0,0],"sum_hessian":[2.7831129E4,2.6526434E4,1.3046965E3,1.2849182E3,2.5241516E4,4.5853275E2,8.4616376E2,1.0579324E3,2.2698581E2,1.6749104E4,8.492411E3,2.5065372E1,4.3346738E2,8.3898193E2,7.18181E0],"tree_param":{"num_deleted":"0","num_feature":"10","num_nodes":"15","size_leaf_vector":"1"}},{"base_weights":[-3.78801E-3,4.1352812E-2,-9.974053E-1,-2.3646794E-1,1.2582092E-1,-9.2279065E-1,-1.0370055E0,6.116919E-2,-4.0549655E-2,2.0484133E-2,-3.1687077E-2,-4.590986E-2,-9.495045E-2,-1.0428064E-1,-3.5599675E-2],"categories":[],"categories_nodes":[],"categories_segments":[],"categories_sizes":[],"default_left":[0,0,0,0,0,0,0,0,0,0,0,0,0,0,0],"id":20,"left_children":[1,3,5,7,9,11,13,-1,-1,-1,-1,-1,-1,-1,-1],"loss_changes":[1.2365024E3,6.188576E2,2.5828857E0,8.817282E2,7.07484E2,4.8217773E0,2.6885376E0,0E0,0E0,0E0,0E0,0E0,0E0,0E0,0E0],"parents":[2147483647,0,0,1,1,2,2,3,3,4,4,5,5,6,6],"right_children":[2,4,6,8,10,12,14,-1,-1,-1,-1,-1,-1,-1,-1],"split_conditions":[1E0,1E0,1.52E2,1.51E2,5.9E1,2.6E1,1.63E2,6.116919E-2,-4.0549655E-2,2.0484133E-2,-3.1687077E-2,-4.590986E-2,-9.495045E-2,-1.0428064E-1,-3.5599675E-2],"split_indices":[4,5,8,8,1,1,8,0,0,0,0,0,0,0,0],"split_type":[0,0,0,0,0,0,0,0,0,0,0,0,0,0,0],"sum_hessian":[2.756615E4,2.6369137E4,1.1970125E3,6.1475776E3,2.0221559E4,4.2345093E2,7.735615E2,1.02112225E3,5.1264556E3,1.7159184E4,3.0623755E3,2.4057228E1,3.993937E2,7.665012E2,7.0603065E0],"tree_param":{"num_deleted":"0","num_feature":"10","num_nodes":"15","size_leaf_vector":"1"}},{"base_weights":[-3.6059753E-3,3.744725E-2,-9.8324656E-1,-6.4137876E-1,7.025603E-2,-9.029405E-1,-1.026355E0,-2.5033757E-2,-7.439396E-2,9.700607E-3,-5.4915447E-2,-4.3171756E-2,-9.313092E-2,-1.0327891E-1,-3.2969706E-2],"categories":[],"categories_nodes":[],"categories_segments":[],"categories_sizes":[],"default_left":[0,0,0,0,0,0,0,0,0,0,0,0,0,0,0],"id":21,"left_children":[1,3,5,7,9,11,13,-1,-1,-1,-1,-1,-1,-1,-1],"loss_changes":[1.0990524E3,5.8419666E2,2.878418E0,4.8314636E1,4.146223E2,4.8414917E0,2.8324585E0,0E0,0E0,0E0,0E0,0E0,0E0,0E0,0E0],"parents":[2147483647,0,0,1,1,2,2,3,3,4,4,5,5,6,6],"right_children":[2,4,6,8,10,12,14,-1,-1,-1,-1,-1,-1,-1,-1],"split_conditions":[1E0,1E0,1.52E2,1.0004E3,6.9E1,2.6E1,1.63E2,-2.5033757E-2,-7.439396E-2,9.700607E-3,-5.4915447E-2,-4.3171756E-2,-9.313092E-2,-1.0327891E-1,-3.2969706E-2],"split_indices":[4,6,8,7,1,1,8,0,0,0,0,0,0,0,0],"split_type":[0,0,0,0,0,0,0,0,0,0,0,0,0,0,0],"sum_hessian":[2.7325861E4,2.6227713E4,1.0981477E3,1.2083315E3,2.5019383E4,3.912466E2,7.069011E2,2.5178252E2,9.565491E2,2.3984428E4,1.0349547E3,2.3137312E1,3.6810928E2,6.999541E2,6.9470305E0],"tree_param":{"num_deleted":"0","num_feature":"10","num_nodes":"15","size_leaf_vector":"1"}},{"base_weights":[-3.5080356E-3,3.376826E-2,-9.692327E-1,-2.1818762E-1,1.0995576E-1,-8.829229E-1,-1.0161378E0,5.5093914E-2,-3.7132975E-2,2.1169392E-2,-1.5214813E-2,-4.051685E-2,-9.1302596E-2,-1.02326214E-1,-3.0514175E-2],"categories":[],"categories_nodes":[],"categories_segments":[],"categories_sizes":[],"default_left":[0,0,0,0,0,0,0,0,0,0,0,0,0,0,0],"id":22,"left_children":[1,3,5,7,9,11,13,-1,-1,-1,-1,-1,-1,-1,-1],"loss_changes":[9.768792E2,5.0157657E2,3.18573E0,7.14775E2,5.3501636E2,4.8467712E0,2.9639893E0,0E0,0E0,0E0,0E0,0E0,0E0,0E0,0E0],"parents":[2147483647,0,0,1,1,2,2,3,3,4,4,5,5,6,6],"right_children":[2,4,6,8,10,12,14,-1,-1,-1,-1,-1,-1,-1,-1],"split_conditions":[1E0,1E0,1.52E2,1.51E2,5.2E1,2.6E1,1.63E2,5.5093914E-2,-3.7132975E-2,2.1169392E-2,-1.5214813E-2,-4.051685E-2,-9.1302596E-2,-1.02326214E-1,-3.0514175E-2],"split_indices":[4,5,8,8,1,1,8,0,0,0,0,0,0,0,0],"split_type":[0,0,0,0,0,0,0,0,0,0,0,0,0,0,0],"sum_hessian":[2.7134652E4,2.6127129E4,1.00752386E3,6.065698E3,2.0061432E4,3.6173032E2,6.457935E2,1.00677386E3,5.0589243E3,1.4451956E4,5.609475E3,2.229851E1,3.3943182E2,6.389519E2,6.841626E0],"tree_param":{"num_deleted":"0","num_feature":"10","num_nodes":"15","size_leaf_vector":"1"}},{"base_weights":[-3.3197494E-3,3.0564042E-2,-9.5523226E-1,-6.0297585E-1,5.967495E-2,-8.626244E-1,-1.006234E0,-7.021301E-2,-1.7247792E-2,9.212557E-3,-3.364476E-2,-3.79509E-2,-8.945295E-2,-1.0141096E-1,-2.8223334E-2],"categories":[],"categories_nodes":[],"categories_segments":[],"categories_sizes":[],"default_left":[0,0,0,0,0,0,0,0,0,0,0,0,0,0,0],"id":23,"left_children":[1,3,5,7,9,11,13,-1,-1,-1,-1,-1,-1,-1,-1],"loss_changes":[8.685469E2,4.795987E2,3.50354E0,4.864331E1,3.1960645E2,4.8351746E0,3.0828247E0,0E0,0E0,0E0,0E0,0E0,0E0,0E0,0E0],"parents":[2147483647,0,0,1,1,2,2,3,3,4,4,5,5,6,6],"right_children":[2,4,6,8,10,12,14,-1,-1,-1,-1,-1,-1,-1,-1],"split_conditions":[1E0,1E0,1.52E2,1.54E2,6.4E1,2.6E1,1.63E2,-7.021301E-2,-1.7247792E-2,9.212557E-3,-3.364476E-2,-3.79509E-2,-8.945295E-2,-1.0141096E-1,-2.8223334E-2],"split_indices":[4,6,8,8,1,1,8,0,0,0,0,0,0,0,0],"split_type":[0,0,0,0,0,0,0,0,0,0,0,0,0,0,0],"sum_hessian":[2.6926104E4,2.6001535E4,9.2456946E2,1.1414071E3,2.4860127E4,3.347152E2,5.8985425E2,9.272156E2,2.1419159E2,2.2978482E4,1.8816455E3,2.1534163E1,3.1318106E2,5.8311053E2,6.743713E0],"tree_param":{"num_deleted":"0","num_feature":"10","num_nodes":"15","size_leaf_vector":"1"}},{"base_weights":[-3.212553E-3,2.7546136E-2,-9.4112575E-1,-2.3088142E-1,9.088351E-2,-8.419501E-1,-9.9653417E-1,2.7802397E-2,-2.9901842E-2,1.4749207E-2,-2.3273228E-2,-3.54791E-2,-8.7571055E-2,-1.00522615E-1,-2.6087983E-2],"categories":[],"categories_nodes":[],"categories_segments":[],"categories_sizes":[],"default_left":[0,0,0,0,0,0,0,0,0,0,0,0,0,0,0],"id":24,"left_children":[1,3,5,7,9,11,13,-1,-1,-1,-1,-1,-1,-1,-1],"loss_changes":[7.720042E2,4.2412833E2,3.8304443E0,1.7694824E2,3.81279E2,4.80455E0,3.1887817E0,0E0,0E0,0E0,0E0,0E0,0E0,0E0,0E0],"parents":[2147483647,0,0,1,1,2,2,3,3,4,4,5,5,6,6],"right_children":[2,4,6,8,10,12,14,-1,-1,-1,-1,-1,-1,-1,-1],"split_conditions":[1E0,2.9E1,1.52E2,1.37E2,5.9E1,2.6E1,1.63E2,2.7802397E-2,-2.9901842E-2,1.4749207E-2,-2.3273228E-2,-3.54791E-2,-8.7571055E-2,-1.00522615E-1,-2.6087983E-2],"split_indices":[4,1,8,8,1,1,8,0,0,0,0,0,0,0,0],"split_type":[0,0,0,0,0,0,0,0,0,0,0,0,0,0,0],"sum_hessian":[2.6758297E4,2.5909568E4,8.487289E2,5.0996123E3,2.0809955E4,3.1001962E2,5.387092E2,6.017968E2,4.4978154E3,1.7712191E4,3.0977644E3,2.0838045E1,2.8918158E2,5.3205634E2,6.652894E0],"tree_param":{"num_deleted":"0","num_feature":"10","num_nodes":"15","size_leaf_vector":"1"}},{"base_weights":[-3.0394727E-3,-6.7781115E-1,3.5789646E-2,-5.6722987E-1,-1.0045334E0,5.0842714E-2,-8.566453E-1,-6.68104E-2,-1.4922725E-2,-1.04257956E-1,-8.8067986E-2,1.968273E-3,4.2078447E-2,-6.1822873E-2,-9.13537E-2],"categories":[],"categories_nodes":[],"categories_segments":[],"categories_sizes":[],"default_left":[0,0,0,0,0,0,0,0,0,0,0,0,0,0,0],"id":25,"left_children":[1,3,5,7,9,11,13,-1,-1,-1,-1,-1,-1,-1,-1],"loss_changes":[6.9648206E2,5.1688843E1,3.3771933E2,4.556436E1,7.9922485E-1,2.8494992E2,5.0914307E0,0E0,0E0,0E0,0E0,0E0,0E0,0E0,0E0],"parents":[2147483647,0,0,1,1,2,2,3,3,4,4,5,5,6,6],"right_children":[2,4,6,8,10,12,14,-1,-1,-1,-1,-1,-1,-1,-1],"split_conditions":[1E0,1E0,1E0,1.54E2,4.2E1,2E0,1.09815E3,-6.68104E-2,-1.4922725E-2,-1.04257956E-1,-8.8067986E-2,1.968273E-3,4.2078447E-2,-6.1822873E-2,-9.13537E-2],"split_indices":[6,4,4,8,1,5,7,0,0,0,0,0,0,0,0],"split_type":[0,0,0,0,0,0,0,0,0,0,0,0,0,0,0],"sum_hessian":[2.6580557E4,1.4454309E3,2.5135125E4,1.081968E3,3.634629E2,2.4719121E4,4.1600452E2,8.711421E2,2.1082597E2,2.7237512E2,9.108776E1,2.2799762E4,1.9193582E3,8.243016E1,3.3357437E2],"tree_param":{"num_deleted":"0","num_feature":"10","num_nodes":"15","size_leaf_vector":"1"}},{"base_weights":[-2.9171112E-3,2.2444753E-2,-9.119484E-1,-1.8806152E-1,8.5509636E-2,-7.9716605E-1,-9.774909E-1,4.8027147E-2,-3.2151766E-2,1.7092275E-2,-1.3084141E-2,-6.942809E-2,-1.03335E-1,-9.8833814E-2,-1.8102828E-2],"categories":[],"categories_nodes":[],"categories_segments":[],"categories_sizes":[],"default_left":[0,0,0,0,0,0,0,0,0,0,0,0,0,0,0],"id":26,"left_children":[1,3,5,7,9,11,13,-1,-1,-1,-1,-1,-1,-1,-1],"loss_changes":[6.094632E2,3.414378E2,4.6188354E0,5.289772E2,3.657282E2,5.751663E0,3.7287903E0,0E0,0E0,0E0,0E0,0E0,0E0,0E0,0E0],"parents":[2147483647,0,0,1,1,2,2,3,3,4,4,5,5,6,6],"right_children":[2,4,6,8,10,12,14,-1,-1,-1,-1,-1,-1,-1,-1],"split_conditions":[1E0,1E0,1.52E2,1.51E2,5.2E1,1.93295E3,1.63E2,4.8027147E-2,-3.2151766E-2,1.7092275E-2,-1.3084141E-2,-6.942809E-2,-1.03335E-1,-9.8833814E-2,-1.8102828E-2],"split_indices":[4,5,8,8,1,7,8,0,0,0,0,0,0,0,0],"split_type":[0,0,0,0,0,0,0,0,0,0,0,0,0,0,0],"sum_hessian":[2.643361E4,2.5717082E4,7.165282E2,5.9279634E3,1.978912E4,2.6522015E2,4.5130804E2,9.862645E2,4.9416987E3,1.418804E4,5.601078E3,1.8748743E2,7.7732735E1,4.4500647E2,6.301573E0],"tree_param":{"num_deleted":"0","num_feature":"10","num_nodes":"15","size_leaf_vector":"1"}},{"base_weights":[-2.739618E-3,-6.3683E-1,3.113492E-2,-5.3157187E-1,-9.883377E-1,-1.644294E-1,8.457445E-2,-1.4461559E-2,-6.422194E-2,-1.0337321E-1,-8.450825E-2,-2.4142787E-2,1.3578777E-2,1.338351E-2,-2.2011613E-2],"categories":[],"categories_nodes":[],"categories_segments":[],"categories_sizes":[],"default_left":[0,0,0,0,0,0,0,0,0,0,0,0,0,0,0],"id":27,"left_children":[1,3,5,7,9,11,13,-1,-1,-1,-1,-1,-1,-1,-1],"loss_changes":[5.6422046E2,4.876184E1,2.6061447E2,4.389212E1,1.1151123E0,1.23748474E2,2.9398416E2,0E0,0E0,0E0,0E0,0E0,0E0,0E0,0E0],"parents":[2147483647,0,0,1,1,2,2,3,3,4,4,5,5,6,6],"right_children":[2,4,6,8,10,12,14,-1,-1,-1,-1,-1,-1,-1,-1],"split_conditions":[1E0,1E0,1.8E1,1.0004E3,4.2E1,1.54E2,4.2E1,-1.4461559E-2,-6.422194E-2,-1.0337321E-1,-8.450825E-2,-2.4142787E-2,1.3578777E-2,1.338351E-2,-2.2011613E-2],"split_indices":[6,4,3,7,1,8,3,0,0,0,0,0,0,0,0],"split_type":[0,0,0,0,0,0,0,0,0,0,0,0,0,0,0],"sum_hessian":[2.626591E4,1.3311218E3,2.493479E4,1.0263086E3,3.0481323E2,5.3508906E3,1.9583898E4,2.2872368E2,7.975849E2,2.2674643E2,7.806679E1,4.2588057E3,1.0920852E3,1.685882E4,2.7250771E3],"tree_param":{"num_deleted":"0","num_feature":"10","num_nodes":"15","size_leaf_vector":"1"}},{"base_weights":[-2.5601464E-3,1.94167E-2,-8.892458E-1,-5.0033015E-1,4.0267915E-2,-7.633105E-1,-9.6310294E-1,-6.0638767E-2,-9.042258E-3,1.2249884E-3,3.7682157E-2,-6.521901E-2,-1.02560095E-1,-1.0091221E-1,-6.977709E-2],"categories":[],"categories_nodes":[],"categories_segments":[],"categories_sizes":[],"default_left":[0,0,0,0,0,0,0,0,0,0,0,0,0,0,0],"id":28,"left_children":[1,3,5,7,9,11,13,-1,-1,-1,-1,-1,-1,-1,-1],"loss_changes":[5.099742E2,2.7678156E2,5.1522217E0,4.2770386E1,2.3152574E2,6.2913055E0,4.120819E0,0E0,0E0,0E0,0E0,0E0,0E0,0E0,0E0],"parents":[2147483647,0,0,1,1,2,2,3,3,4,4,5,5,6,6],"right_children":[2,4,6,8,10,12,14,-1,-1,-1,-1,-1,-1,-1,-1],"split_conditions":[1E0,1E0,1.52E2,1.54E2,2E0,1.93295E3,1.54E2,-6.0638767E-2,-9.042258E-3,1.2249884E-3,3.7682157E-2,-6.521901E-2,-1.02560095E-1,-1.0091221E-1,-6.977709E-2],"split_indices":[4,6,8,8,5,7,8,0,0,0,0,0,0,0,0],"split_type":[0,0,0,0,0,0,0,0,0,0,0,0,0,0,0],"sum_hessian":[2.6168688E4,2.5536727E4,6.3195953E2,9.8408105E2,2.4552646E4,2.3780615E2,3.9415335E2,7.814208E2,2.0266032E2,2.2666686E4,1.8859612E3,1.6948827E2,6.831789E1,3.3350674E2,6.0646618E1],"tree_param":{"num_deleted":"0","num_feature":"10","num_nodes":"15","size_leaf_vector":"1"}},{"base_weights":[-2.445766E-3,1.7493477E-2,-8.732499E-1,-2.0964706E-1,6.264107E-2,-7.4018973E-1,-9.52842E-1,-4.292656E-2,-1.708601E-3,6.171521E-4,3.7744567E-2,-6.2550455E-2,-1.02023534E-1,-1.00341454E-1,-6.709637E-2],"categories":[],"categories_nodes":[],"categories_segments":[],"categories_sizes":[],"default_left":[0,0,0,0,0,0,0,0,0,0,0,0,0,0,0],"id":29,"left_children":[1,3,5,7,9,11,13,-1,-1,-1,-1,-1,-1,-1,-1],"loss_changes":[4.523195E2,2.6117834E2,5.470459E0,1.78581E2,3.77677E2,6.515587E0,4.478607E0,0E0,0E0,0E0,0E0,0E0,0E0,0E0,0E0],"parents":[2147483647,0,0,1,1,2,2,3,3,4,4,5,5,6,6],"right_children":[2,4,6,8,10,12,14,-1,-1,-1,-1,-1,-1,-1,-1],"split_conditions":[1E0,2.7E1,1.52E2,1E0,1.54E2,1.93295E3,1.54E2,-4.292656E-2,-1.708601E-3,6.171521E-4,3.7744567E-2,-6.2550455E-2,-1.02023534E-1,-1.00341454E-1,-6.709637E-2],"split_indices":[4,1,8,0,8,7,8,0,0,0,0,0,0,0,0],"split_type":[0,0,0,0,0,0,0,0,0,0,0,0,0,0,0],"sum_hessian":[2.6048625E4,2.5466486E4,5.821391E2,4.2219473E3,2.124454E4,2.2173979E2,3.6039932E2,1.9718247E3,2.2501226E3,1.8014182E4,3.2303584E3,1.5960954E2,6.213025E1,3.0340497E2,5.6994343E1],"tree_param":{"num_deleted":"0","num_feature":"10","num_nodes":"15","size_leaf_vector":"1"}},{"base_weights":[-2.30187E-3,1.5781147E-2,-8.56668E-1,8.576546E-2,-1.1458523E-1,-7.165118E-1,-9.422887E-1,1.5196974E-2,-2.466443E-2,-3.8978852E-2,2.0401306E-2,-5.6186225E-3,-7.665362E-2,-9.977928E-2,-6.438362E-2],"categories":[],"categories_nodes":[],"categories_segments":[],"categories_sizes":[],"default_left":[0,0,0,0,0,0,0,0,0,0,0,0,0,0,0],"id":30,"left_children":[1,3,5,7,9,11,13,-1,-1,-1,-1,-1,-1,-1,-1],"loss_changes":[4.0087305E2,2.3183698E2,5.7786255E0,3.6390863E2,7.7834155E2,6.831726E0,4.835388E0,0E0,0E0,0E0,0E0,0E0,0E0,0E0,0E0],"parents":[2147483647,0,0,1,1,2,2,3,3,4,4,5,5,6,6],"right_children":[2,4,6,8,10,12,14,-1,-1,-1,-1,-1,-1,-1,-1],"split_conditions":[1E0,1.25E2,1.52E2,5.9E1,1.54E2,2.6E1,1.54E2,1.5196974E-2,-2.466443E-2,-3.8978852E-2,2.0401306E-2,-5.6186225E-3,-7.665362E-2,-9.977928E-2,-6.438362E-2],"split_indices":[4,8,8,1,8,1,8,0,0,0,0,0,0,0,0],"split_type":[0,0,0,0,0,0,0,0,0,0,0,0,0,0,0],"sum_hessian":[2.594541E4,2.540861E4,5.3680237E2,1.6533373E4,8.875235E3,2.071228E2,3.2967953E2,1.3787861E4,2.7455125E3,4.7617983E3,4.1134365E3,1.4735572E1,1.9238724E2,2.760066E2,5.3672955E1],"tree_param":{"num_deleted":"0","num_feature":"10","num_nodes":"15","size_leaf_vector":"1"}},{"base_weights":[-2.161908E-3,-5.5806214E-1,2.3770774E-2,-4.6416694E-1,-9.5653254E-1,4.070205E-2,-4.8856097E-1,-2.8112233E-2,-6.955653E-2,-1.02036156E-1,-7.6807685E-2,1.1217854E-2,-9.2744185E-3,-5.6206014E-2,5.587281E-2],"categories":[],"categories_nodes":[],"categories_segments":[],"categories_sizes":[],"default_left":[0,0,0,0,0,0,0,0,0,0,0,0,0,0,0],"id":31,"left_children":[1,3,5,7,9,11,13,-1,-1,-1,-1,-1,-1,-1,-1],"loss_changes":[3.718564E2,4.2570953E1,2.1380222E2,3.929669E1,1.8422699E0,2.27571E2,6.1007294E1,0E0,0E0,0E0,0E0,0E0,0E0,0E0,0E0],"parents":[2147483647,0,0,1,1,2,2,3,3,4,4,5,5,6,6],"right_children":[2,4,6,8,10,12,14,-1,-1,-1,-1,-1,-1,-1,-1],"split_conditions":[1E0,1E0,7.1E1,1.56625E3,4.2E1,1.25E2,1.55E2,-2.8112233E-2,-6.955653E-2,-1.02036156E-1,-7.6807685E-2,1.1217854E-2,-9.2744185E-3,-5.6206014E-2,5.587281E-2],"split_indices":[6,4,1,7,1,8,8,0,0,0,0,0,0,0,0],"split_type":[0,0,0,0,0,0,0,0,0,0,0,0,0,0,0],"sum_hessian":[2.5792807E4,1.148688E3,2.464412E4,9.313827E2,2.1730536E2,2.3856639E4,7.8748126E2,5.21261E2,4.101217E2,1.5902876E2,5.8276592E1,1.553561E4,8.321027E3,7.3627264E2,5.12086E1],"tree_param":{"num_deleted":"0","num_feature":"10","num_nodes":"15","size_leaf_vector":"1"}},{"base_weights":[-2.0204398E-3,1.3650789E-2,-8.305281E-1,-1.6231701E-1,6.234749E-2,-6.3214445E-1,-9.0325046E-1,-1.20174624E-1,-1.4720599E-2,1.0812402E-2,-2.1616854E-2,-9.311079E-2,-8.007015E-3,-9.188512E-2,1.8158827E-2],"categories":[],"categories_nodes":[],"categories_segments":[],"categories_sizes":[],"default_left":[0,0,0,0,0,0,0,0,0,0,0,0,0,0,0],"id":32,"left_children":[1,3,5,7,9,11,13,-1,-1,-1,-1,-1,-1,-1,-1],"loss_changes":[3.3345535E2,2.1600084E2,6.3073425E0,8.564107E1,2.5173894E2,2.1583553E1,6.0319214E0,0E0,0E0,0E0,0E0,0E0,0E0,0E0,0E0],"parents":[2147483647,0,0,1,1,2,2,3,3,4,4,5,5,6,6],"right_children":[2,4,6,8,10,12,14,-1,-1,-1,-1,-1,-1,-1,-1],"split_conditions":[1E0,1.8E1,1.6E1,2.1E1,4.2E1,2.01E2,1.63E2,-1.20174624E-1,-1.4720599E-2,1.0812402E-2,-2.1616854E-2,-9.311079E-2,-8.007015E-3,-9.188512E-2,1.8158827E-2],"split_indices":[4,3,3,1,3,9,8,0,0,0,0,0,0,0,0],"split_type":[0,0,0,0,0,0,0,0,0,0,0,0,0,0,0],"sum_hessian":[2.5680678E4,2.520491E4,4.7576758E2,5.462734E3,1.9742176E4,1.3022148E2,3.455461E2,7.715291E1,5.385581E3,1.6955934E4,2.7862432E3,8.4030235E1,4.6191242E1,3.407982E2,4.747921E0],"tree_param":{"num_deleted":"0","num_feature":"10","num_nodes":"15","size_leaf_vector":"1"}},{"base_weights":[-1.8902931E-3,-5.2025497E-1,2.0945784E-2,-7.231529E-1,-3.359858E-1,-4.167569E-3,3.295936E-1,-1.1861988E-2,-8.473489E-2,-5.320514E-2,4.351682E-2,-5.1881075E-3,2.3236467E-2,5.6040205E-2,-3.8543462E-3],"categories":[],"categories_nodes":[],"categories_segments":[],"categories_sizes":[],"default_left":[0,0,0,0,0,0,0,0,0,0,0,0,0,0,0],"id":33,"left_children":[1,3,5,7,9,11,13,-1,-1,-1,-1,-1,-1,-1,-1],"loss_changes":[3.0329474E2,4.017746E1,1.9022055E2,3.846689E1,8.6176834E1,2.5614435E2,1.5692033E2,0E0,0E0,0E0,0E0,0E0,0E0,0E0,0E0],"parents":[2147483647,0,0,1,1,2,2,3,3,4,4,5,5,6,6],"right_children":[2,4,6,8,10,12,14,-1,-1,-1,-1,-1,-1,-1,-1],"split_conditions":[1E0,1E0,2E0,9.423E2,1.54E2,1.54E2,6.1E1,-1.1861988E-2,-8.473489E-2,-5.320514E-2,4.351682E-2,-5.1881075E-3,2.3236467E-2,5.6040205E-2,-3.8543462E-3],"split_indices":[6,5,5,7,8,8,8,0,0,0,0,0,0,0,0],"split_type":[0,0,0,0,0,0,0,0,0,0,0,0,0,0,0],"sum_hessian":[2.5619783E4,1.0801129E3,2.453967E4,5.126795E2,5.674335E2,2.2694133E4,1.845538E3,8.770828E1,4.249712E2,4.5265594E2,1.1477753E2,1.8885344E4,3.808789E3,1.1340242E3,7.115138E2],"tree_param":{"num_deleted":"0","num_feature":"10","num_nodes":"15","size_leaf_vector":"1"}},{"base_weights":[-1.7467504E-3,1.2015804E-2,-8.063774E-1,3.1182783E-2,-3.710668E-1,-6.3923603E-1,-9.126625E-1,-1.9928485E-3,4.0363703E-2,-8.387714E-2,6.823641E-2,-4.9571488E-2,-1.0051712E-1,-9.829655E-2,-5.6865092E-2],"categories":[],"categories_nodes":[],"categories_segments":[],"categories_sizes":[],"default_left":[0,0,0,0,0,0,0,0,0,0,0,0,0,0,0],"id":34,"left_children":[1,3,5,7,9,11,13,-1,-1,-1,-1,-1,-1,-1,-1],"loss_changes":[2.8301917E2,1.8451439E2,7.051697E0,4.5558325E2,5.9052997E2,8.451248E0,5.738495E0,0E0,0E0,0E0,0E0,0E0,0E0,0E0,0E0],"parents":[2147483647,0,0,1,1,2,2,3,3,4,4,5,5,6,6],"right_children":[2,4,6,8,10,12,14,-1,-1,-1,-1,-1,-1,-1,-1],"split_conditions":[1E0,1.59E2,1.52E2,1.54E2,1.63E2,1.93295E3,1.54E2,-1.9928485E-3,4.0363703E-2,-8.387714E-2,6.823641E-2,-4.9571488E-2,-1.0051712E-1,-9.829655E-2,-5.6865092E-2],"split_indices":[4,8,8,8,8,7,8,0,0,0,0,0,0,0,0],"split_type":[0,0,0,0,0,0,0,0,0,0,0,0,0,0,0],"sum_hessian":[2.5555734E4,2.5126943E4,4.2879092E2,2.3930533E4,1.1964106E3,1.6940428E2,2.5938663E2,2.104369E4,2.8868435E3,8.2869055E2,3.677201E2,1.2337196E2,4.6032322E1,2.1383038E2,4.5556255E1],"tree_param":{"num_deleted":"0","num_feature":"10","num_nodes":"15","size_leaf_vector":"1"}},{"base_weights":[-1.6381376E-3,1.0837518E-2,-7.8707254E-1,-4.573756E-1,2.5936732E-2,-5.58724E-1,-8.7290394E-1,-3.928487E-2,-1.737949E-1,9.825301E-3,-1.0360463E-2,-9.061434E-2,3.2366363E-3,-8.914378E-2,2.0647032E-2],"categories":[],"categories_nodes":[],"categories_segments":[],"categories_sizes":[],"default_left":[0,0,0,0,0,0,0,0,0,0,0,0,0,0,0],"id":35,"left_children":[1,3,5,7,9,11,13,-1,-1,-1,-1,-1,-1,-1,-1],"loss_changes":[2.497051E2,1.773533E2,7.3214874E0,6.407825E1,2.2767162E2,2.2953056E1,5.9417267E0,0E0,0E0,0E0,0E0,0E0,0E0,0E0,0E0],"parents":[2147483647,0,0,1,1,2,2,3,3,4,4,5,5,6,6],"right_children":[2,4,6,8,10,12,14,-1,-1,-1,-1,-1,-1,-1,-1],"split_conditions":[1E0,2.3E1,1.6E1,1.7E1,1.25E2,2.01E2,1.63E2,-3.928487E-2,-1.737949E-1,9.825301E-3,-1.0360463E-2,-9.061434E-2,3.2366363E-3,-8.914378E-2,2.0647032E-2],"split_indices":[4,8,3,8,8,9,8,0,0,0,0,0,0,0,0],"split_type":[0,0,0,0,0,0,0,0,0,0,0,0,0,0,0],"sum_hessian":[2.5481338E4,2.5083896E4,3.9744052E2,7.827337E2,2.4301162E4,1.1062907E2,2.8681146E2,7.4642865E2,3.6305054E1,1.5595332E4,8.70583E3,6.9340485E1,4.1288578E1,2.8214096E2,4.670503E0],"tree_param":{"num_deleted":"0","num_feature":"10","num_nodes":"15","size_leaf_vector":"1"}},{"base_weights":[-1.5229579E-3,-4.738651E-1,1.7829865E-2,-5.6904304E-1,-1.1027595E-1,3.6386956E-2,-3.8843694E-1,-4.6800636E-2,-9.675776E-2,6.0083985E-2,-8.030739E-2,1.0075054E-2,-8.269125E-3,-4.3418046E-2,3.0415142E-2],"categories":[],"categories_nodes":[],"categories_segments":[],"categories_sizes":[],"default_left":[0,0,0,0,0,0,0,0,0,0,0,0,0,0,0],"id":36,"left_children":[1,3,5,7,9,11,13,-1,-1,-1,-1,-1,-1,-1,-1],"loss_changes":[2.3227713E2,3.454721E1,1.8404422E2,3.1454163E1,1.0331572E2,1.789286E2,3.3915817E1,0E0,0E0,0E0,0E0,0E0,0E0,0E0,0E0],"parents":[2147483647,0,0,1,1,2,2,3,3,4,4,5,5,6,6],"right_children":[2,4,6,8,10,12,14,-1,-1,-1,-1,-1,-1,-1,-1],"split_conditions":[1E0,1.54E2,6.9E1,2.41E2,1.58E2,1.25E2,1.55E2,-4.6800636E-2,-9.675776E-2,6.0083985E-2,-8.030739E-2,1.0075054E-2,-8.269125E-3,-4.3418046E-2,3.0415142E-2],"split_indices":[6,8,1,9,8,8,8,0,0,0,0,0,0,0,0],"split_type":[0,0,0,0,0,0,0,0,0,0,0,0,0,0,0],"sum_hessian":[2.540812E4,9.991242E2,2.4408994E4,7.9139343E2,2.0773076E2,2.3343635E4,1.0653591E3,6.330712E2,1.5832224E2,1.02575676E2,1.0515508E2,1.5153235E4,8.1904004E3,9.997046E2,6.565453E1],"tree_param":{"num_deleted":"0","num_feature":"10","num_nodes":"15","size_leaf_vector":"1"}},{"base_weights":[-1.4305612E-3,9.562682E-3,-7.6069546E-1,-1.4471094E-1,5.232329E-2,-5.6972086E-1,-8.860471E-1,-1.6002541E-2,7.307248E-2,7.3359967E-3,-4.2035736E-2,-4.107475E-2,-9.960231E-2,-9.7075514E-2,-4.9796317E-2],"categories":[],"categories_nodes":[],"categories_segments":[],"categories_sizes":[],"default_left":[0,0,0,0,0,0,0,0,0,0,0,0,0,0,0],"id":37,"left_children":[1,3,5,7,9,11,13,-1,-1,-1,-1,-1,-1,-1,-1],"loss_changes":[2.1129294E2,1.6461926E2,8.144119E0,7.272324E1,1.9431458E2,9.483402E0,6.627823E0,0E0,0E0,0E0,0E0,0E0,0E0,0E0,0E0],"parents":[2147483647,0,0,1,1,2,2,3,3,4,4,5,5,6,6],"right_children":[2,4,6,8,10,12,14,-1,-1,-1,-1,-1,-1,-1,-1],"split_conditions":[1E0,1.8E1,1.52E2,1.63E2,4.8E1,1.93295E3,1.54E2,-1.6002541E-2,7.307248E-2,7.3359967E-3,-4.2035736E-2,-4.107475E-2,-9.960231E-2,-9.7075514E-2,-4.9796317E-2],"split_indices":[4,3,8,8,3,7,8,0,0,0,0,0,0,0,0],"split_type":[0,0,0,0,0,0,0,0,0,0,0,0,0,0,0],"sum_hessian":[2.5312424E4,2.4952135E4,3.602895E2,5.414625E3,1.953751E4,1.4497043E2,2.1531906E2,5.3223354E3,9.22892E1,1.870585E4,8.316601E2,1.0702354E2,3.7946896E1,1.7550893E2,3.981014E1],"tree_param":{"num_deleted":"0","num_feature":"10","num_nodes":"15","size_leaf_vector":"1"}},{"base_weights":[-1.3277237E-3,-4.4017354E-1,1.5768208E-2,-6.4411503E-1,-2.696764E-1,3.6603633E-2,-2.8912917E-1,8.295063E-4,-7.89492E-2,-4.505977E-2,3.3767227E-2,-8.026065E-2,4.4421037E-3,-3.702581E-2,6.2828897E-3],"categories":[],"categories_nodes":[],"categories_segments":[],"categories_sizes":[],"default_left":[0,0,0,0,0,0,0,0,0,0,0,0,0,0,0],"id":38,"left_children":[1,3,5,7,9,11,13,-1,-1,-1,-1,-1,-1,-1,-1],"loss_changes":[1.8960316E2,3.2775665E1,1.545363E2,4.086209E1,5.705344E1,1.4941385E2,4.445401E1,0E0,0E0,0E0,0E0,0E0,0E0,0E0,0E0],"parents":[2147483647,0,0,1,1,2,2,3,3,4,4,5,5,6,6],"right_children":[2,4,6,8,10,12,14,-1,-1,-1,-1,-1,-1,-1,-1],"split_conditions":[1E0,1E0,6.6E1,9.423E2,1.54E2,2.1E1,2E0,8.295063E-4,-7.89492E-2,-4.505977E-2,3.3767227E-2,-8.026065E-2,4.4421037E-3,-3.702581E-2,6.2828897E-3],"split_indices":[6,5,1,7,8,1,5,0,0,0,0,0,0,0,0],"split_type":[0,0,0,0,0,0,0,0,0,0,0,0,0,0,0],"sum_hessian":[2.5270146E4,9.4659814E2,2.4323547E4,4.2975974E2,5.168384E2,2.2768521E4,1.5550265E3,7.848488E1,3.5127487E2,3.984141E2,1.1842431E2,2.0919742E2,2.2559324E4,1.2636857E3,2.9134076E2],"tree_param":{"num_deleted":"0","num_feature":"10","num_nodes":"15","size_leaf_vector":"1"}},{"base_weights":[-1.2614836E-3,8.449404E-3,-7.3391503E-1,-1.3163268E-2,2.840954E-1,-4.695787E-1,-8.361144E-1,-5.74619E-3,2.0392627E-2,5.027212E-2,-5.701305E-3,-8.7663285E-2,1.6933555E-2,-8.5848875E-2,2.5704825E-2],"categories":[],"categories_nodes":[],"categories_segments":[],"categories_sizes":[],"default_left":[0,0,0,0,0,0,0,0,0,0,0,0,0,0,0],"id":39,"left_children":[1,3,5,7,9,11,13,-1,-1,-1,-1,-1,-1,-1,-1],"loss_changes":[1.7935208E2,1.4821893E2,8.515701E0,2.2188089E2,1.3492839E2,2.4653776E1,6.0058746E0,0E0,0E0,0E0,0E0,0E0,0E0,0E0,0E0],"parents":[2147483647,0,0,1,1,2,2,3,3,4,4,5,5,6,6],"right_children":[2,4,6,8,10,12,14,-1,-1,-1,-1,-1,-1,-1,-1],"split_conditions":[1E0,2E0,1.6E1,1.54E2,6.1E1,2.01E2,1.63E2,-5.74619E-3,2.0392627E-2,5.027212E-2,-5.701305E-3,-8.7663285E-2,1.6933555E-2,-8.5848875E-2,2.5704825E-2],"split_indices":[4,5,3,8,8,9,8,0,0,0,0,0,0,0,0],"split_type":[0,0,0,0,0,0,0,0,0,0,0,0,0,0,0],"sum_hessian":[2.5206734E4,2.487798E4,3.287544E2,2.307007E4,1.8079108E3,9.3224945E1,2.3552943E2,1.9160893E4,3.9091782E3,1.1014728E3,7.06438E2,5.6717804E1,3.6507145E1,2.310158E2,4.5136485E0],"tree_param":{"num_deleted":"0","num_feature":"10","num_nodes":"15","size_leaf_vector":"1"}},{"base_weights":[-1.150257E-3,7.6396116E-3,-7.120251E-1,2.4372801E-2,-3.3430755E-1,-4.96613E-1,-8.5795254E-1,-2.1685816E-3,3.6032286E-2,-7.553782E-2,6.0363274E-2,-1.3173945E-2,-7.2625704E-2,-9.582583E-2,-4.3192025E-2],"categories":[],"categories_nodes":[],"categories_segments":[],"categories_sizes":[],"default_left":[0,0,0,0,0,0,0,0,0,0,0,0,0,0,0],"id":40,"left_children":[1,3,5,7,9,11,13,-1,-1,-1,-1,-1,-1,-1,-1],"loss_changes":[1.5731477E2,1.4230556E2,9.240082E0,3.668787E2,4.5868854E2,1.0508827E1,7.3611145E0,0E0,0E0,0E0,0E0,0E0,0E0,0E0,0E0],"parents":[2147483647,0,0,1,1,2,2,3,3,4,4,5,5,6,6],"right_children":[2,4,6,8,10,12,14,-1,-1,-1,-1,-1,-1,-1,-1],"split_conditions":[1E0,1.59E2,1.52E2,1.54E2,1.63E2,4.3E1,1.54E2,-2.1685816E-3,3.6032286E-2,-7.553782E-2,6.0363274E-2,-1.3173945E-2,-7.2625704E-2,-9.582583E-2,-4.3192025E-2],"split_indices":[4,8,8,8,8,1,8,0,0,0,0,0,0,0,0],"split_type":[0,0,0,0,0,0,0,0,0,0,0,0,0,0,0],"sum_hessian":[2.5174553E4,2.486805E4,3.0650073E2,2.370879E4,1.1592614E3,1.2555895E2,1.8094179E2,2.0851055E4,2.8577358E3,8.0021466E2,3.5904666E2,4.910746E1,7.645149E1,1.4544801E2,3.5493774E1],"tree_param":{"num_deleted":"0","num_feature":"10","num_nodes":"15","size_leaf_vector":"1"}},{"base_weights":[-1.077607E-3,5.744903E-2,-1.103681E-1,1.6333443E-1,-1.1477044E-1,-3.216471E-1,1.4087512E-1,3.862628E-2,1.097485E-2,-1.9090574E-2,2.8802423E-2,-1.2036458E-2,-5.4855246E-2,3.2647353E-2,-3.119183E-2],"categories":[],"categories_nodes":[],"categories_segments":[],"categories_sizes":[],"default_left":[0,0,0,0,0,0,0,0,0,0,0,0,0,0,0],"id":41,"left_children":[1,3,5,7,9,11,13,-1,-1,-1,-1,-1,-1,-1,-1],"loss_changes":[1.6065302E2,2.9829428E2,4.6501077E2,1.2096359E2,1.910568E2,2.1725934E2,3.3641473E2,0E0,0E0,0E0,0E0,0E0,0E0,0E0,0E0],"parents":[2147483647,0,0,1,1,2,2,3,3,4,4,5,5,6,6],"right_children":[2,4,6,8,10,12,14,-1,-1,-1,-1,-1,-1,-1,-1],"split_conditions":[1.25E2,4.9E1,1.54E2,3.6E1,2E0,2.6E1,1.59E2,3.862628E-2,1.097485E-2,-1.9090574E-2,2.8802423E-2,-1.2036458E-2,-5.4855246E-2,3.2647353E-2,-3.119183E-2],"split_indices":[8,1,8,1,5,1,8,0,0,0,0,0,0,0,0],"split_type":[0,0,0,0,0,0,0,0,0,0,0,0,0,0,0],"sum_hessian":[2.5114148E4,1.6355837E4,8.7583125E3,1.01285625E4,6.227275E3,4.757385E3,4.0009277E3,1.9616193E3,8.166943E3,5.23777E3,9.8950494E2,2.5218447E3,2.23554E3,2.8379436E3,1.1629839E3],"tree_param":{"num_deleted":"0","num_feature":"10","num_nodes":"15","size_leaf_vector":"1"}},{"base_weights":[-9.3232386E-4,-3.956021E-1,1.3435061E-2,-2.9735848E-1,-8.0426604E-1,-4.0499225E-1,2.7194202E-2,-3.9168415E-3,-4.6102755E-2,3.2063473E-2,-9.104607E-2,-1.9802602E-1,-3.3190455E-2,8.2663065E-3,-7.636294E-3],"categories":[],"categories_nodes":[],"categories_segments":[],"categories_sizes":[],"default_left":[0,0,0,0,0,0,0,0,0,0,0,0,0,0,0],"id":42,"left_children":[1,3,5,7,9,11,13,-1,-1,-1,-1,-1,-1,-1,-1],"loss_changes":[1.4188828E2,3.504831E1,1.3901219E2,2.999187E1,2.0570816E1,8.78465E1,1.3428363E2,0E0,0E0,0E0,0E0,0E0,0E0,0E0,0E0],"parents":[2147483647,0,0,1,1,2,2,3,3,4,4,5,5,6,6],"right_children":[2,4,6,8,10,12,14,-1,-1,-1,-1,-1,-1,-1,-1],"split_conditions":[1E0,2.41E2,2.3E1,1.3196E3,7E0,2E0,1.25E2,-3.9168415E-3,-4.6102755E-2,3.2063473E-2,-9.104607E-2,-1.9802602E-1,-3.3190455E-2,8.2663065E-3,-7.636294E-3],"split_indices":[6,9,8,7,3,8,8,0,0,0,0,0,0,0,0],"split_type":[0,0,0,0,0,0,0,0,0,0,0,0,0,0,0],"sum_hessian":[2.5020803E4,8.779209E2,2.4142883E4,7.0916406E2,1.6875684E2,7.677106E2,2.3375172E4,2.756158E2,4.3354822E2,1.438283E1,1.5437401E2,3.28831E1,7.3482745E2,1.5221957E4,8.1532153E3],"tree_param":{"num_deleted":"0","num_feature":"10","num_nodes":"15","size_leaf_vector":"1"}},{"base_weights":[-8.709886E-4,6.753251E-3,-6.7761225E-1,4.4076547E-2,-1.3642888E-1,-3.800087E-1,-7.966446E-1,1.236874E-2,-8.016898E-3,-1.975681E-2,1.8006947E-2,-8.4478125E-2,2.8222302E-2,-8.2335465E-2,3.2052852E-2],"categories":[],"categories_nodes":[],"categories_segments":[],"categories_sizes":[],"default_left":[0,0,0,0,0,0,0,0,0,0,0,0,0,0,0],"id":43,"left_children":[1,3,5,7,9,11,13,-1,-1,-1,-1,-1,-1,-1,-1],"loss_changes":[1.2877342E2,1.318962E2,9.546883E0,1.9365747E2,9.878748E1,2.5276691E1,6.1630936E0,0E0,0E0,0E0,0E0,0E0,0E0,0E0,0E0],"parents":[2147483647,0,0,1,1,2,2,3,3,4,4,5,5,6,6],"right_children":[2,4,6,8,10,12,14,-1,-1,-1,-1,-1,-1,-1,-1],"split_conditions":[1E0,5.3E1,1.6E1,1.52E2,2E0,2.01E2,1.63E2,1.236874E-2,-8.016898E-3,-1.975681E-2,1.8006947E-2,-8.4478125E-2,2.8222302E-2,-8.2335465E-2,3.2052852E-2],"split_indices":[4,1,3,8,5,9,8,0,0,0,0,0,0,0,0],"split_type":[0,0,0,0,0,0,0,0,0,0,0,0,0,0,0],"sum_hessian":[2.4955959E4,2.4678914E4,2.770453E2,1.9576578E4,5.102336E3,8.034931E1,1.9669597E2,1.1931453E4,7.645125E3,4.276587E3,8.2574915E2,4.7051563E1,3.329775E1,1.9235992E2,4.3360515E0],"tree_param":{"num_deleted":"0","num_feature":"10","num_nodes":"15","size_leaf_vector":"1"}},{"base_weights":[-7.9972745E-4,-9.530637E-3,5.88015E-1,1.2007084E-2,-6.560081E-1,-5.11866E-1,6.2912023E-1,-2.863749E-3,3.1292703E-2,-5.1442236E-2,-1.3822E-1,-1.4635745E-1,3.2125045E-2,1.4431006E-1,5.6307275E-2],"categories":[],"categories_nodes":[],"categories_segments":[],"categories_sizes":[],"default_left":[0,0,0,0,0,0,0,0,0,0,0,0,0,0,0],"id":44,"left_children":[1,3,5,7,9,11,13,-1,-1,-1,-1,-1,-1,-1,-1],"loss_changes":[1.27978325E2,3.415603E2,1.6766838E1,2.90373E2,8.060916E1,1.1297288E1,1.8061996E1,0E0,0E0,0E0,0E0,0E0,0E0,0E0,0E0],"parents":[2147483647,0,0,1,1,2,2,3,3,4,4,5,5,6,6],"right_children":[2,4,6,8,10,12,14,-1,-1,-1,-1,-1,-1,-1,-1],"split_conditions":[1.63E2,1.59E2,2.2E1,1.54E2,3.4E1,2.02E2,2.4E1,-2.863749E-3,3.1292703E-2,-5.1442236E-2,-1.3822E-1,-1.4635745E-1,3.2125045E-2,1.4431006E-1,5.6307275E-2],"split_indices":[8,8,1,8,1,9,1,0,0,0,0,0,0,0,0],"split_type":[0,0,0,0,0,0,0,0,0,0,0,0,0,0,0],"sum_hessian":[2.4892111E4,2.4529375E4,3.627363E2,2.3739465E4,7.899107E2,1.2655359E1,3.5008096E2,2.0915377E4,2.8240876E3,6.624593E2,1.27451454E2,5.554007E0,7.101352E0,2.4709341E1,3.253716E2],"tree_param":{"num_deleted":"0","num_feature":"10","num_nodes":"15","size_leaf_vector":"1"}},{"base_weights":[-7.1748823E-4,1.2485312E-2,-3.792382E-1,-1.1247104E-1,6.2436737E-2,5.6692634E-2,-4.228518E-1,-7.010559E-2,-9.723169E-3,8.916873E-3,-1.9502973E-2,4.7871467E-2,-3.1715404E-2,-1.8780677E-2,-5.2184273E-2],"categories":[],"categories_nodes":[],"categories_segments":[],"categories_sizes":[],"default_left":[0,0,0,0,0,0,0,0,0,0,0,0,0,0,0],"id":45,"left_children":[1,3,5,7,9,11,13,-1,-1,-1,-1,-1,-1,-1,-1],"loss_changes":[1.2424883E2,1.4995955E2,1.5955696E1,6.147567E1,1.181487E2,1.2314838E1,1.7628601E1,0E0,0E0,0E0,0E0,0E0,0E0,0E0,0E0],"parents":[2147483647,0,0,1,1,2,2,3,3,4,4,5,5,6,6],"right_children":[2,4,6,8,10,12,14,-1,-1,-1,-1,-1,-1,-1,-1],"split_conditions":[4.8E1,2.8E1,3.4E1,2E0,6.3E1,1.24E2,3.6E1,-7.010559E-2,-9.723169E-3,8.916873E-3,-1.9502973E-2,4.7871467E-2,-3.1715404E-2,-1.8780677E-2,-5.2184273E-2],"split_indices":[3,3,9,3,1,8,1,0,0,0,0,0,0,0,0],"split_type":[0,0,0,0,0,0,0,0,0,0,0,0,0,0,0],"sum_hessian":[2.4860082E4,2.4023123E4,8.369595E2,6.8603394E3,1.7162783E4,7.609257E1,7.608669E2,1.7200587E2,6.6883335E3,1.5549027E4,1.6137561E3,3.5611507E1,4.048106E1,2.2634004E2,5.3452686E2],"tree_param":{"num_deleted":"0","num_feature":"10","num_nodes":"15","size_leaf_vector":"1"}},{"base_weights":[-6.3123554E-4,-8.84071E-2,5.0717868E-2,2.387371E-3,-2.2763905E-1,6.266938E-2,-5.020409E-1,1.02933915E-2,-2.4185246E-2,-5.0730605E-2,1.3364564E-2,4.0541072E-3,3.278252E-2,-9.6259534E-2,-2.4483325E-2],"categories":[],"categories_nodes":[],"categories_segments":[],"categories_sizes":[],"default_left":[0,0,0,0,0,0,0,0,0,0,0,0,0,0,0],"id":46,"left_children":[1,3,5,7,9,11,13,-1,-1,-1,-1,-1,-1,-1,-1],"loss_changes":[1.1199191E2,1.1593289E2,1.0359515E2,1.3636655E2,3.6581415E2,9.00263E1,3.9079155E1,0E0,0E0,0E0,0E0,0E0,0E0,0E0,0E0],"parents":[2147483647,0,0,1,1,2,2,3,3,4,4,5,5,6,6],"right_children":[2,4,6,8,10,12,14,-1,-1,-1,-1,-1,-1,-1,-1],"split_conditions":[1E0,1.52E2,7.3E1,5.1E1,1.54E2,2E0,1.6309E3,1.02933915E-2,-2.4185246E-2,-5.0730605E-2,1.3364564E-2,4.0541072E-3,3.278252E-2,-9.6259534E-2,-2.4483325E-2],"split_indices":[0,8,1,1,8,5,7,0,0,0,0,0,0,0,0],"split_type":[0,0,0,0,0,0,0,0,0,0,0,0,0,0,0],"sum_hessian":[2.4845275E4,9.169781E3,1.5675494E4,5.5509424E3,3.6188394E3,1.5344605E4,3.308879E2,3.9325874E3,1.618355E3,2.0396003E3,1.579239E3,1.4163738E4,1.1808678E3,1.1758982E2,2.1329808E2],"tree_param":{"num_deleted":"0","num_feature":"10","num_nodes":"15","size_leaf_vector":"1"}},{"base_weights":[-5.857395E-4,6.195292E-3,-6.490223E-1,-3.55844E-1,1.8330205E-2,-3.381042E-1,-7.7666044E-1,-9.2891194E-2,-2.2839956E-2,1.2480546E-2,-2.906178E-3,-8.238376E-2,2.8354162E-2,-5.450346E-2,-9.465974E-2],"categories":[],"categories_nodes":[],"categories_segments":[],"categories_sizes":[],"default_left":[0,0,0,0,0,0,0,0,0,0,0,0,0,0,0],"id":47,"left_children":[1,3,5,7,9,11,13,-1,-1,-1,-1,-1,-1,-1,-1],"loss_changes":[1.0895749E2,1.07744736E2,9.914673E0,5.787683E1,1.1974113E2,2.3305557E1,6.6101913E0,0E0,0E0,0E0,0E0,0E0,0E0,0E0,0E0],"parents":[2147483647,0,0,1,1,2,2,3,3,4,4,5,5,6,6],"right_children":[2,4,6,8,10,12,14,-1,-1,-1,-1,-1,-1,-1,-1],"split_conditions":[1E0,2.3E1,1.6E1,3.9E1,2.9E1,2.01E2,1.25E2,-9.2891194E-2,-2.2839956E-2,1.2480546E-2,-2.906178E-3,-8.238376E-2,2.8354162E-2,-5.450346E-2,-9.465974E-2],"split_indices":[4,8,3,1,8,9,8,0,0,0,0,0,0,0,0],"split_type":[0,0,0,0,0,0,0,0,0,0,0,0,0,0,0],"sum_hessian":[2.4777662E4,2.4522213E4,2.5545082E2,7.9436584E2,2.3727846E4,7.5408844E1,1.8004198E2,1.4337512E2,6.509908E2,7.3078086E3,1.6420037E4,4.214943E1,3.3259415E1,7.797225E1,1.0206973E2],"tree_param":{"num_deleted":"0","num_feature":"10","num_nodes":"15","size_leaf_vector":"1"}},{"base_weights":[-5.509509E-4,-8.395411E-3,5.343794E-1,1.123769E-2,-6.0489637E-1,-4.7957742E-1,5.7257587E-1,-2.4867258E-3,2.8019933E-2,-4.766586E-2,-1.2523885E-1,-1.3805364E-1,2.8591305E-2,8.2879506E-2,4.0340733E-2],"categories":[],"categories_nodes":[],"categories_segments":[],"categories_sizes":[],"default_left":[0,0,0,0,0,0,0,0,0,0,0,0,0,0,0],"id":48,"left_children":[1,3,5,7,9,11,13,-1,-1,-1,-1,-1,-1,-1,-1],"loss_changes":[1.03846504E2,2.8563947E2,1.41267395E1,2.293148E2,6.3936096E1,9.724991E0,1.4625275E1,0E0,0E0,0E0,0E0,0E0,0E0,0E0,0E0],"parents":[2147483647,0,0,1,1,2,2,3,3,4,4,5,5,6,6],"right_children":[2,4,6,8,10,12,14,-1,-1,-1,-1,-1,-1,-1,-1],"split_conditions":[1.63E2,1.59E2,2.2E1,1.54E2,3.4E1,2.02E2,3.6E1,-2.4867258E-3,2.8019933E-2,-4.766586E-2,-1.2523885E-1,-1.3805364E-1,2.8591305E-2,8.2879506E-2,4.0340733E-2],"split_indices":[8,8,1,8,1,9,1,0,0,0,0,0,0,0,0],"split_type":[0,0,0,0,0,0,0,0,0,0,0,0,0,0,0],"sum_hessian":[2.4745441E4,2.4388777E4,3.566637E2,2.361258E4,7.761981E2,1.2528503E1,3.441352E2,2.0818807E4,2.7937732E3,6.493321E2,1.2686602E2,5.3859444E0,7.1425586E0,1.3530536E2,2.0882985E2],"tree_param":{"num_deleted":"0","num_feature":"10","num_nodes":"15","size_leaf_vector":"1"}},{"base_weights":[-4.9741E-4,-3.4787342E-1,1.1443304E-2,-2.4968296E-1,-7.7147764E-1,2.3324175E-2,-3.2851905E-1,-7.313201E-4,-4.0991332E-2,2.9931242E-2,-8.8475965E-2,-8.753021E-3,6.7215646E-3,-4.6608277E-2,-1.9700473E-2],"categories":[],"categories_nodes":[],"categories_segments":[],"categories_sizes":[],"default_left":[0,0,0,0,0,0,0,0,0,0,0,0,0,0,0],"id":49,"left_children":[1,3,5,7,9,11,13,-1,-1,-1,-1,-1,-1,-1,-1],"loss_changes":[1.02517395E2,3.396991E1,9.651709E1,2.5948715E1,1.8954765E1,1.1234287E2,1.4506485E1,0E0,0E0,0E0,0E0,0E0,0E0,0E0,0E0],"parents":[2147483647,0,0,1,1,2,2,3,3,4,4,5,5,6,6],"right_children":[2,4,6,8,10,12,14,-1,-1,-1,-1,-1,-1,-1,-1],"split_conditions":[1E0,2.41E2,4.8E1,1.3196E3,7E0,2.8E1,1.21395E3,-7.313201E-4,-4.0991332E-2,2.9931242E-2,-8.8475965E-2,-8.753021E-3,6.7215646E-3,-4.6608277E-2,-1.9700473E-2],"split_indices":[6,9,3,7,3,3,7,0,0,0,0,0,0,0,0],"split_type":[0,0,0,0,0,0,0,0,0,0,0,0,0,0,0],"sum_hessian":[2.471343E4,8.203349E2,2.3893096E4,6.67256E2,1.5307893E2,2.3087184E4,8.0591046E2,2.6597656E2,4.012794E2,1.4488179E1,1.3859076E2,6.5480713E3,1.6539113E4,3.9265268E2,4.1325778E2],"tree_param":{"num_deleted":"0","num_feature":"10","num_nodes":"15","size_leaf_vector":"1"}}]},"name":"gbtree"},"learner_model_param":{"base_score":"4.9988714E-1","boost_from_average":"1","num_class":"0","num_feature":"10","num_target":"1"},"objective":{"name":"binary:logistic","reg_loss_param":{"scale_pos_weight":"7.28000021"}}},"version":[2,0,3]}