{"learner":{"attributes":{"scikit_learn":"{\"_estimator_type\": \"classifier\"}"},"feature_names":["Gender","Age","HasDrivingLicense","RegionID","Switch","VehicleAge","PastAccident","AnnualPremium","SalesChannelID","DaysSinceCreated"],"feature_types":["int","float","float","float","int","int","int","float","int","int"],"gradient_booster":{"model":{"gbtree_model_param":{"num_parallel_tree":"1","num_trees":"50"},"iteration_indptr":[0,1,2,3,4,5,6,7,8,9,10,11,12,13,14,15,16,17,18,19,20,21,22,23,24,25,26,27,28,29,30,31,32,33,34,35,36,37,38,39,40,41,42,43,44,45,46,47,48,49,50],"tree_info":[0,0,0,0,0,0,0,0,0,0,0,0,0,0,0,0,0,0,0,0,0,0,0,0,0,0,0,0,0,0,0,0,0,0,0,0,0,0,0,0,0,0,0,0,0,0,0,0,0,0],"trees":[{"base_weights":[-4.0099898E-1,-1.1891837E0,-1.4134416E-1,-1.1986206E-1,-1.0885072E0,6.449043E-2,-1.2108212E-1,-7.8951254E-2,-1.1873805E-1,-7.134724E-2,3.4143157E-2],"categories":[],"categories_nodes":[],"categories_segments":[],"categories_sizes":[],"default_left":[0,0,0,0,0,0,0,0,0,0,0],"id":0,"left_children":[1,3,5,-1,7,9,-1,-1,-1,-1,-1],"loss_changes":[2.4154512E3,1.4736328E0,1.9547888E3,0E0,6.7942505E0,1.6047797E3,0E0,0E0,0E0,0E0,0E0],"parents":[2147483647,0,0,1,1,2,2,4,4,5,5],"right_children":[2,4,6,-1,8,10,-1,-1,-1,-1,-1],"split_conditions":[1E0,1.54E2,1E0,-1.1986206E-1,1.58E2,2.9E1,-1.2108212E-1,-7.8951254E-2,-1.1873805E-1,-7.134724E-2,3.4143157E-2],"split_indices":[6,8,4,0,8,1,0,0,0,0,0],"split_type":[0,0,0,0,0,0,0,0,0,0,0],"sum_hessian":[1.1802314E4,2.9237283E3,8.878586E3,2.6631924E3,2.605361E2,7.4463755E3,1.4322108E3,6.6978134E1,1.9355795E2,1.9544633E3,5.491912E3],"tree_param":{"num_deleted":"0","num_feature":"10","num_nodes":"11","size_leaf_vector":"1"}},{"base_weights":[-3.7245068E-1,-1.1621718E0,-1.2970407E-1,-1.1721551E-1,-1.0565068E0,5.7091624E-2,-1.18512E-1,-7.507757E-2,-1.16037846E-1,-6.743537E-2,3.0033777E-2],"categories":[],"categories_nodes":[],"categories_segments":[],"categories_sizes":[],"default_left":[0,0,0,0,0,0,0,0,0,0,0],"id":1,"left_children":[1,3,5,-1,7,9,-1,-1,-1,-1,-1],"loss_changes":[2.2055234E3,1.6152344E0,1.7353007E3,0E0,6.866211E0,1.3308978E3,0E0,0E0,0E0,0E0,0E0],"parents":[2147483647,0,0,1,1,2,2,4,4,5,5],"right_children":[2,4,6,-1,8,10,-1,-1,-1,-1,-1],"split_conditions":[1E0,1.54E2,1E0,-1.1721551E-1,1.58E2,2.9E1,-1.18512E-1,-7.507757E-2,-1.16037846E-1,-6.743537E-2,3.0033777E-2],"split_indices":[6,8,4,0,8,1,0,0,0,0,0],"split_type":[0,0,0,0,0,0,0,0,0,0,0],"sum_hessian":[1.1504738E4,2.7040234E3,8.800715E3,2.4613782E3,2.4264516E2,7.4781245E3,1.3225906E3,6.361922E1,1.7902592E2,1.8658148E3,5.6123096E3],"tree_param":{"num_deleted":"0","num_feature":"10","num_nodes":"11","size_leaf_vector":"1"}},{"base_weights":[-3.4588277E-1,-1.1381264E0,-1.1903403E-1,-1.148757E-1,-1.026627E0,5.0628737E-2,-1.1626345E-1,-7.1330376E-2,-1.1363178E-1,-6.6603445E-2,2.5745992E-2],"categories":[],"categories_nodes":[],"categories_segments":[],"categories_sizes":[],"default_left":[0,0,0,0,0,0,0,0,0,0,0],"id":2,"left_children":[1,3,5,-1,7,9,-1,-1,-1,-1,-1],"loss_changes":[2.0159125E3,1.7802734E0,1.5443435E3,0E0,6.982437E0,1.1123445E3,0E0,0E0,0E0,0E0,0E0],"parents":[2147483647,0,0,1,1,2,2,4,4,5,5],"right_children":[2,4,6,-1,8,10,-1,-1,-1,-1,-1],"split_conditions":[1E0,1.54E2,1E0,-1.148757E-1,1.58E2,2.8E1,-1.1626345E-1,-7.1330376E-2,-1.1363178E-1,-6.6603445E-2,2.5745992E-2],"split_indices":[6,8,4,0,8,1,0,0,0,0,0],"split_type":[0,0,0,0,0,0,0,0,0,0,0],"sum_hessian":[1.1216749E4,2.4959407E3,8.720809E3,2.2701943E3,2.2574643E2,7.502109E3,1.2186997E3,6.0483315E1,1.652631E2,1.6797188E3,5.82239E3],"tree_param":{"num_deleted":"0","num_feature":"10","num_nodes":"11","size_leaf_vector":"1"}},{"base_weights":[-3.2106793E-1,-1.1165171E0,-1.09229945E-1,-1.1278955E-1,-9.983857E-1,4.495664E-2,-1.1428352E-1,-6.769405E-2,-1.1146714E-1,-6.291365E-2,2.2785848E-2],"categories":[],"categories_nodes":[],"categories_segments":[],"categories_sizes":[],"default_left":[0,0,0,0,0,0,0,0,0,0,0],"id":3,"left_children":[1,3,5,-1,7,9,-1,-1,-1,-1,-1],"loss_changes":[1.8437057E3,1.967041E0,1.377325E3,0E0,7.127884E0,9.274574E2,0E0,0E0,0E0,0E0,0E0],"parents":[2147483647,0,0,1,1,2,2,4,4,5,5],"right_children":[2,4,6,-1,8,10,-1,-1,-1,-1,-1],"split_conditions":[1E0,1.54E2,1E0,-1.1278955E-1,1.58E2,2.8E1,-1.1428352E-1,-6.769405E-2,-1.1146714E-1,-6.291365E-2,2.2785848E-2],"split_indices":[6,8,4,0,8,1,0,0,0,0,0],"split_type":[0,0,0,0,0,0,0,0,0,0,0],"sum_hessian":[1.0941187E4,2.3000933E3,8.641094E3,2.0902166E3,2.0987665E2,7.5202305E3,1.1208632E3,5.756701E1,1.5230965E2,1.6044642E3,5.915766E3],"tree_param":{"num_deleted":"0","num_feature":"10","num_nodes":"11","size_leaf_vector":"1"}},{"base_weights":[-2.978437E-1,-1.096909E0,-1.0020849E-1,-1.1091373E-1,-9.713872E-1,3.9967462E-2,-1.1252921E-1,-6.415819E-2,-1.0950079E-1,-5.078863E-2,2.321974E-2],"categories":[],"categories_nodes":[],"categories_segments":[],"categories_sizes":[],"default_left":[0,0,0,0,0,0,0,0,0,0,0],"id":4,"left_children":[1,3,5,-1,7,9,-1,-1,-1,-1,-1],"loss_changes":[1.6865784E3,2.1728516E0,1.2305813E3,0E0,7.2903595E0,7.9360443E2,0E0,0E0,0E0,0E0,0E0],"parents":[2147483647,0,0,1,1,2,2,4,4,5,5],"right_children":[2,4,6,-1,8,10,-1,-1,-1,-1,-1],"split_conditions":[1E0,1.54E2,1E0,-1.1091373E-1,1.58E2,1E0,-1.1252921E-1,-6.415819E-2,-1.0950079E-1,-5.078863E-2,2.321974E-2],"split_indices":[6,8,4,0,8,5,0,0,0,0,0],"split_type":[0,0,0,0,0,0,0,0,0,0,0],"sum_hessian":[1.0679417E4,2.1167136E3,8.562704E3,1.9216692E3,1.9504459E2,7.5334907E3,1.0292128E3,5.486396E1,1.4018063E2,1.9563285E3,5.5771626E3],"tree_param":{"num_deleted":"0","num_feature":"10","num_nodes":"11","size_leaf_vector":"1"}},{"base_weights":[-2.7600357E-1,-1.0789413E0,-9.1864675E-2,-1.09212436E-1,-9.453038E-1,3.556166E-2,-1.10965304E-1,-6.0716517E-2,-1.07696906E-1,-5.7029884E-2,1.8491132E-2],"categories":[],"categories_nodes":[],"categories_segments":[],"categories_sizes":[],"default_left":[0,0,0,0,0,0,0,0,0,0,0],"id":5,"left_children":[1,3,5,-1,7,9,-1,-1,-1,-1,-1],"loss_changes":[1.542895E3,2.3972168E0,1.101174E3,0E0,7.459549E0,6.8295795E2,0E0,0E0,0E0,0E0,0E0],"parents":[2147483647,0,0,1,1,2,2,4,4,5,5],"right_children":[2,4,6,-1,8,10,-1,-1,-1,-1,-1],"split_conditions":[1E0,1.54E2,1E0,-1.09212436E-1,1.58E2,2.8E1,-1.10965304E-1,-6.0716517E-2,-1.07696906E-1,-5.7029884E-2,1.8491132E-2],"split_indices":[6,8,4,0,8,1,0,0,0,0,0],"split_type":[0,0,0,0,0,0,0,0,0,0,0],"sum_hessian":[1.0435065E4,1.9457523E3,8.4893125E3,1.764514E3,1.8123836E2,7.545577E3,9.4373566E2,5.2365738E1,1.2887262E2,1.4916489E3,6.053928E3],"tree_param":{"num_deleted":"0","num_feature":"10","num_nodes":"11","size_leaf_vector":"1"}},{"base_weights":[-2.556015E-1,-1.0623097E0,-8.42202E-2,-1.0765562E0,-9.1986305E-1,3.165929E-2,-1.0956255E0,-1.0522194E-1,-1.1062075E-1,-5.736608E-2,-1.06025256E-1,2.4426105E-2,-3.34517E-2,-1.0967467E-1,-4.7319658E-2],"categories":[],"categories_nodes":[],"categories_segments":[],"categories_sizes":[],"default_left":[0,0,0,0,0,0,0,0,0,0,0,0,0,0,0],"id":6,"left_children":[1,3,5,7,9,11,13,-1,-1,-1,-1,-1,-1,-1,-1],"loss_changes":[1.4107322E3,2.6379395E0,9.86582E2,4.8828125E-3,7.626663E0,5.880997E2,8.47168E-2,0E0,0E0,0E0,0E0,0E0,0E0,0E0,0E0],"parents":[2147483647,0,0,1,1,2,2,3,3,4,4,5,5,6,6],"right_children":[2,4,6,8,10,12,14,-1,-1,-1,-1,-1,-1,-1,-1],"split_conditions":[1E0,1.54E2,1E0,1E0,1.58E2,1.25E2,1.63E2,-1.0522194E-1,-1.1062075E-1,-5.736608E-2,-1.06025256E-1,2.4426105E-2,-3.34517E-2,-1.0967467E-1,-4.7319658E-2],"split_indices":[6,8,4,4,8,8,8,0,0,0,0,0,0,0,0],"split_type":[0,0,0,0,0,0,0,0,0,0,0,0,0,0,0],"sum_hessian":[1.0203511E4,1.786953E3,8.416558E3,1.618522E3,1.6843109E2,7.552245E3,8.6431287E2,9.089616E2,7.095603E2,5.006254E1,1.18368546E2,4.7783E3,2.7739456E3,8.6199805E2,2.3148057E0],"tree_param":{"num_deleted":"0","num_feature":"10","num_nodes":"15","size_leaf_vector":"1"}},{"base_weights":[-2.3637547E-1,-1.0467641E0,-7.712487E-2,-1.0621874E0,-8.948389E-1,2.821284E-2,-1.0829715E0,-1.0360014E-1,-1.0942347E-1,-5.41065E-2,-1.0446011E-1,-5.1883377E-2,1.5269038E-2,-1.08417705E-1,-4.526098E-2],"categories":[],"categories_nodes":[],"categories_segments":[],"categories_sizes":[],"default_left":[0,0,0,0,0,0,0,0,0,0,0,0,0,0,0],"id":7,"left_children":[1,3,5,7,9,11,13,-1,-1,-1,-1,-1,-1,-1,-1],"loss_changes":[1.2894515E3,2.8946533E0,8.8496814E2,1.1218262E-1,7.7839813E0,5.149686E2,1.11083984E-1,0E0,0E0,0E0,0E0,0E0,0E0,0E0,0E0],"parents":[2147483647,0,0,1,1,2,2,3,3,4,4,5,5,6,6],"right_children":[2,4,6,8,10,12,14,-1,-1,-1,-1,-1,-1,-1,-1],"split_conditions":[1E0,1.54E2,1E0,1E0,1.58E2,2.8E1,1.63E2,-1.0360014E-1,-1.0942347E-1,-5.41065E-2,-1.0446011E-1,-5.1883377E-2,1.5269038E-2,-1.08417705E-1,-4.526098E-2],"split_indices":[6,8,4,4,8,1,8,0,0,0,0,0,0,0,0],"split_type":[0,0,0,0,0,0,0,0,0,0,0,0,0,0,0],"sum_hessian":[9.991122E3,1.6399962E3,8.351126E3,1.4834108E3,1.565854E2,7.5603384E3,7.907877E2,8.3469836E2,6.487124E2,4.7943714E1,1.08641685E2,1.4008401E3,6.159498E3,7.885596E2,2.2281213E0],"tree_param":{"num_deleted":"0","num_feature":"10","num_nodes":"15","size_leaf_vector":"1"}},{"base_weights":[-2.1847145E-1,-7.821318E-2,-1.0786336E-1,-9.9075836E-1,2.5138862E-2,-1.0205399E-1,-7.271177E-2,-4.164002E-2,1.601726E-2],"categories":[],"categories_nodes":[],"categories_segments":[],"categories_sizes":[],"default_left":[0,0,0,0,0,0,0,0,0],"id":8,"left_children":[1,3,-1,5,7,-1,-1,-1,-1],"loss_changes":[1.1811364E3,7.9407715E2,0E0,5.9832764E0,4.5103674E2,0E0,0E0,0E0,0E0],"parents":[2147483647,0,0,1,1,3,3,4,4],"right_children":[2,4,-1,6,8,-1,-1,-1,-1],"split_conditions":[1E0,1E0,-1.0786336E-1,1.54E2,1E0,-1.0205399E-1,-7.271177E-2,-4.164002E-2,1.601726E-2],"split_indices":[4,6,0,8,5,0,0,0,0],"split_type":[0,0,0,0,0,0,0,0,0],"sum_hessian":[9.789893E3,8.418294E3,1.3715984E3,8.5555945E2,7.5627344E3,7.66143E2,8.941639E1,1.7707095E3,5.792025E3],"tree_param":{"num_deleted":"0","num_feature":"10","num_nodes":"9","size_leaf_vector":"1"}},{"base_weights":[-2.0163965E-1,-7.156337E-2,-1.0685754E-1,-9.7354263E-1,2.2412501E-2,-1.0056384E-1,-6.970912E-2,-4.65754E-2,1.2512467E-2],"categories":[],"categories_nodes":[],"categories_segments":[],"categories_sizes":[],"default_left":[0,0,0,0,0,0,0,0,0],"id":9,"left_children":[1,3,-1,5,7,-1,-1,-1,-1],"loss_changes":[1.0831556E3,7.0811707E2,0E0,6.29303E0,3.794444E2,0E0,0E0,0E0,0E0],"parents":[2147483647,0,0,1,1,3,3,4,4],"right_children":[2,4,-1,6,8,-1,-1,-1,-1],"split_conditions":[1E0,1E0,-1.0685754E-1,1.54E2,2.8E1,-1.0056384E-1,-6.970912E-2,-4.65754E-2,1.2512467E-2],"split_indices":[4,6,0,8,1,0,0,0,0],"split_type":[0,0,0,0,0,0,0,0,0],"sum_hessian":[9.604865E3,8.352697E3,1.2521682E3,7.8725684E2,7.5654404E3,7.0300146E2,8.425537E1,1.3144825E3,6.250958E3],"tree_param":{"num_deleted":"0","num_feature":"10","num_nodes":"9","size_leaf_vector":"1"}},{"base_weights":[-1.8594195E-1,-6.546262E-2,-1.05941646E-1,-9.565324E-1,1.9987816E-2,-9.911227E-2,-6.67172E-2,1.7378537E-2,-2.7187249E-2],"categories":[],"categories_nodes":[],"categories_segments":[],"categories_sizes":[],"default_left":[0,0,0,0,0,0,0,0,0],"id":10,"left_children":[1,3,-1,5,7,-1,-1,-1,-1],"loss_changes":[9.9260425E2,6.3128107E2,0E0,6.6001587E0,3.396684E2,0E0,0E0,0E0,0E0],"parents":[2147483647,0,0,1,1,3,3,4,4],"right_children":[2,4,-1,6,8,-1,-1,-1,-1],"split_conditions":[1E0,1E0,-1.05941646E-1,1.54E2,1.25E2,-9.911227E-2,-6.67172E-2,1.7378537E-2,-2.7187249E-2],"split_indices":[4,6,0,8,8,0,0,0,0],"split_type":[0,0,0,0,0,0,0,0,0],"sum_hessian":[9.431867E3,8.289555E3,1.1423127E3,7.244857E2,7.565069E3,6.449614E2,7.952428E1,4.9546113E3,2.6104578E3],"tree_param":{"num_deleted":"0","num_feature":"10","num_nodes":"9","size_leaf_vector":"1"}},{"base_weights":[-1.7121425E-1,-5.9812915E-2,-1.0510243E0,-9.3957275E-1,1.7840952E-2,-1.0519407E-1,-4.6962944E-1,-9.768366E-2,-6.373693E-2,1.0068347E-2,-4.5330934E-2,-5.8096973E-3,-6.2449068E-2],"categories":[],"categories_nodes":[],"categories_segments":[],"categories_sizes":[],"default_left":[0,0,0,0,0,0,0,0,0,0,0,0,0],"id":11,"left_children":[1,3,5,7,9,-1,11,-1,-1,-1,-1,-1,-1],"loss_changes":[9.090856E2,5.6256696E2,6.1401367E-2,6.8986816E0,2.9541644E2,0E0,1.8339974E-1,0E0,0E0,0E0,0E0,0E0,0E0],"parents":[2147483647,0,0,1,1,2,2,3,3,4,4,6,6],"right_children":[2,4,6,8,10,-1,12,-1,-1,-1,-1,-1,-1],"split_conditions":[1E0,1E0,1.63E2,1.54E2,5.9E1,-1.0519407E-1,8.3235E2,-9.768366E-2,-6.373693E-2,1.0068347E-2,-4.5330934E-2,-5.8096973E-3,-6.2449068E-2],"split_indices":[4,6,8,8,1,0,7,0,0,0,0,0,0],"split_type":[0,0,0,0,0,0,0,0,0,0,0,0,0],"sum_hessian":[9.274888E3,8.233439E3,1.0414481E3,6.6689716E2,7.5665425E3,1.0390011E3,2.4470305E0,5.917036E2,7.519357E1,6.435732E3,1.1308107E3,1.0450475E0,1.401983E0],"tree_param":{"num_deleted":"0","num_feature":"10","num_nodes":"13","size_leaf_vector":"1"}},{"base_weights":[-1.5730733E-1,-5.4545872E-2,-1.0432901E0,-9.2252624E-1,1.5915554E-2,-1.0442845E-1,-4.5363444E-1,-9.626391E-2,-6.0771447E-2,-3.605927E-2,1.2239185E-2,-5.5277753E-3,-6.0784042E-2],"categories":[],"categories_nodes":[],"categories_segments":[],"categories_sizes":[],"default_left":[0,0,0,0,0,0,0,0,0,0,0,0,0],"id":12,"left_children":[1,3,5,7,9,-1,11,-1,-1,-1,-1,-1,-1],"loss_changes":[8.322395E2,5.0106476E2,8.325195E-2,7.1829834E0,3.0385696E2,0E0,1.7325461E-1,0E0,0E0,0E0,0E0,0E0,0E0],"parents":[2147483647,0,0,1,1,2,2,3,3,4,4,6,6],"right_children":[2,4,6,8,10,-1,12,-1,-1,-1,-1,-1,-1],"split_conditions":[1E0,1E0,1.63E2,1.54E2,1E0,-1.0442845E-1,8.3235E2,-9.626391E-2,-6.0771447E-2,-3.605927E-2,1.2239185E-2,-5.5277753E-3,-6.0784042E-2],"split_indices":[4,6,8,8,5,0,7,0,0,0,0,0,0],"split_type":[0,0,0,0,0,0,0,0,0,0,0,0,0],"sum_hessian":[9.140605E3,8.191562E3,9.4904364E2,6.141426E2,7.5774194E3,9.466763E2,2.3673787E0,5.4290814E2,7.123445E1,1.6699528E3,5.907467E3,1.0397875E0,1.3275913E0],"tree_param":{"num_deleted":"0","num_feature":"10","num_nodes":"13","size_leaf_vector":"1"}},{"base_weights":[-1.4459619E-1,-4.982285E-2,-1.0361048E0,-9.052702E-1,1.418703E-2,-1.0371854E-1,-4.3824604E-1,-9.484021E-2,-5.7825726E-2,-4.2849E-2,9.269101E-3,-5.9467293E-2,-4.803471E-3],"categories":[],"categories_nodes":[],"categories_segments":[],"categories_sizes":[],"default_left":[0,0,0,0,0,0,0,0,0,0,0,0,0],"id":13,"left_children":[1,3,5,7,9,-1,11,-1,-1,-1,-1,-1,-1],"loss_changes":[7.6096735E2,4.4587906E2,1.0461426E-1,7.4472656E0,2.6334592E2,0E0,1.7245245E-1,0E0,0E0,0E0,0E0,0E0,0E0],"parents":[2147483647,0,0,1,1,2,2,3,3,4,4,6,6],"right_children":[2,4,6,8,10,-1,12,-1,-1,-1,-1,-1,-1],"split_conditions":[1E0,1E0,1.63E2,1.54E2,2.7E1,-1.0371854E-1,1.95E2,-9.484021E-2,-5.7825726E-2,-4.2849E-2,9.269101E-3,-5.9467293E-2,-4.803471E-3],"split_indices":[4,6,8,8,1,0,9,0,0,0,0,0,0],"split_type":[0,0,0,0,0,0,0,0,0,0,0,0,0],"sum_hessian":[9.006075E3,8.1416216E3,8.64453E2,5.658805E2,7.575741E3,8.621598E2,2.2932339E0,4.9826132E2,6.761917E1,1.1404403E3,6.435301E3,1.2629638E0,1.0302701E0],"tree_param":{"num_deleted":"0","num_feature":"10","num_nodes":"13","size_leaf_vector":"1"}},{"base_weights":[-1.3280052E-1,-4.549888E-2,-1.0293761E0,-8.876964E-1,1.2641665E-2,-1.0305529E-1,-4.2336577E-1,-9.340088E-2,-5.4906197E-2,9.011439E-3,-4.3549817E-2,-3.6288823E-3,-5.8226775E-2],"categories":[],"categories_nodes":[],"categories_segments":[],"categories_sizes":[],"default_left":[0,0,0,0,0,0,0,0,0,0,0,0,0],"id":14,"left_children":[1,3,5,7,9,-1,11,-1,-1,-1,-1,-1,-1],"loss_changes":[6.952031E2,3.96405E2,1.2567139E-1,7.6858826E0,2.6298187E2,0E0,1.77199E-1,0E0,0E0,0E0,0E0,0E0,0E0],"parents":[2147483647,0,0,1,1,2,2,3,3,4,4,6,6],"right_children":[2,4,6,8,10,-1,12,-1,-1,-1,-1,-1,-1],"split_conditions":[1E0,1E0,1.63E2,1.54E2,5.9E1,-1.0305529E-1,8.3235E2,-9.340088E-2,-5.4906197E-2,9.011439E-3,-4.3549817E-2,-3.6288823E-3,-5.8226775E-2],"split_indices":[4,6,8,8,1,0,7,0,0,0,0,0,0],"split_type":[0,0,0,0,0,0,0,0,0,0,0,0,0],"sum_hessian":[8.881427E3,8.0943154E3,7.871114E2,5.2177997E2,7.572535E3,7.848869E2,2.2244766E0,4.5745874E2,6.432125E1,6.457062E3,1.1154734E3,1.004919E0,1.2195576E0],"tree_param":{"num_deleted":"0","num_feature":"10","num_nodes":"13","size_leaf_vector":"1"}},{"base_weights":[-1.2168541E-1,-4.1462053E-2,-1.0230224E0,-8.697096E-1,1.1260285E-2,-1.02430455E-1,-4.0899336E-1,-9.193523E-2,-5.2020457E-2,1.3736597E-2,-2.3999995E-2,-3.4527523E-3,-5.6682378E-2],"categories":[],"categories_nodes":[],"categories_segments":[],"categories_sizes":[],"default_left":[0,0,0,0,0,0,0,0,0,0,0,0,0],"id":15,"left_children":[1,3,5,7,9,-1,11,-1,-1,-1,-1,-1,-1],"loss_changes":[6.347558E2,3.5207962E2,1.4587402E-1,7.893738E0,2.4024129E2,0E0,1.6717273E-1,0E0,0E0,0E0,0E0,0E0,0E0],"parents":[2147483647,0,0,1,1,2,2,3,3,4,4,6,6],"right_children":[2,4,6,8,10,-1,12,-1,-1,-1,-1,-1,-1],"split_conditions":[1E0,1E0,1.63E2,1.54E2,1.25E2,-1.02430455E-1,8.3235E2,-9.193523E-2,-5.2020457E-2,1.3736597E-2,-2.3999995E-2,-3.4527523E-3,-5.6682378E-2],"split_indices":[4,6,8,8,8,0,7,0,0,0,0,0,0],"split_type":[0,0,0,0,0,0,0,0,0,0,0,0,0],"sum_hessian":[8.778053E3,8.0615786E3,7.164735E2,4.8152417E2,7.5800547E3,7.1431384E2,2.1596801E0,4.2020856E2,6.13156E1,5.047303E3,2.5327515E3,1.0017376E0,1.1579427E0],"tree_param":{"num_deleted":"0","num_feature":"10","num_nodes":"13","size_leaf_vector":"1"}},{"base_weights":[-1.1152652E-1,-3.7818994E-2,-1.0169683E0,-8.51228E-1,1.0035002E-2,-1.01836644E-1,-3.9519674E-1,-9.0433516E-2,-4.917681E-2,6.8988698E-3,-4.9754888E-2,-5.5093836E-2,-3.7787908E-3],"categories":[],"categories_nodes":[],"categories_segments":[],"categories_sizes":[],"default_left":[0,0,0,0,0,0,0,0,0,0,0,0,0],"id":16,"left_children":[1,3,5,7,9,-1,11,-1,-1,-1,-1,-1,-1],"loss_changes":[5.7894E2,3.123179E2,1.652832E-1,8.065796E0,2.2681525E2,0E0,1.516994E-1,0E0,0E0,0E0,0E0,0E0,0E0],"parents":[2147483647,0,0,1,1,2,2,3,3,4,4,6,6],"right_children":[2,4,6,8,10,-1,12,-1,-1,-1,-1,-1,-1],"split_conditions":[1E0,1E0,1.63E2,1.54E2,6.3E1,-1.01836644E-1,1.91E2,-9.0433516E-2,-4.917681E-2,6.8988698E-3,-4.9754888E-2,-5.5093836E-2,-3.7787908E-3],"split_indices":[4,6,8,8,1,0,9,0,0,0,0,0,0],"split_type":[0,0,0,0,0,0,0,0,0,0,0,0,0],"sum_hessian":[8.67441E3,8.022389E3,6.520212E2,4.448119E2,7.5775776E3,6.499219E2,2.0993102E0,3.8623334E2,5.8578556E1,6.7898315E3,7.877458E2,1.0850276E0,1.0142826E0],"tree_param":{"num_deleted":"0","num_feature":"10","num_nodes":"13","size_leaf_vector":"1"}},{"base_weights":[-1.02032185E-1,-3.444819E-2,-1.0111436E0,-3.9037973E-1,7.0248306E-2,-1.01267E-1,-3.819708E-1,8.75362E-2,-5.5701125E-2,1.741621E-2,-4.0522166E-2,-5.3634565E-2,-3.5948798E-3],"categories":[],"categories_nodes":[],"categories_segments":[],"categories_sizes":[],"default_left":[0,0,0,0,0,0,0,0,0,0,0,0,0],"id":17,"left_children":[1,3,5,7,9,-1,11,-1,-1,-1,-1,-1,-1],"loss_changes":[5.276583E2,2.9797055E2,1.8389893E-1,3.8380206E2,3.053564E2,0E0,1.4331469E-1,0E0,0E0,0E0,0E0,0E0,0E0],"parents":[2147483647,0,0,1,1,2,2,3,3,4,4,6,6],"right_children":[2,4,6,8,10,-1,12,-1,-1,-1,-1,-1,-1],"split_conditions":[1E0,1E0,1.63E2,1.37E2,5.9E1,-1.01267E-1,1.91E2,8.75362E-2,-5.5701125E-2,1.741621E-2,-4.0522166E-2,-5.3634565E-2,-3.5948798E-3],"split_indices":[4,5,8,8,1,0,9,0,0,0,0,0,0],"split_type":[0,0,0,0,0,0,0,0,0,0,0,0,0],"sum_hessian":[8.587563E3,7.9943E3,5.9326404E2,1.8164103E3,6.177889E3,5.9122015E2,2.0438879E0,2.108127E2,1.6055975E3,5.070391E3,1.1074985E3,1.0329931E0,1.0108948E0],"tree_param":{"num_deleted":"0","num_feature":"10","num_nodes":"13","size_leaf_vector":"1"}},{"base_weights":[-9.3500875E-2,-3.1559385E-2,-1.005485E0,-8.266943E-1,1.0866979E-2,-1.0071521E-1,-3.6928706E-2,-8.847529E-2,-4.492884E-2,-3.7166007E-2,7.3794695E-3],"categories":[],"categories_nodes":[],"categories_segments":[],"categories_sizes":[],"default_left":[0,0,0,0,0,0,0,0,0,0,0],"id":18,"left_children":[1,3,5,7,9,-1,-1,-1,-1,-1,-1],"loss_changes":[4.8028372E2,2.6863745E2,2.0159912E-1,8.441132E0,1.8202284E2,0E0,0E0,0E0,0E0,0E0,0E0],"parents":[2147483647,0,0,1,1,2,2,3,3,4,4],"right_children":[2,4,6,8,10,-1,-1,-1,-1,-1,-1],"split_conditions":[1E0,1E0,1.63E2,1.54E2,2.7E1,-1.0071521E-1,-3.6928706E-2,-8.847529E-2,-4.492884E-2,-3.7166007E-2,7.3794695E-3],"split_indices":[4,6,8,8,1,0,0,0,0,0,0],"split_type":[0,0,0,0,0,0,0,0,0,0,0],"sum_hessian":[8.501716E3,7.9619766E3,5.397387E2,4.023747E2,7.559602E3,5.377465E2,1.9921303E0,3.4756274E2,5.4811924E1,1.0672234E3,6.4923784E3],"tree_param":{"num_deleted":"0","num_feature":"10","num_nodes":"11","size_leaf_vector":"1"}},{"base_weights":[-8.553725E-2,-2.8791508E-2,-9.999277E-1,-8.0684155E-1,9.69127E-3,-1.00175336E-1,-3.5273485E-2,-8.68603E-2,-4.2229455E-2,5.907182E-3,-4.381108E-2],"categories":[],"categories_nodes":[],"categories_segments":[],"categories_sizes":[],"default_left":[0,0,0,0,0,0,0,0,0,0,0],"id":19,"left_children":[1,3,5,7,9,-1,-1,-1,-1,-1,-1],"loss_changes":[4.3688907E2,2.374275E2,2.2793579E-1,8.509155E0,1.671255E2,0E0,0E0,0E0,0E0,0E0,0E0],"parents":[2147483647,0,0,1,1,2,2,3,3,4,4],"right_children":[2,4,6,8,10,-1,-1,-1,-1,-1,-1],"split_conditions":[1E0,1E0,1.63E2,1.54E2,6.3E1,-1.00175336E-1,-3.5273485E-2,-8.68603E-2,-4.2229455E-2,5.907182E-3,-4.381108E-2],"split_indices":[4,6,8,8,1,0,0,0,0,0,0],"split_type":[0,0,0,0,0,0,0,0,0,0,0],"sum_hessian":[8.419441E3,7.928445E3,4.9099625E2,3.727226E2,7.5557227E3,4.8906888E2,1.9273815E0,3.2005963E2,5.266297E1,6.8060645E3,7.496582E2],"tree_param":{"num_deleted":"0","num_feature":"10","num_nodes":"11","size_leaf_vector":"1"}},{"base_weights":[-7.810849E-2,-2.62181E-2,-9.944183E-1,-3.44121E-1,6.189397E-2,-9.964175E-2,-3.3679064E-2,7.509468E-2,-5.0774604E-2,1.480477E-2,-3.5449054E-2],"categories":[],"categories_nodes":[],"categories_segments":[],"categories_sizes":[],"default_left":[0,0,0,0,0,0,0,0,0,0,0],"id":20,"left_children":[1,3,5,7,9,-1,-1,-1,-1,-1,-1],"loss_changes":[3.9714108E2,2.2148753E2,2.529297E-1,3.0784955E2,2.2215741E2,0E0,0E0,0E0,0E0,0E0,0E0],"parents":[2147483647,0,0,1,1,2,2,3,3,4,4],"right_children":[2,4,6,8,10,-1,-1,-1,-1,-1,-1],"split_conditions":[1E0,1E0,1.63E2,1.51E2,5.9E1,-9.964175E-2,-3.3679064E-2,7.509468E-2,-5.0774604E-2,1.480477E-2,-3.5449054E-2],"split_indices":[4,5,8,8,1,0,0,0,0,0,0],"split_type":[0,0,0,0,0,0,0,0,0,0,0],"sum_hessian":[8.35203E3,7.905379E3,4.4665097E2,1.7149695E3,6.1904097E3,4.4478372E2,1.8672682E0,2.2247255E2,1.492497E3,5.1296772E3,1.0607323E3],"tree_param":{"num_deleted":"0","num_feature":"10","num_nodes":"11","size_leaf_vector":"1"}},{"base_weights":[-7.146046E-2,-2.4014303E-2,-9.8890203E-1,-7.8086245E-1,1.0122546E-2,-9.910908E-2,-3.214478E-2,-8.4780134E-2,-3.8191505E-2,-3.2642804E-2,6.246436E-3],"categories":[],"categories_nodes":[],"categories_segments":[],"categories_sizes":[],"default_left":[0,0,0,0,0,0,0,0,0,0,0],"id":21,"left_children":[1,3,5,7,9,-1,-1,-1,-1,-1,-1],"loss_changes":[3.6057657E2,2.0354192E2,2.7648926E-1,8.75589E0,1.3282135E2,0E0,0E0,0E0,0E0,0E0,0E0],"parents":[2147483647,0,0,1,1,2,2,3,3,4,4],"right_children":[2,4,6,8,10,-1,-1,-1,-1,-1,-1],"split_conditions":[1E0,1E0,1.63E2,1.54E2,2.7E1,-9.910908E-2,-3.214478E-2,-8.4780134E-2,-3.8191505E-2,-3.2642804E-2,6.246436E-3],"split_indices":[4,6,8,8,1,0,0,0,0,0,0],"split_type":[0,0,0,0,0,0,0,0,0,0,0],"sum_hessian":[8.283125E3,7.876797E3,4.063281E2,3.3899796E2,7.537799E3,4.0451666E2,1.8114234E0,2.8932706E2,4.967091E1,1.0138229E3,6.523976E3],"tree_param":{"num_deleted":"0","num_feature":"10","num_nodes":"11","size_leaf_vector":"1"}},{"base_weights":[-6.525388E-2,-2.189666E-2,-9.833259E-1,-7.5945675E-1,9.044192E-3,-9.8572165E-2,-3.0669797E-2,-8.301851E-2,-3.5693042E-2,3.8967335E-3,-5.401075E-2],"categories":[],"categories_nodes":[],"categories_segments":[],"categories_sizes":[],"default_left":[0,0,0,0,0,0,0,0,0,0,0],"id":22,"left_children":[1,3,5,7,9,-1,-1,-1,-1,-1,-1],"loss_changes":[3.2718387E2,1.7916145E2,2.9855347E-1,8.702606E0,1.2384586E2,0E0,0E0,0E0,0E0,0E0,0E0],"parents":[2147483647,0,0,1,1,2,2,3,3,4,4],"right_children":[2,4,6,8,10,-1,-1,-1,-1,-1,-1],"split_conditions":[1E0,1E0,1.63E2,1.54E2,6.9E1,-9.8572165E-2,-3.0669797E-2,-8.301851E-2,-3.5693042E-2,3.8967335E-3,-5.401075E-2],"split_indices":[4,6,8,8,1,0,0,0,0,0,0],"split_type":[0,0,0,0,0,0,0,0,0,0,0],"sum_hessian":[8.219197E3,7.849517E3,3.6968045E2,3.1508383E2,7.534433E3,3.6792096E2,1.7595099E0,2.670906E2,4.799322E1,7.1459795E3,3.8845367E2],"tree_param":{"num_deleted":"0","num_feature":"10","num_nodes":"11","size_leaf_vector":"1"}},{"base_weights":[-5.949627E-2,-1.9936867E-2,-9.7763824E-1,-3.015059E-1,5.405455E-2,-9.802593E-2,-2.925312E-2,6.536954E-2,-4.602311E-2,1.6582938E-2,-2.0227274E-2],"categories":[],"categories_nodes":[],"categories_segments":[],"categories_sizes":[],"default_left":[0,0,0,0,0,0,0,0,0,0,0],"id":23,"left_children":[1,3,5,7,9,-1,-1,-1,-1,-1,-1],"loss_changes":[2.9666562E2,1.631857E2,3.1915283E-1,2.4742882E2,1.7775598E2,0E0,0E0,0E0,0E0,0E0,0E0],"parents":[2147483647,0,0,1,1,2,2,3,3,4,4],"right_children":[2,4,6,8,10,-1,-1,-1,-1,-1,-1],"split_conditions":[1E0,1E0,1.63E2,1.51E2,5.2E1,-9.802593E-2,-2.925312E-2,6.536954E-2,-4.602311E-2,1.6582938E-2,-2.0227274E-2],"split_indices":[4,5,8,8,1,0,0,0,0,0,0],"split_type":[0,0,0,0,0,0,0,0,0,0,0],"sum_hessian":[8.1673853E3,7.8309976E3,3.3638754E2,1.6289751E3,6.2020225E3,3.346763E2,1.7112188E0,2.3167104E2,1.3973041E3,4.3190137E3,1.8830087E3],"tree_param":{"num_deleted":"0","num_feature":"10","num_nodes":"11","size_leaf_vector":"1"}},{"base_weights":[-5.435037E-2,-8.226769E-1,-1.0902738E-2,-8.7607145E-1,-4.7279736E-1,9.224704E-3,-9.4329613E-1,-8.0795564E-2,-9.945162E-2,2.3459747E-2,-8.762454E-2,-2.3592839E-3,4.5641303E-2,-9.4877265E-2,-8.144698E-3],"categories":[],"categories_nodes":[],"categories_segments":[],"categories_sizes":[],"default_left":[0,0,0,0,0,0,0,0,0,0,0,0,0,0,0],"id":24,"left_children":[1,3,5,7,9,11,13,-1,-1,-1,-1,-1,-1,-1,-1],"loss_changes":[2.7086713E2,7.6989746E0,1.4415863E2,2.2268982E0,1.7236069E1,1.1036909E2,6.888733E-1,0E0,0E0,0E0,0E0,0E0,0E0,0E0,0E0],"parents":[2147483647,0,0,1,1,2,2,3,3,4,4,5,5,6,6],"right_children":[2,4,6,8,10,12,14,-1,-1,-1,-1,-1,-1,-1,-1],"split_conditions":[1E0,1.54E2,1E0,1E0,1.58E2,2E0,1.63E2,-8.0795564E-2,-9.945162E-2,2.3459747E-2,-8.762454E-2,-2.3592839E-3,4.5641303E-2,-9.4877265E-2,-8.144698E-3],"split_indices":[6,8,4,4,8,5,8,0,0,0,0,0,0,0,0],"split_type":[0,0,0,0,0,0,0,0,0,0,0,0,0,0,0],"sum_hessian":[8.113444E3,4.3328635E2,7.680157E3,3.7461334E2,5.8673016E1,7.5188394E3,1.61318E2,2.4280254E2,1.3181079E2,2.146151E1,3.7211506E1,7.005666E3,5.131734E2,1.6019916E2,1.1188226E0],"tree_param":{"num_deleted":"0","num_feature":"10","num_nodes":"15","size_leaf_vector":"1"}},{"base_weights":[-4.952157E-2,-1.6553089E-2,-9.658822E-1,-7.0870554E-1,8.263195E-3,-9.690112E-2,-2.6324807E-2,-7.886725E-2,-2.9060056E-2,4.3468936E-3,-3.7177946E-2],"categories":[],"categories_nodes":[],"categories_segments":[],"categories_sizes":[],"default_left":[0,0,0,0,0,0,0,0,0,0,0],"id":25,"left_children":[1,3,5,7,9,-1,-1,-1,-1,-1,-1],"loss_changes":[2.4381969E2,1.3384303E2,3.611145E-1,8.788376E0,1.0067286E2,0E0,0E0,0E0,0E0,0E0,0E0],"parents":[2147483647,0,0,1,1,2,2,3,3,4,4],"right_children":[2,4,6,8,10,-1,-1,-1,-1,-1,-1],"split_conditions":[1E0,1E0,1.63E2,1.54E2,6.4E1,-9.690112E-2,-2.6324807E-2,-7.886725E-2,-2.9060056E-2,4.3468936E-3,-3.7177946E-2],"split_indices":[4,6,8,8,1,0,0,0,0,0,0],"split_type":[0,0,0,0,0,0,0,0,0,0,0],"sum_hessian":[8.070085E3,7.790808E3,2.7927673E2,2.687077E2,7.5221006E3,2.7766113E2,1.6155969E0,2.2482185E2,4.3885864E1,6.8851694E3,6.369309E2],"tree_param":{"num_deleted":"0","num_feature":"10","num_nodes":"11","size_leaf_vector":"1"}},{"base_weights":[-4.5101408E-2,-1.5072433E-2,-9.595616E-1,-2.710822E-1,4.9774293E-2,-9.629779E-2,-2.5086889E-2,5.70767E-2,-4.2281833E-2,1.4598339E-2,-1.7709194E-2],"categories":[],"categories_nodes":[],"categories_segments":[],"categories_sizes":[],"default_left":[0,0,0,0,0,0,0,0,0,0,0],"id":26,"left_children":[1,3,5,7,9,-1,-1,-1,-1,-1,-1],"loss_changes":[2.2051604E2,1.2911537E2,3.765869E-1,2.0102637E2,1.3547577E2,0E0,0E0,0E0,0E0,0E0,0E0],"parents":[2147483647,0,0,1,1,2,2,3,3,4,4],"right_children":[2,4,6,8,10,-1,-1,-1,-1,-1,-1],"split_conditions":[1E0,1E0,1.63E2,1.37E2,5.2E1,-9.629779E-2,-2.5086889E-2,5.70767E-2,-4.2281833E-2,1.4598339E-2,-1.7709194E-2],"split_indices":[4,5,8,8,1,0,0,0,0,0,0],"split_type":[0,0,0,0,0,0,0,0,0,0,0],"sum_hessian":[8.029885E3,7.775568E3,2.5431703E2,1.570839E3,6.204729E3,2.5273987E2,1.5771569E0,2.3947012E2,1.3313689E3,4.3572637E3,1.8474653E3],"tree_param":{"num_deleted":"0","num_feature":"10","num_nodes":"11","size_leaf_vector":"1"}},{"base_weights":[-4.116541E-2,-7.7619016E-1,-6.67198E-3,-8.386854E-1,-4.037351E-1,8.241089E-3,-9.1558945E-1,-7.646557E-2,-9.8279916E-2,2.6195595E-2,-8.433404E-2,-2.1700233E-3,4.064358E-2,-9.226528E-2,-5.2294186E-3],"categories":[],"categories_nodes":[],"categories_segments":[],"categories_sizes":[],"default_left":[0,0,0,0,0,0,0,0,0,0,0,0,0,0,0],"id":27,"left_children":[1,3,5,7,9,11,13,-1,-1,-1,-1,-1,-1,-1,-1],"loss_changes":[2.0249811E2,7.9947815E0,1.0343258E2,2.5093384E0,1.5838912E1,8.952264E1,7.0287323E-1,0E0,0E0,0E0,0E0,0E0,0E0,0E0,0E0],"parents":[2147483647,0,0,1,1,2,2,3,3,4,4,5,5,6,6],"right_children":[2,4,6,8,10,12,14,-1,-1,-1,-1,-1,-1,-1,-1],"split_conditions":[1E0,1.54E2,1E0,1E0,1.58E2,2E0,1.63E2,-7.646557E-2,-9.8279916E-2,2.6195595E-2,-8.433404E-2,-2.1700233E-3,4.064358E-2,-9.226528E-2,-5.2294186E-3],"split_indices":[6,8,4,4,8,5,8,0,0,0,0,0,0,0,0],"split_type":[0,0,0,0,0,0,0,0,0,0,0,0,0,0,0],"sum_hessian":[7.9861846E3,3.5701462E2,7.62917E3,3.0464554E2,5.2369072E1,7.5069897E3,1.22180046E2,2.054262E2,9.9219345E1,2.0989277E1,3.1379795E1,6.9828745E3,5.241154E2,1.211203E2,1.0597409E0],"tree_param":{"num_deleted":"0","num_feature":"10","num_nodes":"15","size_leaf_vector":"1"}},{"base_weights":[-3.747437E-2,-1.251202E-2,-9.4615185E-1,-2.8216782E-1,3.8520005E-2,-9.502075E-2,-2.2513801E-2,2.203251E-2,-3.4851667E-2,9.376028E-3,-2.6945913E-2],"categories":[],"categories_nodes":[],"categories_segments":[],"categories_sizes":[],"default_left":[0,0,0,0,0,0,0,0,0,0,0],"id":28,"left_children":[1,3,5,7,9,-1,-1,-1,-1,-1,-1],"loss_changes":[1.8040247E2,1.0655156E2,4.0786743E-1,4.1156647E1,1.1079626E2,0E0,0E0,0E0,0E0,0E0,0E0],"parents":[2147483647,0,0,1,1,2,2,3,3,4,4],"right_children":[2,4,6,8,10,-1,-1,-1,-1,-1,-1],"split_conditions":[1E0,2.9E1,1.63E2,1.37E2,5.9E1,-9.502075E-2,-2.2513801E-2,2.203251E-2,-3.4851667E-2,9.376028E-3,-2.6945913E-2],"split_indices":[4,1,8,8,1,0,0,0,0,0,0],"split_type":[0,0,0,0,0,0,0,0,0,0,0],"sum_hessian":[7.952819E3,7.7411743E3,2.1164465E2,1.2311558E3,6.5100186E3,2.1014474E2,1.4999082E0,1.433294E2,1.0878263E3,5.5205312E3,9.894871E2],"tree_param":{"num_deleted":"0","num_feature":"10","num_nodes":"11","size_leaf_vector":"1"}},{"base_weights":[-3.4133475E-2,-7.4656653E-1,-4.027194E-3,-8.146529E-1,-3.621341E-1,8.195544E-3,-8.942584E-1,-7.403632E-2,-9.743926E-2,2.4554146E-2,-8.177539E-2,-1.7841993E-2,6.208154E-3,-9.025558E-2,-3.869852E-3],"categories":[],"categories_nodes":[],"categories_segments":[],"categories_sizes":[],"default_left":[0,0,0,0,0,0,0,0,0,0,0,0,0,0,0],"id":29,"left_children":[1,3,5,7,9,11,13,-1,-1,-1,-1,-1,-1,-1,-1],"loss_changes":[1.6980789E2,8.106857E0,8.2671585E1,2.5051575E0,1.4071116E1,7.538225E1,6.955795E-1,0E0,0E0,0E0,0E0,0E0,0E0,0E0,0E0],"parents":[2147483647,0,0,1,1,2,2,3,3,4,4,5,5,6,6],"right_children":[2,4,6,8,10,12,14,-1,-1,-1,-1,-1,-1,-1,-1],"split_conditions":[1E0,1.54E2,1E0,1E0,1.58E2,1.8E1,1.63E2,-7.403632E-2,-9.743926E-2,2.4554146E-2,-8.177539E-2,-1.7841993E-2,6.208154E-3,-9.025558E-2,-3.869852E-3],"split_indices":[6,8,4,4,8,3,8,0,0,0,0,0,0,0,0],"split_type":[0,0,0,0,0,0,0,0,0,0,0,0,0,0,0],"sum_hessian":[7.916069E3,3.199924E2,7.5960767E3,2.7089532E2,4.9097054E1,7.4941733E3,1.0190306E2,1.8874908E2,8.2146255E1,2.1235558E1,2.7861496E1,1.6786028E3,5.815571E3,1.00869865E2,1.0331897E0],"tree_param":{"num_deleted":"0","num_feature":"10","num_nodes":"15","size_leaf_vector":"1"}},{"base_weights":[-3.1069286E-2,-7.254854E-1,-3.72246E-3,-7.9695153E-1,-3.3987266E-1,6.485633E-2,-1.5646821E-1,-7.184372E-2,-9.698414E-2,2.1728491E-2,-7.995107E-2,1.8456245E-2,-1.2009807E-2,-4.547262E-2,2.2171654E-2],"categories":[],"categories_nodes":[],"categories_segments":[],"categories_sizes":[],"default_left":[0,0,0,0,0,0,0,0,0,0,0,0,0,0,0],"id":30,"left_children":[1,3,5,7,9,11,13,-1,-1,-1,-1,-1,-1,-1,-1],"loss_changes":[1.4981473E2,7.9665985E0,7.953031E1,2.7162323E0,1.2588843E1,1.1603272E2,2.6545673E2,0E0,0E0,0E0,0E0,0E0,0E0,0E0,0E0],"parents":[2147483647,0,0,1,1,2,2,3,3,4,4,5,5,6,6],"right_children":[2,4,6,8,10,12,14,-1,-1,-1,-1,-1,-1,-1,-1],"split_conditions":[1E0,1.54E2,1.25E2,1E0,1.58E2,4.9E1,1.54E2,-7.184372E-2,-9.698414E-2,2.1728491E-2,-7.995107E-2,1.8456245E-2,-1.2009807E-2,-4.547262E-2,2.2171654E-2],"split_indices":[6,8,8,4,8,1,8,0,0,0,0,0,0,0,0],"split_type":[0,0,0,0,0,0,0,0,0,0,0,0,0,0,0],"sum_hessian":[7.8882485E3,2.9791003E2,7.5903384E3,2.5043065E2,4.747938E1,5.238822E3,2.3515166E3,1.7576572E2,7.466494E1,2.1701195E1,2.5778185E1,3.180404E3,2.0584177E3,1.3145698E3,1.0369468E3],"tree_param":{"num_deleted":"0","num_feature":"10","num_nodes":"15","size_leaf_vector":"1"}},{"base_weights":[-2.8417919E-2,-8.74613E-3,-9.2643553E-1,-3.592773E-2,3.533017E-1,-9.314504E-2,-1.991847E-2,-8.021247E-3,2.2734517E-2,7.098121E-2,-6.7846896E-3],"categories":[],"categories_nodes":[],"categories_segments":[],"categories_sizes":[],"default_left":[0,0,0,0,0,0,0,0,0,0,0],"id":31,"left_children":[1,3,5,7,9,-1,-1,-1,-1,-1,-1],"loss_changes":[1.3876057E2,7.566984E1,4.285736E-1,8.340257E1,8.067144E1,0E0,0E0,0E0,0E0,0E0,0E0],"parents":[2147483647,0,0,1,1,2,2,3,3,4,4],"right_children":[2,4,6,8,10,-1,-1,-1,-1,-1,-1],"split_conditions":[1E0,2E0,1.63E2,1.54E2,6.1E1,-9.314504E-2,-1.991847E-2,-8.021247E-3,2.2734517E-2,7.098121E-2,-6.7846896E-3],"split_indices":[4,5,8,8,8,0,0,0,0,0,0],"split_type":[0,0,0,0,0,0,0,0,0,0,0],"sum_hessian":[7.8542993E3,7.686921E3,1.6737837E2,7.1509473E3,5.3597363E2,1.6595323E2,1.4251468E0,6.121889E3,1.0290583E3,2.898904E2,2.4608324E2],"tree_param":{"num_deleted":"0","num_feature":"10","num_nodes":"11","size_leaf_vector":"1"}},{"base_weights":[-2.5814442E-2,-6.9563276E-1,-1.7499096E-3,-7.7069134E-1,-3.2135767E-1,1.9877218E-2,-4.4089314E-1,-6.931454E-2,-9.6016176E-2,1.8275065E-2,-7.8074306E-2,9.744822E-3,-1.4641647E-2,-4.750609E-2,2.897723E-2],"categories":[],"categories_nodes":[],"categories_segments":[],"categories_sizes":[],"default_left":[0,0,0,0,0,0,0,0,0,0,0,0,0,0,0],"id":32,"left_children":[1,3,5,7,9,11,13,-1,-1,-1,-1,-1,-1,-1,-1],"loss_changes":[1.26316505E2,7.3873444E0,7.186482E1,2.6500854E0,1.1053444E1,9.304208E1,9.004326E0,0E0,0E0,0E0,0E0,0E0,0E0,0E0,0E0],"parents":[2147483647,0,0,1,1,2,2,3,3,4,4,5,5,6,6],"right_children":[2,4,6,8,10,12,14,-1,-1,-1,-1,-1,-1,-1,-1],"split_conditions":[1E0,1.54E2,6.9E1,1E0,1.58E2,1.25E2,1.55E2,-6.931454E-2,-9.6016176E-2,1.8275065E-2,-7.8074306E-2,9.744822E-3,-1.4641647E-2,-4.750609E-2,2.897723E-2],"split_indices":[6,8,1,4,8,8,8,0,0,0,0,0,0,0,0],"split_type":[0,0,0,0,0,0,0,0,0,0,0,0,0,0,0],"sum_hessian":[7.8356406E3,2.7077982E2,7.564861E3,2.2466536E2,4.6114445E1,7.2106997E3,3.5416113E2,1.6272432E2,6.1941048E1,2.227408E1,2.3840363E1,4.917328E3,2.2933716E3,3.3867374E2,1.5487402E1],"tree_param":{"num_deleted":"0","num_feature":"10","num_nodes":"15","size_leaf_vector":"1"}},{"base_weights":[-2.3505418E-2,-6.40855E-3,-9.133661E-1,-2.479479E-1,2.8489813E-2,-9.190509E-2,-1.7474245E-2,-4.2431433E-2,-7.5478493E-3,-1.4768976E-3,3.201461E-2],"categories":[],"categories_nodes":[],"categories_segments":[],"categories_sizes":[],"default_left":[0,0,0,0,0,0,0,0,0,0,0],"id":33,"left_children":[1,3,5,7,9,-1,-1,-1,-1,-1,-1],"loss_changes":[1.1882113E2,6.461138E1,4.575882E-1,2.9402061E1,8.450597E1,0E0,0E0,0E0,0E0,0E0,0E0],"parents":[2147483647,0,0,1,1,2,2,3,3,4,4],"right_children":[2,4,6,8,10,-1,-1,-1,-1,-1,-1],"split_conditions":[1E0,2.7E1,1.63E2,1E0,1.54E2,-9.190509E-2,-1.7474245E-2,-4.2431433E-2,-7.5478493E-3,-1.4768976E-3,3.201461E-2],"split_indices":[4,1,8,0,8,0,0,0,0,0,0],"split_type":[0,0,0,0,0,0,0,0,0,0,0],"sum_hessian":[7.809458E3,7.6632314E3,1.4622626E2,9.6665967E2,6.696572E3,1.4486702E2,1.3592441E0,4.7720837E2,4.894513E2,5.8324463E3,8.641257E2],"tree_param":{"num_deleted":"0","num_feature":"10","num_nodes":"11","size_leaf_vector":"1"}},{"base_weights":[-2.1383725E-2,-5.8586504E-3,-9.0380263E-1,5.477405E-2,-1.4143124E-1,-9.0995306E-1,-1.6629322E-2,1.1363276E-2,-2.4753122E-2,-4.031426E-2,1.6180655E-2,-7.894456E-2,-9.621966E-2],"categories":[],"categories_nodes":[],"categories_segments":[],"categories_sizes":[],"default_left":[0,0,0,0,0,0,0,0,0,0,0,0,0],"id":34,"left_children":[1,3,5,7,9,11,-1,-1,-1,-1,-1,-1,-1],"loss_changes":[1.0671013E2,6.2940994E1,4.595642E-1,9.416898E1,1.8784755E2,7.984924E-2,0E0,0E0,0E0,0E0,0E0,0E0,0E0],"parents":[2147483647,0,0,1,1,2,2,3,3,4,4,5,5],"right_children":[2,4,6,8,10,12,-1,-1,-1,-1,-1,-1,-1],"split_conditions":[1E0,1.25E2,1.63E2,5.9E1,1.54E2,1.52E2,-1.6629322E-2,1.1363276E-2,-2.4753122E-2,-4.031426E-2,1.6180655E-2,-7.894456E-2,-9.621966E-2],"split_indices":[4,8,8,1,8,8,0,0,0,0,0,0,0],"split_type":[0,0,0,0,0,0,0,0,0,0,0,0,0],"sum_hessian":[7.7886636E3,7.6549897E3,1.336735E2,5.2898047E3,2.3651855E3,1.3233606E2,1.337434E0,4.42825E3,8.615544E2,1.269342E3,1.0958435E3,4.489347E1,8.744259E1],"tree_param":{"num_deleted":"0","num_feature":"10","num_nodes":"13","size_leaf_vector":"1"}},{"base_weights":[-1.9564917E-2,-6.531746E-1,6.732888E-4,-7.322603E-1,-2.979983E-1,1.867733E-2,-4.3224105E-1,-6.590418E-2,-9.435073E-2,1.4287613E-2,-7.541652E-2,-1.6291961E-2,7.2990223E-3,9.575875E-6,-4.666215E-2],"categories":[],"categories_nodes":[],"categories_segments":[],"categories_sizes":[],"default_left":[0,0,0,0,0,0,0,0,0,0,0,0,0,0,0],"id":35,"left_children":[1,3,5,7,9,11,13,-1,-1,-1,-1,-1,-1,-1,-1],"loss_changes":[9.9536285E1,6.5305557E0,5.8643547E1,2.4069672E0,9.246571E0,7.125807E1,4.465374E0,0E0,0E0,0E0,0E0,0E0,0E0,0E0,0E0],"parents":[2147483647,0,0,1,1,2,2,3,3,4,4,5,5,6,6],"right_children":[2,4,6,8,10,12,14,-1,-1,-1,-1,-1,-1,-1,-1],"split_conditions":[1E0,1.54E2,4.8E1,1E0,1.58E2,1.8E1,3.4E1,-6.590418E-2,-9.435073E-2,1.4287613E-2,-7.541652E-2,-1.6291961E-2,7.2990223E-3,9.575875E-6,-4.666215E-2],"split_indices":[6,8,3,4,8,3,9,0,0,0,0,0,0,0,0],"split_type":[0,0,0,0,0,0,0,0,0,0,0,0,0,0,0],"sum_hessian":[7.7612153E3,2.3926077E2,7.5219546E3,1.9481941E2,4.444137E1,7.2225405E3,2.9941412E2,1.4773427E2,4.7085148E1,2.2948742E1,2.1492624E1,1.6623658E3,5.560175E3,2.2129635E1,2.7728452E2],"tree_param":{"num_deleted":"0","num_feature":"10","num_nodes":"15","size_leaf_vector":"1"}},{"base_weights":[-1.7802678E-2,-4.2282995E-3,-8.8914496E-1,-2.800823E-2,3.03115E-1,-8.960155E-1,-1.5036707E-2,6.86991E-4,-2.7529076E-2,6.090623E-2,-7.160276E-3,-7.628784E-2,-9.5494024E-2],"categories":[],"categories_nodes":[],"categories_segments":[],"categories_sizes":[],"default_left":[0,0,0,0,0,0,0,0,0,0,0,0,0],"id":36,"left_children":[1,3,5,7,9,11,-1,-1,-1,-1,-1,-1,-1],"loss_changes":[9.1626724E1,5.5766747E1,4.6842957E-1,6.1083694E1,6.286589E1,1.93573E-1,0E0,0E0,0E0,0E0,0E0,0E0,0E0],"parents":[2147483647,0,0,1,1,2,2,3,3,4,4,5,5],"right_children":[2,4,6,8,10,12,-1,-1,-1,-1,-1,-1,-1],"split_conditions":[1E0,2E0,1.63E2,5.8E1,6.1E1,1.52E2,-1.5036707E-2,6.86991E-4,-2.7529076E-2,6.090623E-2,-7.160276E-3,-7.628784E-2,-9.5494024E-2],"split_indices":[4,5,8,1,8,8,0,0,0,0,0,0,0],"split_type":[0,0,0,0,0,0,0,0,0,0,0,0,0],"sum_hessian":[7.7459585E3,7.628127E3,1.17831436E2,7.0811494E3,5.469776E2,1.16534836E2,1.2965959E0,6.2066943E3,8.744553E2,3.0077625E2,2.4620135E2,4.0031822E1,7.650301E1],"tree_param":{"num_deleted":"0","num_feature":"10","num_nodes":"13","size_leaf_vector":"1"}},{"base_weights":[-1.619642E-2,-6.216374E-1,1.6434592E-3,-7.043273E-1,-2.69708E-1,-4.077983E-1,1.9063363E-2,-6.338711E-2,-9.304304E-2,1.3782794E-2,-7.296238E-2,-7.6978005E-2,-2.9628485E-2,8.131935E-3,-1.17456755E-2],"categories":[],"categories_nodes":[],"categories_segments":[],"categories_sizes":[],"default_left":[0,0,0,0,0,0,0,0,0,0,0,0,0,0,0],"id":37,"left_children":[1,3,5,7,9,11,13,-1,-1,-1,-1,-1,-1,-1,-1],"loss_changes":[8.351201E1,6.250267E0,5.3582935E1,2.2550812E0,8.296191E0,1.2147385E1,6.1253883E1,0E0,0E0,0E0,0E0,0E0,0E0,0E0,0E0],"parents":[2147483647,0,0,1,1,2,2,3,3,4,4,5,5,6,6],"right_children":[2,4,6,8,10,12,14,-1,-1,-1,-1,-1,-1,-1,-1],"split_conditions":[1E0,1.54E2,2.3E1,1E0,1.58E2,3.9E1,1.25E2,-6.338711E-2,-9.304304E-2,1.3782794E-2,-7.296238E-2,-7.6978005E-2,-2.9628485E-2,8.131935E-3,-1.17456755E-2],"split_indices":[6,8,8,4,8,1,8,0,0,0,0,0,0,0,0],"split_type":[0,0,0,0,0,0,0,0,0,0,0,0,0,0,0],"sum_hessian":[7.7307876E3,2.20306E2,7.510482E3,1.7758017E2,4.2725834E1,3.0558258E2,7.2048994E3,1.382907E2,3.9289467E1,2.302419E1,1.9701643E1,7.05779E1,2.3500468E2,4.9486274E3,2.2562717E3],"tree_param":{"num_deleted":"0","num_feature":"10","num_nodes":"15","size_leaf_vector":"1"}},{"base_weights":[-1.4758595E-2,-2.921469E-3,-8.729043E-1,-1.1926529E-2,8.080283E-1,-8.8057756E-1,-1.3044918E-2,1.2285373E-3,-7.258776E-2,1.2032306E-1,6.0028892E-2,-7.354405E-2,-9.467503E-2],"categories":[],"categories_nodes":[],"categories_segments":[],"categories_sizes":[],"default_left":[0,0,0,0,0,0,0,0,0,0,0,0,0],"id":38,"left_children":[1,3,5,7,9,11,-1,-1,-1,-1,-1,-1,-1],"loss_changes":[7.836922E1,5.5592445E1,4.8316956E-1,1.3015111E2,6.1416054E0,2.9989624E-1,0E0,0E0,0E0,0E0,0E0,0E0,0E0],"parents":[2147483647,0,0,1,1,2,2,3,3,4,4,5,5],"right_children":[2,4,6,8,10,12,-1,-1,-1,-1,-1,-1,-1],"split_conditions":[1E0,1.63E2,1.63E2,1.59E2,3.6E1,1.52E2,-1.3044918E-2,1.2285373E-3,-7.258776E-2,1.2032306E-1,6.0028892E-2,-7.354405E-2,-9.467503E-2],"split_indices":[4,8,8,8,1,8,0,0,0,0,0,0,0],"split_type":[0,0,0,0,0,0,0,0,0,0,0,0,0],"sum_hessian":[7.7142915E3,7.6103193E3,1.0397214E2,7.5277144E3,8.260499E1,1.0272444E2,1.2476926E0,7.281754E3,2.4596005E2,2.6809916E1,5.5795074E1,3.596218E1,6.676226E1],"tree_param":{"num_deleted":"0","num_feature":"10","num_nodes":"13","size_leaf_vector":"1"}},{"base_weights":[-1.3452537E-2,-2.7063694E-3,-8.606821E-1,1.503142E-2,-3.8360935E-1,-8.6891294E-1,-1.2408248E-2,7.1475604E-3,-1.0946586E-2,-4.151899E-2,2.3725457E-2,-7.152023E-2,-9.4052136E-2],"categories":[],"categories_nodes":[],"categories_segments":[],"categories_sizes":[],"default_left":[0,0,0,0,0,0,0,0,0,0,0,0,0],"id":39,"left_children":[1,3,5,7,9,11,-1,-1,-1,-1,-1,-1,-1],"loss_changes":[7.012385E1,5.1400986E1,4.7707367E-1,5.109102E1,6.7357864E0,3.7560272E-1,0E0,0E0,0E0,0E0,0E0,0E0,0E0],"parents":[2147483647,0,0,1,1,2,2,3,3,4,4,5,5],"right_children":[2,4,6,8,10,12,-1,-1,-1,-1,-1,-1,-1],"split_conditions":[1E0,6.9E1,1.63E2,1.25E2,1.55E2,1.52E2,-1.2408248E-2,7.1475604E-3,-1.0946586E-2,-4.151899E-2,2.3725457E-2,-7.152023E-2,-9.4052136E-2],"split_indices":[4,1,8,8,8,8,0,0,0,0,0,0,0],"split_type":[0,0,0,0,0,0,0,0,0,0,0,0,0],"sum_hessian":[7.701389E3,7.6059194E3,9.546947E1,7.2684067E3,3.375127E2,9.4236824E1,1.2326441E0,5.001341E3,2.2670662E3,3.2149118E2,1.6021528E1,3.3441284E1,6.0795536E1],"tree_param":{"num_deleted":"0","num_feature":"10","num_nodes":"13","size_leaf_vector":"1"}},{"base_weights":[-1.2248919E-2,-5.800278E-1,2.9481016E-3,-6.696097E-1,-2.1089773E-1,3.1965174E-2,-2.1467188E-1,-5.9825372E-2,-9.2205E-2,-4.8770383E-2,4.402846E-2,-1.1825907E-2,9.984112E-3,-1.2722275E-2,-3.9232206E-2],"categories":[],"categories_nodes":[],"categories_segments":[],"categories_sizes":[],"default_left":[0,0,0,0,0,0,0,0,0,0,0,0,0,0,0],"id":40,"left_children":[1,3,5,7,9,11,13,-1,-1,-1,-1,-1,-1,-1,-1],"loss_changes":[6.6327324E1,6.4849396E0,4.728738E1,2.3447266E0,7.5316157E0,6.738444E1,1.363715E1,0E0,0E0,0E0,0E0,0E0,0E0,0E0,0E0],"parents":[2147483647,0,0,1,1,2,2,3,3,4,4,5,5,6,6],"right_children":[2,4,6,8,10,12,14,-1,-1,-1,-1,-1,-1,-1,-1],"split_conditions":[1E0,1.54E2,4.2E1,2.41E2,3.7E1,2.8E1,4.8E1,-5.9825372E-2,-9.2205E-2,-4.8770383E-2,4.402846E-2,-1.1825907E-2,9.984112E-3,-1.2722275E-2,-3.9232206E-2],"split_indices":[6,8,3,9,1,3,3,0,0,0,0,0,0,0,0],"split_type":[0,0,0,0,0,0,0,0,0,0,0,0,0,0,0],"sum_hessian":[7.6857637E3,1.9938368E2,7.48638E3,1.5979097E2,3.9592716E1,6.6063535E3,8.800266E2,1.2720458E2,3.258639E1,2.7958921E1,1.1633794E1,2.0557622E3,4.5505913E3,5.908795E2,2.891471E2],"tree_param":{"num_deleted":"0","num_feature":"10","num_nodes":"15","size_leaf_vector":"1"}},{"base_weights":[-1.1167262E-2,-1.6630406E-3,-8.437262E-1,-9.909933E-3,7.0911366E-1,-8.5270715E-1,-1.1601909E-2,1.1449739E-3,-6.856743E-2,8.103453E-2,6.731997E-3,-6.869777E-2,-9.319514E-2],"categories":[],"categories_nodes":[],"categories_segments":[],"categories_sizes":[],"default_left":[0,0,0,0,0,0,0,0,0,0,0,0,0],"id":41,"left_children":[1,3,5,7,9,11,-1,-1,-1,-1,-1,-1,-1],"loss_changes":[6.073338E1,4.4496487E1,4.6723175E-1,1.0831835E2,5.6021233E0,4.8155975E-1,0E0,0E0,0E0,0E0,0E0,0E0,0E0],"parents":[2147483647,0,0,1,1,2,2,3,3,4,4,5,5],"right_children":[2,4,6,8,10,12,-1,-1,-1,-1,-1,-1,-1],"split_conditions":[1E0,1.63E2,1.63E2,1.59E2,2.0014E3,1.52E2,-1.1601909E-2,1.1449739E-3,-6.856743E-2,8.103453E-2,6.731997E-3,-6.869777E-2,-9.319514E-2],"split_indices":[4,8,8,8,7,8,0,0,0,0,0,0,0],"split_type":[0,0,0,0,0,0,0,0,0,0,0,0,0],"sum_hessian":[7.6744863E3,7.5888564E3,8.562991E1,7.5027905E3,8.6066185E1,8.441633E1,1.2135891E0,7.27386E3,2.2893031E2,7.4113464E1,1.195272E1,3.0434834E1,5.398149E1],"tree_param":{"num_deleted":"0","num_feature":"10","num_nodes":"13","size_leaf_vector":"1"}},{"base_weights":[-1.01960795E-2,-5.467158E-1,3.1714255E-3,-6.40942E-1,-1.7076197E-1,-2.8798051E-2,2.0080021E-1,-4.7909748E-2,-7.595559E-2,2.0843504E-2,-6.0539093E-2,3.7592915E-3,-3.665144E-2,3.9078597E-2,-2.7234036E-2],"categories":[],"categories_nodes":[],"categories_segments":[],"categories_sizes":[],"default_left":[0,0,0,0,0,0,0,0,0,0,0,0,0,0,0],"id":42,"left_children":[1,3,5,7,9,11,13,-1,-1,-1,-1,-1,-1,-1,-1],"loss_changes":[5.4972897E1,6.491329E0,4.7261505E1,2.4893074E0,6.505168E0,1.4438155E2,9.373301E1,0E0,0E0,0E0,0E0,0E0,0E0,0E0,0E0],"parents":[2147483647,0,0,1,1,2,2,3,3,4,4,5,5,6,6],"right_children":[2,4,6,8,10,12,14,-1,-1,-1,-1,-1,-1,-1,-1],"split_conditions":[1E0,1.54E2,1.54E2,1.25E2,1.28805E3,1.52E2,1.59E2,-4.7909748E-2,-7.595559E-2,2.0843504E-2,-6.0539093E-2,3.7592915E-3,-3.665144E-2,3.9078597E-2,-2.7234036E-2],"split_indices":[6,8,8,8,7,8,8,0,0,0,0,0,0,0,0],"split_type":[0,0,0,0,0,0,0,0,0,0,0,0,0,0,0],"sum_hessian":[7.6637656E3,1.8533269E2,7.478433E3,1.4762761E2,3.7705074E1,6.4378643E3,1.0405687E3,6.4567154E1,8.3060455E1,2.0414576E1,1.72905E1,5.3809277E3,1.0569369E3,7.425699E2,2.9799884E2],"tree_param":{"num_deleted":"0","num_feature":"10","num_nodes":"15","size_leaf_vector":"1"}},{"base_weights":[-9.393643E-3,-1.0849396E-3,-8.2361627E-1,-3.780837E-1,1.4642645E-2,-8.335126E-1,-9.822029E-3,-7.026213E-2,-2.7922256E-2,1.2203935E-2,-3.6103798E-3,-6.603417E-2,-9.208479E-2],"categories":[],"categories_nodes":[],"categories_segments":[],"categories_sizes":[],"default_left":[0,0,0,0,0,0,0,0,0,0,0,0,0],"id":43,"left_children":[1,3,5,7,9,11,-1,-1,-1,-1,-1,-1,-1],"loss_changes":[5.173087E1,4.4893616E1,4.7263718E-1,9.532295E0,3.9616974E1,5.423889E-1,0E0,0E0,0E0,0E0,0E0,0E0,0E0],"parents":[2147483647,0,0,1,1,2,2,3,3,4,4,5,5],"right_children":[2,4,6,8,10,12,-1,-1,-1,-1,-1,-1,-1],"split_conditions":[1E0,2.3E1,1.63E2,3.9E1,2.9E1,1.52E2,-9.822029E-3,-7.026213E-2,-2.7922256E-2,1.2203935E-2,-3.6103798E-3,-6.603417E-2,-9.208479E-2],"split_indices":[4,8,8,1,8,8,0,0,0,0,0,0,0],"split_type":[0,0,0,0,0,0,0,0,0,0,0,0,0],"sum_hessian":[7.6458203E3,7.569578E3,7.624214E1,3.022176E2,7.2673604E3,7.5068954E1,1.1731865E0,6.91401E1,2.330775E2,2.3315674E3,4.935793E3,2.8037134E1,4.703182E1],"tree_param":{"num_deleted":"0","num_feature":"10","num_nodes":"13","size_leaf_vector":"1"}},{"base_weights":[-8.562901E-3,-1.0220559E-3,-8.083384E-1,1.5487609E-2,-3.6183426E-1,-6.376034E-1,-8.9364225E-1,-4.795653E-4,2.8507797E-2,-3.911024E-2,1.8250799E-2,2.5449922E-2,-6.9523625E-2,-9.126937E-2,-9.340263E-3],"categories":[],"categories_nodes":[],"categories_segments":[],"categories_sizes":[],"default_left":[0,0,0,0,0,0,0,0,0,0,0,0,0,0,0],"id":44,"left_children":[1,3,5,7,9,11,13,-1,-1,-1,-1,-1,-1,-1,-1],"loss_changes":[4.60689E1,4.509026E1,4.6937943E-1,3.9581585E1,5.348007E0,1.5785913E0,6.021576E-1,0E0,0E0,0E0,0E0,0E0,0E0,0E0,0E0],"parents":[2147483647,0,0,1,1,2,2,3,3,4,4,5,5,6,6],"right_children":[2,4,6,8,10,12,14,-1,-1,-1,-1,-1,-1,-1,-1],"split_conditions":[1E0,6.9E1,1.52E2,2E0,1.55E2,2.6E1,1.63E2,-4.795653E-4,2.8507797E-2,-3.911024E-2,1.8250799E-2,2.5449922E-2,-6.9523625E-2,-9.126937E-2,-9.340263E-3],"split_indices":[4,1,8,5,8,1,8,0,0,0,0,0,0,0,0],"split_type":[0,0,0,0,0,0,0,0,0,0,0,0,0,0,0],"sum_hessian":[7.637841E3,7.56749E3,7.035034E1,7.237291E3,3.3019928E2,2.6261875E1,4.4088467E1,6.731791E3,5.0549988E2,3.136182E2,1.6581081E1,1.3863657E0,2.487551E1,4.2925995E1,1.1624721E0],"tree_param":{"num_deleted":"0","num_feature":"10","num_nodes":"15","size_leaf_vector":"1"}},{"base_weights":[-7.799009E-3,-5.0758165E-1,3.7329204E-3,-6.0492533E-1,-1.41601E-1,4.491219E-2,-1.2853636E-1,-5.2384544E-2,-9.0165466E-2,-4.1816887E-2,4.3164488E-2,1.0744366E-2,-7.7012368E-3,-1.8267266E-2,1.7718876E-2],"categories":[],"categories_nodes":[],"categories_segments":[],"categories_sizes":[],"default_left":[0,0,0,0,0,0,0,0,0,0,0,0,0,0,0],"id":45,"left_children":[1,3,5,7,9,11,13,-1,-1,-1,-1,-1,-1,-1,-1],"loss_changes":[4.3976418E1,6.045128E0,4.0631996E1,2.7906952E0,6.1196194E0,4.337969E1,2.9345352E1,0E0,0E0,0E0,0E0,0E0,0E0,0E0,0E0],"parents":[2147483647,0,0,1,1,2,2,3,3,4,4,5,5,6,6],"right_children":[2,4,6,8,10,12,14,-1,-1,-1,-1,-1,-1,-1,-1],"split_conditions":[1E0,1.54E2,5.2E1,2.41E2,3.7E1,1.51E2,2E0,-5.2384544E-2,-9.0165466E-2,-4.1816887E-2,4.3164488E-2,1.0744366E-2,-7.7012368E-3,-1.8267266E-2,1.7718876E-2],"split_indices":[6,8,1,9,1,8,5,0,0,0,0,0,0,0,0],"split_type":[0,0,0,0,0,0,0,0,0,0,0,0,0,0,0],"sum_hessian":[7.6288857E3,1.7108788E2,7.457798E3,1.3462688E2,3.6461E1,5.687709E3,1.7700887E3,1.0790714E2,2.6719727E1,2.4777422E1,1.1683577E1,3.7596272E3,1.9280819E3,1.5041447E3,2.6594406E2],"tree_param":{"num_deleted":"0","num_feature":"10","num_nodes":"15","size_leaf_vector":"1"}},{"base_weights":[-7.127547E-3,-3.819287E-2,1.8083876E-1,2.4226377E-2,-3.531819E-1,3.5206708E-1,-2.5790322E-1,3.782196E-2,-1.7071525E-3,-1.6380794E-2,-5.124184E-2,4.207096E-2,-6.688364E-2,-6.373646E-2,6.5448456E-2],"categories":[],"categories_nodes":[],"categories_segments":[],"categories_sizes":[],"default_left":[0,0,0,0,0,0,0,0,0,0,0,0,0,0,0],"id":46,"left_children":[1,3,5,7,9,11,13,-1,-1,-1,-1,-1,-1,-1,-1],"loss_changes":[4.4484577E1,1.2854553E2,8.1263504E1,7.978674E1,3.252298E1,5.4774254E1,1.0562902E2,0E0,0E0,0E0,0E0,0E0,0E0,0E0,0E0],"parents":[2147483647,0,0,1,1,2,2,3,3,4,4,5,5,6,6],"right_children":[2,4,6,8,10,12,14,-1,-1,-1,-1,-1,-1,-1,-1],"split_conditions":[1.54E2,1.52E2,1.59E2,3.6E1,2.6E1,2E0,1.63E2,3.782196E-2,-1.7071525E-3,-1.6380794E-2,-5.124184E-2,4.207096E-2,-6.688364E-2,-6.373646E-2,6.5448456E-2],"split_indices":[8,8,8,1,1,5,8,0,0,0,0,0,0,0,0],"split_type":[0,0,0,0,0,0,0,0,0,0,0,0,0,0,0],"sum_hessian":[7.616038E3,6.536537E3,1.0795011E3,5.456235E3,1.0803021E3,7.766102E2,3.0289096E2,5.691859E2,4.8870493E3,4.943815E2,5.859206E2,7.282338E2,4.837637E1,2.1413417E2,8.875679E1],"tree_param":{"num_deleted":"0","num_feature":"10","num_nodes":"15","size_leaf_vector":"1"}},{"base_weights":[-6.662191E-3,-1.1467919E-4,-7.838965E-1,-3.492361E-1,1.4170884E-2,-5.55204E-1,-8.5447013E-1,-6.723312E-2,-2.5149575E-2,-1.2020222E-2,5.1218434E-3,-8.38164E-2,3.1974956E-3,-1.179613E-2,-8.7233074E-2],"categories":[],"categories_nodes":[],"categories_segments":[],"categories_sizes":[],"default_left":[0,0,0,0,0,0,0,0,0,0,0,0,0,0,0],"id":47,"left_children":[1,3,5,7,9,11,13,-1,-1,-1,-1,-1,-1,-1,-1],"loss_changes":[3.8695614E1,3.7616634E1,5.507965E-1,9.193897E0,3.6077435E1,2.9900188E0,5.1122665E-1,0E0,0E0,0E0,0E0,0E0,0E0,0E0,0E0],"parents":[2147483647,0,0,1,1,2,2,3,3,4,4,5,5,6,6],"right_children":[2,4,6,8,10,12,14,-1,-1,-1,-1,-1,-1,-1,-1],"split_conditions":[1E0,2.3E1,1.6E1,3.9E1,1.8E1,2.01E2,2.2E1,-6.723312E-2,-2.5149575E-2,-1.2020222E-2,5.1218434E-3,-8.38164E-2,3.1974956E-3,-1.179613E-2,-8.7233074E-2],"split_indices":[4,8,3,1,3,9,8,0,0,0,0,0,0,0,0],"split_type":[0,0,0,0,0,0,0,0,0,0,0,0,0,0,0],"sum_hessian":[7.6028677E3,7.540347E3,6.252061E1,2.9549008E2,7.244857E3,1.68348E1,4.568581E1,6.726313E1,2.2822694E2,1.5652784E3,5.6795786E3,1.1071858E1,5.7629423E0,1.2617126E0,4.4424095E1],"tree_param":{"num_deleted":"0","num_feature":"10","num_nodes":"15","size_leaf_vector":"1"}},{"base_weights":[-6.0945093E-3,1.956211E-2,-2.0140441E-1,-1.0074086E-1,7.275538E-2,-1.3702068E-1,-4.2445388E-1,-1.47855105E-2,1.12302555E-2,8.757621E-3,-3.8575016E-2,-4.6631317E-3,-3.2437332E-2,-6.572288E-2,-3.249232E-2],"categories":[],"categories_nodes":[],"categories_segments":[],"categories_sizes":[],"default_left":[0,0,0,0,0,0,0,0,0,0,0,0,0,0,0],"id":48,"left_children":[1,3,5,7,9,11,13,-1,-1,-1,-1,-1,-1,-1,-1],"loss_changes":[3.807946E1,4.299182E1,1.2612991E1,2.0692019E1,3.168835E1,1.1605124E1,4.354412E0,0E0,0E0,0E0,0E0,0E0,0E0,0E0,0E0],"parents":[2147483647,0,0,1,1,2,2,3,3,4,4,5,5,6,6],"right_children":[2,4,6,8,10,12,14,-1,-1,-1,-1,-1,-1,-1,-1],"split_conditions":[4.2E1,2.8E1,2.35E2,1.54E2,7.2E1,4.8E1,2.53E2,-1.47855105E-2,1.12302555E-2,8.757621E-3,-3.8575016E-2,-4.6631317E-3,-3.2437332E-2,-6.572288E-2,-3.249232E-2],"split_indices":[3,3,9,8,1,3,9,0,0,0,0,0,0,0,0],"split_type":[0,0,0,0,0,0,0,0,0,0,0,0,0,0,0],"sum_hessian":[7.597399E3,6.7160537E3,8.813454E2,2.0588418E3,4.657212E3,6.851807E2,1.9616467E2,1.6862385E3,3.726032E2,4.5121685E3,1.4504332E2,4.630355E2,2.2214526E2,5.7076096E1,1.3908858E2],"tree_param":{"num_deleted":"0","num_feature":"10","num_nodes":"15","size_leaf_vector":"1"}},{"base_weights":[-5.575959E-3,-4.7039288E-1,4.438741E-3,-1.240355E-1,-5.7099175E-1,2.1496916E-2,-2.5549752E-1,-6.279641E-2,1.4097144E-2,-7.735058E-2,-3.781695E-2,3.457882E-3,-3.2012474E-2,-1.807153E-2,-4.728029E-2],"categories":[],"categories_nodes":[],"categories_segments":[],"categories_sizes":[],"default_left":[0,0,0,0,0,0,0,0,0,0,0,0,0,0,0],"id":49,"left_children":[1,3,5,7,9,11,13,-1,-1,-1,-1,-1,-1,-1,-1],"loss_changes":[3.5347157E1,5.5093803E0,3.296711E1,5.072918E0,4.542877E0,3.1191256E1,7.3552456E0,0E0,0E0,0E0,0E0,0E0,0E0,0E0,0E0],"parents":[2147483647,0,0,1,1,2,2,3,3,4,4,5,5,6,6],"right_children":[2,4,6,8,10,12,14,-1,-1,-1,-1,-1,-1,-1,-1],"split_conditions":[1E0,1.0004E3,6.6E1,1.52E2,1E0,4.8E1,7.5E1,-6.279641E-2,1.4097144E-2,-7.735058E-2,-3.781695E-2,3.457882E-3,-3.2012474E-2,-1.807153E-2,-4.728029E-2],"split_indices":[6,7,1,8,5,3,1,0,0,0,0,0,0,0,0],"split_type":[0,0,0,0,0,0,0,0,0,0,0,0,0,0,0],"sum_hessian":[7.591922E3,1.5915208E2,7.4327695E3,3.6323814E1,1.2282827E2,6.9758975E3,4.5687216E2,1.204666E1,2.4277153E1,5.8439724E1,6.438855E1,6.7194834E3,2.564141E2,3.4126337E2,1.1560877E2],"tree_param":{"num_deleted":"0","num_feature":"10","num_nodes":"15","size_leaf_vector":"1"}}]},"name":"gbtree"},"learner_model_param":{"base_score":"1.7988896E-1","boost_from_average":"1","num_class":"0","num_feature":"10","num_target":"1"},"objective":{"name":"binary:logistic","reg_loss_param":{"scale_pos_weight":"1"}}},"version":[2,0,3]}