{"learner":{"attributes":{"scikit_learn":"{\"_estimator_type\": \"classifier\"}"},"feature_names":["Gender","Age","HasDrivingLicense","RegionID","Switch","VehicleAge","PastAccident","AnnualPremium","SalesChannelID","DaysSinceCreated"],"feature_types":["int","float","float","float","int","int","int","float","int","int"],"gradient_booster":{"model":{"gbtree_model_param":{"num_parallel_tree":"1","num_trees":"235"},"iteration_indptr":[0,1,2,3,4,5,6,7,8,9,10,11,12,13,14,15,16,17,18,19,20,21,22,23,24,25,26,27,28,29,30,31,32,33,34,35,36,37,38,39,40,41,42,43,44,45,46,47,48,49,50,51,52,53,54,55,56,57,58,59,60,61,62,63,64,65,66,67,68,69,70,71,72,73,74,75,76,77,78,79,80,81,82,83,84,85,86,87,88,89,90,91,92,93,94,95,96,97,98,99,100,101,102,103,104,105,106,107,108,109,110,111,112,113,114,115,116,117,118,119,120,121,122,123,124,125,126,127,128,129,130,131,132,133,134,135,136,137,138,139,140,141,142,143,144,145,146,147,148,149,150,151,152,153,154,155,156,157,158,159,160,161,162,163,164,165,166,167,168,169,170,171,172,173,174,175,176,177,178,179,180,181,182,183,184,185,186,187,188,189,190,191,192,193,194,195,196,197,198,199,200,201,202,203,204,205,206,207,208,209,210,211,212,213,214,215,216,217,218,219,220,221,222,223,224,225,226,227,228,229,230,231,232,233,234,235],"tree_info":[0,0,0,0,0,0,0,0,0,0,0,0,0,0,0,0,0,0,0,0,0,0,0,0,0,0,0,0,0,0,0,0,0,0,0,0,0,0,0,0,0,0,0,0,0,0,0,0,0,0,0,0,0,0,0,0,0,0,0,0,0,0,0,0,0,0,0,0,0,0,0,0,0,0,0,0,0,0,0,0,0,0,0,0,0,0,0,0,0,0,0,0,0,0,0,0,0,0,0,0,0,0,0,0,0,0,0,0,0,0,0,0,0,0,0,0,0,0,0,0,0,0,0,0,0,0,0,0,0,0,0,0,0,0,0,0,0,0,0,0,0,0,0,0,0,0,0,0,0,0,0,0,0,0,0,0,0,0,0,0,0,0,0,0,0,0,0,0,0,0,0,0,0,0,0,0,0,0,0,0,0,0,0,0,0,0,0,0,0,0,0,0,0,0,0,0,0,0,0,0,0,0,0,0,0,0,0,0,0,0,0,0,0,0,0,0,0,0,0,0,0,0,0,0,0,0,0,0,0,0,0,0,0,0,0],"trees":[{"base_weights":[-6.540925E-3,2.9116282E-1,-6.1598293E-2,-6.556981E-1,5.9208995E-1,8.405057E-1,-9.2795736E-1,5.5148417E-1,9.9099714E-1,-1.1970501E0,9.4824183E-1,-9.4565815E-1,6.268641E-1,5.0101733E-1,8.309722E-1,1.1975982E0,6.609509E-1,-2.846589E-2,-5.7706993E-2,1.5693877E-2,3.8465336E-2,-2.787374E-2,-3.955663E-2,4.3100096E-2,9.121894E-3,1.8079054E-2,-2.6985433E-2,2.8235406E-2,1.2173312E-2,3.3516113E-2,4.1713346E-2,2.4857868E-2,1.846137E-3],"categories":[],"categories_nodes":[],"categories_segments":[],"categories_sizes":[],"default_left":[0,0,0,0,0,0,0,0,0,0,0,0,0,0,0,0,0,0,0,0,0,0,0,0,0,0,0,0,0,0,0,0,0],"id":0,"left_children":[1,3,-1,5,7,9,11,13,15,17,19,21,23,25,27,29,31,-1,-1,-1,-1,-1,-1,-1,-1,-1,-1,-1,-1,-1,-1,-1,-1],"loss_changes":[1.7151998E4,7.240445E3,0E0,2.4972246E3,3.1178174E2,2.0836261E2,1.4330371E2,2.4645898E2,1.2059448E2,7.194565E0,1.1343298E2,8.4069336E1,1.4493179E1,1.6020093E3,8.792078E1,1.7378174E1,5.645636E1,0E0,0E0,0E0,0E0,0E0,0E0,0E0,0E0,0E0,0E0,0E0,0E0,0E0,0E0,0E0,0E0],"parents":[2147483647,0,0,1,1,3,3,4,4,5,5,6,6,7,7,8,8,9,9,10,10,11,11,12,12,13,13,14,14,15,15,16,16],"right_children":[2,4,-1,6,8,10,12,14,16,18,20,22,24,26,28,30,32,-1,-1,-1,-1,-1,-1,-1,-1,-1,-1,-1,-1,-1,-1,-1,-1],"split_conditions":[1E0,1E0,-6.1598293E-2,1.51E2,2E0,9E0,1.63E2,1.54E2,1.11E2,2.03E2,3.2E1,1.59E2,1.4E1,1.51E2,1.59E2,2.09355E3,1.25E2,-2.846589E-2,-5.7706993E-2,1.5693877E-2,3.8465336E-2,-2.787374E-2,-3.955663E-2,4.3100096E-2,9.121894E-3,1.8079054E-2,-2.6985433E-2,2.8235406E-2,1.2173312E-2,3.3516113E-2,4.1713346E-2,2.4857868E-2,1.846137E-3],"split_indices":[4,5,0,8,5,8,8,8,8,9,8,8,3,8,8,7,8,0,0,0,0,0,0,0,0,0,0,0,0,0,0,0,0],"split_type":[0,0,0,0,0,0,0,0,0,0,0,0,0,0,0,0,0,0,0,0,0,0,0,0,0,0,0,0,0,0,0,0,0],"sum_hessian":[2.924774E4,2.54084E4,3.83934E3,6.12742E3,1.928098E4,9.4301E2,5.18441E3,1.750181E4,1.77917E3,4.685E1,8.9616003E2,5.12644E3,5.797E1,1.4827261E4,2.67455E3,1.0926E3,6.8657E2,3.435E1,1.25E1,3.5172E2,5.4444E2,4.42704E3,6.994E2,1.6810001E1,4.116E1,1.401744E4,8.0982E2,2.28484E3,3.8971002E2,5.8918E2,5.0342E2,5.593E2,1.27270004E2],"tree_param":{"num_deleted":"0","num_feature":"10","num_nodes":"33","size_leaf_vector":"1"}},{"base_weights":[-8.951627E-3,2.7910906E-1,-5.9792515E-2,-6.405362E-1,5.720874E-1,8.239679E-1,-9.0669227E-1,5.346199E-1,9.478265E-1,-1.2016279E0,9.368437E-1,-9.262528E-1,7.2453237E-1,4.8981854E-1,7.845373E-1,1.0192394E0,2.9458554E-2,-5.7737928E-2,-2.52918E-2,1.456528E-2,3.8070783E-2,-3.4533985E-2,-2.3683326E-2,5.491761E-3,3.5288047E-2,1.7623244E-2,-2.5507974E-2,2.665936E-2,1.0830411E-2,3.580498E-2,2.3719579E-2,-6.1728037E-3,3.605492E-2],"categories":[],"categories_nodes":[],"categories_segments":[],"categories_sizes":[],"default_left":[0,0,0,0,0,0,0,0,0,0,0,0,0,0,0,0,0,0,0,0,0,0,0,0,0,0,0,0,0,0,0,0,0],"id":1,"left_children":[1,3,-1,5,7,9,11,13,15,17,19,21,23,25,27,29,31,-1,-1,-1,-1,-1,-1,-1,-1,-1,-1,-1,-1,-1,-1,-1,-1],"loss_changes":[1.6012634E4,6.8161445E3,0E0,2.3832292E3,2.6958203E2,2.161676E2,1.657207E2,1.9497363E2,1.1397473E2,1.1214203E1,1.1855133E2,1.5373877E2,1.36259575E1,1.4638914E3,8.1706665E1,5.3064575E1,3.2659058E1,0E0,0E0,0E0,0E0,0E0,0E0,0E0,0E0,0E0,0E0,0E0,0E0,0E0,0E0,0E0,0E0],"parents":[2147483647,0,0,1,1,3,3,4,4,5,5,6,6,7,7,8,8,9,9,10,10,11,11,12,12,13,13,14,14,15,15,16,16],"right_children":[2,4,-1,6,8,10,12,14,16,18,20,22,24,26,28,30,32,-1,-1,-1,-1,-1,-1,-1,-1,-1,-1,-1,-1,-1,-1,-1,-1],"split_conditions":[1E0,1E0,-5.9792515E-2,1.51E2,2E0,2.3E1,1.63E2,1.54E2,1.25E2,1E0,3.2E1,1E0,1.6E2,1.51E2,1.59E2,6.1E1,1.58E2,-5.7737928E-2,-2.52918E-2,1.456528E-2,3.8070783E-2,-3.4533985E-2,-2.3683326E-2,5.491761E-3,3.5288047E-2,1.7623244E-2,-2.5507974E-2,2.665936E-2,1.0830411E-2,3.580498E-2,2.3719579E-2,-6.1728037E-3,3.605492E-2],"split_indices":[4,5,0,8,5,8,8,8,8,0,8,0,9,8,8,8,8,0,0,0,0,0,0,0,0,0,0,0,0,0,0,0,0],"split_type":[0,0,0,0,0,0,0,0,0,0,0,0,0,0,0,0,0,0,0,0,0,0,0,0,0,0,0,0,0,0,0,0,0],"sum_hessian":[2.9110797E4,2.5295451E4,3.8153462E3,6.1112715E3,1.918418E4,9.395226E2,5.1717485E3,1.744686E4,1.7373206E3,4.9082085E1,8.904405E2,5.1108945E3,6.085402E1,1.4797201E4,2.6496575E3,1.6118706E3,1.2544994E2,1.699235E1,3.2089733E1,3.3703046E2,5.534101E2,2.4404238E3,2.6704707E3,2.6559065E1,3.4294952E1,1.3989394E4,8.0780804E2,2.27952E3,3.701373E2,1.0712123E3,5.406583E2,1.05069954E2,2.0379992E1],"tree_param":{"num_deleted":"0","num_feature":"10","num_nodes":"33","size_leaf_vector":"1"}},{"base_weights":[8.232823E-4,-1.8105097E0,3.0768055E-1,-5.7611708E-2,-1.4566159E0,4.989474E-1,-5.7513934E-2,-6.942385E-1,-1.813165E0,7.4978304E-1,-2.4748532E-2,-3.8108522E-1,-5.6728635E-2,-5.7954624E-2,-1.9623814E-2,3.1763747E-1,7.716664E-1,-5.2969235E-1,5.289633E-1,-1.7413951E-2,4.5464695E-3,1.1724281E-2,-2.8581591E-2,1.8398473E-2,2.5237214E-2,-2.3806365E-2,-1.0246572E-2,2.6928097E-2,-1.0811417E-2],"categories":[],"categories_nodes":[],"categories_segments":[],"categories_sizes":[],"default_left":[0,0,0,0,0,0,0,0,0,0,0,0,0,0,0,0,0,0,0,0,0,0,0,0,0,0,0,0,0],"id":2,"left_children":[1,3,5,-1,7,9,-1,11,13,15,17,19,-1,-1,-1,21,23,25,27,-1,-1,-1,-1,-1,-1,-1,-1,-1,-1],"loss_changes":[1.6302579E4,5.424707E1,1.0329071E4,0E0,1.1166467E2,3.0260537E3,0E0,4.654722E1,1.4277344E1,1.470498E2,2.0863975E3,1.0011848E1,0E0,0E0,0E0,5.470452E1,1.0177344E2,1.8334912E2,1.0445396E3,0E0,0E0,0E0,0E0,0E0,0E0,0E0,0E0,0E0,0E0],"parents":[2147483647,0,0,1,1,2,2,4,4,5,5,7,7,8,8,9,9,10,10,11,11,15,15,16,16,17,17,18,18],"right_children":[2,4,6,-1,8,10,-1,12,14,16,18,20,-1,-1,-1,22,24,26,28,-1,-1,-1,-1,-1,-1,-1,-1,-1,-1],"split_conditions":[1E0,1.54E2,1E0,-5.7611708E-2,1.58E2,1.25E2,-5.7513934E-2,1E0,1.63E2,2.3E1,1.54E2,1.57E2,-5.6728635E-2,-5.7954624E-2,-1.9623814E-2,1.7E1,1.8E1,1E0,1.59E2,-1.7413951E-2,4.5464695E-3,1.1724281E-2,-2.8581591E-2,1.8398473E-2,2.5237214E-2,-2.3806365E-2,-1.0246572E-2,2.6928097E-2,-1.0811417E-2],"split_indices":[6,8,4,0,8,8,0,4,8,8,8,8,0,0,0,8,3,0,8,0,0,0,0,0,0,0,0,0,0],"split_type":[0,0,0,0,0,0,0,0,0,0,0,0,0,0,0,0,0,0,0,0,0,0,0,0,0,0,0,0,0],"sum_hessian":[2.9328639E4,4.2480615E3,2.5080578E4,3.8336345E3,4.1442722E2,2.303491E4,2.0456682E3,1.3299748E2,2.8142975E2,1.5574655E4,7.460254E3,1.0510115E2,2.7896336E1,2.703044E2,1.1125337E1,7.514166E2,1.4823239E4,3.9019814E3,3.5582722E3,7.856126E1,2.6539894E1,7.180778E2,3.3338837E1,2.5720266E3,1.2251213E4,1.8010432E3,2.1009382E3,2.5738574E3,9.844148E2],"tree_param":{"num_deleted":"0","num_feature":"10","num_nodes":"29","size_leaf_vector":"1"}},{"base_weights":[9.890947E-4,-1.7583312E0,2.9823962E-1,-1.5968914E0,-5.5818442E-2,4.8208013E-1,-5.6068134E-2,-1.4558017E0,-5.700861E-2,-5.201954E-1,6.7869E-1,-1.352364E0,-5.8229547E-2,-1.3230425E0,-4.779985E-1,7.55088E-1,2.7381018E-2,-3.398263E-2,-4.702958E-2,-2.9787652E-2,-5.279224E-2,-2.1237524E-2,-9.41151E-3,1.1588238E-2,2.3980288E-2,6.3109887E-3,-1.02282595E-2],"categories":[],"categories_nodes":[],"categories_segments":[],"categories_sizes":[],"default_left":[0,0,0,0,0,0,0,0,0,0,0,0,0,0,0,0,0,0,0,0,0,0,0,0,0,0,0],"id":3,"left_children":[1,3,5,7,-1,9,-1,11,-1,13,15,17,-1,19,21,23,25,-1,-1,-1,-1,-1,-1,-1,-1,-1,-1],"loss_changes":[1.5316982E4,1.9361328E1,9.660616E3,2.088147E1,0E0,4.5399707E3,0E0,1.6755188E1,0E0,1.2737451E2,9.583086E2,1.3326111E1,0E0,2.399884E1,1.2837616E2,9.406445E1,1.2600479E2,0E0,0E0,0E0,0E0,0E0,0E0,0E0,0E0,0E0,0E0],"parents":[2147483647,0,0,1,1,2,2,3,3,5,5,7,7,9,9,10,10,11,11,13,13,14,14,15,15,16,16],"right_children":[2,4,6,8,-1,10,-1,12,-1,14,16,18,-1,20,22,24,26,-1,-1,-1,-1,-1,-1,-1,-1,-1,-1],"split_conditions":[1E0,1.0004E3,1E0,1E0,-5.5818442E-2,2.8E1,-5.6068134E-2,4.8E1,-5.700861E-2,2.1E1,6.2E1,1.13E2,-5.8229547E-2,1.46E2,1E0,3E1,7.1E1,-3.398263E-2,-4.702958E-2,-2.9787652E-2,-5.279224E-2,-2.1237524E-2,-9.41151E-3,1.1588238E-2,2.3980288E-2,6.3109887E-3,-1.02282595E-2],"split_indices":[6,7,4,4,0,1,0,1,0,1,1,9,0,9,0,1,1,0,0,0,0,0,0,0,0,0,0],"split_type":[0,0,0,0,0,0,0,0,0,0,0,0,0,0,0,0,0,0,0,0,0,0,0,0,0,0,0],"sum_hessian":[2.9287074E4,4.232355E3,2.5054719E4,7.1786334E2,3.5144915E3,2.3036047E4,2.0186719E3,4.5101358E2,2.6684976E2,3.777501E3,1.9258547E4,3.6399536E2,8.7018234E1,1.871124E2,3.5903887E3,1.7236555E4,2.0219924E3,1.3906937E2,2.24926E2,9.577859E1,9.13338E1,1.6645671E3,1.9258215E3,6.200661E2,1.6616488E4,1.3550719E3,6.6692053E2],"tree_param":{"num_deleted":"0","num_feature":"10","num_nodes":"27","size_leaf_vector":"1"}},{"base_weights":[-4.523967E-3,-1.715058E0,2.8438413E-1,-1.5777663E0,-1.7422342E0,4.6380448E-1,-5.4867186E-2,-1.452194E0,-5.556751E-2,-5.5557888E-2,-1.6872991E0,-5.1564515E-1,6.555879E-1,-1.3250253E0,-5.9223484E-2,-1.4661131E0,-1.721255E0,-5.8863795E-1,-1.5769407E-1,7.432065E-1,9.981524E-2,-3.1797558E-2,-4.7005598E-2,-3.9168034E-2,-5.5122048E-2,-5.2040685E-2,-5.7975583E-2,-2.853853E-2,-1.6046587E-2,-3.6251564E-2,-2.9726233E-3,8.1152795E-3,2.4871763E-2,7.3588127E-3,-1.2995188E-2],"categories":[],"categories_nodes":[],"categories_segments":[],"categories_sizes":[],"default_left":[0,0,0,0,0,0,0,0,0,0,0,0,0,0,0,0,0,0,0,0,0,0,0,0,0,0,0,0,0,0,0,0,0,0,0],"id":4,"left_children":[1,3,5,7,9,11,-1,13,-1,-1,15,17,19,21,-1,23,25,27,29,31,33,-1,-1,-1,-1,-1,-1,-1,-1,-1,-1,-1,-1,-1,-1],"loss_changes":[1.4369257E4,1.2925781E1,9.126571E3,1.5557007E1,4.725586E0,4.296154E3,0E0,2.268628E1,0E0,0E0,8.724609E0,9.776343E1,9.3123535E2,1.7880554E1,0E0,1.0830292E1,6.154785E0,7.4598145E1,3.9722847E1,4.366211E2,1.8359308E2,0E0,0E0,0E0,0E0,0E0,0E0,0E0,0E0,0E0,0E0,0E0,0E0,0E0,0E0],"parents":[2147483647,0,0,1,1,2,2,3,3,4,4,5,5,7,7,10,10,11,11,12,12,13,13,15,15,16,16,17,17,18,18,19,19,20,20],"right_children":[2,4,6,8,10,12,-1,14,-1,-1,16,18,20,22,-1,24,26,28,30,32,34,-1,-1,-1,-1,-1,-1,-1,-1,-1,-1,-1,-1,-1,-1],"split_conditions":[1E0,1.0004E3,1E0,1E0,1E0,2.8E1,-5.4867186E-2,4.6E1,-5.556751E-2,-5.5557888E-2,1.305E3,1E0,5.9E1,1.13E2,-5.9223484E-2,1E0,5.5E1,2.2E1,2.1E1,1E0,7.2E1,-3.1797558E-2,-4.7005598E-2,-3.9168034E-2,-5.5122048E-2,-5.2040685E-2,-5.7975583E-2,-2.853853E-2,-1.6046587E-2,-3.6251564E-2,-2.9726233E-3,8.1152795E-3,2.4871763E-2,7.3588127E-3,-1.2995188E-2],"split_indices":[6,7,4,4,5,1,0,1,0,0,7,5,1,9,0,4,1,1,1,5,1,0,0,0,0,0,0,0,0,0,0,0,0,0,0],"split_type":[0,0,0,0,0,0,0,0,0,0,0,0,0,0,0,0,0,0,0,0,0,0,0,0,0,0,0,0,0,0,0,0,0,0,0],"sum_hessian":[2.907456E4,4.2003965E3,2.4874164E4,7.038208E2,3.496576E3,2.2868275E4,2.0058875E3,4.4149866E2,2.6232214E2,1.999882E3,1.4966938E3,3.7442869E3,1.9123988E4,3.4694916E2,9.4549484E1,2.0506865E2,1.2916252E3,3.1095486E3,6.3473834E2,1.6519346E4,2.6046433E3,1.3264313E2,2.1430602E2,1.24192856E2,8.087579E1,9.509992E2,3.4062598E2,5.7056433E2,2.5389841E3,3.601913E1,5.9871924E2,1.6833295E3,1.4836017E4,2.0615083E3,5.43135E2],"tree_param":{"num_deleted":"0","num_feature":"10","num_nodes":"35","size_leaf_vector":"1"}},{"base_weights":[5.562754E-3,-9.8867863E-1,3.2320613E-1,4.6475213E-2,-1.083164E0,4.0104064E-1,-3.886981E-1,-3.4348708E-1,4.1135564E-1,-1.1597707E0,-7.677015E-1,-3.4590122E-1,4.9438557E-1,-5.4022866E-1,4.2853442E-1,-7.796786E-1,9.551172E-2,-1.5919125E-2,4.757665E-1,-8.9656353E-1,-1.1872232E0,4.300925E-1,-1.1905068E0,9.733433E-1,-8.370479E-1,4.4813278E-1,1.010474E0,-4.5646897E-1,-1.0935917E0,6.7098E-1,6.34914E-2,-1.1046116E-2,-3.5915807E-2,-7.7416035E-3,1.6445687E-2,1.0749064E-2,3.0662429E-2,-2.3671597E-2,-3.8988467E-2,-4.3083914E-2,-3.587797E-2,1.3843607E-3,2.4964562E-2,-4.035064E-2,1.0278014E-2,-4.5807432E-2,3.563398E-2,-3.235967E-2,-9.138687E-4,1.607658E-2,4.9627563E-3,3.3604596E-2,-4.8698196E-3,-9.833778E-3,-2.3388566E-2,-2.4423921E-2,-4.578416E-2,1.6326385E-2,3.578571E-2,-8.4299445E-3,8.618744E-3],"categories":[],"categories_nodes":[],"categories_segments":[],"categories_sizes":[],"default_left":[0,0,0,0,0,0,0,0,0,0,0,0,0,0,0,0,0,0,0,0,0,0,0,0,0,0,0,0,0,0,0,0,0,0,0,0,0,0,0,0,0,0,0,0,0,0,0,0,0,0,0,0,0,0,0,0,0,0,0,0,0],"id":5,"left_children":[1,3,5,7,9,11,13,15,17,19,21,23,25,27,29,31,33,-1,35,37,39,41,43,45,47,49,51,53,55,57,59,-1,-1,-1,-1,-1,-1,-1,-1,-1,-1,-1,-1,-1,-1,-1,-1,-1,-1,-1,-1,-1,-1,-1,-1,-1,-1,-1,-1,-1,-1],"loss_changes":[9.229578E3,6.9214307E2,1.2274255E3,8.449333E1,1.558125E2,1.3922773E3,2.7061597E2,5.50516E1,1.8459614E1,3.6620117E1,6.4364594E2,1.4383215E3,4.2321582E2,8.489203E1,3.023248E1,2.2430573E1,2.152715E1,0E0,1.875869E1,2.3176575E1,3.167627E1,4.7457832E1,1.4897961E2,2.5171411E2,2.6273914E2,3.1835107E2,1.1536853E2,6.613208E1,2.6944702E1,1.3826286E1,9.865659E0,0E0,0E0,0E0,0E0,0E0,0E0,0E0,0E0,0E0,0E0,0E0,0E0,0E0,0E0,0E0,0E0,0E0,0E0,0E0,0E0,0E0,0E0,0E0,0E0,0E0,0E0,0E0,0E0,0E0,0E0],"parents":[2147483647,0,0,1,1,2,2,3,3,4,4,5,5,6,6,7,7,8,8,9,9,10,10,11,11,12,12,13,13,14,14,15,15,16,16,18,18,19,19,20,20,21,21,22,22,23,23,24,24,25,25,26,26,27,27,28,28,29,29,30,30],"right_children":[2,4,6,8,10,12,14,16,18,20,22,24,26,28,30,32,34,-1,36,38,40,42,44,46,48,50,52,54,56,58,60,-1,-1,-1,-1,-1,-1,-1,-1,-1,-1,-1,-1,-1,-1,-1,-1,-1,-1,-1,-1,-1,-1,-1,-1,-1,-1,-1,-1,-1,-1],"split_conditions":[2.9E1,1.51E2,6.3E1,3.2E1,1.54E2,1E0,2E0,1.71425E3,2.2E1,8.3235E2,1.58E2,1.37E2,2E0,4.1E1,2.8E1,1.38E2,2.5E1,-1.5919125E-2,2.58E2,2.6E1,9E0,1.13945E3,1.63E2,9E0,1.53E2,5.2E1,1.48E2,7.2E1,1.57045E3,2.68605E3,1.8704E3,-1.1046116E-2,-3.5915807E-2,-7.7416035E-3,1.6445687E-2,1.0749064E-2,3.0662429E-2,-2.3671597E-2,-3.8988467E-2,-4.3083914E-2,-3.587797E-2,1.3843607E-3,2.4964562E-2,-4.035064E-2,1.0278014E-2,-4.5807432E-2,3.563398E-2,-3.235967E-2,-9.138687E-4,1.607658E-2,4.9627563E-3,3.3604596E-2,-4.8698196E-3,-9.833778E-3,-2.3388566E-2,-2.4423921E-2,-4.578416E-2,1.6326385E-2,3.578571E-2,-8.4299445E-3,8.618744E-3],"split_indices":[1,8,1,8,8,5,5,7,1,7,8,8,5,3,8,9,1,0,9,1,3,7,8,8,8,1,8,1,7,7,7,0,0,0,0,0,0,0,0,0,0,0,0,0,0,0,0,0,0,0,0,0,0,0,0,0,0,0,0,0,0],"split_type":[0,0,0,0,0,0,0,0,0,0,0,0,0,0,0,0,0,0,0,0,0,0,0,0,0,0,0,0,0,0,0,0,0,0,0,0,0,0,0,0,0,0,0,0,0,0,0,0,0,0,0,0,0,0,0,0,0,0,0,0,0],"sum_hessian":[2.9222701E4,7.075108E3,2.2147594E4,5.9181934E2,6.4832886E3,1.996518E4,2.182413E3,2.8610553E2,3.057138E2,5.2143613E3,1.2689274E3,2.2175713E3,1.774761E4,1.8413335E3,3.4107953E2,1.4312238E2,1.4298317E2,1.950822E1,2.862056E2,4.9567023E2,4.718691E3,3.3105154E2,9.378758E2,6.0134546E2,1.6162257E3,1.6289576E4,1.4580328E3,1.6008467E3,2.404869E2,2.0445284E2,1.3662668E2,6.7749344E1,7.5373024E1,7.9857E1,6.312617E1,2.2890034E2,5.730523E1,3.596507E2,1.3601953E2,7.3175824E2,3.9869326E3,1.6283144E2,1.6822011E2,8.779217E2,5.9954086E1,3.860726E1,5.6273816E2,1.2937429E3,3.2248282E2,1.3198043E4,3.0915327E3,1.3781693E3,7.986355E1,1.0833297E3,5.175169E2,1.3339682E2,1.0709007E2,1.5785922E2,4.659362E1,5.3105705E1,8.352097E1],"tree_param":{"num_deleted":"0","num_feature":"10","num_nodes":"61","size_leaf_vector":"1"}},{"base_weights":[2.5216278E-3,-1.6619031E0,2.8126898E-1,-1.5306048E0,-5.261409E-2,4.529493E-1,-5.291484E-2,-1.4069847E0,-5.3983845E-2,-4.5458186E-1,6.3011765E-1,-9.3543917E-1,-1.52035E0,-6.5441024E-1,-2.799812E-1,7.119681E-1,1.1120599E-1,-2.3386262E-2,-5.4445643E-2,-4.4686563E-2,-5.7250686E-2,-2.2067914E-2,-1.8976289E-3,-4.3026585E-2,-7.0232307E-3,4.8887488E-3,2.2513498E-2,8.56951E-3,-6.241162E-3],"categories":[],"categories_nodes":[],"categories_segments":[],"categories_sizes":[],"default_left":[0,0,0,0,0,0,0,0,0,0,0,0,0,0,0,0,0,0,0,0,0,0,0,0,0,0,0,0,0],"id":6,"left_children":[1,3,5,7,-1,9,-1,11,-1,13,15,17,19,21,23,25,27,-1,-1,-1,-1,-1,-1,-1,-1,-1,-1,-1,-1],"loss_changes":[1.35415625E4,1.178125E1,8.494587E3,1.513208E1,0E0,3.6992344E3,0E0,2.2239197E1,0E0,1.3093945E2,8.174575E2,1.1965729E1,7.107666E0,5.5687195E1,1.20420944E2,9.532031E1,1.3384439E2,0E0,0E0,0E0,0E0,0E0,0E0,0E0,0E0,0E0,0E0,0E0,0E0],"parents":[2147483647,0,0,1,1,2,2,3,3,5,5,7,7,9,9,10,10,11,11,12,12,13,13,14,14,15,15,16,16],"right_children":[2,4,6,8,-1,10,-1,12,-1,14,16,18,20,22,24,26,28,-1,-1,-1,-1,-1,-1,-1,-1,-1,-1,-1,-1],"split_conditions":[1E0,1.0004E3,1E0,1E0,-5.261409E-2,2.8E1,-5.291484E-2,6.3E1,-5.3983845E-2,1E0,5.9E1,4.7E1,4.8E1,2.7E1,2.1E1,2.9E1,6.9E1,-2.3386262E-2,-5.4445643E-2,-4.4686563E-2,-5.7250686E-2,-2.2067914E-2,-1.8976289E-3,-4.3026585E-2,-7.0232307E-3,4.8887488E-3,2.2513498E-2,8.56951E-3,-6.241162E-3],"split_indices":[6,7,4,4,0,1,0,9,0,0,1,1,1,1,1,1,1,0,0,0,0,0,0,0,0,0,0,0,0],"split_type":[0,0,0,0,0,0,0,0,0,0,0,0,0,0,0,0,0,0,0,0,0,0,0,0,0,0,0,0,0],"sum_hessian":[2.9185287E4,4.185907E3,2.499938E4,7.0474005E2,3.4811672E3,2.3004445E4,1.9949346E3,4.4162552E2,2.6311453E2,3.7571536E3,1.9247293E4,8.73874E1,3.5423813E2,1.7507233E3,2.0064303E3,1.6624635E4,2.6226572E3,7.271959E1,1.46678095E1,2.8242844E2,7.180971E1,1.6055322E3,1.4519106E2,9.3783775E1,1.9126465E3,3.0430438E2,1.6320331E4,1.7190382E3,9.0361896E2],"tree_param":{"num_deleted":"0","num_feature":"10","num_nodes":"29","size_leaf_vector":"1"}},{"base_weights":[-4.6601167E-4,-1.6215657E0,2.693881E-1,-1.4736624E0,-5.146869E-2,4.3657205E-1,-5.16162E-2,-1.3451582E0,-5.2763853E-2,-2.474474E-1,6.1767924E-1,-1.142204E0,-4.5607556E-2,-5.2777755E-1,-9.1660276E-2,6.341009E-1,1.1688245E-1,-2.8970547E-2,-5.127979E-2,-2.2597669E-2,-1.1070435E-2,7.988831E-3,-1.0763824E-2,1.46459E-2,2.1027751E-2,2.3075478E-2,1.5288845E-3],"categories":[],"categories_nodes":[],"categories_segments":[],"categories_sizes":[],"default_left":[0,0,0,0,0,0,0,0,0,0,0,0,0,0,0,0,0,0,0,0,0,0,0,0,0,0,0],"id":7,"left_children":[1,3,5,7,-1,9,-1,11,-1,13,15,17,-1,19,21,23,25,-1,-1,-1,-1,-1,-1,-1,-1,-1,-1],"loss_changes":[1.2720754E4,1.5807617E1,8.0252695E3,1.7542236E1,0E0,2.8417354E3,0E0,9.076599E0,0E0,2.0969003E2,1.4907764E2,1.6610397E1,0E0,5.813681E1,2.7269653E2,1.1658447E2,2.4367184E1,0E0,0E0,0E0,0E0,0E0,0E0,0E0,0E0,0E0,0E0],"parents":[2147483647,0,0,1,1,2,2,3,3,5,5,7,7,9,9,10,10,11,11,13,13,14,14,15,15,16,16],"right_children":[2,4,6,8,-1,10,-1,12,-1,14,16,18,-1,20,22,24,26,-1,-1,-1,-1,-1,-1,-1,-1,-1,-1],"split_conditions":[1E0,1.0004E3,1E0,1E0,-5.146869E-2,1E0,-5.16162E-2,1.13E2,-5.2763853E-2,2.8E1,4.8E1,3.3E1,-4.5607556E-2,1E0,2.9E1,1.8E1,3.4E1,-2.8970547E-2,-5.127979E-2,-2.2597669E-2,-1.1070435E-2,7.988831E-3,-1.0763824E-2,1.46459E-2,2.1027751E-2,2.3075478E-2,1.5288845E-3],"split_indices":[6,7,4,4,0,5,0,9,0,3,3,3,0,0,3,3,9,0,0,0,0,0,0,0,0,0,0],"split_type":[0,0,0,0,0,0,0,0,0,0,0,0,0,0,0,0,0,0,0,0,0,0,0,0,0,0,0],"sum_hessian":[2.9076639E4,4.148752E3,2.4927887E4,7.026817E2,3.4460706E3,2.293703E4,1.9908574E3,4.474689E2,2.552128E2,4.801602E3,1.8135426E4,1.6851442E2,2.789545E2,1.7143458E3,3.0872563E3,1.755937E4,5.7605835E2,1.2043112E2,4.808329E1,7.9859204E2,9.157538E2,1.3017085E3,1.785548E3,3.4791716E3,1.4080196E4,5.555137E1,5.20507E2],"tree_param":{"num_deleted":"0","num_feature":"10","num_nodes":"27","size_leaf_vector":"1"}},{"base_weights":[-8.978776E-3,2.3032498E-1,-5.1099677E-2,-6.774931E-1,4.611216E-1,-7.519454E-1,-2.9793903E-1,5.288909E-1,-1.7037173E-1,-9.187E-1,-5.99073E-1,-4.6159434E-1,2.5783026E-1,1.6967975E-2,5.843938E-1,-3.0015874E-1,4.3445072E-1,-3.461191E-2,-2.480884E-2,-2.9449264E-2,-1.6686466E-2,-2.5588052E-2,-9.031793E-3,1.1171008E-2,-2.8241277E-2,1.0747966E-2,-1.5189528E-2,1.88031E-2,2.0975378E-4,-5.9744073E-3,-2.155559E-2,-9.629744E-3,1.7044611E-2],"categories":[],"categories_nodes":[],"categories_segments":[],"categories_sizes":[],"default_left":[0,0,0,0,0,0,0,0,0,0,0,0,0,0,0,0,0,0,0,0,0,0,0,0,0,0,0,0,0,0,0,0,0],"id":8,"left_children":[1,3,-1,5,7,9,11,13,15,17,19,21,23,25,27,29,31,-1,-1,-1,-1,-1,-1,-1,-1,-1,-1,-1,-1,-1,-1,-1,-1],"loss_changes":[1.1276533E4,5.2807E3,0E0,1.4414575E2,8.600415E2,1.0831177E2,7.647148E1,5.1560645E2,1.5306058E2,4.7149902E1,4.8639282E1,3.9826355E1,2.2753212E1,2.9382834E2,1.7848486E2,6.799982E1,2.8963264E1,0E0,0E0,0E0,0E0,0E0,0E0,0E0,0E0,0E0,0E0,0E0,0E0,0E0,0E0,0E0,0E0],"parents":[2147483647,0,0,1,1,3,3,4,4,5,5,6,6,7,7,8,8,9,9,10,10,11,11,12,12,13,13,14,14,15,15,16,16],"right_children":[2,4,-1,6,8,10,12,14,16,18,20,22,24,26,28,30,32,-1,-1,-1,-1,-1,-1,-1,-1,-1,-1,-1,-1,-1,-1,-1,-1],"split_conditions":[1E0,2.9E1,-5.1099677E-2,1E0,6.3E1,1E0,2.7E1,1E0,2E0,2.8E1,9E0,2.7E1,4.2E1,3.5E1,4.8E1,7.4E1,1.33E3,-3.461191E-2,-2.480884E-2,-2.9449264E-2,-1.6686466E-2,-2.5588052E-2,-9.031793E-3,1.1171008E-2,-2.8241277E-2,1.0747966E-2,-1.5189528E-2,1.88031E-2,2.0975378E-4,-5.9744073E-3,-2.155559E-2,-9.629744E-3,1.7044611E-2],"split_indices":[4,1,0,5,1,0,1,5,5,3,3,3,3,1,3,1,7,0,0,0,0,0,0,0,0,0,0,0,0,0,0,0,0],"split_type":[0,0,0,0,0,0,0,0,0,0,0,0,0,0,0,0,0,0,0,0,0,0,0,0,0,0,0,0,0,0,0,0,0],"sum_hessian":[2.8899055E4,2.5201146E4,3.6979082E3,5.107867E3,2.009328E4,4.26941E3,8.38457E2,1.8146078E4,1.947202E3,2.0395934E3,2.229817E3,6.47855E2,1.9060199E2,1.7750898E3,1.6370988E4,1.6035951E3,3.4360693E2,7.928729E2,1.2467205E3,3.4481406E2,1.8850028E3,2.0834352E2,4.3951147E2,1.7607906E2,1.4522939E1,1.075915E3,6.9917474E2,1.5853015E4,5.179731E2,1.2567744E3,3.4682065E2,4.4898243E1,2.9870868E2],"tree_param":{"num_deleted":"0","num_feature":"10","num_nodes":"33","size_leaf_vector":"1"}},{"base_weights":[1.0871728E-2,-1.5600184E0,2.697566E-1,-1.6010087E0,-1.1836194E0,4.262011E-1,-4.9695313E-2,-9.985145E-1,-5.000601E-2,-4.556115E-1,-4.8394676E-2,6.3781035E-1,-1.9494843E-2,-4.7797337E-2,-1.4493186E-2,-1.5174054E-1,-4.956789E-2,1.9984156E-1,6.593286E-1,-4.7915903E-1,4.721028E-1,4.0369853E-3,-2.6971826E-2,8.164888E-3,-3.5789385E-2,1.5646316E-2,2.1587433E-2,-2.1626443E-2,-9.173155E-3,2.3960955E-2,-9.858077E-3],"categories":[],"categories_nodes":[],"categories_segments":[],"categories_sizes":[],"default_left":[0,0,0,0,0,0,0,0,0,0,0,0,0,0,0,0,0,0,0,0,0,0,0,0,0,0,0,0,0,0,0],"id":9,"left_children":[1,3,5,7,9,11,-1,13,-1,15,-1,17,19,-1,-1,21,-1,23,25,27,29,-1,-1,-1,-1,-1,-1,-1,-1,-1,-1],"loss_changes":[1.1811483E4,6.1504883E1,7.2724546E3,5.8759766E0,1.0874451E2,2.1696606E3,0E0,5.89003E0,0E0,4.7499477E1,0E0,1.4687549E2,1.6739777E3,0E0,0E0,2.2253872E1,0E0,6.1591034E1,7.747803E1,1.517265E2,8.374186E2,0E0,0E0,0E0,0E0,0E0,0E0,0E0,0E0,0E0,0E0],"parents":[2147483647,0,0,1,1,2,2,3,3,4,4,5,5,7,7,9,9,11,11,12,12,15,15,17,17,18,18,19,19,20,20],"right_children":[2,4,6,8,10,12,-1,14,-1,16,-1,18,20,-1,-1,22,-1,24,26,28,30,-1,-1,-1,-1,-1,-1,-1,-1,-1,-1],"split_conditions":[1E0,1.54E2,1E0,2E0,1.58E2,1.25E2,-4.9695313E-2,1E0,-5.000601E-2,1E0,-4.8394676E-2,2.3E1,1.54E2,-4.7797337E-2,-1.4493186E-2,1.3541E3,-4.956789E-2,1.7E1,1.8E1,1E0,1.59E2,4.0369853E-3,-2.6971826E-2,8.164888E-3,-3.5789385E-2,1.5646316E-2,2.1587433E-2,-2.1626443E-2,-9.173155E-3,2.3960955E-2,-9.858077E-3],"split_indices":[6,8,4,8,8,8,0,0,0,4,0,8,8,0,0,7,0,8,3,0,8,0,0,0,0,0,0,0,0,0,0],"split_type":[0,0,0,0,0,0,0,0,0,0,0,0,0,0,0,0,0,0,0,0,0,0,0,0,0,0,0,0,0,0,0],"sum_hessian":[2.9041666E4,4.1082354E3,2.4933432E4,3.701847E3,4.0638867E2,2.300367E4,1.9297603E3,2.213406E1,3.679713E3,1.3745932E2,2.6892935E2,1.5597702E4,7.4059683E3,1.0116049E1,1.201801E1,1.0931773E2,2.814159E1,7.309385E2,1.4866764E4,3.8273047E3,3.5786633E3,7.899942E1,3.0318314E1,6.995129E2,3.142562E1,2.5976074E3,1.2269156E4,1.7694745E3,2.0578303E3,2.6002803E3,9.7838306E2],"tree_param":{"num_deleted":"0","num_feature":"10","num_nodes":"31","size_leaf_vector":"1"}},{"base_weights":[6.264795E-3,-1.5276256E0,2.5735083E-1,-4.8832778E-2,-1.1614755E0,4.0963224E-1,-4.8965428E-2,-4.839965E-1,-1.4932462E0,-4.1711658E-1,5.7091916E-1,-2.1495679E-1,-4.8435487E-2,-4.7980934E-2,-1.1904487E-2,3.235657E-1,-5.108631E-1,6.4936495E-1,7.4837215E-2,1.9936193E-2,-1.1118389E-2,4.8594098E-3,1.8495154E-2,-1.3692308E-2,-2.7033327E-2,2.2722125E-2,1.1839228E-2,7.553334E-3,-7.814638E-3],"categories":[],"categories_nodes":[],"categories_segments":[],"categories_sizes":[],"default_left":[0,0,0,0,0,0,0,0,0,0,0,0,0,0,0,0,0,0,0,0,0,0,0,0,0,0,0,0,0],"id":10,"left_children":[1,3,5,-1,7,9,-1,11,13,15,17,19,-1,-1,-1,21,23,25,27,-1,-1,-1,-1,-1,-1,-1,-1,-1,-1],"loss_changes":[1.1104166E4,5.62334E1,6.8987686E3,0E0,8.8085815E1,3.0500535E3,0E0,3.7481483E1,1.2988098E1,2.5945294E2,7.447427E2,1.3085257E1,0E0,0E0,0E0,1.8913795E1,8.418829E1,3.5442236E2,1.4262071E2,0E0,0E0,0E0,0E0,0E0,0E0,0E0,0E0,0E0,0E0],"parents":[2147483647,0,0,1,1,2,2,4,4,5,5,7,7,8,8,9,9,10,10,11,11,15,15,16,16,17,17,18,18],"right_children":[2,4,6,-1,8,10,-1,12,14,16,18,20,-1,-1,-1,22,24,26,28,-1,-1,-1,-1,-1,-1,-1,-1,-1,-1],"split_conditions":[1E0,1.54E2,1E0,-4.8832778E-2,1.58E2,2.8E1,-4.8965428E-2,1E0,1.63E2,1.51E2,5.9E1,2.6E1,-4.8435487E-2,-4.7980934E-2,-1.1904487E-2,2.5E1,1.58E2,1.25E2,6.9E1,1.9936193E-2,-1.1118389E-2,4.8594098E-3,1.8495154E-2,-1.3692308E-2,-2.7033327E-2,2.2722125E-2,1.1839228E-2,7.553334E-3,-7.814638E-3],"split_indices":[6,8,4,0,8,1,0,4,8,8,1,1,0,0,0,1,8,8,1,0,0,0,0,0,0,0,0,0,0],"split_type":[0,0,0,0,0,0,0,0,0,0,0,0,0,0,0,0,0,0,0,0,0,0,0,0,0,0,0,0,0],"sum_hessian":[2.8829602E4,4.0546387E3,2.4774963E4,3.660526E3,3.9411264E2,2.2870826E4,1.9041365E3,1.3036493E2,2.637477E2,3.7331736E3,1.9137652E4,1.0513117E2,2.5233765E1,2.528633E2,1.088441E1,4.191398E2,3.3140337E3,1.6524336E4,2.613316E3,1.4458355E1,9.067281E1,2.5948227E2,1.5965753E2,2.7617693E3,5.522645E2,1.2754119E4,3.7702173E3,1.7256993E3,8.876166E2],"tree_param":{"num_deleted":"0","num_feature":"10","num_nodes":"29","size_leaf_vector":"1"}},{"base_weights":[-7.1031414E-3,-1.5044432E0,2.371461E-1,-4.7942653E-2,-1.1868691E0,-5.7889426E-1,4.439303E-1,-4.6176225E-1,-4.8143577E-2,3.108082E-1,-6.834908E-1,5.273611E-1,-6.5411165E-2,-6.48902E-1,5.9106596E-2,-6.861951E-2,4.6881345E-1,-6.9879407E-1,5.035155E-1,6.189055E-1,2.248692E-1,-1.9680198E-1,5.1520723E-1,-1.45808E-2,-5.126862E-2,-1.964426E-2,1.5009649E-2,-7.345139E-3,2.2899965E-2,7.7108843E-3,2.2239776E-2,-2.0353343E-2,-3.008253E-2,-2.0569548E-2,2.5840243E-2,1.8228425E-2,2.9929882E-2,-1.55074615E-2,2.000013E-2,-7.835308E-3,1.6851969E-2,2.3346875E-2,4.8231236E-3],"categories":[],"categories_nodes":[],"categories_segments":[],"categories_sizes":[],"default_left":[0,0,0,0,0,0,0,0,0,0,0,0,0,0,0,0,0,0,0,0,0,0,0,0,0,0,0,0,0,0,0,0,0,0,0,0,0,0,0,0,0,0,0],"id":11,"left_children":[1,3,5,-1,7,9,11,13,-1,15,17,19,21,23,25,27,29,31,33,35,37,39,41,-1,-1,-1,-1,-1,-1,-1,-1,-1,-1,-1,-1,-1,-1,-1,-1,-1,-1,-1,-1],"loss_changes":[1.0490855E4,4.1251953E1,4.1618667E3,0E0,1.0058496E2,4.6424487E2,8.3619727E2,1.275297E1,0E0,3.1520966E1,8.140723E1,4.680542E2,2.1144504E2,1.6554287E1,1.061105E1,2.1011072E1,1.992315E1,5.310498E1,2.2277622E1,1.5040674E2,1.1835149E3,9.109861E1,4.2998993E1,0E0,0E0,0E0,0E0,0E0,0E0,0E0,0E0,0E0,0E0,0E0,0E0,0E0,0E0,0E0,0E0,0E0,0E0,0E0,0E0],"parents":[2147483647,0,0,1,1,2,2,4,4,5,5,6,6,7,7,9,9,10,10,11,11,12,12,13,13,14,14,15,15,16,16,17,17,18,18,19,19,20,20,21,21,22,22],"right_children":[2,4,6,-1,8,10,12,14,-1,16,18,20,22,24,26,28,30,32,34,36,38,40,42,-1,-1,-1,-1,-1,-1,-1,-1,-1,-1,-1,-1,-1,-1,-1,-1,-1,-1,-1,-1],"split_conditions":[1E0,1.54E2,2.9E1,-4.7942653E-2,1.58E2,1.51E2,5.9E1,1.57E2,-4.8143577E-2,1.4441E3,1.63E2,1.25E2,2E0,2.48E2,3.7E1,2.63E2,2.5E1,1.58E2,2.2E1,2E0,1.54E2,1.55E2,2.8E1,-1.45808E-2,-5.126862E-2,-1.964426E-2,1.5009649E-2,-7.345139E-3,2.2899965E-2,7.7108843E-3,2.2239776E-2,-2.0353343E-2,-3.008253E-2,-2.0569548E-2,2.5840243E-2,1.8228425E-2,2.9929882E-2,-1.55074615E-2,2.000013E-2,-7.835308E-3,1.6851969E-2,2.3346875E-2,4.8231236E-3],"split_indices":[6,8,1,0,8,8,1,8,0,7,8,8,5,9,1,9,1,8,1,5,8,8,8,0,0,0,0,0,0,0,0,0,0,0,0,0,0,0,0,0,0,0,0],"split_type":[0,0,0,0,0,0,0,0,0,0,0,0,0,0,0,0,0,0,0,0,0,0,0,0,0,0,0,0,0,0,0,0,0,0,0,0,0,0,0,0,0,0,0],"sum_hessian":[2.8683184E4,4.0219502E3,2.4661232E4,3.6324385E3,3.8951184E2,4.9853916E3,1.9675842E4,1.2943936E2,2.6007248E2,5.2423724E2,4.4611543E3,1.69065E4,2.769342E3,9.504531E1,3.439405E1,1.5429202E2,3.6994525E2,4.404778E3,5.6376507E1,1.2977896E4,3.9286023E3,2.2588398E3,5.105022E2,8.166542E1,1.3379885E1,1.2881726E1,2.1512323E1,1.2831741E2,2.5974607E1,1.952706E2,1.7467464E2,3.7615583E3,6.4321967E2,1.2100629E1,4.427588E1,1.1802381E4,1.1755161E3,1.4372938E3,2.4913086E3,2.1037947E3,1.5504521E2,3.089828E2,2.0151944E2],"tree_param":{"num_deleted":"0","num_feature":"10","num_nodes":"43","size_leaf_vector":"1"}},{"base_weights":[1.2157136E-3,-1.4659172E0,2.383815E-1,-4.6826072E-2,-1.1268687E0,3.844475E-1,-4.744777E-2,-4.5693216E-1,-4.5510076E-2,-3.880849E-1,5.359233E-1,-1.7420755E-1,-4.7351632E-2,4.073984E-1,-4.9594414E-1,6.138038E-1,4.3100387E-2,3.2911776E-3,-2.5869174E-2,7.044864E-3,2.1292094E-2,-3.5438422E-2,-1.4298607E-2,2.1444716E-2,1.1415178E-2,5.2589187E-3,-1.0307367E-2],"categories":[],"categories_nodes":[],"categories_segments":[],"categories_sizes":[],"default_left":[0,0,0,0,0,0,0,0,0,0,0,0,0,0,0,0,0,0,0,0,0,0,0,0,0,0,0],"id":12,"left_children":[1,3,5,-1,7,9,-1,11,-1,13,15,17,-1,19,21,23,25,-1,-1,-1,-1,-1,-1,-1,-1,-1,-1],"loss_changes":[9.962104E3,4.7504883E1,6.3389766E3,0E0,8.6505035E1,2.6634822E3,0E0,3.9127274E1,0E0,3.2037103E2,7.3031494E2,1.9302057E1,0E0,2.2154747E1,7.784302E1,3.0164893E2,1.2204136E2,0E0,0E0,0E0,0E0,0E0,0E0,0E0,0E0,0E0,0E0],"parents":[2147483647,0,0,1,1,2,2,4,4,5,5,7,7,9,9,10,10,11,11,13,13,14,14,15,15,16,16],"right_children":[2,4,6,-1,8,10,-1,12,-1,14,16,18,-1,20,22,24,26,-1,-1,-1,-1,-1,-1,-1,-1,-1,-1],"split_conditions":[1E0,1.54E2,1E0,-4.6826072E-2,1.58E2,2.8E1,-4.744777E-2,1E0,-4.5510076E-2,1.51E2,5.9E1,1.3541E3,-4.7351632E-2,2.5E1,2.1E1,1.25E2,7.1E1,3.2911776E-3,-2.5869174E-2,7.044864E-3,2.1292094E-2,-3.5438422E-2,-1.4298607E-2,2.1444716E-2,1.1415178E-2,5.2589187E-3,-1.0307367E-2],"split_indices":[6,8,4,0,8,1,0,4,0,8,1,7,0,1,1,8,1,0,0,0,0,0,0,0,0,0,0],"split_type":[0,0,0,0,0,0,0,0,0,0,0,0,0,0,0,0,0,0,0,0,0,0,0,0,0,0,0],"sum_hessian":[2.8628537E4,3.983152E3,2.4645385E4,3.593691E3,3.894611E2,2.2758137E4,1.8872488E3,1.3016258E2,2.592985E2,3.7305635E3,1.9027572E4,1.0372101E2,2.644157E1,4.4509827E2,3.2854653E3,1.6430781E4,2.596791E3,7.328911E1,3.0431896E1,2.695822E2,1.7551604E2,1.7856494E2,3.1069004E3,1.263987E4,3.790912E3,1.944007E3,6.52784E2],"tree_param":{"num_deleted":"0","num_feature":"10","num_nodes":"27","size_leaf_vector":"1"}},{"base_weights":[-2.0392432E-3,2.0704015E-1,-4.687933E-2,-5.9411746E-1,3.933172E-1,1.6135623E-1,-6.771937E-1,4.6812907E-1,-7.4721895E-2,-6.431153E-2,4.0584227E-1,-6.948892E-1,6.3029253E-1,-1.74405E-2,5.317144E-1,-1.849988E-1,4.4594803E-1,-9.642943E-3,9.806309E-3,4.0218275E-2,9.248758E-3,-2.5610521E-2,-1.7924035E-2,-1.60713E-2,2.8515333E-2,2.9123703E-2,-1.4079174E-2,1.7094566E-2,5.896126E-4,-7.852047E-3,2.031107E-2,2.0441549E-2,3.4428334E-3],"categories":[],"categories_nodes":[],"categories_segments":[],"categories_sizes":[],"default_left":[0,0,0,0,0,0,0,0,0,0,0,0,0,0,0,0,0,0,0,0,0,0,0,0,0,0,0,0,0,0,0,0,0],"id":13,"left_children":[1,3,-1,5,7,9,11,13,15,17,19,21,23,25,27,29,31,-1,-1,-1,-1,-1,-1,-1,-1,-1,-1,-1,-1,-1,-1,-1,-1],"loss_changes":[8.981508E3,3.7468875E3,0E0,2.9737866E2,7.1328467E2,2.596025E1,9.91709E1,5.4226245E2,1.6131741E2,2.2876476E1,2.1404533E1,6.34989E1,1.9225025E1,8.413847E2,1.3326904E2,1.299477E2,3.45076E1,0E0,0E0,0E0,0E0,0E0,0E0,0E0,0E0,0E0,0E0,0E0,0E0,0E0,0E0,0E0,0E0],"parents":[2147483647,0,0,1,1,3,3,4,4,5,5,6,6,7,7,8,8,9,9,10,10,11,11,12,12,13,13,14,14,15,15,16,16],"right_children":[2,4,-1,6,8,10,12,14,16,18,20,22,24,26,28,30,32,-1,-1,-1,-1,-1,-1,-1,-1,-1,-1,-1,-1,-1,-1,-1,-1],"split_conditions":[1E0,2.8E1,-4.687933E-2,1.51E2,5.9E1,1.24E2,1.63E2,1E0,2E0,2.5E1,7E0,1E0,2.2E1,1.37E2,4.8E1,1.55E2,2.8E1,-9.642943E-3,9.806309E-3,4.0218275E-2,9.248758E-3,-2.5610521E-2,-1.7924035E-2,-1.60713E-2,2.8515333E-2,2.9123703E-2,-1.4079174E-2,1.7094566E-2,5.896126E-4,-7.852047E-3,2.031107E-2,2.0441549E-2,3.4428334E-3],"split_indices":[4,1,0,8,1,8,8,5,5,1,3,0,1,8,3,8,8,0,0,0,0,0,0,0,0,0,0,0,0,0,0,0,0],"split_type":[0,0,0,0,0,0,0,0,0,0,0,0,0,0,0,0,0,0,0,0,0,0,0,0,0,0,0,0,0,0,0,0,0],"sum_hessian":[2.8598016E4,2.5104352E4,3.493664E3,4.7354595E3,2.0368893E4,4.6905484E2,4.2664043E3,1.7561795E4,2.8070964E3,2.442978E2,2.2475705E2,4.2098965E3,5.65081E1,2.0335222E3,1.5528272E4,2.3170042E3,4.900924E2,1.4846463E2,9.5833176E1,2.3492474E1,2.0126457E2,2.0427268E3,2.1671697E3,1.1079953E1,4.5428146E1,6.36747E2,1.3967753E3,1.5037414E4,4.908588E2,2.1460464E3,1.7095787E2,3.0089517E2,1.891972E2],"tree_param":{"num_deleted":"0","num_feature":"10","num_nodes":"33","size_leaf_vector":"1"}},{"base_weights":[3.0008953E-3,-1.427526E0,2.301512E-1,-1.3841711E0,-4.6405707E-2,3.6867976E-1,-4.6077076E-2,-1.3144816E0,-1.4608268E0,-3.557089E-1,5.0924706E-1,-1.2543472E0,-4.520044E-2,-1.4147098E0,-5.1236194E-2,-5.1751584E-1,-2.1507676E-1,5.6798124E-1,-6.2111285E-2,-4.023342E-2,-3.2495696E-2,-4.482717E-2,-3.3951517E-2,-1.7886356E-2,2.6558903E-3,-3.9930943E-2,-5.162429E-3,1.2592479E-2,1.897057E-2,2.2528714E-3,-9.082985E-3],"categories":[],"categories_nodes":[],"categories_segments":[],"categories_sizes":[],"default_left":[0,0,0,0,0,0,0,0,0,0,0,0,0,0,0,0,0,0,0,0,0,0,0,0,0,0,0,0,0,0,0],"id":14,"left_children":[1,3,5,7,-1,9,-1,11,13,15,17,19,-1,21,-1,23,25,27,29,-1,-1,-1,-1,-1,-1,-1,-1,-1,-1,-1,-1],"loss_changes":[9.240646E3,8.299316E0,5.808624E3,1.0350586E1,0E0,2.3117175E3,0E0,8.080811E0,6.830078E0,8.385129E1,6.380508E2,5.2053223E0,0E0,5.1141357E0,0E0,5.828543E1,1.0394018E2,1.1468994E2,5.46617E1,0E0,0E0,0E0,0E0,0E0,0E0,0E0,0E0,0E0,0E0,0E0,0E0],"parents":[2147483647,0,0,1,1,2,2,3,3,5,5,7,7,8,8,9,9,10,10,11,11,13,13,15,15,16,16,17,17,18,18],"right_children":[2,4,6,8,-1,10,-1,12,14,16,18,20,-1,22,-1,24,26,28,30,-1,-1,-1,-1,-1,-1,-1,-1,-1,-1,-1,-1],"split_conditions":[1E0,1E0,1E0,1.56625E3,-4.6405707E-2,2.8E1,-4.6077076E-2,3.3E1,5E1,1E0,6.3E1,2.9E1,-4.520044E-2,4.6E1,-5.1236194E-2,2.7E1,2.1E1,1.8E1,7.1E1,-4.023342E-2,-3.2495696E-2,-4.482717E-2,-3.3951517E-2,-1.7886356E-2,2.6558903E-3,-3.9930943E-2,-5.162429E-3,1.2592479E-2,1.897057E-2,2.2528714E-3,-9.082985E-3],"split_indices":[6,4,4,7,0,1,0,3,1,0,1,3,0,1,0,1,1,3,1,0,0,0,0,0,0,0,0,0,0,0,0],"split_type":[0,0,0,0,0,0,0,0,0,0,0,0,0,0,0,0,0,0,0,0,0,0,0,0,0,0,0,0,0,0,0],"sum_hessian":[2.843559E4,3.8957842E3,2.4539805E4,2.2960864E3,1.5996978E3,2.2699984E4,1.8398203E3,1.212197E3,1.0838894E3,3.6888127E3,1.9011172E4,8.470689E2,3.651281E2,8.7269806E2,2.1119142E2,1.714027E3,1.9747859E3,1.7239047E4,1.772124E3,7.182623E2,1.2880655E2,8.107428E2,6.195524E1,1.5675515E3,1.4647546E2,8.643637E1,1.8883495E3,3.4274146E3,1.3811633E4,1.1177235E3,6.5440045E2],"tree_param":{"num_deleted":"0","num_feature":"10","num_nodes":"31","size_leaf_vector":"1"}},{"base_weights":[-2.4957384E-3,-1.4126707E0,2.200055E-1,-4.498664E-2,-1.1255064E0,3.52145E-1,-4.5071658E-2,-5.1397455E-1,-4.427868E-2,-1.8690494E-1,4.9650103E-1,-2.6570147E-1,-4.4963565E-2,7.7115434E-1,-3.9970022E-1,5.1189816E-1,3.0657837E-2,-2.180297E-3,-2.6556648E-2,-2.9068045E-2,2.618775E-2,-1.8130213E-2,-7.5394376E-3,1.1206536E-2,1.714106E-2,-3.4690385E-3,6.2878E-3],"categories":[],"categories_nodes":[],"categories_segments":[],"categories_sizes":[],"default_left":[0,0,0,0,0,0,0,0,0,0,0,0,0,0,0,0,0,0,0,0,0,0,0,0,0,0,0],"id":15,"left_children":[1,3,5,-1,7,9,-1,11,-1,13,15,17,-1,19,21,23,25,-1,-1,-1,-1,-1,-1,-1,-1,-1,-1],"loss_changes":[8.857471E3,3.223828E1,5.3683477E3,0E0,6.7048096E1,1.7580552E3,0E0,2.816182E1,0E0,9.7332947E2,1.27799805E2,1.1293791E1,0E0,1.0285016E2,1.12030945E2,9.9785645E1,1.389424E1,0E0,0E0,0E0,0E0,0E0,0E0,0E0,0E0,0E0,0E0],"parents":[2147483647,0,0,1,1,2,2,4,4,5,5,7,7,9,9,10,10,11,11,13,13,14,14,15,15,16,16],"right_children":[2,4,6,-1,8,10,-1,12,-1,14,16,18,-1,20,22,24,26,-1,-1,-1,-1,-1,-1,-1,-1,-1,-1],"split_conditions":[1E0,1.54E2,1E0,-4.498664E-2,1.58E2,1E0,-4.5071658E-2,1E0,-4.427868E-2,1.51E2,4.8E1,3.1E1,-4.4963565E-2,2.3E1,1E0,1.8E1,1.21395E3,-2.180297E-3,-2.6556648E-2,-2.9068045E-2,2.618775E-2,-1.8130213E-2,-7.5394376E-3,1.1206536E-2,1.714106E-2,-3.4690385E-3,6.2878E-3],"split_indices":[6,8,4,0,8,5,0,4,0,8,3,3,0,8,0,3,7,0,0,0,0,0,0,0,0,0,0],"split_type":[0,0,0,0,0,0,0,0,0,0,0,0,0,0,0,0,0,0,0,0,0,0,0,0,0,0,0],"sum_hessian":[2.8227584E4,3.8461284E3,2.4381455E4,3.4715518E3,3.745765E2,2.2590527E4,1.7909288E3,1.2281408E2,2.517624E2,4.7717417E3,1.7818785E4,9.7920204E1,2.4893875E1,8.6675653E2,3.9049854E3,1.7248584E4,5.7020123E2,7.425032E1,2.3669884E1,3.3266335E1,8.334902E2,1.8123705E3,2.0926147E3,3.4486062E3,1.3799978E4,3.1181293E2,2.583883E2],"tree_param":{"num_deleted":"0","num_feature":"10","num_nodes":"27","size_leaf_vector":"1"}},{"base_weights":[5.707284E-3,-1.3819919E0,2.2091898E-1,-1.2413218E0,-4.394888E-2,3.500864E-1,-4.438955E-2,-1.1240039E0,-4.5116704E-2,-1.8527623E-1,4.9255005E-1,-1.030412E0,-4.190909E-2,-4.2223164E-1,-8.888031E-2,5.0781953E-1,2.9078035E-2,-3.4941975E-2,-1.728828E-2,-1.1611179E-2,-3.116531E-2,3.8173567E-3,-9.825727E-3,1.5042735E-2,2.289139E-2,-5.4390565E-3,3.7227084E-3],"categories":[],"categories_nodes":[],"categories_segments":[],"categories_sizes":[],"default_left":[0,0,0,0,0,0,0,0,0,0,0,0,0,0,0,0,0,0,0,0,0,0,0,0,0,0,0],"id":16,"left_children":[1,3,5,7,-1,9,-1,11,-1,13,15,17,-1,19,21,23,25,-1,-1,-1,-1,-1,-1,-1,-1,-1,-1],"loss_changes":[8.419491E3,1.3177734E1,5.186724E3,1.3789734E1,0E0,1.7261301E3,0E0,7.0932007E0,0E0,1.0862398E2,1.2648291E2,1.1997467E1,0E0,3.911885E1,1.6188065E2,9.845703E1,1.0527719E1,0E0,0E0,0E0,0E0,0E0,0E0,0E0,0E0,0E0,0E0],"parents":[2147483647,0,0,1,1,2,2,3,3,5,5,7,7,9,9,10,10,11,11,13,13,14,14,15,15,16,16],"right_children":[2,4,6,8,-1,10,-1,12,-1,14,16,18,-1,20,22,24,26,-1,-1,-1,-1,-1,-1,-1,-1,-1,-1],"split_conditions":[1E0,1.0004E3,1E0,1E0,-4.394888E-2,1E0,-4.438955E-2,3.3E1,-4.5116704E-2,1.8E1,4.8E1,2.9E1,-4.190909E-2,2.3136E3,3E1,2E0,1E0,-3.4941975E-2,-1.728828E-2,-1.1611179E-2,-3.116531E-2,3.8173567E-3,-9.825727E-3,1.5042735E-2,2.289139E-2,-5.4390565E-3,3.7227084E-3],"split_indices":[6,7,4,4,0,5,0,3,0,3,3,3,0,7,3,5,0,0,0,0,0,0,0,0,0,0,0],"split_type":[0,0,0,0,0,0,0,0,0,0,0,0,0,0,0,0,0,0,0,0,0,0,0,0,0,0,0],"sum_hessian":[2.8189896E4,3.7841335E3,2.4405762E4,6.3637494E2,3.1477585E3,2.2629727E4,1.7760354E3,4.0969803E2,2.2667694E2,4.75619E3,1.7873537E4,2.916308E2,1.1806723E2,1.3743802E3,3.3818098E3,1.7303367E4,5.701692E2,2.4381946E2,4.781133E1,1.2670022E3,1.0737796E2,1.7491187E3,1.6326912E3,1.5574679E4,1.7286888E3,1.7498712E2,3.9518207E2],"tree_param":{"num_deleted":"0","num_feature":"10","num_nodes":"27","size_leaf_vector":"1"}},{"base_weights":[3.395665E-4,1.8608786E-1,-4.4069912E-2,-5.4983526E-1,3.547689E-1,-7.1398634E-1,-4.4556883E-1,4.235151E-1,-6.889953E-2,-6.787049E-1,-1.1579247E0,-1.8445863E-1,-6.0176253E-1,-1.0632848E-2,4.8067266E-1,-1.7586432E-1,4.3548506E-1,-1.8166093E-2,-2.5922727E-2,-5.0455175E-2,-3.083475E-2,-1.3591326E-2,-1.1113053E-3,-1.514783E-2,-2.5511071E-2,6.502339E-3,-1.3946837E-2,1.5480211E-2,-1.709332E-4,-3.4140672E-3,-2.0026952E-2,1.645091E-2,1.8966318E-3],"categories":[],"categories_nodes":[],"categories_segments":[],"categories_sizes":[],"default_left":[0,0,0,0,0,0,0,0,0,0,0,0,0,0,0,0,0,0,0,0,0,0,0,0,0,0,0,0,0,0,0,0,0],"id":17,"left_children":[1,3,-1,5,7,9,11,13,15,17,19,21,23,25,27,29,31,-1,-1,-1,-1,-1,-1,-1,-1,-1,-1,-1,-1,-1,-1,-1,-1],"loss_changes":[7.3716006E3,3.0792407E3,0E0,7.884985E1,5.8776074E2,2.7330627E1,1.15364685E2,4.30844E2,1.5211638E2,2.3942017E1,8.5598755E0,3.971502E1,4.4040222E1,1.9363983E2,1.1922656E2,7.192006E1,1.7030327E1,0E0,0E0,0E0,0E0,0E0,0E0,0E0,0E0,0E0,0E0,0E0,0E0,0E0,0E0,0E0,0E0],"parents":[2147483647,0,0,1,1,3,3,4,4,5,5,6,6,7,7,8,8,9,9,10,10,11,11,12,12,13,13,14,14,15,15,16,16],"right_children":[2,4,-1,6,8,10,12,14,16,18,20,22,24,26,28,30,32,-1,-1,-1,-1,-1,-1,-1,-1,-1,-1,-1,-1,-1,-1,-1,-1],"split_conditions":[1E0,2.8E1,-4.4069912E-2,2.8E1,5.9E1,2.3136E3,2.9E1,1E0,2E0,1.85E2,2.46835E3,1.57465E3,4.3E1,3.5E1,4.8E1,7.5E1,7.2E1,-1.8166093E-2,-2.5922727E-2,-5.0455175E-2,-3.083475E-2,-1.3591326E-2,-1.1113053E-3,-1.514783E-2,-2.5511071E-2,6.502339E-3,-1.3946837E-2,1.5480211E-2,-1.709332E-4,-3.4140672E-3,-2.0026952E-2,1.645091E-2,1.8966318E-3],"split_indices":[4,1,0,3,1,7,3,5,5,9,7,7,3,1,3,1,1,0,0,0,0,0,0,0,0,0,0,0,0,0,0,0,0],"split_type":[0,0,0,0,0,0,0,0,0,0,0,0,0,0,0,0,0,0,0,0,0,0,0,0,0,0,0,0,0,0,0,0,0],"sum_hessian":[2.805949E4,2.4802752E4,3.256737E3,4.624534E3,2.0178219E4,1.7941233E3,2.8304111E3,1.736113E4,2.8170881E3,1.6643779E3,1.2974536E2,1.0602179E3,1.7701931E3,2.0198558E3,1.5341274E4,2.3247334E3,4.923547E2,1.0261138E3,6.382642E2,3.2455612E1,9.728976E1,3.9329993E2,6.6691797E2,1.1559406E3,6.142527E2,1.3452036E3,6.746522E2,1.4852901E4,4.8837347E2,2.0365096E3,2.882238E2,3.946889E2,9.766581E1],"tree_param":{"num_deleted":"0","num_feature":"10","num_nodes":"33","size_leaf_vector":"1"}},{"base_weights":[-9.663144E-4,-1.337364E0,2.0391765E-1,-1.1816897E0,-4.267746E-2,-5.27641E-1,3.690901E-1,-1.111514E0,-4.5536384E-2,-7.0889306E-1,-4.1610748E-1,4.2968658E-1,-2.1338247E-1,-1.1784674E0,-8.74697E-1,-8.5800797E-1,-6.0543483E-1,-3.2024938E-1,-7.642556E-1,2.600531E-2,4.7848508E-1,-3.2760468E-1,3.0039954E-1,-3.3207968E-2,-4.3137826E-2,-2.1355802E-2,-4.7439277E-2,-3.2398827E-2,-2.1497916E-2,-4.442034E-2,-1.7663712E-2,-1.4297708E-2,-6.2075336E-3,-2.0511616E-2,-4.129784E-2,6.784757E-3,-1.1061771E-2,1.6466621E-2,8.762022E-3,-5.714449E-3,-1.7523926E-2,-7.0659993E-3,1.2347278E-2],"categories":[],"categories_nodes":[],"categories_segments":[],"categories_sizes":[],"default_left":[0,0,0,0,0,0,0,0,0,0,0,0,0,0,0,0,0,0,0,0,0,0,0,0,0,0,0,0,0,0,0,0,0,0,0,0,0,0,0,0,0,0,0],"id":18,"left_children":[1,3,5,7,-1,9,11,13,-1,15,17,19,21,23,25,27,29,31,33,35,37,39,41,-1,-1,-1,-1,-1,-1,-1,-1,-1,-1,-1,-1,-1,-1,-1,-1,-1,-1,-1,-1],"loss_changes":[7.6384365E3,1.6781738E1,2.9230098E3,1.0870178E1,0E0,8.978284E1,6.966179E2,7.1138306E0,0E0,2.5644775E1,9.1892944E1,3.5210327E2,1.09265E2,7.7630615E0,1.3323296E1,2.0423187E1,3.1083374E1,3.6235535E1,3.4570312E1,1.408962E2,1.5665552E2,5.142514E1,1.7190582E1,0E0,0E0,0E0,0E0,0E0,0E0,0E0,0E0,0E0,0E0,0E0,0E0,0E0,0E0,0E0,0E0,0E0,0E0,0E0,0E0],"parents":[2147483647,0,0,1,1,2,2,3,3,5,5,6,6,7,7,9,9,10,10,11,11,12,12,13,13,14,14,15,15,16,16,17,17,18,18,19,19,20,20,21,21,22,22],"right_children":[2,4,6,8,-1,10,12,14,-1,16,18,20,22,24,26,28,30,32,34,36,38,40,42,-1,-1,-1,-1,-1,-1,-1,-1,-1,-1,-1,-1,-1,-1,-1,-1,-1,-1,-1,-1],"split_conditions":[1E0,1.0004E3,2.8E1,4.8E1,-4.267746E-2,2.8E1,6.3E1,3.7E1,-4.5536384E-2,1.4082E3,4.3E1,1E0,2E0,3E1,3.9E1,1E0,2.1E1,1E0,5E1,3.5E1,5.2E1,7.1E1,1.37715E3,-3.3207968E-2,-4.3137826E-2,-2.1355802E-2,-4.7439277E-2,-3.2398827E-2,-2.1497916E-2,-4.442034E-2,-1.7663712E-2,-1.4297708E-2,-6.2075336E-3,-2.0511616E-2,-4.129784E-2,6.784757E-3,-1.1061771E-2,1.6466621E-2,8.762022E-3,-5.714449E-3,-1.7523926E-2,-7.0659993E-3,1.2347278E-2],"split_indices":[6,7,1,1,0,3,1,1,0,7,3,5,5,1,3,0,1,0,3,1,1,1,7,0,0,0,0,0,0,0,0,0,0,0,0,0,0,0,0,0,0,0,0],"split_type":[0,0,0,0,0,0,0,0,0,0,0,0,0,0,0,0,0,0,0,0,0,0,0,0,0,0,0,0,0,0,0,0,0,0,0,0,0,0,0,0,0,0,0],"sum_hessian":[2.7895215E4,3.7074016E3,2.4187814E4,6.3651495E2,3.0708867E3,4.4548447E3,1.9732969E4,5.126698E2,1.2384515E2,1.6949851E3,2.7598599E3,1.7873766E4,1.8592028E3,3.9657327E2,1.16096504E2,6.913071E2,1.0036779E3,2.165529E3,5.943307E2,1.9277937E3,1.5945973E4,1.5213451E3,3.3785773E2,2.5984467E2,1.367286E2,9.139489E1,2.470162E1,3.30144E2,3.611631E2,4.3660107E1,9.600178E2,1.0089701E3,1.1565591E3,5.015364E2,9.279431E1,1.2827415E3,6.4505225E2,1.273083E4,3.2151423E3,9.431778E2,5.7816724E2,5.1724747E1,2.8613297E2],"tree_param":{"num_deleted":"0","num_feature":"10","num_nodes":"43","size_leaf_vector":"1"}},{"base_weights":[-2.647525E-3,-1.328715E0,1.978877E-1,-1.3700705E0,-9.527228E-1,3.2013553E-1,-4.344989E-2,-2.1848029E-2,-4.281702E-2,-3.28787E-1,-1.2839876E0,-2.9398483E-1,4.5175755E-1,-8.156189E-2,-4.2506397E-2,-4.3347184E-2,-9.606266E-1,3.4027746E-1,-3.824165E-1,5.203595E-1,3.3199746E-2,1.5799036E-3,-3.214672E-2,9.581188E-3,-3.9646786E-2,6.266798E-4,1.6726326E-2,-1.2582386E-2,2.5228452E-2,1.8009441E-2,9.950516E-3,4.5955437E-3,-7.3994086E-3],"categories":[],"categories_nodes":[],"categories_segments":[],"categories_sizes":[],"default_left":[0,0,0,0,0,0,0,0,0,0,0,0,0,0,0,0,0,0,0,0,0,0,0,0,0,0,0,0,0,0,0,0,0],"id":19,"left_children":[1,3,5,7,9,11,-1,-1,-1,13,15,17,19,21,-1,-1,23,25,27,29,31,-1,-1,-1,-1,-1,-1,-1,-1,-1,-1,-1,-1],"loss_changes":[7.3794375E3,5.5376953E1,4.691446E3,7.0371094E0,7.491547E1,1.8096897E3,0E0,0E0,0E0,3.257674E1,6.8695984E0,2.2178287E2,5.293489E2,1.313916E1,0E0,0E0,2.4962948E1,3.0423183E1,8.825412E1,1.8280713E2,8.03234E1,0E0,0E0,0E0,0E0,0E0,0E0,0E0,0E0,0E0,0E0,0E0,0E0],"parents":[2147483647,0,0,1,1,2,2,3,3,4,4,5,5,9,9,10,10,11,11,12,12,13,13,16,16,17,17,18,18,19,19,20,20],"right_children":[2,4,6,8,10,12,-1,-1,-1,14,16,18,20,22,-1,-1,24,26,28,30,32,-1,-1,-1,-1,-1,-1,-1,-1,-1,-1,-1,-1],"split_conditions":[1E0,1.54E2,1E0,2E0,1.58E2,2.9E1,-4.344989E-2,-2.1848029E-2,-4.281702E-2,1E0,2.3E2,1.37E2,5.9E1,4.9E1,-4.2506397E-2,-4.3347184E-2,2.4E2,2.4E1,1.63E2,1.25E2,7E1,1.5799036E-3,-3.214672E-2,9.581188E-3,-3.9646786E-2,6.266798E-4,1.6726326E-2,-1.2582386E-2,2.5228452E-2,1.8009441E-2,9.950516E-3,4.5955437E-3,-7.3994086E-3],"split_indices":[6,8,4,8,8,1,0,0,0,4,9,8,1,1,0,0,9,1,8,8,1,0,0,0,0,0,0,0,0,0,0,0,0],"split_type":[0,0,0,0,0,0,0,0,0,0,0,0,0,0,0,0,0,0,0,0,0,0,0,0,0,0,0,0,0,0,0,0,0],"sum_hessian":[2.7748268E4,3.6442864E3,2.4103982E4,3.2807869E3,3.634994E2,2.2385707E4,1.7182753E3,1.8813763E1,3.2619731E3,1.267531E2,2.367463E2,3.950814E3,1.8434893E4,1.0318395E2,2.3569143E1,1.7551227E2,6.123404E1,4.8308853E2,3.4677256E3,1.5838677E4,2.5962153E3,9.140368E1,1.1780278E1,1.2074685E1,4.915935E1,1.8406525E2,2.990233E2,3.4075774E3,6.014819E1,1.2318339E4,3.5203376E3,1.825839E3,7.703764E2],"tree_param":{"num_deleted":"0","num_feature":"10","num_nodes":"33","size_leaf_vector":"1"}},{"base_weights":[4.067157E-3,-6.9435275E-1,2.1807979E-1,7.64521E-2,-7.662746E-1,2.7321124E-1,-3.3241415E-1,-1.6854978E-1,3.6531726E-1,-8.337405E-1,-4.9344242E-1,-2.1586265E-1,3.3333817E-1,-4.501307E-1,2.815573E-1,-6.333138E-1,3.216915E-4,3.270849E-2,2.9262406E-1,-9.6849227E-1,-7.021641E-1,4.9341834E-1,-8.670213E-1,8.490779E-1,-6.372783E-1,2.94464E-1,7.614622E-1,-4.8994213E-1,2.5731373E-1,5.173947E-1,-6.5702416E-2,-1.3581606E-2,-3.046733E-2,-1.0371148E-2,1.1456345E-2,-4.4626384E-3,1.28051005E-2,-1.5260832E-2,-3.0761855E-2,-1.9690953E-2,-2.9301476E-2,1.9374415E-2,5.5664047E-3,-3.0189913E-2,1.461785E-2,-2.2821516E-2,3.065093E-2,-2.6212582E-2,2.6621227E-3,7.4556237E-3,1.911701E-2,2.967204E-2,1.4077404E-2,-1.3583379E-2,-2.9460512E-2,-9.137822E-3,2.5016215E-2,2.7285116E-2,1.2650381E-2,2.2010703E-3,-4.289865E-2],"categories":[],"categories_nodes":[],"categories_segments":[],"categories_sizes":[],"default_left":[0,0,0,0,0,0,0,0,0,0,0,0,0,0,0,0,0,0,0,0,0,0,0,0,0,0,0,0,0,0,0,0,0,0,0,0,0,0,0,0,0,0,0,0,0,0,0,0,0,0,0,0,0,0,0,0,0,0,0,0,0],"id":20,"left_children":[1,3,5,7,9,11,13,15,17,19,21,23,25,27,29,31,33,-1,35,37,39,41,43,45,47,49,51,53,55,57,59,-1,-1,-1,-1,-1,-1,-1,-1,-1,-1,-1,-1,-1,-1,-1,-1,-1,-1,-1,-1,-1,-1,-1,-1,-1,-1,-1,-1,-1,-1],"loss_changes":[4.1434673E3,3.605144E2,6.440755E2,3.9398125E1,1.0905786E2,5.6726086E2,1.3976555E2,2.3657742E1,1.2392998E1,8.383374E1,4.3601535E2,9.484857E2,2.8564587E2,4.5797607E1,2.5540901E1,5.0367775E0,2.7286976E1,0E0,1.2022821E1,2.030127E1,3.987085E1,1.3007385E1,1.16808716E2,1.27996735E2,2.2295374E2,2.773684E2,8.392731E1,3.7436584E1,2.6365421E1,7.0550613E0,2.2761957E1,0E0,0E0,0E0,0E0,0E0,0E0,0E0,0E0,0E0,0E0,0E0,0E0,0E0,0E0,0E0,0E0,0E0,0E0,0E0,0E0,0E0,0E0,0E0,0E0,0E0,0E0,0E0,0E0,0E0,0E0],"parents":[2147483647,0,0,1,1,2,2,3,3,4,4,5,5,6,6,7,7,8,8,9,9,10,10,11,11,12,12,13,13,14,14,15,15,16,16,18,18,19,19,20,20,21,21,22,22,23,23,24,24,25,25,26,26,27,27,28,28,29,29,30,30],"right_children":[2,4,6,8,10,12,14,16,18,20,22,24,26,28,30,32,34,-1,36,38,40,42,44,46,48,50,52,54,56,58,60,-1,-1,-1,-1,-1,-1,-1,-1,-1,-1,-1,-1,-1,-1,-1,-1,-1,-1,-1,-1,-1,-1,-1,-1,-1,-1,-1,-1,-1,-1],"split_conditions":[2.9E1,1.51E2,6.4E1,1.24E2,1.54E2,1E0,2E0,2.8E1,7E0,1E0,1.58E2,1.37E2,2E0,1.55E2,2.8E1,1.3E1,2.5E1,3.270849E-2,8.1E1,1.52E2,2.6E1,2.13E2,1.63E2,2.5E1,1.53E2,1.54E2,1.11E2,4.2E1,7.1E1,6.6E1,2.53E2,-1.3581606E-2,-3.046733E-2,-1.0371148E-2,1.1456345E-2,-4.4626384E-3,1.28051005E-2,-1.5260832E-2,-3.0761855E-2,-1.9690953E-2,-2.9301476E-2,1.9374415E-2,5.5664047E-3,-3.0189913E-2,1.461785E-2,-2.2821516E-2,3.065093E-2,-2.6212582E-2,2.6621227E-3,7.4556237E-3,1.911701E-2,2.967204E-2,1.4077404E-2,-1.3583379E-2,-2.9460512E-2,-9.137822E-3,2.5016215E-2,2.7285116E-2,1.2650381E-2,2.2010703E-3,-4.289865E-2],"split_indices":[1,8,1,8,8,5,5,3,3,0,8,8,5,8,8,3,1,0,9,8,1,9,8,8,8,8,8,3,1,1,9,0,0,0,0,0,0,0,0,0,0,0,0,0,0,0,0,0,0,0,0,0,0,0,0,0,0,0,0,0,0],"split_type":[0,0,0,0,0,0,0,0,0,0,0,0,0,0,0,0,0,0,0,0,0,0,0,0,0,0,0,0,0,0,0,0,0,0,0,0,0,0,0,0,0,0,0,0,0,0,0,0,0,0,0,0,0,0,0,0,0,0,0,0,0],"sum_hessian":[2.7718926E4,6.5009956E3,2.121793E4,5.5481683E2,5.9461787E3,1.9286871E4,1.9310588E3,3.004261E2,2.543908E2,4.765669E3,1.1805095E3,2.1112578E3,1.7175613E4,1.620607E3,3.104517E2,7.933418E1,2.2109189E2,2.314532E1,2.3124547E2,2.3512812E3,2.4143877E3,3.240817E2,8.5642786E2,5.983017E2,1.512956E3,1.5747416E4,1.4281968E3,1.5345574E3,8.604975E1,1.845957E2,1.25856E2,5.184154E1,2.7492638E1,1.15989655E2,1.0510224E2,4.929496E1,1.819505E2,8.825639E1,2.263025E3,1.8658566E3,5.48531E2,2.2962079E2,9.44609E1,7.9617255E2,6.025526E1,4.6490578E1,5.5181116E2,1.1801384E3,3.3281766E2,1.3422903E4,2.324513E3,8.8308057E2,5.4511615E2,1.3732029E3,1.6135449E2,4.3050964E1,4.2998787E1,4.222026E1,1.4237544E2,1.14855835E2,1.1000166E1],"tree_param":{"num_deleted":"0","num_feature":"10","num_nodes":"61","size_leaf_vector":"1"}},{"base_weights":[7.548897E-3,-1.3016993E0,2.0099151E-1,-1.3348935E0,-9.9280286E-1,3.176717E-1,-4.2695966E-2,-2.276684E-2,-4.1718807E-2,-1.2221543E0,-1.4654127E-1,-3.26115E-1,4.4011608E-1,-8.932664E-1,-4.0608764E-2,2.1517986E-1,-4.6701845E-2,3.205818E-1,-4.1446987E-1,5.0075006E-1,6.906951E-2,2.2295564E-3,-4.032316E-2,1.9392315E-2,-3.3292066E-2,5.1616714E-3,1.7348457E-2,-1.154056E-2,-2.4537284E-2,1.7543439E-2,9.180407E-3,6.632618E-3,-6.6839657E-3],"categories":[],"categories_nodes":[],"categories_segments":[],"categories_sizes":[],"default_left":[0,0,0,0,0,0,0,0,0,0,0,0,0,0,0,0,0,0,0,0,0,0,0,0,0,0,0,0,0,0,0,0,0],"id":21,"left_children":[1,3,5,7,9,11,-1,-1,-1,13,15,17,19,21,-1,23,-1,25,27,29,31,-1,-1,-1,-1,-1,-1,-1,-1,-1,-1,-1,-1],"loss_changes":[6.985441E3,3.5081055E1,4.4049224E3,5.965332E0,6.744809E1,1.763543E3,0E0,0E0,0E0,6.1094666E0,3.720675E1,2.0442416E2,4.228352E2,2.218034E1,0E0,3.220182E1,0E0,1.5648029E1,5.1555176E1,2.067268E2,1.0767209E2,0E0,0E0,0E0,0E0,0E0,0E0,0E0,0E0,0E0,0E0,0E0,0E0],"parents":[2147483647,0,0,1,1,2,2,3,3,4,4,5,5,9,9,10,10,11,11,12,12,13,13,15,15,17,17,18,18,19,19,20,20],"right_children":[2,4,6,8,10,12,-1,-1,-1,14,16,18,20,22,-1,24,-1,26,28,30,32,-1,-1,-1,-1,-1,-1,-1,-1,-1,-1,-1,-1],"split_conditions":[1E0,1.54E2,1E0,2E0,3.7E1,2.8E1,-4.2695966E-2,-2.276684E-2,-4.1718807E-2,1.58E2,5.2E1,1.51E2,5.9E1,2.6E1,-4.0608764E-2,3E1,-4.6701845E-2,2.5E1,4.6E1,1.25E2,6.9E1,2.2295564E-3,-4.032316E-2,1.9392315E-2,-3.3292066E-2,5.1616714E-3,1.7348457E-2,-1.154056E-2,-2.4537284E-2,1.7543439E-2,9.180407E-3,6.632618E-3,-6.6839657E-3],"split_indices":[6,8,4,8,1,1,0,0,0,8,1,8,1,1,0,3,0,1,3,8,1,0,0,0,0,0,0,0,0,0,0,0,0],"split_type":[0,0,0,0,0,0,0,0,0,0,0,0,0,0,0,0,0,0,0,0,0,0,0,0,0,0,0,0,0,0,0,0,0],"sum_hessian":[2.7579584E4,3.5496047E3,2.4029979E4,3.202175E3,3.4742975E2,2.23692E4,1.6607803E3,2.0091528E1,3.1820835E3,2.7299832E2,7.443141E1,3.5743513E3,1.8794848E4,5.6171944E1,2.1682639E2,5.9382504E1,1.5048909E1,4.2932898E2,3.1450222E3,1.6154616E4,2.6402314E3,1.6716673E1,3.945527E1,4.547544E1,1.3907063E1,2.6018283E2,1.6914615E2,2.8133545E3,3.316677E2,1.2414241E4,3.7403743E3,1.7522023E3,8.880292E2],"tree_param":{"num_deleted":"0","num_feature":"10","num_nodes":"33","size_leaf_vector":"1"}},{"base_weights":[-1.0219841E-3,-6.566412E-1,1.992136E-1,1.2507899E-1,-7.355212E-1,2.662869E-1,-1.9520539E-1,-2.2113024E-1,2.7522817E-1,-8.0800456E-1,-4.4783306E-1,-2.278599E-1,3.303783E-1,-2.969424E-1,3.447433E-1,-6.06116E-1,2.1785444E-1,1.8109994E-2,5.449229E-1,-9.083188E-1,-7.099413E-1,5.114819E-1,-8.2250506E-1,7.9284906E-1,-6.247312E-1,2.9845887E-1,7.115785E-1,-3.4772688E-1,4.2318577E-1,5.8736277E-1,-2.2269968E-2,-2.6999773E-2,1.7263653E-4,3.4155123E-2,-2.527811E-3,3.095636E-3,-3.8566604E-2,2.9042675E-3,2.3073008E-2,-1.199101E-2,-2.8908331E-2,-2.5528E-2,-2.0267852E-2,-8.363049E-4,3.0086108E-2,-2.8698418E-2,1.2980855E-2,-2.6369564E-2,2.91142E-2,-2.5098842E-2,1.2095933E-3,7.8014038E-3,1.798611E-2,2.4363998E-2,-7.0444527E-3,-7.636541E-3,-1.9358598E-2,1.7031826E-2,-7.8028627E-3,1.0337533E-2,2.6411384E-2,2.5395993E-3,-2.9652782E-2],"categories":[],"categories_nodes":[],"categories_segments":[],"categories_sizes":[],"default_left":[0,0,0,0,0,0,0,0,0,0,0,0,0,0,0,0,0,0,0,0,0,0,0,0,0,0,0,0,0,0,0,0,0,0,0,0,0,0,0,0,0,0,0,0,0,0,0,0,0,0,0,0,0,0,0,0,0,0,0,0,0,0,0],"id":22,"left_children":[1,3,5,7,9,11,13,15,17,19,21,23,25,27,29,31,33,35,37,39,41,43,45,47,49,51,53,55,57,59,61,-1,-1,-1,-1,-1,-1,-1,-1,-1,-1,-1,-1,-1,-1,-1,-1,-1,-1,-1,-1,-1,-1,-1,-1,-1,-1,-1,-1,-1,-1,-1,-1],"loss_changes":[3.5960505E3,3.9526953E2,5.5517883E2,3.0640518E1,1.21031494E2,5.680691E2,1.6766745E2,3.0299854E1,2.8473465E1,4.5084717E1,4.2231833E2,8.3483826E2,1.9295935E2,9.4035934E1,4.3118465E1,1.5178291E1,2.2172752E1,2.1667326E1,1.761842E1,2.2658325E1,1.4800781E1,8.070991E1,1.0316998E2,1.3435925E2,1.7774127E2,1.9644421E2,8.075E1,6.720352E1,1.4213671E1,1.9096596E1,1.874085E1,0E0,0E0,0E0,0E0,0E0,0E0,0E0,0E0,0E0,0E0,0E0,0E0,0E0,0E0,0E0,0E0,0E0,0E0,0E0,0E0,0E0,0E0,0E0,0E0,0E0,0E0,0E0,0E0,0E0,0E0,0E0,0E0],"parents":[2147483647,0,0,1,1,2,2,3,3,4,4,5,5,6,6,7,7,8,8,9,9,10,10,11,11,12,12,13,13,14,14,15,15,16,16,17,17,18,18,19,19,20,20,21,21,22,22,23,23,24,24,25,25,26,26,27,27,28,28,29,29,30,30],"right_children":[2,4,6,8,10,12,14,16,18,20,22,24,26,28,30,32,34,36,38,40,42,44,46,48,50,52,54,56,58,60,62,-1,-1,-1,-1,-1,-1,-1,-1,-1,-1,-1,-1,-1,-1,-1,-1,-1,-1,-1,-1,-1,-1,-1,-1,-1,-1,-1,-1,-1,-1,-1,-1],"split_conditions":[2.9E1,1.51E2,5.9E1,1.4441E3,1.54E2,1E0,2E0,1.24E2,2.5E1,1E0,1.58E2,1.37E2,2E0,1.55E2,2.8E1,1E0,4.1E1,2.71705E3,1.796E3,1.52E2,2.2E1,1.13945E3,1.63E2,2.5E1,1.53E2,1.54E2,1.25E2,7.1E1,2.38E2,2.0774E3,2.53E2,-2.6999773E-2,1.7263653E-4,3.4155123E-2,-2.527811E-3,3.095636E-3,-3.8566604E-2,2.9042675E-3,2.3073008E-2,-1.199101E-2,-2.8908331E-2,-2.5528E-2,-2.0267852E-2,-8.363049E-4,3.0086108E-2,-2.8698418E-2,1.2980855E-2,-2.6369564E-2,2.91142E-2,-2.5098842E-2,1.2095933E-3,7.8014038E-3,1.798611E-2,2.4363998E-2,-7.0444527E-3,-7.636541E-3,-1.9358598E-2,1.7031826E-2,-7.8028627E-3,1.0337533E-2,2.6411384E-2,2.5395993E-3,-2.9652782E-2],"split_indices":[1,8,1,7,8,5,5,8,1,0,8,8,5,8,8,5,9,7,7,8,3,7,8,8,8,8,8,1,9,7,9,0,0,0,0,0,0,0,0,0,0,0,0,0,0,0,0,0,0,0,0,0,0,0,0,0,0,0,0,0,0,0,0],"split_type":[0,0,0,0,0,0,0,0,0,0,0,0,0,0,0,0,0,0,0,0,0,0,0,0,0,0,0,0,0,0,0,0,0,0,0,0,0,0,0,0,0,0,0,0,0,0,0,0,0,0,0,0,0,0,0,0,0,0,0,0,0,0,0],"sum_hessian":[2.7390578E4,6.4077603E3,2.0982818E4,5.872623E2,5.8204976E3,1.7933451E4,3.0493667E3,1.7750475E2,4.097576E2,4.6476963E3,1.1728014E3,2.058648E3,1.5874804E4,2.566279E3,4.8308765E2,9.436593E1,8.3138824E1,2.1031615E2,1.9944144E2,2.293395E3,2.3543015E3,3.2929782E2,8.4350354E2,5.7606775E2,1.4825802E3,1.4649893E4,1.2249114E3,2.3977065E3,1.6857254E2,2.904687E2,1.9261896E2,6.591645E1,2.8449474E1,2.0441568E1,6.2697254E1,1.9840343E2,1.1912712E1,6.0651978E1,1.3878946E2,8.169174E1,2.2117031E3,8.2806445E2,1.5262369E3,1.5105026E2,1.7824757E2,7.8177466E2,6.1728878E1,4.530883E1,5.307589E2,1.1653257E3,3.172545E2,1.2492147E4,2.1577454E3,1.1398545E3,8.505685E1,1.7441898E3,6.535167E2,1.426559E2,2.5916645E1,1.4759346E2,1.4287524E2,1.7409103E2,1.8527931E1],"tree_param":{"num_deleted":"0","num_feature":"10","num_nodes":"63","size_leaf_vector":"1"}},{"base_weights":[6.276815E-3,-1.2817473E0,1.9339299E-1,-4.1122317E-2,-9.381977E-1,-4.2286023E-1,3.4355718E-1,-4.2380697E-1,-3.8224183E-2,2.4338372E-1,-5.035136E-1,4.0787122E-1,-4.152552E-2,-7.029087E-1,-1.5582357E-1,-1.2127495E-5,4.884494E-1,-6.5767795E-1,-3.628894E-1,4.795655E-1,1.688E-1,-1.3840012E-1,4.070228E-1,-2.9265934E-3,-3.722864E-2,7.743946E-3,-2.9285599E-2,-1.1055962E-2,9.621242E-3,-2.0983089E-2,1.7848749E-2,-2.2962451E-2,-1.174312E-2,-3.6316376E-2,-1.0201088E-2,2.4494817E-2,1.383403E-2,-1.4447006E-2,1.645387E-2,-3.401224E-4,-1.1638428E-2,1.9703202E-2,1.9666436E-3],"categories":[],"categories_nodes":[],"categories_segments":[],"categories_sizes":[],"default_left":[0,0,0,0,0,0,0,0,0,0,0,0,0,0,0,0,0,0,0,0,0,0,0,0,0,0,0,0,0,0,0,0,0,0,0,0,0,0,0,0,0,0,0],"id":23,"left_children":[1,3,5,-1,7,9,11,13,-1,15,17,19,21,23,25,27,29,31,33,35,37,39,41,-1,-1,-1,-1,-1,-1,-1,-1,-1,-1,-1,-1,-1,-1,-1,-1,-1,-1,-1,-1],"loss_changes":[6.6279424E3,4.3816406E1,2.2222224E3,0E0,5.099533E1,2.5295422E2,4.782058E2,9.3381195E0,0E0,3.034652E1,9.075818E1,2.835005E2,1.2016583E2,1.8323689E1,2.1058838E1,2.816724E1,2.5181293E1,4.4151062E1,6.238333E1,1.3892139E2,8.6727106E2,6.812189E1,3.7991524E1,0E0,0E0,0E0,0E0,0E0,0E0,0E0,0E0,0E0,0E0,0E0,0E0,0E0,0E0,0E0,0E0,0E0,0E0,0E0,0E0],"parents":[2147483647,0,0,1,1,2,2,4,4,5,5,6,6,7,7,9,9,10,10,11,11,12,12,13,13,14,14,15,15,16,16,17,17,18,18,19,19,20,20,21,21,22,22],"right_children":[2,4,6,-1,8,10,12,14,-1,16,18,20,22,24,26,28,30,32,34,36,38,40,42,-1,-1,-1,-1,-1,-1,-1,-1,-1,-1,-1,-1,-1,-1,-1,-1,-1,-1,-1,-1],"split_conditions":[1E0,1.54E2,2.9E1,-4.1122317E-2,1.58E2,1.51E2,5.9E1,3.7E1,-3.8224183E-2,1.24E2,1E0,1.25E2,2E0,3E1,1.28805E3,1.71425E3,2.2E1,1.54E2,2.1E1,3.6E1,1.53E2,6.9E1,2.8E1,-2.9265934E-3,-3.722864E-2,7.743946E-3,-2.9285599E-2,-1.1055962E-2,9.621242E-3,-2.0983089E-2,1.7848749E-2,-2.2962451E-2,-1.174312E-2,-3.6316376E-2,-1.0201088E-2,2.4494817E-2,1.383403E-2,-1.4447006E-2,1.645387E-2,-3.401224E-4,-1.1638428E-2,1.9703202E-2,1.9666436E-3],"split_indices":[6,8,1,0,8,8,1,1,0,8,0,8,5,1,7,7,1,8,1,1,8,1,8,0,0,0,0,0,0,0,0,0,0,0,0,0,0,0,0,0,0,0,0],"split_type":[0,0,0,0,0,0,0,0,0,0,0,0,0,0,0,0,0,0,0,0,0,0,0,0,0,0,0,0,0,0,0,0,0,0,0,0,0,0,0,0,0,0,0],"sum_hessian":[2.7498648E4,3.4873613E3,2.4011287E4,3.1408218E3,3.4653952E2,4.704177E3,1.930711E4,1.2531455E2,2.2122496E2,5.0776025E2,4.1964165E3,1.6543982E4,2.7631282E3,6.0588917E1,6.472564E1,2.5524971E2,2.5251054E2,2.0000789E3,2.1963374E3,1.2726476E4,3.8175066E3,2.2729272E3,4.902009E2,2.759186E1,3.2997055E1,4.3150734E1,2.1574903E1,1.18704704E2,1.36545E2,1.6592587E1,2.3591795E2,1.5596583E3,4.4042053E2,9.198308E1,2.1043542E3,1.3270122E3,1.1399463E4,1.3826298E3,2.4348767E3,1.4742109E3,7.987163E2,2.9576532E2,1.9443556E2],"tree_param":{"num_deleted":"0","num_feature":"10","num_nodes":"43","size_leaf_vector":"1"}},{"base_weights":[2.5301485E-3,-1.2540567E0,1.8350011E-1,-1.2945616E0,-8.943245E-1,2.9400247E-1,-4.1539036E-2,-1.2584867E0,-4.2494394E-2,-2.7296296E-1,-3.876202E-2,-1.1520992E-1,4.0295982E-1,-1.3625892E-2,-1.2642336E0,-2.645142E-2,-4.185801E-2,6.9422525E-1,-2.9736805E-1,2.618673E-1,4.3656018E-1,-3.799989E-2,-4.1439477E-2,6.8423697E-3,-1.5024075E-2,-3.6500175E-2,2.3669783E-2,-9.84059E-3,2.353009E-2,6.1678225E-3,1.5964065E-2,1.4539523E-2,7.249207E-3],"categories":[],"categories_nodes":[],"categories_segments":[],"categories_sizes":[],"default_left":[0,0,0,0,0,0,0,0,0,0,0,0,0,0,0,0,0,0,0,0,0,0,0,0,0,0,0,0,0,0,0,0,0],"id":24,"left_children":[1,3,5,7,9,11,-1,13,-1,15,-1,17,19,-1,21,23,-1,25,27,29,31,-1,-1,-1,-1,-1,-1,-1,-1,-1,-1,-1,-1],"loss_changes":[6.2043457E3,4.8887207E1,3.9961172E3,5.940918E0,7.580231E1,9.911852E2,0E0,9.060547E0,0E0,3.360121E1,0E0,6.895192E2,8.311133E1,0E0,4.3286133E0,1.183487E1,0E0,1.053407E2,7.39458E1,5.4017532E1,8.640698E1,0E0,0E0,0E0,0E0,0E0,0E0,0E0,0E0,0E0,0E0,0E0,0E0],"parents":[2147483647,0,0,1,1,2,2,3,3,4,4,5,5,7,7,9,9,11,11,12,12,14,14,15,15,17,17,18,18,19,19,20,20],"right_children":[2,4,6,8,10,12,-1,14,-1,16,-1,18,20,-1,22,24,-1,26,28,30,32,-1,-1,-1,-1,-1,-1,-1,-1,-1,-1,-1,-1],"split_conditions":[1E0,1.54E2,1E0,2.01E2,1.58E2,1E0,-4.1539036E-2,2E0,-4.2494394E-2,1E0,-3.876202E-2,1.51E2,1.8E1,-1.3625892E-2,1E0,1.18385E3,-4.185801E-2,9E0,1.63E2,1.54E2,4.3E1,-3.799989E-2,-4.1439477E-2,6.8423697E-3,-1.5024075E-2,-3.6500175E-2,2.3669783E-2,-9.84059E-3,2.353009E-2,6.1678225E-3,1.5964065E-2,1.4539523E-2,7.249207E-3],"split_indices":[6,8,4,9,8,5,0,8,0,4,0,8,3,0,4,7,0,8,8,8,3,0,0,0,0,0,0,0,0,0,0,0,0],"split_type":[0,0,0,0,0,0,0,0,0,0,0,0,0,0,0,0,0,0,0,0,0,0,0,0,0,0,0,0,0,0,0,0,0],"sum_hessian":[2.7281293E4,3.4336182E3,2.3847676E4,3.083793E3,3.4982532E2,2.2228459E4,1.6192166E3,2.0356952E3,1.0480977E3,1.2652634E2,2.2329898E2,4.6740435E3,1.7554414E4,1.4680429E1,2.0210148E3,1.0366731E2,2.2859026E1,8.5811694E2,3.8159268E3,3.3780994E3,1.4176315E4,1.2072491E3,8.137656E2,6.765586E1,3.6011444E1,2.8401014E1,8.2971594E2,3.7512087E3,6.471787E1,2.6918289E3,6.862707E2,1.2361983E4,1.8143324E3],"tree_param":{"num_deleted":"0","num_feature":"10","num_nodes":"33","size_leaf_vector":"1"}},{"base_weights":[-7.4162264E-3,-1.2260764E0,1.6720584E-1,-1.2655101E0,-8.767463E-1,-3.946151E-1,3.0568588E-1,-2.0882284E-2,-3.95588E-2,-3.0022323E-1,-1.1980362E0,1.9910312E-1,-4.6739015E-1,3.690923E-1,-6.784972E-2,-3.4372866E-2,-9.5698357E-1,-4.0854014E-2,-8.780842E-1,-5.3826045E-2,4.0765125E-1,-4.8229063E-1,6.146092E-1,4.332076E-1,1.5911037E-1,-1.6109456E-1,3.6275584E-1,-1.3662626E-2,9.723345E-3,-4.6929333E-2,-1.2161538E-2,1.1342465E-2,-3.713041E-2,-2.9220922E-2,5.338679E-3,-1.6353209E-2,1.4961019E-2,-1.3378812E-2,-2.4954418E-2,9.6801305E-3,3.0595459E-2,2.2257121E-2,1.24851465E-2,-1.5466211E-2,1.6264511E-2,-1.3572957E-3,-1.3552983E-2,1.8928863E-2,-1.1751951E-3],"categories":[],"categories_nodes":[],"categories_segments":[],"categories_sizes":[],"default_left":[0,0,0,0,0,0,0,0,0,0,0,0,0,0,0,0,0,0,0,0,0,0,0,0,0,0,0,0,0,0,0,0,0,0,0,0,0,0,0,0,0,0,0,0,0,0,0,0,0],"id":25,"left_children":[1,3,5,7,9,11,13,-1,-1,15,17,19,21,23,25,27,29,-1,31,33,35,37,39,41,43,45,47,-1,-1,-1,-1,-1,-1,-1,-1,-1,-1,-1,-1,-1,-1,-1,-1,-1,-1,-1,-1,-1,-1],"loss_changes":[5.747458E3,4.551953E1,1.8380271E3,5.7910156E0,6.3842255E1,2.019502E2,4.4890466E2,0E0,0E0,2.1856651E1,6.8623657E0,2.6966413E1,6.739667E1,2.1806348E2,1.1052012E2,1.2767789E1,1.0635345E1,0E0,2.4128765E1,4.625689E1,1.9144215E1,6.900043E1,6.0526104E0,1.1351001E2,9.0147E2,7.276758E1,4.80091E1,0E0,0E0,0E0,0E0,0E0,0E0,0E0,0E0,0E0,0E0,0E0,0E0,0E0,0E0,0E0,0E0,0E0,0E0,0E0,0E0,0E0,0E0],"parents":[2147483647,0,0,1,1,2,2,3,3,4,4,5,5,6,6,9,9,10,10,11,11,12,12,13,13,14,14,15,15,16,16,18,18,19,19,20,20,21,21,22,22,23,23,24,24,25,25,26,26],"right_children":[2,4,6,8,10,12,14,-1,-1,16,18,20,22,24,26,28,30,-1,32,34,36,38,40,42,44,46,48,-1,-1,-1,-1,-1,-1,-1,-1,-1,-1,-1,-1,-1,-1,-1,-1,-1,-1,-1,-1,-1,-1],"split_conditions":[1E0,1.54E2,2.9E1,2E0,1.58E2,1.37E2,5.9E1,-2.0882284E-2,-3.95588E-2,1.3541E3,2.3E2,3.2E1,1.63E2,1.25E2,2E0,3.7E1,1.76685E3,-4.0854014E-2,2.4E2,1.34425E3,2.2E1,1.58E2,1.95E2,3.6E1,1.54E2,7E1,2.8E1,-1.3662626E-2,9.723345E-3,-4.6929333E-2,-1.2161538E-2,1.1342465E-2,-3.713041E-2,-2.9220922E-2,5.338679E-3,-1.6353209E-2,1.4961019E-2,-1.3378812E-2,-2.4954418E-2,9.6801305E-3,3.0595459E-2,2.2257121E-2,1.24851465E-2,-1.5466211E-2,1.6264511E-2,-1.3572957E-3,-1.3552983E-2,1.8928863E-2,-1.1751951E-3],"split_indices":[6,8,1,8,8,8,1,0,0,7,9,8,8,8,5,1,7,0,9,7,1,8,9,1,8,1,8,0,0,0,0,0,0,0,0,0,0,0,0,0,0,0,0,0,0,0,0,0,0],"split_type":[0,0,0,0,0,0,0,0,0,0,0,0,0,0,0,0,0,0,0,0,0,0,0,0,0,0,0,0,0,0,0,0,0,0,0,0,0,0,0,0,0,0,0,0,0,0,0,0,0],"sum_hessian":[2.7006143E4,3.383964E3,2.3622178E4,3.0383596E3,3.4560446E2,4.670768E3,1.895141E4,1.9728302E1,3.0186313E3,1.24369705E2,2.2123476E2,5.09816E2,4.160952E3,1.6201305E4,2.7501052E3,8.928167E1,3.5088036E1,1.6131694E2,5.9917816E1,2.3072835E2,2.7908768E2,4.104976E3,5.597641E1,1.241077E4,3.790535E3,2.2611038E3,4.890015E2,4.10888E1,4.819287E1,1.698756E1,1.8100477E1,1.2033763E1,4.7884052E1,4.620052E1,1.8452783E2,1.9647568E1,2.594401E2,3.5205793E3,5.8439655E2,3.1623848E1,2.4352562E1,1.2899865E3,1.1120783E4,1.3503855E3,2.4401494E3,1.5826335E3,6.784703E2,3.0328217E2,1.8571931E2],"tree_param":{"num_deleted":"0","num_feature":"10","num_nodes":"49","size_leaf_vector":"1"}},{"base_weights":[-1.5488449E-3,1.5687507E-1,-4.105132E-2,-4.1780305E-1,2.8767672E-1,1.8101752E-1,-4.876696E-1,3.4772724E-1,-8.412331E-2,-9.4611704E-2,4.5316342E-1,-6.306463E-1,-3.93485E-1,4.220238E-1,1.2255639E-1,-1.6391559E-1,2.944368E-1,-2.1166604E-2,2.8785712E-3,3.7605055E-2,1.1104944E-2,-1.7577112E-2,-3.0154426E-2,-9.77336E-3,-2.3943419E-2,2.1814266E-2,1.2108358E-2,-1.4340155E-2,1.5567003E-2,-6.5176636E-3,1.31956E-2,1.589766E-2,-1.2377598E-3],"categories":[],"categories_nodes":[],"categories_segments":[],"categories_sizes":[],"default_left":[0,0,0,0,0,0,0,0,0,0,0,0,0,0,0,0,0,0,0,0,0,0,0,0,0,0,0,0,0,0,0,0,0],"id":26,"left_children":[1,3,-1,5,7,9,11,13,15,17,19,21,23,25,27,29,31,-1,-1,-1,-1,-1,-1,-1,-1,-1,-1,-1,-1,-1,-1,-1,-1],"loss_changes":[5.6211157E3,1.8096268E3,0E0,1.8683661E2,4.378557E2,3.5081135E1,5.358362E1,2.823954E2,8.2439835E1,2.5513165E1,1.6736443E1,3.5089172E1,7.201099E1,1.1805176E2,9.203164E2,5.9896313E1,3.4256844E1,0E0,0E0,0E0,0E0,0E0,0E0,0E0,0E0,0E0,0E0,0E0,0E0,0E0,0E0,0E0,0E0],"parents":[2147483647,0,0,1,1,3,3,4,4,5,5,6,6,7,7,8,8,9,9,10,10,11,11,12,12,13,13,14,14,15,15,16,16],"right_children":[2,4,-1,6,8,10,12,14,16,18,20,22,24,26,28,30,32,-1,-1,-1,-1,-1,-1,-1,-1,-1,-1,-1,-1,-1,-1,-1,-1],"split_conditions":[1E0,2.8E1,-4.105132E-2,1.51E2,5.9E1,1.24E2,2.8E1,1.25E2,2E0,1.36355E3,8E0,1.58E2,4.6E1,3.6E1,1.54E2,1.55E2,2.8E1,-2.1166604E-2,2.8785712E-3,3.7605055E-2,1.1104944E-2,-1.7577112E-2,-3.0154426E-2,-9.77336E-3,-2.3943419E-2,2.1814266E-2,1.2108358E-2,-1.4340155E-2,1.5567003E-2,-6.5176636E-3,1.31956E-2,1.589766E-2,-1.2377598E-3],"split_indices":[4,1,0,8,1,8,3,8,5,7,3,8,3,1,8,8,8,0,0,0,0,0,0,0,0,0,0,0,0,0,0,0,0],"split_type":[0,0,0,0,0,0,0,0,0,0,0,0,0,0,0,0,0,0,0,0,0,0,0,0,0,0,0,0,0,0,0,0,0],"sum_hessian":[2.6969557E4,2.4071562E4,2.8979922E3,4.4626553E3,1.9608908E4,4.6610605E2,3.996549E3,1.6882268E4,2.7266401E3,2.3189513E2,2.342109E2,1.5848997E3,2.4116494E3,1.2693194E4,4.189074E3,2.2524412E3,4.7419885E2,5.5563377E1,1.7633176E2,2.5382643E1,2.0882826E2,1.3251034E3,2.597963E2,1.9891947E3,4.2245468E2,1.3653038E3,1.132789E4,1.6453165E3,2.5437578E3,2.0920913E3,1.6035004E2,2.8790082E2,1.8629805E2],"tree_param":{"num_deleted":"0","num_feature":"10","num_nodes":"33","size_leaf_vector":"1"}},{"base_weights":[-1.0720766E-2,-1.2129803E0,1.5705343E-1,-1.1901212E0,-4.0686794E-2,-4.1275573E-1,2.8428474E-1,-3.8666725E-2,-1.092745E0,-5.4448557E-1,-2.9526675E-1,3.3270836E-1,-1.6736569E-1,-1.0497319E0,-4.2474907E-2,-7.681133E-1,-4.768369E-1,-9.595008E-1,-2.6421678E-1,2.613434E-2,3.698381E-1,-3.7775042E-3,-3.295736E-1,-3.4030564E-2,-2.4374835E-2,-8.462816E-3,-2.8071469E-2,-1.6305814E-2,3.0864018E-4,-1.8621003E-2,-4.228302E-2,-1.344743E-2,-5.3083496E-3,6.3188225E-3,-1.017498E-2,1.3143465E-2,6.202819E-3,-2.8849088E-3,1.1704221E-2,-8.754971E-3,-2.559362E-2],"categories":[],"categories_nodes":[],"categories_segments":[],"categories_sizes":[],"default_left":[0,0,0,0,0,0,0,0,0,0,0,0,0,0,0,0,0,0,0,0,0,0,0,0,0,0,0,0,0,0,0,0,0,0,0,0,0,0,0,0,0],"id":27,"left_children":[1,3,5,7,-1,9,11,-1,13,15,17,19,21,23,-1,25,27,29,31,33,35,37,39,-1,-1,-1,-1,-1,-1,-1,-1,-1,-1,-1,-1,-1,-1,-1,-1,-1,-1],"loss_changes":[5.4017485E3,5.3725586E0,1.703854E3,1.1612061E1,0E0,6.623462E1,4.2022424E2,0E0,9.129761E0,3.0211243E1,4.6558777E1,1.9750415E2,4.938046E1,8.031677E0,0E0,3.0539124E1,3.504251E1,1.370813E1,3.3999084E1,1.1684515E2,1.3700146E2,3.1268696E1,2.2131226E1,0E0,0E0,0E0,0E0,0E0,0E0,0E0,0E0,0E0,0E0,0E0,0E0,0E0,0E0,0E0,0E0,0E0,0E0],"parents":[2147483647,0,0,1,1,2,2,3,3,5,5,6,6,8,8,9,9,10,10,11,11,12,12,13,13,15,15,16,16,17,17,18,18,19,19,20,20,21,21,22,22],"right_children":[2,4,6,8,-1,10,12,-1,14,16,18,20,22,24,-1,26,28,30,32,34,36,38,40,-1,-1,-1,-1,-1,-1,-1,-1,-1,-1,-1,-1,-1,-1,-1,-1,-1,-1],"split_conditions":[1E0,4.7E1,2.8E1,1E0,-4.0686794E-2,1E0,6.3E1,-3.8666725E-2,2.6E2,1.4E1,2.1E1,1E0,6.9E1,2.26E2,-4.2474907E-2,5E0,2.7E1,1.46E2,2.7E1,3.5E1,5.1E1,2E0,4.2E1,-3.4030564E-2,-2.4374835E-2,-8.462816E-3,-2.8071469E-2,-1.6305814E-2,3.0864018E-4,-1.8621003E-2,-4.228302E-2,-1.344743E-2,-5.3083496E-3,6.3188225E-3,-1.017498E-2,1.3143465E-2,6.202819E-3,-2.8849088E-3,1.1704221E-2,-8.754971E-3,-2.559362E-2],"split_indices":[6,1,1,5,0,0,1,0,9,3,1,5,1,9,0,3,1,9,3,1,1,5,3,0,0,0,0,0,0,0,0,0,0,0,0,0,0,0,0,0,0],"split_type":[0,0,0,0,0,0,0,0,0,0,0,0,0,0,0,0,0,0,0,0,0,0,0,0,0,0,0,0,0,0,0,0,0,0,0,0,0,0,0,0,0],"sum_hessian":[2.6778082E4,3.2784785E3,2.3499604E4,2.6393286E3,6.3914984E2,4.28899E3,1.9210613E4,1.7309994E3,9.083292E2,2.0202412E3,2.2687493E3,1.735063E4,1.8599812E3,7.8772345E2,1.20605736E2,4.667944E2,1.5534468E3,9.998232E1,2.1687668E3,1.8745433E3,1.5476088E4,9.265601E2,9.334211E2,6.7805615E2,1.0966732E2,9.896596E1,3.6782843E2,1.4184233E3,1.3502342E2,5.36062E1,4.6376118E1,7.786387E2,1.3901283E3,1.2492614E3,6.25282E2,1.1871528E4,3.6045598E3,7.51429E2,1.7513112E2,8.5073395E2,8.2687164E1],"tree_param":{"num_deleted":"0","num_feature":"10","num_nodes":"41","size_leaf_vector":"1"}},{"base_weights":[6.4894976E-3,-1.1941116E0,1.708025E-1,-1.2313875E0,-8.6498773E-1,-3.6712888E-1,2.90021E-1,-1.9518096E-2,-3.8500335E-2,-1.0992752E0,-8.607564E-2,3.0377644E-1,-4.518225E-1,3.3707473E-1,-1.4863977E-1,-1.0378762E-2,-1.1538445E0,2.8981075E-1,-3.5294008E-2,4.5365997E-2,5.13293E-1,-4.6692E-1,2.0840494E-2,3.9969718E-1,1.3911463E-1,-2.2594859E-1,2.1500438E-1,-3.7530072E-2,-1.1575949E-2,2.1215657E-2,-3.1097092E-2,-1.7755112E-2,7.7026933E-3,-9.65278E-3,1.8309211E-2,-2.327838E-2,-1.2914046E-2,1.468618E-2,7.405115E-3,-1.3740357E-2,1.5264312E-2,-4.887069E-3,-1.6867783E-2,1.3721223E-2,-3.3316908E-3],"categories":[],"categories_nodes":[],"categories_segments":[],"categories_sizes":[],"default_left":[0,0,0,0,0,0,0,0,0,0,0,0,0,0,0,0,0,0,0,0,0,0,0,0,0,0,0,0,0,0,0,0,0,0,0,0,0,0,0,0,0,0,0,0,0],"id":28,"left_children":[1,3,5,7,9,11,13,-1,-1,15,17,19,21,23,25,-1,27,29,-1,31,33,35,-1,37,39,41,43,-1,-1,-1,-1,-1,-1,-1,-1,-1,-1,-1,-1,-1,-1,-1,-1,-1,-1],"loss_changes":[5.277561E3,3.84458E1,1.509234E3,5.930664E0,6.0310257E1,2.4273755E2,3.9765637E2,0E0,0E0,1.0252899E1,3.0856546E1,2.5919071E1,6.4447205E1,2.1561646E2,5.253058E1,0E0,8.872986E0,2.9818592E1,0E0,2.689904E1,1.6319138E1,5.4775818E1,0E0,1.5304639E2,8.5067346E2,3.3486824E1,2.3812222E1,0E0,0E0,0E0,0E0,0E0,0E0,0E0,0E0,0E0,0E0,0E0,0E0,0E0,0E0,0E0,0E0,0E0,0E0],"parents":[2147483647,0,0,1,1,2,2,3,3,4,4,5,5,6,6,9,9,10,10,11,11,12,12,13,13,14,14,16,16,17,17,19,19,20,20,21,21,23,23,24,24,25,25,26,26],"right_children":[2,4,6,8,10,12,14,-1,-1,16,18,20,22,24,26,-1,28,30,-1,32,34,36,-1,38,40,42,44,-1,-1,-1,-1,-1,-1,-1,-1,-1,-1,-1,-1,-1,-1,-1,-1,-1,-1],"split_conditions":[1E0,1.54E2,2.8E1,2E0,3.7E1,1.51E2,6.3E1,-1.9518096E-2,-3.8500335E-2,1.55E2,4.9E1,1.08E2,1.63E2,1.25E2,2E0,-1.0378762E-2,4.7E1,3E1,-3.5294008E-2,1.40375E3,2.2E1,9E0,2.0840494E-2,4.9E1,1.54E2,7.5E1,2.8E1,-3.7530072E-2,-1.1575949E-2,2.1215657E-2,-3.1097092E-2,-1.7755112E-2,7.7026933E-3,-9.65278E-3,1.8309211E-2,-2.327838E-2,-1.2914046E-2,1.468618E-2,7.405115E-3,-1.3740357E-2,1.5264312E-2,-4.887069E-3,-1.6867783E-2,1.3721223E-2,-3.3316908E-3],"split_indices":[6,8,1,8,1,8,1,0,0,8,1,8,8,8,5,0,3,3,0,7,1,3,0,1,8,1,8,0,0,0,0,0,0,0,0,0,0,0,0,0,0,0,0,0,0],"split_type":[0,0,0,0,0,0,0,0,0,0,0,0,0,0,0,0,0,0,0,0,0,0,0,0,0,0,0,0,0,0,0,0,0,0,0,0,0,0,0,0,0,0,0,0,0],"sum_hessian":[2.6750355E4,3.2195444E3,2.353081E4,2.8895396E3,3.300049E2,4.2685244E3,1.9262287E4,1.9217384E1,2.870322E3,2.5337994E2,7.662498E1,4.7816058E2,3.7903638E3,1.7396457E4,1.8658298E3,1.731636E1,2.3606358E2,5.690441E1,1.972057E1,2.1464342E2,2.6351718E2,3.7405454E3,4.981842E1,1.3215017E4,4.1814404E3,1.5390209E3,3.2680902E2,2.2131279E2,1.4750791E1,4.401407E1,1.2890342E1,5.2571667E1,1.6207175E2,2.151166E1,2.4200552E2,5.8954285E2,3.1510024E3,9.169737E3,4.045279E3,1.575371E3,2.6060693E3,1.2633597E3,2.7566104E2,1.9206256E2,1.3474644E2],"tree_param":{"num_deleted":"0","num_feature":"10","num_nodes":"45","size_leaf_vector":"1"}},{"base_weights":[5.5054296E-3,1.546005E-1,-4.0035635E-2,-1.1427169E0,2.688008E-1,-1.1921594E0,-7.501308E-1,-1.6201393E-1,3.611878E-1,-1.5332909E-2,-1.1985E0,-1.5857655E-1,-3.795538E-2,2.6419988E-1,-2.2058578E-1,4.186014E-1,1.6652243E-2,-3.6622804E-2,-4.229321E-2,2.075058E-3,-1.7599128E-2,2.6795934E-3,1.4796996E-2,-1.3178935E-2,-2.9869613E-3,1.4606759E-2,7.5707966E-3,2.3202624E-3,-1.3792362E-2],"categories":[],"categories_nodes":[],"categories_segments":[],"categories_sizes":[],"default_left":[0,0,0,0,0,0,0,0,0,0,0,0,0,0,0,0,0,0,0,0,0,0,0,0,0,0,0,0,0],"id":29,"left_children":[1,3,-1,5,7,9,11,13,15,-1,17,19,-1,21,23,25,27,-1,-1,-1,-1,-1,-1,-1,-1,-1,-1,-1,-1],"loss_changes":[5.140788E3,3.5500337E3,0E0,3.6736084E1,8.7657214E2,7.0478516E0,6.0536034E1,9.715228E1,3.5869556E2,0E0,4.753662E0,9.004236E0,0E0,1.7609173E1,8.624579E1,1.3652808E2,6.87897E1,0E0,0E0,0E0,0E0,0E0,0E0,0E0,0E0,0E0,0E0,0E0,0E0],"parents":[2147483647,0,0,1,1,3,3,4,4,5,5,6,6,7,7,8,8,10,10,11,11,13,13,14,14,15,15,16,16],"right_children":[2,4,-1,6,8,10,12,14,16,-1,18,20,-1,22,24,26,28,-1,-1,-1,-1,-1,-1,-1,-1,-1,-1,-1,-1],"split_conditions":[1E0,1E0,-4.0035635E-2,1.54E2,2.9E1,2E0,1.58E2,1.25E2,5.9E1,-1.5332909E-2,5.5E1,1.28805E3,-3.795538E-2,2.5E1,2.8E1,1.25E2,7.5E1,-3.6622804E-2,-4.229321E-2,2.075058E-3,-1.7599128E-2,2.6795934E-3,1.4796996E-2,-1.3178935E-2,-2.9869613E-3,1.4606759E-2,7.5707966E-3,2.3202624E-3,-1.3792362E-2],"split_indices":[4,6,0,8,1,8,8,8,1,0,1,7,0,1,3,8,1,0,0,0,0,0,0,0,0,0,0,0,0],"split_type":[0,0,0,0,0,0,0,0,0,0,0,0,0,0,0,0,0,0,0,0,0,0,0,0,0,0,0,0,0],"sum_hessian":[2.6726947E4,2.3958703E4,2.768245E3,1.937675E3,2.2021027E4,1.7191301E3,2.1854494E2,3.8883408E3,1.8132686E4,1.613235E1,1.7029977E3,9.707595E1,1.2146899E2,4.6936554E2,3.4189753E3,1.5542466E4,2.5902205E3,1.4901797E3,2.1281805E2,6.298719E1,3.4088757E1,2.5494841E2,2.1441714E2,1.3034935E3,2.1154817E3,1.2096334E4,3.4461323E3,2.3014038E3,2.8881677E2],"tree_param":{"num_deleted":"0","num_feature":"10","num_nodes":"29","size_leaf_vector":"1"}},{"base_weights":[3.981982E-3,1.502941E-1,-3.9711162E-2,-1.0956932E0,2.5977275E-1,-1.1635264E0,-5.801395E-1,-1.9957864E-1,3.49044E-1,-1.6575348E-2,-3.6455426E-2,3.160398E-2,-1.0900719E0,2.5210795E-1,-2.6091576E-1,4.0026426E-1,4.2144332E-2,5.3282334E-3,-2.981875E-2,-4.0298626E-2,-2.4052467E-2,2.218508E-3,1.6281754E-2,-6.2571242E-3,-1.7551318E-2,1.401748E-2,7.499249E-3,4.8904843E-3,-5.567471E-3],"categories":[],"categories_nodes":[],"categories_segments":[],"categories_sizes":[],"default_left":[0,0,0,0,0,0,0,0,0,0,0,0,0,0,0,0,0,0,0,0,0,0,0,0,0,0,0,0,0],"id":30,"left_children":[1,3,-1,5,7,9,11,13,15,-1,-1,17,19,21,23,25,27,-1,-1,-1,-1,-1,-1,-1,-1,-1,-1,-1,-1],"loss_changes":[4.962501E3,3.2484846E3,0E0,6.659131E1,8.976996E2,5.909668E0,7.0423805E1,9.876567E1,2.880935E2,0E0,0E0,1.4424101E1,6.9518433E0,2.081555E1,5.6923843E1,1.2393555E2,6.6469635E1,0E0,0E0,0E0,0E0,0E0,0E0,0E0,0E0,0E0,0E0,0E0,0E0],"parents":[2147483647,0,0,1,1,3,3,4,4,5,5,6,6,7,7,8,8,11,11,12,12,13,13,14,14,15,15,16,16],"right_children":[2,4,-1,6,8,10,12,14,16,-1,-1,18,20,22,24,26,28,-1,-1,-1,-1,-1,-1,-1,-1,-1,-1,-1,-1],"split_conditions":[1E0,1E0,-3.9711162E-2,1.54E2,2.8E1,2E0,1.58E2,1.51E2,5.9E1,-1.6575348E-2,-3.6455426E-2,4.9E1,2.4E1,2.5E1,1.58E2,1.25E2,6.9E1,5.3282334E-3,-2.981875E-2,-4.0298626E-2,-2.4052467E-2,2.218508E-3,1.6281754E-2,-6.2571242E-3,-1.7551318E-2,1.401748E-2,7.499249E-3,4.8904843E-3,-5.567471E-3],"split_indices":[4,6,0,8,1,8,8,8,1,0,0,1,1,1,8,8,1,0,0,0,0,0,0,0,0,0,0,0,0],"split_type":[0,0,0,0,0,0,0,0,0,0,0,0,0,0,0,0,0,0,0,0,0,0,0,0,0,0,0,0,0],"sum_hessian":[2.6536252E4,2.3811207E4,2.725044E3,1.9224626E3,2.1888744E4,1.697818E3,2.2464467E2,3.5615105E3,1.8327234E4,1.7043583E1,1.6807744E3,1.0255362E2,1.2209106E2,4.2544226E2,3.136068E3,1.5705713E4,2.6215217E3,9.060571E1,1.1947901E1,7.270824E1,4.9382824E1,2.5559558E2,1.6984668E2,2.6167375E3,5.193307E2,1.1989547E4,3.7161663E3,1.7250829E3,8.9643896E2],"tree_param":{"num_deleted":"0","num_feature":"10","num_nodes":"29","size_leaf_vector":"1"}},{"base_weights":[5.328724E-3,1.4736904E-1,-3.9403517E-2,-1.1016803E0,2.5386333E-1,-1.1546234E0,-6.8186224E-1,-1.9291358E-1,3.4066194E-1,-1.0889065E0,-3.996466E-2,-1.7874616E-1,-1.0703573E0,2.8083116E-1,-2.5903568E-1,3.949278E-1,5.9402385E-3,-2.9983701E-2,-3.7150305E-2,2.9627895E-3,-4.7189053E-2,-3.8112357E-2,-2.0449601E-2,3.1907383E-2,7.7297017E-3,-1.995891E-2,-6.734287E-3,1.3798851E-2,7.176479E-3,3.734388E-3,-6.664381E-3],"categories":[],"categories_nodes":[],"categories_segments":[],"categories_sizes":[],"default_left":[0,0,0,0,0,0,0,0,0,0,0,0,0,0,0,0,0,0,0,0,0,0,0,0,0,0,0,0,0,0,0],"id":31,"left_children":[1,3,-1,5,7,9,11,13,15,17,-1,19,21,23,25,27,29,-1,-1,-1,-1,-1,-1,-1,-1,-1,-1,-1,-1,-1,-1],"loss_changes":[4.785622E3,3.1751858E3,0E0,4.089502E1,8.5299E2,1.2553711E1,4.1335052E1,1.1216937E2,3.3451685E2,1.3297485E1,0E0,3.4426353E1,6.7546387E0,1.0449039E1,5.133127E1,1.24608154E2,6.434302E1,0E0,0E0,0E0,0E0,0E0,0E0,0E0,0E0,0E0,0E0,0E0,0E0,0E0,0E0],"parents":[2147483647,0,0,1,1,3,3,4,4,5,5,6,6,7,7,8,8,9,9,11,11,12,12,13,13,14,14,15,15,16,16],"right_children":[2,4,-1,6,8,10,12,14,16,18,-1,20,22,24,26,28,30,-1,-1,-1,-1,-1,-1,-1,-1,-1,-1,-1,-1,-1,-1],"split_conditions":[1E0,1E0,-3.9403517E-2,1.54E2,2.8E1,2.01E2,1.58E2,1.51E2,5.9E1,1.49795E3,-3.996466E-2,1.54395E3,2.3E2,1.7E1,4.2E1,1.51E2,6.9E1,-2.9983701E-2,-3.7150305E-2,2.9627895E-3,-4.7189053E-2,-3.8112357E-2,-2.0449601E-2,3.1907383E-2,7.7297017E-3,-1.995891E-2,-6.734287E-3,1.3798851E-2,7.176479E-3,3.734388E-3,-6.664381E-3],"split_indices":[4,6,0,8,1,9,8,8,1,7,0,7,9,9,9,8,1,0,0,0,0,0,0,0,0,0,0,0,0,0,0],"split_type":[0,0,0,0,0,0,0,0,0,0,0,0,0,0,0,0,0,0,0,0,0,0,0,0,0,0,0,0,0,0,0],"sum_hessian":[2.653701E4,2.386749E4,2.6695195E3,1.8743448E3,2.1993145E4,1.6628882E3,2.1145667E2,3.5775034E3,1.8415643E4,1.1038253E3,5.5906287E2,9.277264E1,1.1868403E2,4.3776978E2,3.1397336E3,1.5846405E4,2.5692363E3,4.9910626E2,6.0471906E2,7.775672E1,1.5015908E1,8.533592E1,3.3348106E1,1.725397E1,4.205158E2,3.166218E2,2.8231118E3,1.2281122E4,3.5652832E3,1.6926215E3,8.7661487E2],"tree_param":{"num_deleted":"0","num_feature":"10","num_nodes":"31","size_leaf_vector":"1"}},{"base_weights":[1.0767907E-3,-1.1406062E0,1.4765826E-1,-1.1757158E0,-8.268743E-1,-3.626873E-1,2.5937188E-1,-1.7374616E-2,-3.677126E-2,-1.0163519E0,-1.4908585E-1,1.4785923E-1,-4.4004714E-1,3.3311996E-1,5.023038E-2,-7.800378E-1,-3.7093762E-2,2.712979E-1,-3.441146E-2,-1.1854392E-1,2.963783E-1,-5.747967E-1,-3.196542E-1,4.1335186E-1,9.961778E-2,-6.250035E-1,8.6914346E-2,-1.3897733E-2,-2.9753158E-2,1.9493831E-2,-2.5678314E-2,-1.7401681E-3,-3.3925995E-2,1.351707E-2,-1.1736557E-3,-1.9527953E-2,-7.769218E-3,-8.0994675E-3,-1.958775E-2,-1.0608366E-3,1.3514753E-2,-1.4546471E-2,1.393085E-2,1.7444022E-2,-2.8282883E-2,8.9643075E-4,1.2502078E-2],"categories":[],"categories_nodes":[],"categories_segments":[],"categories_sizes":[],"default_left":[0,0,0,0,0,0,0,0,0,0,0,0,0,0,0,0,0,0,0,0,0,0,0,0,0,0,0,0,0,0,0,0,0,0,0,0,0,0,0,0,0,0,0,0,0,0,0],"id":32,"left_children":[1,3,5,7,9,11,13,-1,-1,15,17,19,21,23,25,27,-1,29,-1,31,33,35,37,39,41,43,45,-1,-1,-1,-1,-1,-1,-1,-1,-1,-1,-1,-1,-1,-1,-1,-1,-1,-1,-1,-1],"loss_changes":[4.4009272E3,3.1987305E1,1.3288043E3,6.0407715E0,3.895758E1,1.6538629E2,2.9489832E2,0E0,0E0,8.83606E0,2.7478964E1,2.1857224E1,5.879065E1,2.647854E2,1.2355596E2,5.6206894E0,0E0,1.9057991E1,0E0,1.1991085E1,1.6269602E1,2.8706543E1,3.532782E1,9.531152E1,7.1153723E2,8.650125E1,8.641037E1,0E0,0E0,0E0,0E0,0E0,0E0,0E0,0E0,0E0,0E0,0E0,0E0,0E0,0E0,0E0,0E0,0E0,0E0,0E0,0E0],"parents":[2147483647,0,0,1,1,2,2,3,3,4,4,5,5,6,6,9,9,10,10,11,11,12,12,13,13,14,14,15,15,17,17,19,19,20,20,21,21,22,22,23,23,24,24,25,25,26,26],"right_children":[2,4,6,8,10,12,14,-1,-1,16,18,20,22,24,26,28,-1,30,-1,32,34,36,38,40,42,44,46,-1,-1,-1,-1,-1,-1,-1,-1,-1,-1,-1,-1,-1,-1,-1,-1,-1,-1,-1,-1],"split_conditions":[1E0,1.54E2,2.8E1,2E0,3.7E1,1.52E2,5.2E1,-1.7374616E-2,-3.677126E-2,1.18385E3,1.28805E3,1.53615E3,1E0,1.51E2,2.4E1,1.58E2,-3.7093762E-2,4.8E1,-3.441146E-2,1.4895E3,2.1754E3,1E0,1.58E2,2.3E1,1.54E2,6E0,2E0,-1.3897733E-2,-2.9753158E-2,1.9493831E-2,-2.5678314E-2,-1.7401681E-3,-3.3925995E-2,1.351707E-2,-1.1736557E-3,-1.9527953E-2,-7.769218E-3,-8.0994675E-3,-1.958775E-2,-1.0608366E-3,1.3514753E-2,-1.4546471E-2,1.393085E-2,1.7444022E-2,-2.8282883E-2,8.9643075E-4,1.2502078E-2],"split_indices":[6,8,1,8,1,8,1,0,0,7,7,7,0,8,8,8,0,1,0,7,7,5,8,8,8,8,5,0,0,0,0,0,0,0,0,0,0,0,0,0,0,0,0,0,0,0,0],"split_type":[0,0,0,0,0,0,0,0,0,0,0,0,0,0,0,0,0,0,0,0,0,0,0,0,0,0,0,0,0,0,0,0,0,0,0,0,0,0,0,0,0,0,0,0,0,0,0],"sum_hessian":[2.6295803E4,2.991221E3,2.3304582E4,2.687694E3,3.0352686E2,4.1847915E3,1.9119791E4,1.8305489E1,2.6693887E3,2.3682285E2,6.6704E1,5.505371E2,3.6342542E3,1.4134906E4,4.9848853E3,1.0266796E2,1.3415488E2,4.6812363E1,1.989164E1,1.9713391E2,3.534032E2,1.7130981E3,1.921156E3,1.0519582E4,3.615324E3,2.560366E2,4.7288486E3,3.644703E1,6.622093E1,3.5697884E1,1.1114479E1,1.8615494E2,1.0978974E1,2.502478E2,1.0315538E2,1.4774199E3,2.3567827E2,1.6110247E3,3.1013144E2,4.5542807E2,1.0064154E4,1.3742637E3,2.24106E3,4.909714E1,2.0693945E2,3.9912114E3,7.37637E2],"tree_param":{"num_deleted":"0","num_feature":"10","num_nodes":"47","size_leaf_vector":"1"}},{"base_weights":[-3.8423748E-3,1.3208967E-1,-3.8791567E-2,-3.5128587E-1,2.3885773E-1,1.4018379E-1,-4.0859932E-1,2.816492E-1,-1.6114478E-1,-1.7855363E-1,3.7261343E-1,-5.370309E-1,-2.929987E-1,3.3410582E-1,1.1702786E-1,-2.2859666E-1,2.4281338E-1,-1.8195512E-2,7.033355E-3,-7.6175467E-3,1.6145801E-2,-1.8734263E-2,-9.362864E-3,-6.8229744E-3,-2.1581274E-2,1.2410819E-2,5.838941E-3,-1.3260889E-2,1.4167757E-2,-4.031297E-3,-1.3823087E-2,-1.9774719E-3,1.2179261E-2],"categories":[],"categories_nodes":[],"categories_segments":[],"categories_sizes":[],"default_left":[0,0,0,0,0,0,0,0,0,0,0,0,0,0,0,0,0,0,0,0,0,0,0,0,0,0,0,0,0,0,0,0,0],"id":33,"left_children":[1,3,-1,5,7,9,11,13,15,17,19,21,23,25,27,29,31,-1,-1,-1,-1,-1,-1,-1,-1,-1,-1,-1,-1,-1,-1,-1,-1],"loss_changes":[4.3948555E3,1.2121453E3,0E0,1.197525E2,3.293203E2,3.2999573E1,5.6346863E1,1.5003162E2,5.0728127E1,3.094752E1,2.3218243E1,2.7116882E1,5.9188385E1,1.2386084E2,7.693933E2,3.394557E1,1.2102806E1,0E0,0E0,0E0,0E0,0E0,0E0,0E0,0E0,0E0,0E0,0E0,0E0,0E0,0E0,0E0,0E0],"parents":[2147483647,0,0,1,1,3,3,4,4,5,5,6,6,7,7,8,8,9,9,10,10,11,11,12,12,13,13,14,14,15,15,16,16],"right_children":[2,4,-1,6,8,10,12,14,16,18,20,22,24,26,28,30,32,-1,-1,-1,-1,-1,-1,-1,-1,-1,-1,-1,-1,-1,-1,-1,-1],"split_conditions":[1E0,2.8E1,-3.8791567E-2,1.37E2,6.3E1,2.4E1,1E0,1.25E2,2.68605E3,2.8E1,1.24145E3,1.54E2,1.58E2,4.9E1,1.54E2,7.2E1,1E0,-1.8195512E-2,7.033355E-3,-7.6175467E-3,1.6145801E-2,-1.8734263E-2,-9.362864E-3,-6.8229744E-3,-2.1581274E-2,1.2410819E-2,5.838941E-3,-1.3260889E-2,1.4167757E-2,-4.031297E-3,-1.3823087E-2,-1.9774719E-3,1.2179261E-2],"split_indices":[4,1,0,8,1,1,0,8,7,8,7,8,8,1,8,1,0,0,0,0,0,0,0,0,0,0,0,0,0,0,0,0,0],"split_type":[0,0,0,0,0,0,0,0,0,0,0,0,0,0,0,0,0,0,0,0,0,0,0,0,0,0,0,0,0,0,0,0,0],"sum_hessian":[2.605647E4,2.3484436E4,2.5720354E3,4.248361E3,1.9236074E4,4.435364E2,3.8048242E3,1.7377375E4,1.8587003E3,1.8713907E2,2.5639737E2,1.8006584E3,2.0041659E3,1.3177371E4,4.2000034E3,1.5931195E3,2.655808E2,9.323068E1,9.390839E1,4.876743E1,2.0762993E2,1.4159943E3,3.8466415E2,1.6918505E3,3.1231537E2,9.171689E3,4.005682E3,1.6107931E3,2.5892102E3,1.0908573E3,5.0226224E2,8.668961E1,1.7889119E2],"tree_param":{"num_deleted":"0","num_feature":"10","num_nodes":"33","size_leaf_vector":"1"}},{"base_weights":[-3.4706453E-3,1.2939931E-1,-3.8451098E-2,-1.0732831E0,2.3096053E-1,-1.1540393E0,-4.73567E-1,-1.617037E-1,3.0769897E-1,-1.4530622E-2,-1.1607685E0,6.4303756E-2,-3.0328628E-2,2.540241E-1,-2.186366E-1,3.5684782E-1,7.0603644E-3,-3.537454E-2,-4.1586936E-2,7.9108095E-3,-1.2222677E-2,1.4527148E-3,1.3340685E-2,-2.202805E-2,-5.9603825E-3,1.2489305E-2,6.682634E-3,-1.8226531E-3,9.10741E-3],"categories":[],"categories_nodes":[],"categories_segments":[],"categories_sizes":[],"default_left":[0,0,0,0,0,0,0,0,0,0,0,0,0,0,0,0,0,0,0,0,0,0,0,0,0,0,0,0,0],"id":34,"left_children":[1,3,-1,5,7,9,11,13,15,-1,17,19,-1,21,23,25,27,-1,-1,-1,-1,-1,-1,-1,-1,-1,-1,-1,-1],"loss_changes":[4.2325195E3,2.8548325E3,0E0,8.759839E1,6.4944226E2,6.880371E0,5.8545776E1,8.3460754E1,2.6638574E2,0E0,5.598877E0,9.247027E0,0E0,1.5314711E1,4.133467E1,9.670349E1,4.7373737E1,0E0,0E0,0E0,0E0,0E0,0E0,0E0,0E0,0E0,0E0,0E0,0E0],"parents":[2147483647,0,0,1,1,3,3,4,4,5,5,6,6,7,7,8,8,10,10,11,11,13,13,14,14,15,15,16,16],"right_children":[2,4,-1,6,8,10,12,14,16,-1,18,20,-1,22,24,26,28,-1,-1,-1,-1,-1,-1,-1,-1,-1,-1,-1,-1],"split_conditions":[1E0,1E0,-3.8451098E-2,1.54E2,2.8E1,2E0,1.58E2,1.51E2,5.9E1,-1.4530622E-2,5.5E1,1.3541E3,-3.0328628E-2,2.4E1,2.1E1,1.25E2,2E0,-3.537454E-2,-4.1586936E-2,7.9108095E-3,-1.2222677E-2,1.4527148E-3,1.3340685E-2,-2.202805E-2,-5.9603825E-3,1.2489305E-2,6.682634E-3,-1.8226531E-3,9.10741E-3],"split_indices":[4,6,0,8,1,8,8,8,1,0,1,7,0,1,1,8,5,0,0,0,0,0,0,0,0,0,0,0,0],"split_type":[0,0,0,0,0,0,0,0,0,0,0,0,0,0,0,0,0,0,0,0,0,0,0,0,0,0,0,0,0],"sum_hessian":[2.58925E4,2.3369291E4,2.5232097E3,1.8190175E3,2.1550273E4,1.6023279E3,2.1668959E2,3.5228792E3,1.8027393E4,1.6204676E1,1.5861232E3,1.0475431E2,1.1193528E2,4.239206E2,3.0989587E3,1.5494191E4,2.5332024E3,1.3870988E3,1.9902443E2,7.433637E1,3.0417942E1,1.9396254E2,2.2995807E2,1.6344275E2,2.9355159E3,1.1845763E4,3.6484285E3,2.0604192E3,4.7278305E2],"tree_param":{"num_deleted":"0","num_feature":"10","num_nodes":"29","size_leaf_vector":"1"}},{"base_weights":[-3.844366E-4,-1.1187898E0,1.3717575E-1,-1.1497425E0,-8.4997183E-1,-3.1667095E-1,2.3656565E-1,-1.7508311E-2,-3.5964962E-2,-1.0720055E0,-1.4335796E-1,1.9849731E-1,-3.8012725E-1,2.8335142E-1,-4.222059E-2,-7.5258034E-1,-3.6340386E-2,1.815733E-1,-2.5841383E-2,4.929188E-2,4.214015E-1,-5.186042E-1,-2.565478E-1,3.4445152E-1,9.58246E-2,-1.2053423E-1,3.1828207E-1,1.0399797E-2,-3.267392E-2,1.5784597E-2,-2.739416E-2,-5.022514E-3,8.42303E-3,2.5309362E-3,1.895324E-2,-1.5527327E-2,-4.4302408E-2,-2.801627E-2,-7.007286E-3,9.832746E-3,2.0085828E-2,-1.23954145E-2,1.2676509E-2,-1.64462E-3,-1.569985E-2,1.6525261E-2,-2.6286874E-4],"categories":[],"categories_nodes":[],"categories_segments":[],"categories_sizes":[],"default_left":[0,0,0,0,0,0,0,0,0,0,0,0,0,0,0,0,0,0,0,0,0,0,0,0,0,0,0,0,0,0,0,0,0,0,0,0,0,0,0,0,0,0,0,0,0,0,0],"id":35,"left_children":[1,3,5,7,9,11,13,-1,-1,15,17,19,21,23,25,27,-1,29,-1,31,33,35,37,39,41,43,45,-1,-1,-1,-1,-1,-1,-1,-1,-1,-1,-1,-1,-1,-1,-1,-1,-1,-1,-1,-1],"loss_changes":[3.9695308E3,2.2536133E1,1.0364576E3,5.505371E0,4.622763E1,1.350242E2,2.4585913E2,0E0,0E0,5.866028E0,1.6156593E1,1.5057636E1,6.2768555E1,1.8489941E2,7.653322E1,1.7661581E1,0E0,1.7518515E1,0E0,1.272314E1,1.1487476E1,3.125177E1,3.942428E1,1.056355E2,6.0891815E2,5.779337E1,3.3500736E1,0E0,0E0,0E0,0E0,0E0,0E0,0E0,0E0,0E0,0E0,0E0,0E0,0E0,0E0,0E0,0E0,0E0,0E0,0E0,0E0],"parents":[2147483647,0,0,1,1,2,2,3,3,4,4,5,5,6,6,9,9,10,10,11,11,12,12,13,13,14,14,15,15,17,17,19,19,20,20,21,21,22,22,23,23,24,24,25,25,26,26],"right_children":[2,4,6,8,10,12,14,-1,-1,16,18,20,22,24,26,28,-1,30,-1,32,34,36,38,40,42,44,46,-1,-1,-1,-1,-1,-1,-1,-1,-1,-1,-1,-1,-1,-1,-1,-1,-1,-1,-1,-1],"split_conditions":[1E0,1.54E2,2.8E1,2E0,3.7E1,1.51E2,5.9E1,-1.7508311E-2,-3.5964962E-2,1.58E2,4.8E1,2.5E1,1E0,1.25E2,2E0,2.4E1,-3.6340386E-2,3E1,-2.5841383E-2,1.24E2,1E0,5E1,2.1E1,2E0,1.53E2,7.4E1,2.8E1,1.0399797E-2,-3.267392E-2,1.5784597E-2,-2.739416E-2,-5.022514E-3,8.42303E-3,2.5309362E-3,1.895324E-2,-1.5527327E-2,-4.4302408E-2,-2.801627E-2,-7.007286E-3,9.832746E-3,2.0085828E-2,-1.23954145E-2,1.2676509E-2,-1.64462E-3,-1.569985E-2,1.6525261E-2,-2.6286874E-4],"split_indices":[6,8,1,8,1,8,1,0,0,8,1,1,0,8,5,1,0,3,0,8,0,3,1,5,8,1,8,0,0,0,0,0,0,0,0,0,0,0,0,0,0,0,0,0,0,0,0],"split_type":[0,0,0,0,0,0,0,0,0,0,0,0,0,0,0,0,0,0,0,0,0,0,0,0,0,0,0,0,0,0,0,0,0,0,0,0,0,0,0,0,0,0,0,0,0,0,0],"sum_hessian":[2.5799633E4,2.824935E3,2.2974697E4,2.5303093E3,2.946258E2,4.127051E3,1.8847646E4,1.8621231E1,2.511688E3,2.2378922E2,7.08366E1,4.523699E2,3.674681E3,1.6139164E4,2.7084827E3,5.2895504E1,1.708937E2,4.8560993E1,2.2275608E1,2.7171387E2,1.8065604E2,1.7313828E3,1.9432981E3,1.2172332E4,3.9668328E3,2.2256584E3,4.8282425E2,1.129108E1,4.1604424E1,3.7573658E1,1.0987334E1,1.3930753E2,1.3240636E2,6.4517426E1,1.161386E2,1.6945753E3,3.6807575E1,9.0194916E1,1.8531033E3,1.11017E4,1.0706313E3,1.5329894E3,2.4338435E3,1.8921423E3,3.3351605E2,2.9249374E2,1.903305E2],"tree_param":{"num_deleted":"0","num_feature":"10","num_nodes":"47","size_leaf_vector":"1"}},{"base_weights":[1.631267E-3,1.2966494E-1,-3.83574E-2,-1.0313566E0,2.2348201E-1,-3.4265842E-2,-5.3574663E-1,-5.6568276E-2,2.9864517E-1,4.8121464E-2,-3.3601515E-2,5.8718127E-1,-1.9931519E-1,3.1164616E-1,-8.560148E-2,8.109298E-3,-1.5970977E-2,6.4443285E-3,2.578127E-2,-6.78962E-3,2.6592879E-2,4.786202E-3,1.0931462E-2,-8.779475E-3,4.289249E-3],"categories":[],"categories_nodes":[],"categories_segments":[],"categories_sizes":[],"default_left":[0,0,0,0,0,0,0,0,0,0,0,0,0,0,0,0,0,0,0,0,0,0,0,0,0],"id":36,"left_children":[1,3,-1,5,7,-1,9,11,13,15,-1,17,19,21,23,-1,-1,-1,-1,-1,-1,-1,-1,-1,-1],"loss_changes":[4.0512349E3,2.5339048E3,0E0,5.8032715E1,4.5305896E2,0E0,6.7118935E1,4.186956E2,8.479553E1,1.2370562E1,0E0,7.532428E1,7.286879E1,1.0132959E2,2.4378721E1,0E0,0E0,0E0,0E0,0E0,0E0,0E0,0E0,0E0,0E0],"parents":[2147483647,0,0,1,1,3,3,4,4,6,6,7,7,8,8,9,9,11,11,12,12,13,13,14,14],"right_children":[2,4,-1,6,8,-1,10,12,14,16,-1,18,20,22,24,-1,-1,-1,-1,-1,-1,-1,-1,-1,-1],"split_conditions":[1E0,1E0,-3.83574E-2,1.54E2,1E0,-3.4265842E-2,1.58E2,1.51E2,4.8E1,1.3541E3,-3.3601515E-2,3.2E1,1.63E2,1.8E1,1.21395E3,8.109298E-3,-1.5970977E-2,6.4443285E-3,2.578127E-2,-6.78962E-3,2.6592879E-2,4.786202E-3,1.0931462E-2,-8.779475E-3,4.289249E-3],"split_indices":[4,6,0,8,5,0,8,8,3,7,0,8,8,3,7,0,0,0,0,0,0,0,0,0,0],"split_type":[0,0,0,0,0,0,0,0,0,0,0,0,0,0,0,0,0,0,0,0,0,0,0,0,0],"sum_hessian":[2.567586E4,2.3260014E4,2.4158452E3,1.7382705E3,2.1521742E4,1.5274575E3,2.1081306E2,4.554052E3,1.6967691E4,1.0195494E2,1.0885813E2,8.2598254E2,3.728069E3,1.6412559E4,5.551316E2,7.4359726E1,2.759521E1,3.2021008E2,5.057725E2,3.6643877E3,6.368118E1,3.2534941E3,1.3159065E4,2.953938E2,2.5973782E2],"tree_param":{"num_deleted":"0","num_feature":"10","num_nodes":"25","size_leaf_vector":"1"}},{"base_weights":[2.1960452E-4,1.25169E-1,-3.8240228E-2,-3.0199945E-1,2.192722E-1,7.9988115E-2,-3.4699887E-1,2.6459956E-1,-4.9290795E-2,-1.2033523E-1,2.8980285E-1,-6.420303E-1,-2.940493E-1,3.1760532E-1,1.0468727E-1,2.1858504E-2,-3.0224591E-1,-1.431348E-2,4.6302145E-3,-5.0486326E-3,1.4628265E-2,-9.985331E-3,-2.9390475E-2,-7.487501E-3,-2.084103E-2,1.8475369E-2,8.850308E-3,-1.1764305E-2,1.2746323E-2,1.942238E-3,-1.0484182E-2,-1.0879917E-2,1.7036082E-2],"categories":[],"categories_nodes":[],"categories_segments":[],"categories_sizes":[],"default_left":[0,0,0,0,0,0,0,0,0,0,0,0,0,0,0,0,0,0,0,0,0,0,0,0,0,0,0,0,0,0,0,0,0],"id":37,"left_children":[1,3,-1,5,7,9,11,13,15,17,19,21,23,25,27,29,31,-1,-1,-1,-1,-1,-1,-1,-1,-1,-1,-1,-1,-1,-1,-1,-1],"loss_changes":[3.929522E3,9.3508075E2,0E0,7.221402E1,2.3205652E2,1.8670977E1,5.850415E1,1.3820898E2,4.956218E1,2.080176E1,1.7664131E1,5.4952682E1,6.4104126E1,1.1326404E2,5.959635E2,3.1177916E1,2.4214737E1,0E0,0E0,0E0,0E0,0E0,0E0,0E0,0E0,0E0,0E0,0E0,0E0,0E0,0E0,0E0,0E0],"parents":[2147483647,0,0,1,1,3,3,4,4,5,5,6,6,7,7,8,8,9,9,10,10,11,11,12,12,13,13,14,14,15,15,16,16],"right_children":[2,4,-1,6,8,10,12,14,16,18,20,22,24,26,28,30,32,-1,-1,-1,-1,-1,-1,-1,-1,-1,-1,-1,-1,-1,-1,-1,-1],"split_conditions":[1E0,2.8E1,-3.8240228E-2,1.51E2,5.9E1,1.24E2,9E0,1.25E2,7.2E1,2.4E1,1.15E2,7E0,4.6E1,3.6E1,1.54E2,4.2E1,1.55E2,-1.431348E-2,4.6302145E-3,-5.0486326E-3,1.4628265E-2,-9.985331E-3,-2.9390475E-2,-7.487501E-3,-2.084103E-2,1.8475369E-2,8.850308E-3,-1.1764305E-2,1.2746323E-2,1.942238E-3,-1.0484182E-2,-1.0879917E-2,1.7036082E-2],"split_indices":[4,1,0,8,1,8,3,8,1,1,9,3,3,1,8,3,8,0,0,0,0,0,0,0,0,0,0,0,0,0,0,0,0],"split_type":[0,0,0,0,0,0,0,0,0,0,0,0,0,0,0,0,0,0,0,0,0,0,0,0,0,0,0,0,0,0,0,0,0],"sum_hessian":[2.5626758E4,2.3259271E4,2.3674866E3,4.19851E3,1.9060762E4,4.4239175E2,3.7561182E3,1.6308304E4,2.752458E3,2.2653294E2,2.1585881E2,5.698466E2,3.1862715E3,1.2247624E4,4.0606797E3,2.1489353E3,6.0352264E2,9.990776E1,1.2662518E2,6.1410847E1,1.5444795E2,2.7642377E2,2.9342285E2,2.7874006E3,3.9887088E2,1.3331051E3,1.0914519E4,1.5710143E3,2.4896655E3,1.9316206E3,2.1731467E2,5.725323E2,3.0990347E1],"tree_param":{"num_deleted":"0","num_feature":"10","num_nodes":"33","size_leaf_vector":"1"}},{"base_weights":[8.9643215E-4,1.2017624E-1,-3.725509E-2,-1.0192411E0,2.1021776E-1,-9.7439504E-1,-3.5517972E-2,-5.7830807E-2,2.819947E-1,-1.0126122E0,-6.892125E-1,-2.2057602E-1,7.310417E-2,2.951266E-1,-1.2287957E-1,-3.63275E-2,-2.9567165E-2,-9.839922E-3,-2.8472396E-2,-3.7225608E-3,-1.2485548E-2,-3.9603575E-3,4.6191816E-3,4.956636E-3,1.0263584E-2,1.5760541E-2,-6.725692E-3],"categories":[],"categories_nodes":[],"categories_segments":[],"categories_sizes":[],"default_left":[0,0,0,0,0,0,0,0,0,0,0,0,0,0,0,0,0,0,0,0,0,0,0,0,0,0,0],"id":38,"left_children":[1,3,-1,5,7,9,-1,11,13,15,17,19,21,23,25,-1,-1,-1,-1,-1,-1,-1,-1,-1,-1,-1,-1],"loss_changes":[3.644174E3,2.3830007E3,0E0,8.06665E0,4.1415277E2,1.288269E1,0E0,9.691465E1,9.030884E1,9.625244E0,1.2309174E1,3.6867332E1,3.7908005E1,7.641504E1,3.1296824E1,0E0,0E0,0E0,0E0,0E0,0E0,0E0,0E0,0E0,0E0,0E0,0E0],"parents":[2147483647,0,0,1,1,3,3,4,4,5,5,7,7,8,8,9,9,10,10,11,11,12,12,13,13,14,14],"right_children":[2,4,-1,6,8,10,-1,12,14,16,18,20,22,24,26,-1,-1,-1,-1,-1,-1,-1,-1,-1,-1,-1,-1],"split_conditions":[1E0,1E0,-3.725509E-2,3.3E1,1E0,2.9E1,-3.5517972E-2,1E0,4.8E1,9.6E1,1.06E2,2.9E1,1.8E1,1.8E1,4.1E1,-3.63275E-2,-2.9567165E-2,-9.839922E-3,-2.8472396E-2,-3.7225608E-3,-1.2485548E-2,-3.9603575E-3,4.6191816E-3,4.956636E-3,1.0263584E-2,1.5760541E-2,-6.725692E-3],"split_indices":[4,6,0,3,5,3,0,0,3,9,9,3,3,3,9,0,0,0,0,0,0,0,0,0,0,0,0],"split_type":[0,0,0,0,0,0,0,0,0,0,0,0,0,0,0,0,0,0,0,0,0,0,0,0,0,0,0],"sum_hessian":[2.5539188E4,2.3224203E4,2.3149844E3,1.7001083E3,2.1524096E4,1.2450514E3,4.550569E2,4.546297E3,1.6977799E4,1.0956703E3,1.4938113E2,2.0266251E3,2.5196719E3,1.6444693E4,5.3310486E2,3.182183E2,7.77452E2,5.6947536E1,9.24336E1,1.2986011E3,7.2802405E2,6.87211E2,1.8324608E3,3.30076E3,1.3143934E4,6.807886E1,4.6502597E2],"tree_param":{"num_deleted":"0","num_feature":"10","num_nodes":"27","size_leaf_vector":"1"}},{"base_weights":[-7.5278184E-3,-1.0713614E0,1.1770018E-1,-9.0222096E-1,-3.4562282E-2,-2.7188057E-1,2.1085845E-1,-5.35102E-1,-9.908554E-1,-4.004563E-1,-1.6041641E-1,2.5172812E-1,-1.1295875E-1,5.1407557E-4,-9.009002E-1,-1.0169221E0,-1.488308E-3,-4.6432394E-1,-5.487866E-2,-8.9344186E-1,-1.3099788E-1,9.487358E-2,2.9130054E-1,-6.982406E-2,-5.7927805E-1,-2.3150122E-2,1.6403878E-2,-4.7701043E-3,-3.630465E-2,-2.9392667E-2,-4.000981E-2,-2.41494E-2,-1.2448338E-2,-1.5093094E-4,-4.4423435E-2,-1.1733349E-2,-3.6771804E-2,-8.173941E-3,-1.7621765E-3,1.111872E-2,1.0387276E-3,9.646431E-3,-4.1289604E-3,8.0581463E-4,-6.7527764E-3,1.591833E-2,-2.3320107E-2],"categories":[],"categories_nodes":[],"categories_segments":[],"categories_sizes":[],"default_left":[0,0,0,0,0,0,0,0,0,0,0,0,0,0,0,0,0,0,0,0,0,0,0,0,0,0,0,0,0,0,0,0,0,0,0,0,0,0,0,0,0,0,0,0,0,0,0],"id":39,"left_children":[1,3,5,7,-1,9,11,13,15,17,19,21,23,25,27,29,-1,31,33,35,37,39,41,43,45,-1,-1,-1,-1,-1,-1,-1,-1,-1,-1,-1,-1,-1,-1,-1,-1,-1,-1,-1,-1,-1,-1],"loss_changes":[3.367072E3,1.5888428E1,8.2072363E2,1.536676E1,0E0,6.2481018E1,2.4154498E2,1.9041855E1,9.597076E0,4.4687653E1,5.0328827E1,1.005553E2,4.1110863E1,1.6193348E1,1.12178E1,6.315094E0,0E0,3.416147E1,2.1738813E1,1.2891464E1,2.197651E1,5.262515E1,9.97793E1,2.632842E1,3.2248142E1,0E0,0E0,0E0,0E0,0E0,0E0,0E0,0E0,0E0,0E0,0E0,0E0,0E0,0E0,0E0,0E0,0E0,0E0,0E0,0E0,0E0,0E0],"parents":[2147483647,0,0,1,1,2,2,3,3,5,5,6,6,7,7,8,8,9,9,10,10,11,11,12,12,13,13,14,14,15,15,17,17,18,18,19,19,20,20,21,21,22,22,23,23,24,24],"right_children":[2,4,6,8,-1,10,12,14,16,18,20,22,24,26,28,30,-1,32,34,36,38,40,42,44,46,-1,-1,-1,-1,-1,-1,-1,-1,-1,-1,-1,-1,-1,-1,-1,-1,-1,-1,-1,-1,-1,-1],"split_conditions":[1E0,1.0004E3,2.9E1,6.3E1,-3.4562282E-2,1E0,6.2E1,3E1,9.7385E2,2.7E1,2.1E1,1.8E1,4.5E1,1E0,9E0,4.8E1,-1.488308E-3,1.1E1,4.9E1,1.13055E3,2.8E1,3.6E1,4.8E1,7E1,4.3E1,-2.3150122E-2,1.6403878E-2,-4.7701043E-3,-3.630465E-2,-2.9392667E-2,-4.000981E-2,-2.41494E-2,-1.2448338E-2,-1.5093094E-4,-4.4423435E-2,-1.1733349E-2,-3.6771804E-2,-8.173941E-3,-1.7621765E-3,1.111872E-2,1.0387276E-3,9.646431E-3,-4.1289604E-3,8.0581463E-4,-6.7527764E-3,1.591833E-2,-2.3320107E-2],"split_indices":[6,7,1,9,0,0,1,1,7,1,1,3,3,0,3,1,0,3,3,7,3,1,3,1,9,0,0,0,0,0,0,0,0,0,0,0,0,0,0,0,0,0,0,0,0,0,0],"split_type":[0,0,0,0,0,0,0,0,0,0,0,0,0,0,0,0,0,0,0,0,0,0,0,0,0,0,0,0,0,0,0,0,0,0,0,0,0,0,0,0,0,0,0,0,0,0,0],"sum_hessian":[2.5272244E4,2.6607927E3,2.2611451E4,4.8754596E2,2.1732466E3,4.363155E3,1.8248297E4,9.618595E1,3.9136E2,2.0248568E3,2.3382979E3,1.6203448E4,2.0448489E3,3.943795E1,5.6748E1,3.8075787E2,1.0602138E1,1.708718E3,3.1613882E2,8.908886E1,2.249209E3,3.2650525E3,1.29383955E4,1.872767E3,1.7208186E2,1.6168812E1,2.3269138E1,1.5212771E1,4.153523E1,3.016968E2,7.906104E1,2.9368866E2,1.4150293E3,3.059705E2,1.0168327E1,3.2578365E1,5.651049E1,8.1323517E2,1.4359739E3,6.204742E2,2.6445784E3,1.2406162E4,5.322333E2,1.134389E3,7.383779E2,2.2817053E1,1.492648E2],"tree_param":{"num_deleted":"0","num_feature":"10","num_nodes":"47","size_leaf_vector":"1"}},{"base_weights":[7.702928E-4,1.1688881E-1,-3.718832E-2,-2.751747E-1,2.0264633E-1,6.495662E-2,-3.2647285E-1,2.4782485E-1,-6.657939E-2,2.1321063E-1,-1.7309633E-1,-3.4005716E-1,5.807939E-1,2.9838914E-1,9.423974E-2,2.9367488E-2,-3.0075896E-1,-5.592564E-4,1.33686E-2,-1.4727032E-2,1.0669357E-2,-9.055295E-3,-1.9160558E-2,2.6514694E-2,-7.1116714E-3,8.263975E-3,1.9938944E-2,-1.0923312E-2,1.1666382E-2,-1.4457096E-3,1.2230819E-2,-7.1026366E-3,-2.5056574E-2],"categories":[],"categories_nodes":[],"categories_segments":[],"categories_sizes":[],"default_left":[0,0,0,0,0,0,0,0,0,0,0,0,0,0,0,0,0,0,0,0,0,0,0,0,0,0,0,0,0,0,0,0,0],"id":40,"left_children":[1,3,-1,5,7,9,11,13,15,17,19,21,23,25,27,29,31,-1,-1,-1,-1,-1,-1,-1,-1,-1,-1,-1,-1,-1,-1,-1,-1],"loss_changes":[3.5162908E3,7.7726074E2,0E0,7.241583E1,2.3072302E2,1.9256832E1,4.463449E1,1.2610748E2,6.1266468E1,1.6762552E1,3.249773E1,4.8161987E1,1.1887293E1,1.3851318E2,5.013282E2,5.3228123E1,2.8876572E1,0E0,0E0,0E0,0E0,0E0,0E0,0E0,0E0,0E0,0E0,0E0,0E0,0E0,0E0,0E0,0E0],"parents":[2147483647,0,0,1,1,3,3,4,4,5,5,6,6,7,7,8,8,9,9,10,10,11,11,12,12,13,13,14,14,15,15,16,16],"right_children":[2,4,-1,6,8,10,12,14,16,18,20,22,24,26,28,30,32,-1,-1,-1,-1,-1,-1,-1,-1,-1,-1,-1,-1,-1,-1,-1,-1],"split_conditions":[1E0,2.8E1,-3.718832E-2,1.52E2,5.9E1,1.76E2,1.63E2,1.25E2,7E1,9.8E1,2.6E2,1.58E2,2.06E2,2E0,1.54E2,2E0,2.58E2,-5.592564E-4,1.33686E-2,-1.4727032E-2,1.0669357E-2,-9.055295E-3,-1.9160558E-2,2.6514694E-2,-7.1116714E-3,8.263975E-3,1.9938944E-2,-1.0923312E-2,1.1666382E-2,-1.4457096E-3,1.2230819E-2,-7.1026366E-3,-2.5056574E-2],"split_indices":[4,1,0,8,1,9,8,8,1,9,9,8,9,5,8,5,9,0,0,0,0,0,0,0,0,0,0,0,0,0,0,0,0],"split_type":[0,0,0,0,0,0,0,0,0,0,0,0,0,0,0,0,0,0,0,0,0,0,0,0,0,0,0,0,0,0,0,0,0],"sum_hessian":[2.536193E4,2.3114693E4,2.2472363E3,4.1481416E3,1.8966553E4,5.4359265E2,3.6045488E3,1.624121E4,2.7253425E3,3.3504105E2,2.0855165E2,3.551991E3,5.2558094E1,1.2217833E4,4.0233772E3,1.9338782E3,7.9146423E2,1.6216933E2,1.728717E2,1.3197264E2,7.6578995E1,3.0110608E3,5.4093E2,3.9371387E1,1.31867075E1,1.1134799E4,1.0830343E3,1.5546041E3,2.468773E3,